{"learner":{"attributes":{"scikit_learn":"{\"_estimator_type\": \"regressor\"}"},"feature_names":["IREG_UBUS","IREG_IBUS","IREG_PWM","windspeed"],"feature_types":["float","float","float","float"],"gradient_booster":{"model":{"gbtree_model_param":{"num_parallel_tree":"1","num_trees":"100"},"iteration_indptr":[0,1,2,3,4,5,6,7,8,9,10,11,12,13,14,15,16,17,18,19,20,21,22,23,24,25,26,27,28,29,30,31,32,33,34,35,36,37,38,39,40,41,42,43,44,45,46,47,48,49,50,51,52,53,54,55,56,57,58,59,60,61,62,63,64,65,66,67,68,69,70,71,72,73,74,75,76,77,78,79,80,81,82,83,84,85,86,87,88,89,90,91,92,93,94,95,96,97,98,99,100],"tree_info":[0,0,0,0,0,0,0,0,0,0,0,0,0,0,0,0,0,0,0,0,0,0,0,0,0,0,0,0,0,0,0,0,0,0,0,0,0,0,0,0,0,0,0,0,0,0,0,0,0,0,0,0,0,0,0,0,0,0,0,0,0,0,0,0,0,0,0,0,0,0,0,0,0,0,0,0,0,0,0,0,0,0,0,0,0,0,0,0,0,0,0,0,0,0,0,0,0,0,0,0],"trees":[{"base_weights":[-8.496574E-9,-1.4080032E0,2.6728618E-1,-2.2301855E0,-7.838998E-1,8.081431E-1,-7.352781E-2,-9.1956514E-1,-2.3420568E0,5.6974506E-1,-9.476381E-1,5.5315185E-1,1.2329835E0,-1.8553033E-1,7.38625E-1,-1.4754899E0,1.3794535E-1,-2.73187E0,-1.9888107E0,1.4325891E-1,7.3865414E-1,-6.796533E-1,-1.2460548E0,3.7528038E-1,6.870183E-1,1.0717002E0,1.4733601E0,-8.3271675E-2,-1.4789841E0,8.9659834E-1,-3.5513568E-1,-1.7617514E0,-7.362329E-1,5.5765134E-1,-5.054081E-1,-3.9050665E-1,-2.7503996E0,-2.1396732E0,-1.7540693E0,3.5957706E-1,-3.613968E-1,3.4614378E-1,9.1540647E-1,-6.952183E-1,-1.1135693E-1,-4.4985288E-1,-1.1300527E0,9.405592E-1,3.241932E-1,5.9995925E-1,7.8414714E-1,4.2800778E-1,1.0930325E0,7.2685385E-1,1.5066026E0,-3.2724577E-1,1.3984282E-1,-2.0216017E0,-1.0870857E0,9.951367E-1,4.7108537E-1,-6.494566E-1,2.0066892E-1,-3.0070198E-1,-5.71175E-1,-3.6389402E-1,3.0478027E-2,1.91549E-2,2.3945016E-1,-2.6887724E-1,1.9407786E-2,1.548815E-1,-4.6662626E-1,-8.750352E-1,-7.5089794E-1,-6.4418167E-1,-4.6255022E-2,-3.5160214E-1,-5.36477E-1,6.767947E-2,2.0155974E-1,-4.0442497E-2,-1.19031325E-1,1.3315994E-1,3.775691E-2,3.3582732E-1,1.8039776E-1,-3.7322742E-1,-2.0134531E-1,-7.367762E-2,6.186952E-2,-3.3075845E-1,-6.207411E-1,1.7304073E-1,3.9496955E-1,-8.808986E-2,1.111078E-1,2.825059E-1,1.743601E-1,9.51668E-2,2.3791987E-1,1.8055496E-1,-1.334878E-2,2.982946E-1,3.6069524E-1,3.011437E-1,1.5146679E-1,4.2157274E-1,4.7333595E-1,-8.827695E-2,-3.728189E-1,-1.8523818E-1,5.2328326E-2,-7.442694E-1,-5.5422926E-1,-2.1412238E-1,-4.372563E-1,2.0348984E-1,3.2266372E-1,7.409373E-2,2.894046E-1,-2.60761E-1,-6.012589E-2,1.2506862E-1,-8.6802155E-2],"categories":[],"categories_nodes":[],"categories_segments":[],"categories_sizes":[],"default_left":[0,0,0,0,0,0,0,0,0,0,0,0,0,0,0,0,0,0,0,0,0,0,0,0,0,0,0,0,0,0,0,0,0,0,0,0,0,0,0,0,0,0,0,0,0,0,0,0,0,0,0,0,0,0,0,0,0,0,0,0,0,0,0,0,0,0,0,0,0,0,0,0,0,0,0,0,0,0,0,0,0,0,0,0,0,0,0,0,0,0,0,0,0,0,0,0,0,0,0,0,0,0,0,0,0,0,0,0,0,0,0,0,0,0,0,0,0,0,0,0,0,0,0,0,0],"id":0,"left_children":[1,3,5,7,9,11,13,15,17,19,21,23,25,27,29,31,33,35,37,39,41,43,45,47,49,51,53,55,57,59,61,63,65,67,69,71,73,75,77,79,81,83,85,87,89,-1,91,93,95,97,99,101,103,105,107,109,111,113,115,117,119,121,123,-1,-1,-1,-1,-1,-1,-1,-1,-1,-1,-1,-1,-1,-1,-1,-1,-1,-1,-1,-1,-1,-1,-1,-1,-1,-1,-1,-1,-1,-1,-1,-1,-1,-1,-1,-1,-1,-1,-1,-1,-1,-1,-1,-1,-1,-1,-1,-1,-1,-1,-1,-1,-1,-1,-1,-1,-1,-1,-1,-1,-1,-1],"loss_changes":[4.5454326E3,9.870476E2,1.8712095E3,1.1968799E2,2.4368292E2,4.2440698E2,5.6665564E2,3.9592583E1,9.990723E1,8.466625E0,7.7444824E1,5.8174377E1,5.544995E1,7.239056E2,1.3077109E2,8.014267E0,6.762305E0,1.45876465E1,1.0589355E1,3.9507663E0,5.5801964E0,4.504593E0,1.1888794E1,3.0190765E1,1.1359436E1,1.1670715E1,1.3496582E1,2.762447E2,8.307532E1,2.720465E1,1.5834479E1,1.438446E0,5.7152705E0,1.7305441E0,2.2862158E0,5.0282946E0,7.436035E0,3.3200684E0,1.167633E0,8.944299E-1,3.468144E-2,5.4689455E-1,3.0433846E0,5.82283E0,6.901222E-1,0E0,6.0159607E0,1.1139999E1,2.7775688E1,4.2092285E0,2.488678E0,2.4910102E0,8.028564E0,1.1530104E0,1.8377686E0,7.284186E1,6.954078E1,8.776062E0,3.1460205E1,1.2900391E1,1.3699627E1,6.0422783E0,3.7230268E0,0E0,0E0,0E0,0E0,0E0,0E0,0E0,0E0,0E0,0E0,0E0,0E0,0E0,0E0,0E0,0E0,0E0,0E0,0E0,0E0,0E0,0E0,0E0,0E0,0E0,0E0,0E0,0E0,0E0,0E0,0E0,0E0,0E0,0E0,0E0,0E0,0E0,0E0,0E0,0E0,0E0,0E0,0E0,0E0,0E0,0E0,0E0,0E0,0E0,0E0,0E0,0E0,0E0,0E0,0E0,0E0,0E0,0E0,0E0,0E0,0E0,0E0],"parents":[2147483647,0,0,1,1,2,2,3,3,4,4,5,5,6,6,7,7,8,8,9,9,10,10,11,11,12,12,13,13,14,14,15,15,16,16,17,17,18,18,19,19,20,20,21,21,22,22,23,23,24,24,25,25,26,26,27,27,28,28,29,29,30,30,31,31,32,32,33,33,34,34,35,35,36,36,37,37,38,38,39,39,40,40,41,41,42,42,43,43,44,44,46,46,47,47,48,48,49,49,50,50,51,51,52,52,53,53,54,54,55,55,56,56,57,57,58,58,59,59,60,60,61,61,62,62],"right_children":[2,4,6,8,10,12,14,16,18,20,22,24,26,28,30,32,34,36,38,40,42,44,46,48,50,52,54,56,58,60,62,64,66,68,70,72,74,76,78,80,82,84,86,88,90,-1,92,94,96,98,100,102,104,106,108,110,112,114,116,118,120,122,124,-1,-1,-1,-1,-1,-1,-1,-1,-1,-1,-1,-1,-1,-1,-1,-1,-1,-1,-1,-1,-1,-1,-1,-1,-1,-1,-1,-1,-1,-1,-1,-1,-1,-1,-1,-1,-1,-1,-1,-1,-1,-1,-1,-1,-1,-1,-1,-1,-1,-1,-1,-1,-1,-1,-1,-1,-1,-1,-1,-1,-1,-1],"split_conditions":[-9.367733E-1,-1.1961887E0,-1.1425057E-1,-2.5733154E0,-1.3437829E0,5.347381E-1,1.7826157E0,-1.3080057E0,-1.2811695E0,-1.1380439E0,2.9559356E-1,1.0088827E-1,1.0021331E0,1.9349701E0,2.9595804E0,2.1805365E-1,-3.3930037E0,-3.498764E0,-1.2364428E0,-2.5733154E0,-2.709181E0,8.535717E-1,-1.0977898E0,-1.3437829E0,3.2004955E-1,-1.765533E0,-2.073663E0,-4.626693E-1,7.091726E-1,2.3448143E0,2.3942215E0,-1.1180042E1,-1.3527324E0,-1.2520971E0,-1.2342064E0,-1.3527324E0,-3.1917262E-1,1.9127685E0,-3.1917262E-1,-1.5536937E0,-3.1136014E0,-2.3683932E0,-2.3683932E0,-1.1648799E0,-1.0687174E0,-4.4985288E-1,1.1152818E0,-2.3047605E0,-9.181756E-1,-7.290168E-1,-2.073663E0,-5.240947E-1,7.494267E-1,-7.290168E-1,1.198931E0,2.9559356E-1,-8.0262685E-1,-5.56555E-2,2.9595804E0,-5.715294E-1,3.2415788E0,2.3260462E0,3.3694246E0,-3.0070198E-1,-5.71175E-1,-3.6389402E-1,3.0478027E-2,1.91549E-2,2.3945016E-1,-2.6887724E-1,1.9407786E-2,1.548815E-1,-4.6662626E-1,-8.750352E-1,-7.5089794E-1,-6.4418167E-1,-4.6255022E-2,-3.5160214E-1,-5.36477E-1,6.767947E-2,2.0155974E-1,-4.0442497E-2,-1.19031325E-1,1.3315994E-1,3.775691E-2,3.3582732E-1,1.8039776E-1,-3.7322742E-1,-2.0134531E-1,-7.367762E-2,6.186952E-2,-3.3075845E-1,-6.207411E-1,1.7304073E-1,3.9496955E-1,-8.808986E-2,1.111078E-1,2.825059E-1,1.743601E-1,9.51668E-2,2.3791987E-1,1.8055496E-1,-1.334878E-2,2.982946E-1,3.6069524E-1,3.011437E-1,1.5146679E-1,4.2157274E-1,4.7333595E-1,-8.827695E-2,-3.728189E-1,-1.8523818E-1,5.2328326E-2,-7.442694E-1,-5.5422926E-1,-2.1412238E-1,-4.372563E-1,2.0348984E-1,3.2266372E-1,7.409373E-2,2.894046E-1,-2.60761E-1,-6.012589E-2,1.2506862E-1,-8.6802155E-2],"split_indices":[1,1,2,2,2,1,1,1,1,1,2,1,1,2,2,0,2,0,1,2,0,0,1,2,1,0,0,1,1,2,0,2,1,1,1,1,2,0,2,0,0,2,2,1,1,0,2,0,0,2,0,2,1,2,1,2,0,1,2,0,0,1,2,0,0,0,0,0,0,0,0,0,0,0,0,0,0,0,0,0,0,0,0,0,0,0,0,0,0,0,0,0,0,0,0,0,0,0,0,0,0,0,0,0,0,0,0,0,0,0,0,0,0,0,0,0,0,0,0,0,0,0,0,0,0],"split_type":[0,0,0,0,0,0,0,0,0,0,0,0,0,0,0,0,0,0,0,0,0,0,0,0,0,0,0,0,0,0,0,0,0,0,0,0,0,0,0,0,0,0,0,0,0,0,0,0,0,0,0,0,0,0,0,0,0,0,0,0,0,0,0,0,0,0,0,0,0,0,0,0,0,0,0,0,0,0,0,0,0,0,0,0,0,0,0,0,0,0,0,0,0,0,0,0,0,0,0,0,0,0,0,0,0,0,0,0,0,0,0,0,0,0,0,0,0,0,0,0,0,0,0,0,0],"sum_hessian":[1.2076E4,1.926E3,1.015E4,8.3E2,1.096E3,3.923E3,6.227E3,6.6E1,7.64E2,1.18E2,9.78E2,2.453E3,1.47E3,5.473E3,7.54E2,4.3E1,2.3E1,3.6E2,4.04E2,3.4E1,8.4E1,5.17E2,4.61E2,1.055E3,1.398E3,8.83E2,5.87E2,5.073E3,4E2,6.59E2,9.5E1,3E1,1.3E1,1.4E1,9E0,3E0,3.57E2,2.41E2,1.63E2,2.4E1,1E1,2.7E1,5.7E1,5.03E2,1.4E1,1.41E2,3.2E2,8.6E1,9.69E2,7.41E2,6.57E2,2.9E1,8.54E2,2.6E1,5.61E2,2.423E3,2.65E3,1.66E2,2.34E2,5.34E2,1.25E2,6.2E1,3.3E1,6E0,2.4E1,8E0,5E0,5E0,9E0,5E0,4E0,2E0,1E0,2.07E2,1.5E2,2.4E2,1E0,1.1E1,1.52E2,1.8E1,6E0,2E0,8E0,1.8E1,9E0,3.3E1,2.4E1,1.9E1,4.84E2,1E1,4E0,3.13E2,7E0,4.5E1,4.1E1,6.7E1,9.02E2,3.6E1,7.05E2,1.3E1,6.44E2,2.1E1,8E0,4.54E2,4E2,1E1,1.6E1,2.4E2,3.21E2,2.34E3,8.3E1,1.15E2,2.535E3,4.2E1,1.24E2,1.18E2,1.16E2,1.1E2,4.24E2,8.7E1,3.8E1,4.1E1,2.1E1,2.3E1,1E1],"tree_param":{"num_deleted":"0","num_feature":"4","num_nodes":"125","size_leaf_vector":"1"}},{"base_weights":[-3.548311E-4,-7.026431E-1,2.6897636E-1,-1.5668006E0,-4.1717145E-1,5.734647E-1,2.886073E-2,-7.0813984E-1,-1.6498029E0,-2.90927E-1,-8.8903E-1,4.11925E-1,9.011805E-1,8.95587E-2,-8.1140494E-1,-9.854218E-1,2.2466551E-1,-1.8628218E0,-1.3314924E0,4.516518E-1,-3.5528713E-1,-1.8126656E0,-8.4173226E-1,3.0239418E-1,5.418234E-1,7.858224E-1,1.0336437E0,-2.379776E-2,5.821284E-1,-1.3430427E0,-2.1322294E-1,-1.2100103E0,-3.725902E-1,5.8266205E-1,-1.9807126E-1,-1.9924544E0,-5.037621E-1,-1.2931093E0,-6.1272895E-1,3.1303534E-1,7.753116E-1,-4.4069868E-1,-2.545421E-1,-1.2739317E-1,-5.558419E-1,-8.63326E-1,-1.9659137E-2,6.3097215E-1,2.6860192E-1,4.8942897E-1,6.1683774E-1,3.9545247E-1,8.056639E-1,5.7709163E-1,1.0632542E0,4.32947E-2,-8.9086574E-1,8.026927E-1,4.2066136E-1,-1.6750447E0,-1.0806109E0,-3.8596418E-1,3.7330246E-1,-6.093081E-1,-3.2104182E-1,-2.3700993E-1,-4.1308257E-4,3.0560333E-2,2.0703815E-1,-1.217084E-1,1.4749916E-2,1.239052E-1,-6.038344E-1,-4.1102445E-1,-3.4841606E-1,1.1207371E-1,-1.5250099E-2,2.7093628E-1,4.0597577E-2,-1.685567E-1,-1.2053033E-1,-9.197685E-2,-6.5708704E-2,-2.022362E-1,-2.886896E-1,5.4564632E-2,-2.4578132E-1,1.0778807E-1,2.6432058E-1,1.6717598E-2,9.472226E-2,2.0406608E-2,1.497604E-1,2.7650733E-2,1.8631327E-1,1.5941669E-1,3.7359003E-2,2.2666277E-1,2.6509812E-1,2.3555277E-1,1.2689807E-1,3.001645E-1,3.4042498E-1,-1.2336018E-2,8.303936E-2,-3.400452E-1,-1.1096404E-1,1.8105522E-1,2.9479924E-1,2.2041041E-2,2.0187216E-1,-5.162384E-1,-2.9543698E-1,-3.7829313E-1,-2.6014462E-1,-1.6836956E-1,-9.086994E-3,-3.126843E-2,1.5403867E-1],"categories":[],"categories_nodes":[],"categories_segments":[],"categories_sizes":[],"default_left":[0,0,0,0,0,0,0,0,0,0,0,0,0,0,0,0,0,0,0,0,0,0,0,0,0,0,0,0,0,0,0,0,0,0,0,0,0,0,0,0,0,0,0,0,0,0,0,0,0,0,0,0,0,0,0,0,0,0,0,0,0,0,0,0,0,0,0,0,0,0,0,0,0,0,0,0,0,0,0,0,0,0,0,0,0,0,0,0,0,0,0,0,0,0,0,0,0,0,0,0,0,0,0,0,0,0,0,0,0,0,0,0,0,0,0,0,0,0,0],"id":1,"left_children":[1,3,5,7,9,11,13,15,17,19,21,23,25,27,29,31,33,35,37,39,41,43,45,47,49,51,53,55,57,59,61,63,65,67,69,71,-1,73,-1,75,77,79,81,-1,-1,83,85,87,89,91,93,95,97,99,101,103,105,107,109,111,113,115,117,-1,-1,-1,-1,-1,-1,-1,-1,-1,-1,-1,-1,-1,-1,-1,-1,-1,-1,-1,-1,-1,-1,-1,-1,-1,-1,-1,-1,-1,-1,-1,-1,-1,-1,-1,-1,-1,-1,-1,-1,-1,-1,-1,-1,-1,-1,-1,-1,-1,-1,-1,-1,-1,-1,-1,-1],"loss_changes":[2.2845312E3,8.252728E2,6.3825476E2,5.805774E1,1.497374E2,2.0339148E2,2.4906648E2,1.9620148E1,4.8848877E1,9.5171936E1,2.1671387E1,3.6544098E1,1.8594238E1,2.542908E2,1.0434094E2,7.53199E0,2.8394978E0,7.389282E0,5.736389E0,6.8907623E0,1.56345825E1,6.061249E-1,8.983093E0,1.5397461E1,4.33197E0,4.9715576E0,7.335388E0,2.1545587E2,3.000534E1,1.3350189E1,1.5949554E1,2.6496391E0,2.6332376E0,4.4638443E-1,4.8193738E-1,1.3495117E1,0E0,1.3896179E0,0E0,2.508377E0,3.722208E0,4.4391174E0,1.4891701E0,0E0,0E0,8.60202E0,2.4051774E0,8.516396E0,1.2756676E1,2.8446198E0,1.0043335E0,1.222815E0,1.8695068E0,8.863611E-1,1.3348999E0,6.777818E1,3.320331E1,1.2275635E1,4.3213875E1,6.7381287E-1,2.7566757E0,7.525921E0,2.463017E0,0E0,0E0,0E0,0E0,0E0,0E0,0E0,0E0,0E0,0E0,0E0,0E0,0E0,0E0,0E0,0E0,0E0,0E0,0E0,0E0,0E0,0E0,0E0,0E0,0E0,0E0,0E0,0E0,0E0,0E0,0E0,0E0,0E0,0E0,0E0,0E0,0E0,0E0,0E0,0E0,0E0,0E0,0E0,0E0,0E0,0E0,0E0,0E0,0E0,0E0,0E0,0E0,0E0,0E0,0E0,0E0],"parents":[2147483647,0,0,1,1,2,2,3,3,4,4,5,5,6,6,7,7,8,8,9,9,10,10,11,11,12,12,13,13,14,14,15,15,16,16,17,17,18,18,19,19,20,20,21,21,22,22,23,23,24,24,25,25,26,26,27,27,28,28,29,29,30,30,31,31,32,32,33,33,34,34,35,35,37,37,39,39,40,40,41,41,42,42,45,45,46,46,47,47,48,48,49,49,50,50,51,51,52,52,53,53,54,54,55,55,56,56,57,57,58,58,59,59,60,60,61,61,62,62],"right_children":[2,4,6,8,10,12,14,16,18,20,22,24,26,28,30,32,34,36,38,40,42,44,46,48,50,52,54,56,58,60,62,64,66,68,70,72,-1,74,-1,76,78,80,82,-1,-1,84,86,88,90,92,94,96,98,100,102,104,106,108,110,112,114,116,118,-1,-1,-1,-1,-1,-1,-1,-1,-1,-1,-1,-1,-1,-1,-1,-1,-1,-1,-1,-1,-1,-1,-1,-1,-1,-1,-1,-1,-1,-1,-1,-1,-1,-1,-1,-1,-1,-1,-1,-1,-1,-1,-1,-1,-1,-1,-1,-1,-1,-1,-1,-1,-1,-1,-1,-1],"split_conditions":[-6.527582E-1,-1.1961887E0,-1.1425057E-1,-1.7536271E0,2.9559356E-1,6.1524636E-1,2.7546585E0,-1.2520971E0,-1.2677516E0,-1.3437829E0,-5.715294E-1,2.1941426E-1,1.0021331E0,1.2615485E0,1.554509E0,2.9508615E-1,-3.3930037E0,-1.2945876E0,7.054377E-1,-1.0144662E0,-8.2272E-1,-2.6915224E0,1.5468642E0,-7.290168E-1,4.4081187E-1,-1.0144662E0,-1.5536937E0,1.1152818E0,1.3202039E0,8.2993495E-1,2.6391337E0,-1.9388561E0,-1.3527324E0,-1.9388561E0,-1.2230247E0,-3.498764E0,-5.037621E-1,-1.2342064E0,-6.1272895E-1,-1.9585491E0,-1.548705E0,-1.0083362E0,-7.4668443E-1,-1.2739317E-1,-5.558419E-1,5.0051564E-1,1.525126E0,-1.5536937E0,-1.2498203E-1,-2.073663E0,-2.9210203E0,-5.240947E-1,8.2993495E-1,-7.290168E-1,1.2615485E0,-1.7865418E-1,8.9208794E-1,8.32468E-2,2.3260462E0,3.2415788E0,8.9208794E-1,2.5675447E0,-5.1560063E-2,-6.093081E-1,-3.2104182E-1,-2.3700993E-1,-4.1308257E-4,3.0560333E-2,2.0703815E-1,-1.217084E-1,1.4749916E-2,1.239052E-1,-6.038344E-1,-4.1102445E-1,-3.4841606E-1,1.1207371E-1,-1.5250099E-2,2.7093628E-1,4.0597577E-2,-1.685567E-1,-1.2053033E-1,-9.197685E-2,-6.5708704E-2,-2.022362E-1,-2.886896E-1,5.4564632E-2,-2.4578132E-1,1.0778807E-1,2.6432058E-1,1.6717598E-2,9.472226E-2,2.0406608E-2,1.497604E-1,2.7650733E-2,1.8631327E-1,1.5941669E-1,3.7359003E-2,2.2666277E-1,2.6509812E-1,2.3555277E-1,1.2689807E-1,3.001645E-1,3.4042498E-1,-1.2336018E-2,8.303936E-2,-3.400452E-1,-1.1096404E-1,1.8105522E-1,2.9479924E-1,2.2041041E-2,2.0187216E-1,-5.162384E-1,-2.9543698E-1,-3.7829313E-1,-2.6014462E-1,-1.6836956E-1,-9.086994E-3,-3.126843E-2,1.5403867E-1],"split_indices":[1,1,2,2,2,1,2,1,1,2,0,1,1,1,1,0,2,1,2,0,1,3,0,2,1,0,0,2,2,1,1,0,1,0,1,0,0,1,0,2,2,1,1,0,0,2,2,0,1,0,0,2,1,2,1,1,0,0,1,0,0,0,0,0,0,0,0,0,0,0,0,0,0,0,0,0,0,0,0,0,0,0,0,0,0,0,0,0,0,0,0,0,0,0,0,0,0,0,0,0,0,0,0,0,0,0,0,0,0,0,0,0,0,0,0,0,0,0,0],"split_type":[0,0,0,0,0,0,0,0,0,0,0,0,0,0,0,0,0,0,0,0,0,0,0,0,0,0,0,0,0,0,0,0,0,0,0,0,0,0,0,0,0,0,0,0,0,0,0,0,0,0,0,0,0,0,0,0,0,0,0,0,0,0,0,0,0,0,0,0,0,0,0,0,0,0,0,0,0,0,0,0,0,0,0,0,0,0,0,0,0,0,0,0,0,0,0,0,0,0,0,0,0,0,0,0,0,0,0,0,0,0,0,0,0,0,0,0,0,0,0],"sum_hessian":[1.2076E4,3.347E3,8.729E3,8.3E2,2.517E3,3.848E3,4.881E3,7.4E1,7.56E2,1.987E3,5.3E2,2.579E3,1.269E3,4.553E3,3.28E2,5.7E1,1.7E1,4.5E2,3.06E2,1.58E2,1.829E3,2.4E1,5.06E2,1.401E3,1.178E3,6.82E2,5.87E2,3.702E3,8.51E2,1.73E2,1.55E2,4.1E1,1.6E1,9E0,8E0,2.58E2,1.92E2,2.93E2,1.3E1,1.12E2,4.6E1,9.88E2,8.41E2,1E0,2.3E1,4.93E2,1.3E1,1.29E2,1.272E3,6.98E2,4.8E2,3.4E1,6.48E2,3.7E1,5.5E2,3.437E3,2.65E2,3.58E2,4.93E2,7.4E1,9.9E1,1.2E2,3.5E1,4E0,3.7E1,7E0,9E0,2E0,7E0,4E0,4E0,2E0,2.56E2,1.79E2,1.14E2,9.6E1,1.6E1,3.8E1,8E0,2.37E2,7.51E2,3.38E2,5.03E2,1.72E2,3.21E2,1.1E1,2E0,6.3E1,6.6E1,2.31E2,1.041E3,1.6E1,6.82E2,4E0,4.76E2,2.2E1,1.2E1,4.01E2,2.47E2,1.4E1,2.3E1,3.01E2,2.49E2,2.525E3,9.12E2,1.8E2,8.5E1,1.72E2,1.86E2,2.08E2,2.85E2,6.8E1,6E0,5.1E1,4.8E1,8E1,4E1,8E0,2.7E1],"tree_param":{"num_deleted":"0","num_feature":"4","num_nodes":"119","size_leaf_vector":"1"}},{"base_weights":[-5.3180277E-4,-4.641954E-1,2.0232798E-1,-1.0756646E0,-2.6731217E-1,4.0346858E-1,3.309461E-2,-1.2307539E0,-8.0895966E-1,-1.9189557E-1,-6.1451066E-1,2.646085E-1,5.9089094E-1,7.968742E-2,-5.688774E-1,-5.4267114E-1,-1.2836578E0,1.9529325E-1,-8.8085926E-1,2.986367E-1,-2.3521008E-1,-5.598518E-1,-1.2074351E0,1.6576612E-1,3.2058102E-1,4.87585E-1,6.9423246E-1,-1.1561302E-2,3.8744012E-1,-9.3393266E-1,-1.3477993E-1,-8.0690575E-1,4.3434195E-2,-1.4984826E0,-1.1980819E0,3.7008694E-1,-1.17728785E-1,-8.914498E-1,-1.9569373E-1,1.8283707E-1,5.3293365E-1,-3.2333922E-1,-1.7332241E-1,-5.772647E-1,2.7448958E-1,-4.050223E-1,-3.2174864E-1,5.494448E-1,1.3335226E-1,5.324594E-1,3.0992982E-1,1.780191E-1,4.958963E-1,4.487821E-1,7.1963507E-1,4.3111864E-2,-7.080213E-1,1.8213211E-1,5.6290096E-1,-1.0995928E0,-6.430691E-1,6.354859E-2,-4.629629E-1,-1.2140212E-1,-3.4660324E-1,1.676922E-1,-6.560374E-2,9.9124156E-2,-4.5791164E-1,-3.5413125E-1,-4.7213402E-1,3.9498914E-2,1.4283977E-1,7.855457E-3,-5.8214925E-2,-2.6105052E-1,-4.296705E-1,-1.5136138E-1,2.5458843E-2,-3.5915773E-2,7.6560155E-2,9.210151E-2,2.0759846E-1,-9.870324E-2,7.5982556E-2,-2.4766792E-1,-5.1161077E-2,-1.3516608E-1,-1.9580205E-1,1.586419E-1,-7.175614E-2,1.3332303E-2,-1.8225035E-1,4.9624022E-2,2.1083675E-1,-9.015398E-2,4.4689354E-2,4.9436953E-2,2.3019747E-1,-1.19500635E-2,9.457421E-2,1.309171E-1,-5.774227E-3,1.3799588E-1,1.6370673E-1,8.295833E-2,1.8050636E-1,1.9604604E-1,2.3698212E-1,-1.0399549E-2,4.6708107E-2,-2.5289652E-1,-5.1069047E-2,1.2513766E-1,-3.7468757E-2,2.7754122E-1,1.4278056E-1,-3.4212962E-1,-1.2783869E-1,-1.4541255E-1,-2.2979131E-1,-7.16461E-2,6.203329E-2,-2.0931272E-1,-9.516483E-2],"categories":[],"categories_nodes":[],"categories_segments":[],"categories_sizes":[],"default_left":[0,0,0,0,0,0,0,0,0,0,0,0,0,0,0,0,0,0,0,0,0,0,0,0,0,0,0,0,0,0,0,0,0,0,0,0,0,0,0,0,0,0,0,0,0,0,0,0,0,0,0,0,0,0,0,0,0,0,0,0,0,0,0,0,0,0,0,0,0,0,0,0,0,0,0,0,0,0,0,0,0,0,0,0,0,0,0,0,0,0,0,0,0,0,0,0,0,0,0,0,0,0,0,0,0,0,0,0,0,0,0,0,0,0,0,0,0,0,0,0,0,0,0,0,0],"id":2,"left_children":[1,3,5,7,9,11,13,15,17,19,21,23,25,27,29,31,33,35,37,39,41,43,45,47,49,51,53,55,57,59,61,63,65,67,69,71,73,75,77,79,81,83,85,87,89,-1,91,93,95,97,99,101,103,105,107,109,111,113,115,117,119,121,123,-1,-1,-1,-1,-1,-1,-1,-1,-1,-1,-1,-1,-1,-1,-1,-1,-1,-1,-1,-1,-1,-1,-1,-1,-1,-1,-1,-1,-1,-1,-1,-1,-1,-1,-1,-1,-1,-1,-1,-1,-1,-1,-1,-1,-1,-1,-1,-1,-1,-1,-1,-1,-1,-1,-1,-1,-1,-1,-1,-1,-1,-1],"loss_changes":[1.1360408E3,4.4225885E2,2.8598822E2,3.6024292E1,7.272745E1,9.975549E1,1.2805443E2,1.983429E1,2.414418E1,4.8662506E1,1.5398651E1,1.2156982E1,1.7095093E1,1.189881E2,5.1852142E1,6.5395584E0,7.819458E0,1.3019981E0,2.0750122E0,4.9490185E0,1.1408485E1,6.783371E0,4.7452927E0,9.8759365E0,3.012497E0,2.0214996E0,4.75235E0,1.2450644E2,3.480426E1,7.8697205E0,9.857714E0,3.5969028E0,2.0140536E0,7.9003906E0,6.546631E-1,3.1656814E-1,1.0393381E-1,2.2638702E0,5.62706E-1,2.7891984E0,1.9796772E0,2.9154053E0,2.106594E0,3.977066E0,1.4328496E0,0E0,7.594753E-1,3.5348701E0,5.0504704E0,5.5728436E0,2.510376E0,1.1806632E0,1.1758575E0,1.9143724E0,2.9066467E0,2.6554438E1,1.7131508E1,3.237509E1,1.600383E1,2.594452E0,9.3273544E-1,4.1636434E0,1.7288446E0,0E0,0E0,0E0,0E0,0E0,0E0,0E0,0E0,0E0,0E0,0E0,0E0,0E0,0E0,0E0,0E0,0E0,0E0,0E0,0E0,0E0,0E0,0E0,0E0,0E0,0E0,0E0,0E0,0E0,0E0,0E0,0E0,0E0,0E0,0E0,0E0,0E0,0E0,0E0,0E0,0E0,0E0,0E0,0E0,0E0,0E0,0E0,0E0,0E0,0E0,0E0,0E0,0E0,0E0,0E0,0E0,0E0,0E0,0E0,0E0,0E0,0E0],"parents":[2147483647,0,0,1,1,2,2,3,3,4,4,5,5,6,6,7,7,8,8,9,9,10,10,11,11,12,12,13,13,14,14,15,15,16,16,17,17,18,18,19,19,20,20,21,21,22,22,23,23,24,24,25,25,26,26,27,27,28,28,29,29,30,30,31,31,32,32,33,33,34,34,35,35,36,36,37,37,38,38,39,39,40,40,41,41,42,42,43,43,44,44,46,46,47,47,48,48,49,49,50,50,51,51,52,52,53,53,54,54,55,55,56,56,57,57,58,58,59,59,60,60,61,61,62,62],"right_children":[2,4,6,8,10,12,14,16,18,20,22,24,26,28,30,32,34,36,38,40,42,44,46,48,50,52,54,56,58,60,62,64,66,68,70,72,74,76,78,80,82,84,86,88,90,-1,92,94,96,98,100,102,104,106,108,110,112,114,116,118,120,122,124,-1,-1,-1,-1,-1,-1,-1,-1,-1,-1,-1,-1,-1,-1,-1,-1,-1,-1,-1,-1,-1,-1,-1,-1,-1,-1,-1,-1,-1,-1,-1,-1,-1,-1,-1,-1,-1,-1,-1,-1,-1,-1,-1,-1,-1,-1,-1,-1,-1,-1,-1,-1,-1,-1,-1,-1,-1,-1,-1,-1,-1,-1],"split_conditions":[-5.968497E-1,-1.1827706E0,-1.1425057E-1,-1.2632788E0,2.9559356E-1,4.7882965E-1,2.7546585E0,-3.3930037E0,-2.5733154E0,-7.290168E-1,1.1152818E0,5.1688798E-2,8.522984E-1,8.768981E-1,1.6171265E0,-1.3527324E0,-1.32366E0,-3.3930037E0,1.0268948E0,-1.2840799E0,-8.4284705E-1,1.0268948E0,1.9127685E0,-9.339388E-1,-7.290168E-1,-1.9388561E0,-4.9449688E-1,9.1035974E-1,6.995067E-1,1.1340772E0,3.3694246E0,-8.311133E0,-5.4422245E0,-3.498764E0,9.0671495E-2,-1.9388561E0,8.197428E-2,7.054377E-1,-1.1961887E0,-1.1380439E0,-1.0977898E0,1.0268948E0,-2.4780836E0,5.0051564E-1,9.1035974E-1,-4.050223E-1,8.383825E-1,-2.9210203E0,-1.4188868E0,-1.765533E0,-1.0144662E0,-9.339388E-1,6.666822E-1,1.3756019E0,1.1340772E0,-2.6587144E-1,1.700929E0,1.3202039E0,9.1035974E-1,4.0889363E0,3.5743465E0,1.0268948E0,6.032161E-1,-1.2140212E-1,-3.4660324E-1,1.676922E-1,-6.560374E-2,9.9124156E-2,-4.5791164E-1,-3.5413125E-1,-4.7213402E-1,3.9498914E-2,1.4283977E-1,7.855457E-3,-5.8214925E-2,-2.6105052E-1,-4.296705E-1,-1.5136138E-1,2.5458843E-2,-3.5915773E-2,7.6560155E-2,9.210151E-2,2.0759846E-1,-9.870324E-2,7.5982556E-2,-2.4766792E-1,-5.1161077E-2,-1.3516608E-1,-1.9580205E-1,1.586419E-1,-7.175614E-2,1.3332303E-2,-1.8225035E-1,4.9624022E-2,2.1083675E-1,-9.015398E-2,4.4689354E-2,4.9436953E-2,2.3019747E-1,-1.19500635E-2,9.457421E-2,1.309171E-1,-5.774227E-3,1.3799588E-1,1.6370673E-1,8.295833E-2,1.8050636E-1,1.9604604E-1,2.3698212E-1,-1.0399549E-2,4.6708107E-2,-2.5289652E-1,-5.1069047E-2,1.2513766E-1,-3.7468757E-2,2.7754122E-1,1.4278056E-1,-3.4212962E-1,-1.2783869E-1,-1.4541255E-1,-2.2979131E-1,-7.16461E-2,6.203329E-2,-2.0931272E-1,-9.516483E-2],"split_indices":[1,1,2,1,2,1,2,2,2,2,2,1,1,1,1,1,1,2,0,0,1,0,0,2,2,0,0,2,0,1,2,2,2,0,2,0,3,2,1,1,1,0,0,2,2,0,3,0,0,0,0,2,1,1,1,1,0,2,2,0,2,0,0,0,0,0,0,0,0,0,0,0,0,0,0,0,0,0,0,0,0,0,0,0,0,0,0,0,0,0,0,0,0,0,0,0,0,0,0,0,0,0,0,0,0,0,0,0,0,0,0,0,0,0,0,0,0,0,0,0,0,0,0,0,0],"split_type":[0,0,0,0,0,0,0,0,0,0,0,0,0,0,0,0,0,0,0,0,0,0,0,0,0,0,0,0,0,0,0,0,0,0,0,0,0,0,0,0,0,0,0,0,0,0,0,0,0,0,0,0,0,0,0,0,0,0,0,0,0,0,0,0,0,0,0,0,0,0,0,0,0,0,0,0,0,0,0,0,0,0,0,0,0,0,0,0,0,0,0,0,0,0,0,0,0,0,0,0,0,0,0,0,0,0,0,0,0,0,0,0,0,0,0,0,0,0,0,0,0,0,0,0,0],"sum_hessian":[1.2076E4,3.675E3,8.401E3,8.94E2,2.781E3,3.838E3,4.563E3,5.63E2,3.31E2,2.286E3,4.95E2,2.206E3,1.632E3,4.236E3,3.27E2,4.1E1,5.22E2,2.2E1,3.09E2,1.85E2,2.101E3,4.55E2,4E1,7.99E2,1.407E3,8.19E2,8.13E2,3.268E3,9.68E2,1.77E2,1.5E2,2.8E1,1.3E1,1.44E2,3.78E2,1.4E1,8E0,3.04E2,5E0,1.25E2,6E1,8.65E2,1.236E3,4.46E2,9E0,3.4E1,6E0,6.1E1,7.38E2,6.5E1,1.342E3,2.2E1,7.97E2,7.8E1,7.35E2,3.031E3,2.37E2,4.47E2,5.21E2,1.11E2,6.6E1,9.4E1,5.6E1,1.4E1,1.4E1,4E0,9E0,2E0,1.42E2,3.65E2,1.3E1,5E0,9E0,3E0,5E0,2.95E2,9E0,2E0,3E0,2.4E1,1.01E2,2.6E1,3.4E1,8.57E2,8E0,4E0,1.232E3,1.69E2,2.77E2,6E0,3E0,3E0,3E0,1.8E1,4.3E1,2.5E1,7.13E2,2.6E1,3.9E1,2E1,1.322E3,9E0,1.3E1,4.69E2,3.28E2,3.8E1,4E1,3.84E2,3.51E2,1.793E3,1.238E3,1.89E2,4.8E1,2.53E2,1.94E2,9.9E1,4.22E2,1.04E2,7E0,3.1E1,3.5E1,3E1,6.4E1,2E1,3.6E1],"tree_param":{"num_deleted":"0","num_feature":"4","num_nodes":"125","size_leaf_vector":"1"}},{"base_weights":[-5.588307E-4,-3.3527976E-1,1.3800049E-1,-7.554631E-1,-1.9281216E-1,2.826283E-1,1.9770758E-2,-8.6427766E-1,-5.68334E-1,-1.3877507E-1,-4.2866784E-1,1.9840309E-1,4.3636838E-1,-2.79636E-2,3.454593E-1,-3.8189566E-1,-9.003719E-1,5.482167E-2,-6.2815684E-1,2.0602974E-1,-1.730613E-1,-1.0249497E0,-3.9589924E-1,1.5070015E-1,2.7836296E-1,3.757215E-1,5.065721E-1,3.8801026E-2,-4.9292815E-1,2.3321617E-1,5.8703154E-1,-4.327245E-1,-2.6021215E-1,-1.0082684E0,-8.0635256E-1,2.6303494E-1,-1.7092727E-1,-9.2022324E-1,-5.9973454E-1,5.6064196E-2,3.1666434E-1,-7.8102326E-1,-1.6827875E-1,-1.2146193E-1,-3.2733068E-1,-3.848072E-1,-8.654331E-1,3.0824593E-1,1.2963796E-1,5.5455977E-1,2.71036E-1,1.09613895E-1,3.815069E-1,2.2126584E-1,5.225572E-1,1.1655051E-3,4.152681E-1,-6.3072664E-1,-1.3352557E-1,7.498041E-1,1.6624117E-1,5.0751907E-1,2.4350478E-1,1.5573062E-1,-1.5599051E-1,1.7305964E-1,-3.0519435E-1,-3.765879E-1,-2.3715988E-1,2.2516748E-2,9.5832005E-2,-1.1676792E-1,5.355854E-3,4.117966E-4,-3.001265E-1,-1.8088308E-1,-3.105679E-2,3.341567E-2,-6.854963E-2,1.5214053E-1,4.6463788E-2,-4.3597735E-2,-2.4481495E-1,-6.359603E-2,-3.300801E-2,-1.2019283E-1,4.4146266E-2,-4.987877E-2,-3.058329E-1,6.2493887E-2,1.5600815E-1,-2.323252E-1,4.0447883E-2,2.0789169E-2,1.9592193E-1,-1.0804506E-2,8.372515E-2,5.8452036E-2,-4.0169112E-2,1.9638984E-1,1.1277882E-1,1.4647944E-3,1.0958664E-1,1.4840962E-1,1.7293827E-1,8.2496945E-3,-9.653969E-2,2.8404322E-2,1.5320516E-1,-2.8169218E-1,-1.564861E-1,3.8017508E-2,-9.164736E-2,6.8008755E-3,2.2953556E-1,8.551927E-2,-3.8160381E-3,1.9416362E-1,1.3166875E-1],"categories":[],"categories_nodes":[],"categories_segments":[],"categories_sizes":[],"default_left":[0,0,0,0,0,0,0,0,0,0,0,0,0,0,0,0,0,0,0,0,0,0,0,0,0,0,0,0,0,0,0,0,0,0,0,0,0,0,0,0,0,0,0,0,0,0,0,0,0,0,0,0,0,0,0,0,0,0,0,0,0,0,0,0,0,0,0,0,0,0,0,0,0,0,0,0,0,0,0,0,0,0,0,0,0,0,0,0,0,0,0,0,0,0,0,0,0,0,0,0,0,0,0,0,0,0,0,0,0,0,0,0,0,0,0,0,0,0,0],"id":3,"left_children":[1,3,5,7,9,11,13,15,17,19,21,23,25,27,29,31,33,35,37,39,41,43,45,47,49,51,53,55,57,59,61,-1,63,65,67,69,71,73,75,77,79,81,83,-1,-1,85,87,89,91,93,95,97,99,101,103,105,107,109,111,113,115,117,-1,-1,-1,-1,-1,-1,-1,-1,-1,-1,-1,-1,-1,-1,-1,-1,-1,-1,-1,-1,-1,-1,-1,-1,-1,-1,-1,-1,-1,-1,-1,-1,-1,-1,-1,-1,-1,-1,-1,-1,-1,-1,-1,-1,-1,-1,-1,-1,-1,-1,-1,-1,-1,-1,-1,-1,-1],"loss_changes":[5.6016187E2,2.1152814E2,1.460567E2,1.7733124E1,3.3612694E1,4.966269E1,7.309392E1,9.476105E0,1.24110565E1,2.5464905E1,9.207573E0,9.432823E0,5.5957947E0,1.2732721E2,1.6159111E1,4.915622E0,4.5026245E0,1.4550775E0,1.9633713E0,3.2175655E0,5.5587616E0,5.837326E-1,2.1043549E0,5.1298866E0,1.725647E0,1.086647E0,2.7438965E0,5.0822052E1,2.5421227E1,1.4129923E1,2.9819412E0,0E0,7.9623203E0,4.0282288E0,1.0317535E0,1.4567173E-1,6.251068E-1,1.8491383E0,3.818512E-1,1.3478141E0,3.3727713E0,2.154007E-1,4.9237137E0,0E0,0E0,3.9255295E0,9.0729666E-1,3.7646694E0,6.558571E0,1.054255E0,2.2463913E0,3.7889832E-1,8.461685E-1,1.0889617E0,6.0531616E-1,2.7751429E1,9.923676E0,1.2021225E1,6.4833117E0,5.0603294E-1,7.7865143E0,1.0867653E0,0E0,0E0,0E0,0E0,0E0,0E0,0E0,0E0,0E0,0E0,0E0,0E0,0E0,0E0,0E0,0E0,0E0,0E0,0E0,0E0,0E0,0E0,0E0,0E0,0E0,0E0,0E0,0E0,0E0,0E0,0E0,0E0,0E0,0E0,0E0,0E0,0E0,0E0,0E0,0E0,0E0,0E0,0E0,0E0,0E0,0E0,0E0,0E0,0E0,0E0,0E0,0E0,0E0,0E0,0E0,0E0,0E0],"parents":[2147483647,0,0,1,1,2,2,3,3,4,4,5,5,6,6,7,7,8,8,9,9,10,10,11,11,12,12,13,13,14,14,15,15,16,16,17,17,18,18,19,19,20,20,21,21,22,22,23,23,24,24,25,25,26,26,27,27,28,28,29,29,30,30,32,32,33,33,34,34,35,35,36,36,37,37,38,38,39,39,40,40,41,41,42,42,45,45,46,46,47,47,48,48,49,49,50,50,51,51,52,52,53,53,54,54,55,55,56,56,57,57,58,58,59,59,60,60,61,61],"right_children":[2,4,6,8,10,12,14,16,18,20,22,24,26,28,30,32,34,36,38,40,42,44,46,48,50,52,54,56,58,60,62,-1,64,66,68,70,72,74,76,78,80,82,84,-1,-1,86,88,90,92,94,96,98,100,102,104,106,108,110,112,114,116,118,-1,-1,-1,-1,-1,-1,-1,-1,-1,-1,-1,-1,-1,-1,-1,-1,-1,-1,-1,-1,-1,-1,-1,-1,-1,-1,-1,-1,-1,-1,-1,-1,-1,-1,-1,-1,-1,-1,-1,-1,-1,-1,-1,-1,-1,-1,-1,-1,-1,-1,-1,-1,-1,-1,-1,-1,-1],"split_conditions":[-6.214494E-1,-1.1827706E0,-1.1425057E-1,-1.2632788E0,2.9559356E-1,5.8393764E-1,2.0822852E0,-3.8028479E0,-1.138861E0,-5.240947E-1,-7.0633626E-1,2.7532277E-1,9.7529703E-1,1.7300481E0,2.9701118E0,-2.709181E0,-1.3080057E0,-2.9831595E0,-6.4856184E-1,-2.4780836E0,-2.4780836E0,7.054377E-1,1.525126E0,-3.1917262E-1,-9.339388E-1,-2.3047605E0,-1.765533E0,6.995067E-1,2.1053498E0,5.0051564E-1,3.66785E0,-4.327245E-1,-5.13755E-1,-4.0187335E0,-1.9388561E0,-2.709181E0,-1.2230247E0,-3.498764E0,1.9127685E0,-1.7536271E0,-2.1634712E0,-1.6829782E0,-7.779932E-1,-1.2146193E-1,-3.2733068E-1,1.0268948E0,-1.7016178E-1,-2.441413E-1,-1.4188868E0,-3.498764E0,-1.0144662E0,-7.290168E-1,-7.290168E-1,1.3756019E0,1.337584E0,2.9559356E-1,1.6350578E-1,3.8713974E-1,2.5497363E0,-3.498764E0,2.139892E0,1.7300481E0,2.4350478E-1,1.5573062E-1,-1.5599051E-1,1.7305964E-1,-3.0519435E-1,-3.765879E-1,-2.3715988E-1,2.2516748E-2,9.5832005E-2,-1.1676792E-1,5.355854E-3,4.117966E-4,-3.001265E-1,-1.8088308E-1,-3.105679E-2,3.341567E-2,-6.854963E-2,1.5214053E-1,4.6463788E-2,-4.3597735E-2,-2.4481495E-1,-6.359603E-2,-3.300801E-2,-1.2019283E-1,4.4146266E-2,-4.987877E-2,-3.058329E-1,6.2493887E-2,1.5600815E-1,-2.323252E-1,4.0447883E-2,2.0789169E-2,1.9592193E-1,-1.0804506E-2,8.372515E-2,5.8452036E-2,-4.0169112E-2,1.9638984E-1,1.1277882E-1,1.4647944E-3,1.0958664E-1,1.4840962E-1,1.7293827E-1,8.2496945E-3,-9.653969E-2,2.8404322E-2,1.5320516E-1,-2.8169218E-1,-1.564861E-1,3.8017508E-2,-9.164736E-2,6.8008755E-3,2.2953556E-1,8.551927E-2,-3.8160381E-3,1.9416362E-1,1.3166875E-1],"split_indices":[1,1,2,1,2,1,1,2,2,2,0,1,1,2,1,0,1,2,0,0,0,2,2,2,2,0,0,0,0,2,1,0,0,0,0,0,1,0,0,2,2,3,1,0,0,0,3,0,0,0,0,2,2,1,1,2,1,1,2,0,2,2,0,0,0,0,0,0,0,0,0,0,0,0,0,0,0,0,0,0,0,0,0,0,0,0,0,0,0,0,0,0,0,0,0,0,0,0,0,0,0,0,0,0,0,0,0,0,0,0,0,0,0,0,0,0,0,0,0],"split_type":[0,0,0,0,0,0,0,0,0,0,0,0,0,0,0,0,0,0,0,0,0,0,0,0,0,0,0,0,0,0,0,0,0,0,0,0,0,0,0,0,0,0,0,0,0,0,0,0,0,0,0,0,0,0,0,0,0,0,0,0,0,0,0,0,0,0,0,0,0,0,0,0,0,0,0,0,0,0,0,0,0,0,0,0,0,0,0,0,0,0,0,0,0,0,0,0,0,0,0,0,0,0,0,0,0,0,0,0,0,0,0,0,0,0,0,0,0,0,0],"sum_hessian":[1.2076E4,3.535E3,8.541E3,8.94E2,2.641E3,3.841E3,4.7E3,5.63E2,3.31E2,2.15E3,4.91E2,2.483E3,1.358E3,4.1E3,6E2,4E1,5.23E2,2.9E1,3.02E2,1.94E2,1.956E3,2.4E1,4.67E2,1.557E3,9.26E2,7.32E2,6.26E2,3.586E3,5.14E2,4.11E2,1.89E2,3E0,3.7E1,2.39E2,2.84E2,1.5E1,1.4E1,2.4E1,2.78E2,8.3E1,1.11E2,1.4E1,1.942E3,3E0,2.1E1,4.58E2,9E0,1.82E2,1.375E3,2.2E1,9.04E2,1.6E1,7.16E2,3.4E1,5.92E2,3.261E3,3.25E2,3.71E2,1.43E2,4.6E1,3.65E2,1.42E2,4.7E1,9E0,2.8E1,1E0,2.38E2,7E0,2.77E2,4E0,1.1E1,6E0,8E0,2E0,2.2E1,2.76E2,2E0,7E1,1.3E1,5E1,6.1E1,1E0,1.3E1,1.108E3,8.34E2,4.45E2,1.3E1,2E0,7E0,1.25E2,5.7E1,7E0,1.368E3,4E0,1.8E1,2.3E1,8.81E2,1.2E1,4E0,1.2E1,7.04E2,1.4E1,2E1,3.97E2,1.95E2,3.016E3,2.45E2,7.5E1,2.5E2,9.5E1,2.76E2,5.7E1,8.6E1,1E0,4.5E1,2.19E2,1.46E2,4.4E1,9.8E1],"tree_param":{"num_deleted":"0","num_feature":"4","num_nodes":"119","size_leaf_vector":"1"}},{"base_weights":[-4.922594E-4,-1.8635541E-1,1.3247085E-1,-5.256702E-1,-1.0918928E-1,1.6563769E-1,-2.0471627E-1,-6.4649105E-1,-4.3177062E-1,-8.3823435E-2,-3.9347512E-1,8.6961076E-2,2.612212E-1,-4.450627E-1,5.5278298E-2,-2.3676744E-1,-6.773802E-1,-8.745423E-3,-4.7502634E-1,2.531299E-1,-9.5352605E-2,-2.75889E-1,-3.4077767E-1,1.0347213E-1,-2.9783374E-1,1.16927594E-1,2.8739256E-1,-7.5174457E-1,-3.949016E-1,-1.4360529E-1,2.4738966E-1,-3.353615E-1,-9.7464316E-2,-7.674883E-1,-6.183972E-1,1.7656766E-1,-1.7314427E-1,-4.427999E-1,-7.204603E-1,-2.0968484E-2,3.6423677E-1,-6.432334E-2,-1.6655512E-1,-3.1030118E-1,-7.214821E-1,5.365754E-2,1.5795349E-1,-5.9681714E-1,2.2188619E-2,2.0471941E-1,-5.0864156E-2,2.2523503E-1,3.3858222E-1,-4.960009E-1,-2.4596909E-1,-4.549825E-1,-1.6780291E-1,-2.7577978E-1,1.0350234E-1,1.0264873E-1,4.74852E-1,1.11272775E-1,-9.425874E-2,-3.6345463E-2,-2.3408705E-1,-1.8242802E-1,-2.4965398E-1,4.0926408E-2,1.23635426E-1,-8.883862E-2,9.798911E-3,-1.4820196E-1,-1.206612E-1,-1.16585396E-1,-2.5498697E-1,4.3067165E-2,-3.1704932E-2,7.175091E-2,1.55534E-1,-2.0501163E-2,1.4161827E-1,-4.7830433E-2,-1.924994E-1,-9.897107E-2,1.9752592E-2,-1.4176774E-1,-2.668614E-1,9.319279E-2,1.3187085E-2,4.1138705E-2,8.272927E-2,-2.219488E-1,-1.1445744E-1,4.3657944E-2,-6.317223E-2,5.367353E-2,2.1187496E-1,-7.168401E-2,6.9624014E-2,7.156015E-2,-4.644442E-3,1.1308632E-1,7.3111504E-2,-1.0385569E-1,-2.1272552E-1,-1.2782036E-1,-2.3459946E-1,-9.483384E-3,-1.0143982E-1,-1.02441736E-1,-5.029286E-2,-6.8165446E-3,7.709098E-2,1.5376926E-2,1.2804782E-1,-7.7841304E-2,1.4750879E-1],"categories":[],"categories_nodes":[],"categories_segments":[],"categories_sizes":[],"default_left":[0,0,0,0,0,0,0,0,0,0,0,0,0,0,0,0,0,0,0,0,0,0,0,0,0,0,0,0,0,0,0,0,0,0,0,0,0,0,0,0,0,0,0,0,0,0,0,0,0,0,0,0,0,0,0,0,0,0,0,0,0,0,0,0,0,0,0,0,0,0,0,0,0,0,0,0,0,0,0,0,0,0,0,0,0,0,0,0,0,0,0,0,0,0,0,0,0,0,0,0,0,0,0,0,0,0,0,0,0,0,0,0,0,0,0,0,0],"id":4,"left_children":[1,3,5,7,9,11,13,15,17,19,21,23,25,27,29,31,33,35,37,39,41,-1,43,45,47,49,51,53,55,57,59,-1,61,63,65,67,69,71,73,75,77,79,81,83,85,87,89,91,93,95,97,99,101,103,-1,105,107,109,111,113,115,-1,-1,-1,-1,-1,-1,-1,-1,-1,-1,-1,-1,-1,-1,-1,-1,-1,-1,-1,-1,-1,-1,-1,-1,-1,-1,-1,-1,-1,-1,-1,-1,-1,-1,-1,-1,-1,-1,-1,-1,-1,-1,-1,-1,-1,-1,-1,-1,-1,-1,-1,-1,-1,-1,-1,-1],"loss_changes":[2.9848288E2,1.3182942E2,7.8776436E1,1.0305786E1,2.956879E1,4.8189194E1,3.945501E1,4.9779663E0,9.657326E0,1.4669798E1,9.002892E0,2.2381958E1,1.0895187E1,4.7489243E0,1.1650697E1,3.5732646E0,1.5290833E0,1.5538346E0,3.4696121E0,3.814414E0,8.044617E0,0E0,3.3381004E0,9.148449E0,1.3887041E1,6.580325E0,7.716034E0,3.7766075E-1,3.7986298E0,4.927743E0,5.0543385E0,0E0,2.857343E0,1.1052322E0,7.209778E-3,1.7073381E-1,6.930721E-1,6.868744E-1,1.9902E0,5.3086764E-1,1.5925083E0,5.502964E0,3.6392365E0,2.1304855E0,4.9996567E-1,4.3838325E0,3.914524E0,2.0269413E0,2.0689442E0,3.6660385E0,8.250852E0,3.5538673E0,4.7902374E0,1.37604E-1,0E0,1.7848587E0,1.4043581E0,6.38927E-1,1.0325186E0,1.5775036E0,8.6971474E-1,0E0,0E0,0E0,0E0,0E0,0E0,0E0,0E0,0E0,0E0,0E0,0E0,0E0,0E0,0E0,0E0,0E0,0E0,0E0,0E0,0E0,0E0,0E0,0E0,0E0,0E0,0E0,0E0,0E0,0E0,0E0,0E0,0E0,0E0,0E0,0E0,0E0,0E0,0E0,0E0,0E0,0E0,0E0,0E0,0E0,0E0,0E0,0E0,0E0,0E0,0E0,0E0,0E0,0E0,0E0,0E0],"parents":[2147483647,0,0,1,1,2,2,3,3,4,4,5,5,6,6,7,7,8,8,9,9,10,10,11,11,12,12,13,13,14,14,15,15,16,16,17,17,18,18,19,19,20,20,22,22,23,23,24,24,25,25,26,26,27,27,28,28,29,29,30,30,32,32,33,33,34,34,35,35,36,36,37,37,38,38,39,39,40,40,41,41,42,42,43,43,44,44,45,45,46,46,47,47,48,48,49,49,50,50,51,51,52,52,53,53,55,55,56,56,57,57,58,58,59,59,60,60],"right_children":[2,4,6,8,10,12,14,16,18,20,22,24,26,28,30,32,34,36,38,40,42,-1,44,46,48,50,52,54,56,58,60,-1,62,64,66,68,70,72,74,76,78,80,82,84,86,88,90,92,94,96,98,100,102,104,-1,106,108,110,112,114,116,-1,-1,-1,-1,-1,-1,-1,-1,-1,-1,-1,-1,-1,-1,-1,-1,-1,-1,-1,-1,-1,-1,-1,-1,-1,-1,-1,-1,-1,-1,-1,-1,-1,-1,-1,-1,-1,-1,-1,-1,-1,-1,-1,-1,-1,-1,-1,-1,-1,-1,-1,-1,-1,-1,-1,-1],"split_conditions":[-3.6427036E-1,-1.1648799E0,2.139892E0,-1.2811695E0,5.0051564E-1,3.5806733E-1,1.7311798E0,-5.4422245E0,-1.138861E0,-1.9585491E0,-8.0262685E-1,9.0671495E-2,-2.441413E-1,1.12069964E-1,1.9127685E0,-2.709181E0,-7.290168E-1,-3.1880815E0,5.8624643E-1,-3.1136014E0,9.0671495E-2,-2.75889E-1,1.525126E0,-3.7764784E-2,3.9137676E-1,7.054377E-1,8.075716E-1,3.3411035E-1,2.779384E0,2.8627677E0,2.753187E0,-3.353615E-1,-5.13755E-1,-3.498764E0,5.8624643E-1,7.38023E-1,1.795374E-1,-1.2520971E0,-3.1917262E-1,5.8624643E-1,-1.0351722E0,6.2247425E-1,1.0905186E0,1.3927991E0,5.8624643E-1,-5.240947E-1,3.528605E-1,-3.211738E-1,9.1035974E-1,2.6391337E0,2.3260462E0,5.0051564E-1,9.1035974E-1,3.1645024E0,-2.4596909E-1,4.1891127E0,3.3694246E0,6.032161E-1,3.3413444E0,4.512615E0,-1.9351143E0,1.11272775E-1,-9.425874E-2,-3.6345463E-2,-2.3408705E-1,-1.8242802E-1,-2.4965398E-1,4.0926408E-2,1.23635426E-1,-8.883862E-2,9.798911E-3,-1.4820196E-1,-1.206612E-1,-1.16585396E-1,-2.5498697E-1,4.3067165E-2,-3.1704932E-2,7.175091E-2,1.55534E-1,-2.0501163E-2,1.4161827E-1,-4.7830433E-2,-1.924994E-1,-9.897107E-2,1.9752592E-2,-1.4176774E-1,-2.668614E-1,9.319279E-2,1.3187085E-2,4.1138705E-2,8.272927E-2,-2.219488E-1,-1.1445744E-1,4.3657944E-2,-6.317223E-2,5.367353E-2,2.1187496E-1,-7.168401E-2,6.9624014E-2,7.156015E-2,-4.644442E-3,1.1308632E-1,7.3111504E-2,-1.0385569E-1,-2.1272552E-1,-1.2782036E-1,-2.3459946E-1,-9.483384E-3,-1.0143982E-1,-1.02441736E-1,-5.029286E-2,-6.8165446E-3,7.709098E-2,1.5376926E-2,1.2804782E-1,-7.7841304E-2,1.4750879E-1],"split_indices":[1,1,2,1,2,1,1,2,2,2,0,2,0,1,0,0,2,2,3,0,2,0,2,1,0,2,1,3,0,1,1,0,0,0,3,0,0,1,2,3,1,0,3,0,3,2,0,0,2,1,1,2,2,2,0,2,2,0,1,0,3,0,0,0,0,0,0,0,0,0,0,0,0,0,0,0,0,0,0,0,0,0,0,0,0,0,0,0,0,0,0,0,0,0,0,0,0,0,0,0,0,0,0,0,0,0,0,0,0,0,0,0,0,0,0,0,0],"split_type":[0,0,0,0,0,0,0,0,0,0,0,0,0,0,0,0,0,0,0,0,0,0,0,0,0,0,0,0,0,0,0,0,0,0,0,0,0,0,0,0,0,0,0,0,0,0,0,0,0,0,0,0,0,0,0,0,0,0,0,0,0,0,0,0,0,0,0,0,0,0,0,0,0,0,0,0,0,0,0,0,0,0,0,0,0,0,0,0,0,0,0,0,0,0,0,0,0,0,0,0,0,0,0,0,0,0,0,0,0,0,0,0,0,0,0,0,0],"sum_hessian":[1.2076E4,5.036E3,7.04E3,9.32E2,4.104E3,6.41E3,6.3E2,4.05E2,5.27E2,3.769E3,3.35E2,3.517E3,2.893E3,3.27E2,3.03E2,2.9E1,3.76E2,4.9E1,4.78E2,1.24E2,3.645E3,2.9E1,3.06E2,3.373E3,1.44E2,4.45E2,2.448E3,4.4E1,2.83E2,1.49E2,1.54E2,3E0,2.6E1,1.44E2,2.32E2,2.3E1,2.6E1,4.25E2,5.3E1,3.6E1,8.8E1,2.54E3,1.105E3,2.85E2,2.1E1,1.763E3,1.61E3,7.4E1,7E1,2.92E2,1.53E2,1.108E3,1.34E3,1.1E1,3.3E1,2.23E2,6E1,9.7E1,5.2E1,9.5E1,5.9E1,8E0,1.8E1,3E0,1.41E2,2.25E2,7E0,2.1E1,2E0,1.6E1,1E1,1.83E2,2.42E2,1.6E1,3.7E1,1.2E1,2.4E1,5E1,3.8E1,2.522E3,1.8E1,1.09E3,1.5E1,2.71E2,1.4E1,1E1,1.1E1,6.3E1,1.7E3,1.37E3,2.4E2,4.3E1,3.1E1,4.6E1,2.4E1,2.79E2,1.3E1,9.2E1,6.1E1,1.05E3,5.8E1,9.52E2,3.88E2,8E0,3E0,2.07E2,1.6E1,3.4E1,2.6E1,5.9E1,3.8E1,2.9E1,2.3E1,8.3E1,1.2E1,1E0,5.8E1],"tree_param":{"num_deleted":"0","num_feature":"4","num_nodes":"117","size_leaf_vector":"1"}},{"base_weights":[-5.709967E-4,-1.271251E-1,9.582137E-2,-3.6254543E-1,-7.251535E-2,1.20020874E-1,-1.4352168E-1,-1.2656887E-1,-3.891265E-1,-6.0261533E-2,-3.7101558E-1,7.8748666E-2,2.0714612E-1,-3.3119488E-1,2.7008483E-2,-3.9617193E-1,-1.7732475E-2,-4.7479847E-1,-3.295253E-1,2.1333796E-1,-6.812068E-2,-3.1022945E-1,-2.1116152E-1,9.087098E-2,-2.1650566E-1,1.8805961E-1,4.0399155E-1,-6.038507E-1,-2.9407403E-1,-7.62521E-2,2.438928E-1,-2.0126313E-1,-2.647949E-1,2.1833256E-1,-2.1794444E-1,-5.836553E-1,-4.4211754E-1,-3.194603E-1,-2.1017516E-1,9.9018656E-2,3.1457502E-1,-4.1146204E-1,-6.362604E-2,-3.7304354E-1,-6.1194923E-2,4.340133E-2,1.2752654E-1,-3.7108156E-1,2.5664756E-2,2.3064914E-1,2.3754926E-2,6.712781E-1,3.8034084E-1,-2.0214875E-1,-1.3968728E-1,-2.640244E-1,-5.8607334E-1,-1.8331413E-1,5.4649312E-2,1.4408065E-1,4.0105188E-1,-9.43913E-2,1.8649644E-1,1.3539001E-1,3.878777E-2,-1.8668908E-1,-2.9222861E-2,-2.47967E-2,-1.8268085E-1,-1.304102E-1,-1.853919E-1,-1.420428E-1,-9.204521E-2,2.27397E-2,1.4286794E-1,5.9648763E-2,1.1917159E-1,-4.2872496E-2,-2.0551248E-1,-4.6152838E-2,-1.42464E-2,-9.275183E-2,-1.6247281E-1,4.0401617E-1,-4.6854712E-2,6.557187E-2,1.07547855E-2,3.4170937E-2,7.756259E-2,-1.5940167E-1,-7.210381E-2,1.143625E-1,-2.5914468E-2,-9.204993E-4,7.201209E-2,-1.879026E-2,1.2517151E-1,2.3833302E-1,9.4597526E-2,1.0566536E-1,1.8553953E-1,-6.443721E-2,-1.1866336E-1,-2.5193787E-1,-1.2201796E-1,-1.04933806E-1,-4.0674217E-2,-2.1636032E-3,6.100707E-2,4.983157E-2,-1.1434365E-1,-6.616511E-2,1.2663172E-1],"categories":[],"categories_nodes":[],"categories_segments":[],"categories_sizes":[],"default_left":[0,0,0,0,0,0,0,0,0,0,0,0,0,0,0,0,0,0,0,0,0,0,0,0,0,0,0,0,0,0,0,0,0,0,0,0,0,0,0,0,0,0,0,0,0,0,0,0,0,0,0,0,0,0,0,0,0,0,0,0,0,0,0,0,0,0,0,0,0,0,0,0,0,0,0,0,0,0,0,0,0,0,0,0,0,0,0,0,0,0,0,0,0,0,0,0,0,0,0,0,0,0,0,0,0,0,0,0,0,0,0,0,0],"id":5,"left_children":[1,3,5,7,9,11,13,15,17,19,21,23,25,27,29,31,33,35,37,39,41,43,-1,45,47,49,51,53,55,57,59,61,-1,63,65,67,69,71,-1,73,75,77,79,81,83,85,87,89,91,93,95,97,99,-1,-1,101,103,105,107,109,111,-1,-1,-1,-1,-1,-1,-1,-1,-1,-1,-1,-1,-1,-1,-1,-1,-1,-1,-1,-1,-1,-1,-1,-1,-1,-1,-1,-1,-1,-1,-1,-1,-1,-1,-1,-1,-1,-1,-1,-1,-1,-1,-1,-1,-1,-1,-1,-1,-1,-1,-1,-1],"loss_changes":[1.4733768E2,6.7109024E1,3.972706E1,6.116623E0,1.5486578E1,2.2375053E1,2.0171432E1,2.9565802E0,4.3522644E0,8.774687E0,3.160555E0,1.5148813E1,7.441963E0,2.8587837E0,7.431542E0,2.5720997E0,3.4977863E0,1.0226746E0,1.733181E0,1.2882128E0,6.0864162E0,2.2141027E0,0E0,7.060711E0,6.260954E0,1.277224E1,8.572731E-1,2.4799347E-2,2.1792717E0,3.1632967E0,1.6206594E0,2.2481503E0,0E0,6.4692664E-1,1.888926E0,9.6292496E-1,9.78775E-2,8.51696E-1,0E0,4.456275E-1,4.9509478E-1,3.6491117E0,5.686804E0,1.0596905E0,4.222362E0,2.3350265E0,4.0597115E0,2.0093307E0,2.6621943E0,3.1833038E0,1.2841378E1,3.1942558E-1,8.8043594E-1,0E0,0E0,1.4885197E0,7.505255E-1,9.378748E-1,9.3978983E-1,8.3835864E-1,6.296663E-1,0E0,0E0,0E0,0E0,0E0,0E0,0E0,0E0,0E0,0E0,0E0,0E0,0E0,0E0,0E0,0E0,0E0,0E0,0E0,0E0,0E0,0E0,0E0,0E0,0E0,0E0,0E0,0E0,0E0,0E0,0E0,0E0,0E0,0E0,0E0,0E0,0E0,0E0,0E0,0E0,0E0,0E0,0E0,0E0,0E0,0E0,0E0,0E0,0E0,0E0,0E0,0E0],"parents":[2147483647,0,0,1,1,2,2,3,3,4,4,5,5,6,6,7,7,8,8,9,9,10,10,11,11,12,12,13,13,14,14,15,15,16,16,17,17,18,18,19,19,20,20,21,21,23,23,24,24,25,25,26,26,27,27,28,28,29,29,30,30,31,31,33,33,34,34,35,35,36,36,37,37,39,39,40,40,41,41,42,42,43,43,44,44,45,45,46,46,47,47,48,48,49,49,50,50,51,51,52,52,55,55,56,56,57,57,58,58,59,59,60,60],"right_children":[2,4,6,8,10,12,14,16,18,20,22,24,26,28,30,32,34,36,38,40,42,44,-1,46,48,50,52,54,56,58,60,62,-1,64,66,68,70,72,-1,74,76,78,80,82,84,86,88,90,92,94,96,98,100,-1,-1,102,104,106,108,110,112,-1,-1,-1,-1,-1,-1,-1,-1,-1,-1,-1,-1,-1,-1,-1,-1,-1,-1,-1,-1,-1,-1,-1,-1,-1,-1,-1,-1,-1,-1,-1,-1,-1,-1,-1,-1,-1,-1,-1,-1,-1,-1,-1,-1,-1,-1,-1,-1,-1,-1,-1,-1],"split_conditions":[-3.2848892E-1,-1.1380439E0,2.139892E0,-1.9585491E0,7.054377E-1,6.510278E-1,1.6171265E0,-1.3527324E0,-1.2811695E0,-1.9585491E0,-5.78959E-1,2.9559356E-1,2.3942215E0,-1.4188868E0,3.0104814E0,8.383825E-1,-3.3930037E0,-9.339388E-1,9.1035974E-1,-2.4780836E0,-2.3047605E0,1.795374E-1,-2.1116152E-1,-1.9833515E-3,6.4173234E-1,9.1035974E-1,5.0051564E-1,1.0781686E0,4.1891127E0,2.5071898E0,2.753187E0,2.5675447E0,-2.647949E-1,-4.622536E0,-1.2811695E0,-1.3527324E0,5.8624643E-1,-6.4856184E-1,-2.1017516E-1,-5.633046E-1,-1.0798991E0,-5.240947E-1,-9.792637E-1,9.1035974E-1,2.1805365E-1,-3.1917262E-1,5.261836E-1,1.12069964E-1,7.054377E-1,-2.3047605E0,2.9701118E0,1.3426546E0,4.512615E0,-2.0214875E-1,-1.3968728E-1,1.3426546E0,3.8713974E-1,-5.13755E-1,3.3413444E0,4.1891127E0,-1.9351143E0,-9.43913E-2,1.8649644E-1,1.3539001E-1,3.878777E-2,-1.8668908E-1,-2.9222861E-2,-2.47967E-2,-1.8268085E-1,-1.304102E-1,-1.853919E-1,-1.420428E-1,-9.204521E-2,2.27397E-2,1.4286794E-1,5.9648763E-2,1.1917159E-1,-4.2872496E-2,-2.0551248E-1,-4.6152838E-2,-1.42464E-2,-9.275183E-2,-1.6247281E-1,4.0401617E-1,-4.6854712E-2,6.557187E-2,1.07547855E-2,3.4170937E-2,7.756259E-2,-1.5940167E-1,-7.210381E-2,1.143625E-1,-2.5914468E-2,-9.204993E-4,7.201209E-2,-1.879026E-2,1.2517151E-1,2.3833302E-1,9.4597526E-2,1.0566536E-1,1.8553953E-1,-6.443721E-2,-1.1866336E-1,-2.5193787E-1,-1.2201796E-1,-1.04933806E-1,-4.0674217E-2,-2.1636032E-3,6.100707E-2,4.983157E-2,-1.1434365E-1,-6.616511E-2,1.2663172E-1],"split_indices":[1,1,2,2,2,1,1,1,1,2,1,2,0,0,0,3,2,2,2,0,0,0,0,1,0,2,2,1,2,1,1,0,0,2,1,1,3,0,0,1,1,2,1,2,0,2,0,1,2,0,1,3,0,0,0,3,1,0,1,2,3,0,0,0,0,0,0,0,0,0,0,0,0,0,0,0,0,0,0,0,0,0,0,0,0,0,0,0,0,0,0,0,0,0,0,0,0,0,0,0,0,0,0,0,0,0,0,0,0,0,0,0,0],"split_type":[0,0,0,0,0,0,0,0,0,0,0,0,0,0,0,0,0,0,0,0,0,0,0,0,0,0,0,0,0,0,0,0,0,0,0,0,0,0,0,0,0,0,0,0,0,0,0,0,0,0,0,0,0,0,0,0,0,0,0,0,0,0,0,0,0,0,0,0,0,0,0,0,0,0,0,0,0,0,0,0,0,0,0,0,0,0,0,0,0,0,0,0,0,0,0,0,0,0,0,0,0,0,0,0,0,0,0,0,0,0,0,0,0],"sum_hessian":[1.2076E4,5.221E3,6.855E3,9.82E2,4.239E3,6.226E3,6.29E2,1E2,8.82E2,4.073E3,1.66E2,4.226E3,2E3,2.99E2,3.3E2,2.8E1,7.2E1,3.59E2,5.23E2,1.13E2,3.96E3,1.42E2,2.4E1,4.06E3,1.66E2,1.825E3,1.75E2,3.4E1,2.65E2,2.24E2,1.06E2,2.1E1,7E0,3.3E1,3.9E1,7.9E1,2.8E2,5.11E2,1.2E1,5.4E1,5.9E1,5E1,3.91E3,1.13E2,2.9E1,1.77E3,2.29E3,1.01E2,6.5E1,1.449E3,3.76E2,1.2E1,1.63E2,2E1,1.4E1,2.42E2,2.3E1,1.23E2,1.01E2,6.6E1,4E1,1.9E1,2E0,8E0,2.5E1,8E0,3.1E1,4E0,7.5E1,2.72E2,8E0,3.6E1,4.75E2,5.2E1,2E0,2.6E1,3.3E1,2.6E1,2.4E1,5.92E2,3.318E3,8.4E1,2.9E1,1E0,2.8E1,7.2E1,1.698E3,2.076E3,2.14E2,4.4E1,5.7E1,1.5E1,5E1,5.6E1,1.393E3,3.09E2,6.7E1,8E0,4E0,1.48E2,1.5E1,1.78E2,6.4E1,8E0,1.5E1,2.6E1,9.7E1,7.2E1,2.9E1,6.4E1,2E0,1E0,3.9E1],"tree_param":{"num_deleted":"0","num_feature":"4","num_nodes":"113","size_leaf_vector":"1"}},{"base_weights":[-5.155045E-4,-1.3579224E-1,4.458675E-2,-2.8975114E-1,-8.7029725E-2,-3.6021746E-3,8.992662E-2,-1.065565E-1,-3.0227485E-1,9.0231836E-2,-1.06151134E-1,1.1939642E-2,-2.3188749E-1,1.0515292E-1,-7.8739256E-2,-2.8327516E-1,1.5501335E-1,-3.979495E-1,-2.8447548E-1,2.9396934E-2,3.531498E-1,-9.979011E-2,-4.1122472E-1,7.945584E-3,4.289613E-1,-2.647411E-1,2.0844631E-1,1.5752465E-2,1.3300356E-1,-2.6868743E-1,8.675837E-3,-3.4556087E-2,-5.131092E-1,3.3095336E-1,1.0140583E-2,1.5627201E-1,-4.1192776E-1,-4.8057806E-1,-2.743314E-1,7.911507E-2,-9.7375974E-2,8.5683846E-1,2.924343E-1,-1.610303E-1,-7.232669E-2,-1.3273525E-1,-9.166124E-2,1.0700476E-1,-7.2491015E-3,1.1394253E-1,4.4290984E-1,-4.5310068E-1,-2.0869204E-1,1.852214E-2,3.6215496E-1,2.2169922E-2,-2.899797E-1,1.2204479E-1,2.7245584E-1,-1.9018751E-1,-4.3087474E-1,5.8768246E-2,-1.6063093E-1,-2.1310659E-1,5.8076993E-2,-9.669957E-2,-2.2366595E-1,1.23977125E-1,5.473769E-2,-2.5168378E-2,6.5755375E-2,-1.4683762E-1,-1.0582885E-1,-1.5902296E-1,-1.9032866E-2,-8.0901526E-2,-1.4344177E-1,-7.2303633E-3,3.6797542E-2,-1.2477974E-2,-6.966014E-2,4.2596436E-1,5.875918E-2,4.7946416E-2,1.3639493E-1,-8.123425E-2,-4.513298E-2,-2.2592872E-2,1.3727988E-1,1.964343E-2,-6.547405E-2,8.249154E-2,2.518206E-2,-1.3615866E-1,-1.3471815E-4,5.2488256E-2,-1.2141198E-3,1.0360228E-1,1.5024097E-1,-1.9393621E-1,-1.2570432E-1,-1.4237739E-1,-5.5945423E-2,1.5017271E-2,-2.1523915E-2,1.6289055E-2,1.2736048E-1,6.328094E-2,4.951059E-3,-1.2336926E-1,2.4506016E-2,4.0213883E-2,-7.361617E-3,1.6647407E-1,7.4848644E-2,8.8966405E-3,-7.647166E-2,-1.6827717E-1,-1.10006414E-1,6.3225334E-3,8.642989E-2,-3.9462216E-2,-9.422762E-2],"categories":[],"categories_nodes":[],"categories_segments":[],"categories_sizes":[],"default_left":[0,0,0,0,0,0,0,0,0,0,0,0,0,0,0,0,0,0,0,0,0,0,0,0,0,0,0,0,0,0,0,0,0,0,0,0,0,0,0,0,0,0,0,0,0,0,0,0,0,0,0,0,0,0,0,0,0,0,0,0,0,0,0,0,0,0,0,0,0,0,0,0,0,0,0,0,0,0,0,0,0,0,0,0,0,0,0,0,0,0,0,0,0,0,0,0,0,0,0,0,0,0,0,0,0,0,0,0,0,0,0,0,0,0,0,0,0,0,0,0,0,0,0],"id":6,"left_children":[1,3,5,7,9,11,13,15,17,19,21,23,25,27,29,31,33,35,37,39,41,43,45,47,49,51,53,55,57,59,61,63,65,67,69,-1,71,73,75,77,79,81,83,85,87,-1,89,91,93,95,97,99,101,103,105,107,109,111,113,115,117,119,121,-1,-1,-1,-1,-1,-1,-1,-1,-1,-1,-1,-1,-1,-1,-1,-1,-1,-1,-1,-1,-1,-1,-1,-1,-1,-1,-1,-1,-1,-1,-1,-1,-1,-1,-1,-1,-1,-1,-1,-1,-1,-1,-1,-1,-1,-1,-1,-1,-1,-1,-1,-1,-1,-1,-1,-1,-1,-1,-1,-1],"loss_changes":[7.369128E1,2.2647198E1,1.9790964E1,1.6334381E0,7.788458E0,1.5585446E1,1.1993862E1,2.2626765E0,1.0430946E0,3.5724063E0,3.979847E0,6.84724E0,4.105818E0,1.0656998E1,6.4282093E0,1.640028E0,5.064223E-1,1.5503559E0,1.0139885E0,1.1611369E0,1.0338631E0,3.4042225E0,3.78551E-1,6.134356E0,1.2090063E-1,2.6609154E0,5.771519E-1,2.0037682E0,4.9548798E0,1.4713192E0,2.2653816E0,2.4502313E0,4.2486024E-1,3.459227E-2,2.5427827E-1,0E0,2.998104E-1,5.238538E-1,3.9338303E-1,5.962154E-1,3.814277E-1,1.2105236E0,7.6629996E-1,6.889572E-1,2.2537732E0,0E0,1.1374827E-1,2.076673E0,1.073251E1,2.2306658E-2,3.6050797E-2,1.17978096E-1,1.1101913E0,3.205801E-2,1.8819499E-1,1.0640047E0,9.7995675E-1,5.330208E0,1.3985729E0,1.2026954E0,1.1986542E-1,1.7746375E0,2.3100126E-1,0E0,0E0,0E0,0E0,0E0,0E0,0E0,0E0,0E0,0E0,0E0,0E0,0E0,0E0,0E0,0E0,0E0,0E0,0E0,0E0,0E0,0E0,0E0,0E0,0E0,0E0,0E0,0E0,0E0,0E0,0E0,0E0,0E0,0E0,0E0,0E0,0E0,0E0,0E0,0E0,0E0,0E0,0E0,0E0,0E0,0E0,0E0,0E0,0E0,0E0,0E0,0E0,0E0,0E0,0E0,0E0,0E0,0E0,0E0,0E0],"parents":[2147483647,0,0,1,1,2,2,3,3,4,4,5,5,6,6,7,7,8,8,9,9,10,10,11,11,12,12,13,13,14,14,15,15,16,16,17,17,18,18,19,19,20,20,21,21,22,22,23,23,24,24,25,25,26,26,27,27,28,28,29,29,30,30,31,31,32,32,33,33,34,34,36,36,37,37,38,38,39,39,40,40,41,41,42,42,43,43,44,44,46,46,47,47,48,48,49,49,50,50,51,51,52,52,53,53,54,54,55,55,56,56,57,57,58,58,59,59,60,60,61,61,62,62],"right_children":[2,4,6,8,10,12,14,16,18,20,22,24,26,28,30,32,34,36,38,40,42,44,46,48,50,52,54,56,58,60,62,64,66,68,70,-1,72,74,76,78,80,82,84,86,88,-1,90,92,94,96,98,100,102,104,106,108,110,112,114,116,118,120,122,-1,-1,-1,-1,-1,-1,-1,-1,-1,-1,-1,-1,-1,-1,-1,-1,-1,-1,-1,-1,-1,-1,-1,-1,-1,-1,-1,-1,-1,-1,-1,-1,-1,-1,-1,-1,-1,-1,-1,-1,-1,-1,-1,-1,-1,-1,-1,-1,-1,-1,-1,-1,-1,-1,-1,-1,-1,-1,-1,-1],"split_conditions":[-7.064303E-1,-1.2230247E0,2.5472427E-2,-3.3930037E0,-3.1917262E-1,1.3202039E0,2.3448143E0,-1.3527324E0,-1.3370781E0,-5.1560063E-2,1.0905186E0,2.753187E0,3.1602008E0,-8.920059E-2,1.1340772E0,-8.311133E0,-4.622536E0,-4.0187335E0,-9.181756E-1,-1.7536271E0,6.398867E-2,-1.0217541E0,2.779384E0,-3.1917262E-1,8.197428E-2,2.8874078E-1,3.66785E0,9.1035974E-1,2.3942215E0,3.3694246E0,3.5743465E0,-2.709181E0,-5.647146E0,-5.4422245E0,5.8624643E-1,1.5627201E-1,-1.138861E0,-1.2342064E0,5.0051564E-1,-3.1136014E0,-9.2782795E-1,-1.2096068E0,-1.0977898E0,-4.7523877E-1,1.3927991E0,-1.3273525E-1,4.0889363E0,-1.3437829E0,-2.3047605E0,-1.765533E0,-1.2840799E0,-3.1136014E0,-2.9210203E0,-2.8265753E-1,-1.1300149E0,-3.1917262E-1,-2.2338097E-1,1.3202039E0,5.0051564E-1,3.3411035E-1,4.005578E-1,4.0889363E0,4.394035E0,-2.1310659E-1,5.8076993E-2,-9.669957E-2,-2.2366595E-1,1.23977125E-1,5.473769E-2,-2.5168378E-2,6.5755375E-2,-1.4683762E-1,-1.0582885E-1,-1.5902296E-1,-1.9032866E-2,-8.0901526E-2,-1.4344177E-1,-7.2303633E-3,3.6797542E-2,-1.2477974E-2,-6.966014E-2,4.2596436E-1,5.875918E-2,4.7946416E-2,1.3639493E-1,-8.123425E-2,-4.513298E-2,-2.2592872E-2,1.3727988E-1,1.964343E-2,-6.547405E-2,8.249154E-2,2.518206E-2,-1.3615866E-1,-1.3471815E-4,5.2488256E-2,-1.2141198E-3,1.0360228E-1,1.5024097E-1,-1.9393621E-1,-1.2570432E-1,-1.4237739E-1,-5.5945423E-2,1.5017271E-2,-2.1523915E-2,1.6289055E-2,1.2736048E-1,6.328094E-2,4.951059E-3,-1.2336926E-1,2.4506016E-2,4.0213883E-2,-7.361617E-3,1.6647407E-1,7.4848644E-2,8.8966405E-3,-7.647166E-2,-1.6827717E-1,-1.10006414E-1,6.3225334E-3,8.642989E-2,-3.9462216E-2,-9.422762E-2],"split_indices":[1,1,0,2,2,2,2,1,1,0,3,1,1,1,1,2,2,0,0,2,0,1,0,2,3,1,1,2,0,2,2,0,2,2,3,0,2,1,2,0,1,1,1,0,0,0,0,2,0,0,0,0,0,0,0,2,1,2,2,3,1,0,2,0,0,0,0,0,0,0,0,0,0,0,0,0,0,0,0,0,0,0,0,0,0,0,0,0,0,0,0,0,0,0,0,0,0,0,0,0,0,0,0,0,0,0,0,0,0,0,0,0,0,0,0,0,0,0,0,0,0,0,0],"split_type":[0,0,0,0,0,0,0,0,0,0,0,0,0,0,0,0,0,0,0,0,0,0,0,0,0,0,0,0,0,0,0,0,0,0,0,0,0,0,0,0,0,0,0,0,0,0,0,0,0,0,0,0,0,0,0,0,0,0,0,0,0,0,0,0,0,0,0,0,0,0,0,0,0,0,0,0,0,0,0,0,0,0,0,0,0,0,0,0,0,0,0,0,0,0,0,0,0,0,0,0,0,0,0,0,0,0,0,0,0,0,0,0,0,0,0,0,0,0,0,0,0,0,0],"sum_hessian":[1.2076E4,3.019E3,9.057E3,7.25E2,2.294E3,4.391E3,4.666E3,4.7E1,6.78E2,2.23E2,2.071E3,4.112E3,2.79E2,4.28E3,3.86E2,2.8E1,1.9E1,1.03E2,5.75E2,1.82E2,4.1E1,2.03E3,4.1E1,4.074E3,3.8E1,2.6E2,1.9E1,1.017E3,3.263E3,1.21E2,2.65E2,1.4E1,1.4E1,8E0,1.1E1,1E0,1.02E2,2.6E1,5.49E2,1.31E2,5.1E1,3E0,3.8E1,6.27E2,1.403E3,3.7E1,4E0,5.41E2,3.533E3,2E0,3.6E1,5.8E1,2.02E2,9E0,1E1,9.97E2,2E1,3.027E3,2.36E2,8.3E1,3.8E1,2.05E2,6E1,3E0,1.1E1,9E0,5E0,4E0,4E0,8E0,3E0,4.1E1,6.1E1,2.3E1,3E0,5.39E2,1E1,3.9E1,9.2E1,3.7E1,1.4E1,1E0,2E0,2.2E1,1.6E1,5.3E1,5.74E2,1.396E3,7E0,2E0,2E0,6.4E1,4.77E2,5.2E1,3.481E3,1E0,1E0,1.6E1,2E1,6E0,5.2E1,1.4E1,1.88E2,7E0,2E0,2E0,8E0,2.8E1,9.69E2,1.5E1,5E0,2.798E3,2.29E2,1.6E1,2.2E2,1.9E1,6.4E1,1E1,2.8E1,1.77E2,2.8E1,5.2E1,8E0],"tree_param":{"num_deleted":"0","num_feature":"4","num_nodes":"123","size_leaf_vector":"1"}},{"base_weights":[-4.0855893E-4,-6.325956E-2,5.1462334E-2,-1.8163283E-1,-3.726621E-2,6.3115776E-2,-8.88014E-2,-2.252659E-1,-1.3562644E-1,-3.0438386E-2,-2.0602109E-1,4.1709263E-2,1.23327285E-1,-1.4599515E-1,6.1100055E-2,-2.2807306E-1,1.7758895E-1,1.2478732E-1,-1.471949E-1,1.211984E-1,-3.4591008E-2,-4.5381224E-1,-1.7805609E-1,5.0370608E-2,-1.2420253E-1,1.6109027E-1,7.3687695E-2,-1.752153E-1,2.715924E-2,1.7043171E-2,1.8447499E-1,-1.883055E-1,-2.244127E-1,1.5261741E-1,-2.7919712E-2,-1.4145254E-1,-1.1077516E-1,-5.2198727E-2,1.4575046E-1,-2.4604608E-1,-3.1044696E-2,-1.6692142E-1,-3.2635707E-1,-1.2395853E-1,-2.7994844E-1,4.793281E-2,3.3683455E-1,-3.219643E-1,-6.698944E-2,1.3631983E-1,2.9282337E-1,1.3123034E-2,1.9502239E-1,-2.3530069E-1,-1.2055698E-1,5.8069795E-2,-2.2980349E-1,-6.430002E-2,7.677105E-2,2.8350034E-1,1.540432E-3,1.8772195E-1,-6.8212904E-2,3.0765567E-2,1.1563489E-1,-6.988216E-2,-3.988648E-2,5.6493755E-2,-3.8405776E-2,1.4110786E-2,6.727041E-2,-2.9207679E-2,-1.3082823E-1,-5.0100447E-3,-1.9226441E-2,-2.385117E-2,-1.0348543E-1,-5.277192E-2,3.612965E-2,-5.8307886E-2,-1.1365085E-1,6.2482852E-2,1.3371599E-2,6.2834956E-2,1.3193601E-1,-1.4543784E-1,-6.9324166E-2,6.740851E-3,-4.1252367E-2,3.4753434E-2,5.8735777E-2,1.2326723E-1,6.9779E-2,-2.3181846E-2,4.7639977E-2,4.771866E-2,1.02036946E-1,-4.9822867E-2,-9.892789E-2,-7.1625195E-2,-2.9715212E-2,-5.3885616E-2,2.674863E-2,-3.497303E-2,-9.125139E-2,-6.0281125E-3,-7.9872765E-2,5.5834174E-2,6.862543E-3,6.553933E-2,1.1028592E-1,-3.290014E-2,2.959635E-2],"categories":[],"categories_nodes":[],"categories_segments":[],"categories_sizes":[],"default_left":[0,0,0,0,0,0,0,0,0,0,0,0,0,0,0,0,0,0,0,0,0,0,0,0,0,0,0,0,0,0,0,0,0,0,0,0,0,0,0,0,0,0,0,0,0,0,0,0,0,0,0,0,0,0,0,0,0,0,0,0,0,0,0,0,0,0,0,0,0,0,0,0,0,0,0,0,0,0,0,0,0,0,0,0,0,0,0,0,0,0,0,0,0,0,0,0,0,0,0,0,0,0,0,0,0,0,0,0,0,0,0,0,0],"id":7,"left_children":[1,3,5,7,9,11,13,15,17,19,21,23,25,27,29,31,-1,33,35,37,39,41,43,45,47,49,51,53,55,57,59,-1,61,63,-1,65,-1,67,69,71,73,-1,75,77,79,81,83,85,87,89,91,93,95,97,99,101,103,105,107,109,111,-1,-1,-1,-1,-1,-1,-1,-1,-1,-1,-1,-1,-1,-1,-1,-1,-1,-1,-1,-1,-1,-1,-1,-1,-1,-1,-1,-1,-1,-1,-1,-1,-1,-1,-1,-1,-1,-1,-1,-1,-1,-1,-1,-1,-1,-1,-1,-1,-1,-1,-1,-1],"loss_changes":[3.937593E1,1.6796276E1,1.0821455E1,1.9427223E0,5.154562E0,7.8701496E0,4.3642216E0,1.2889366E0,1.4674225E0,2.7156386E0,1.1249256E0,6.485778E0,2.9911404E0,1.8666906E0,7.632636E-1,5.9342766E-1,0E0,1.4152372E-1,5.3560066E-1,4.9719262E-1,3.1358824E0,4.070449E-2,8.3621407E-1,2.976943E0,2.512894E0,2.9262257E0,5.0973654E0,1.0061445E0,4.422591E-1,5.1507425E-1,6.6982436E-1,0E0,1.3995304E0,1.8195188E-1,0E0,3.1965065E-1,0E0,2.9764295E-1,7.719536E-1,1.9073229E0,1.9536777E0,0E0,1.8475771E-2,1.3542203E0,3.8340855E-1,2.281516E0,3.8001013E-1,6.2789726E-1,1.1070782E0,9.111967E-1,9.212742E-1,6.122494E0,1.1512232E0,9.1952705E-1,4.0085006E-1,3.7813902E-1,1.5063256E-2,3.9637125E-1,3.5522375E-1,5.0986767E-2,1.620166E-1,0E0,0E0,0E0,0E0,0E0,0E0,0E0,0E0,0E0,0E0,0E0,0E0,0E0,0E0,0E0,0E0,0E0,0E0,0E0,0E0,0E0,0E0,0E0,0E0,0E0,0E0,0E0,0E0,0E0,0E0,0E0,0E0,0E0,0E0,0E0,0E0,0E0,0E0,0E0,0E0,0E0,0E0,0E0,0E0,0E0,0E0,0E0,0E0,0E0,0E0,0E0,0E0],"parents":[2147483647,0,0,1,1,2,2,3,3,4,4,5,5,6,6,7,7,8,8,9,9,10,10,11,11,12,12,13,13,14,14,15,15,17,17,18,18,19,19,20,20,21,21,22,22,23,23,24,24,25,25,26,26,27,27,28,28,29,29,30,30,32,32,33,33,35,35,37,37,38,38,39,39,40,40,42,42,43,43,44,44,45,45,46,46,47,47,48,48,49,49,50,50,51,51,52,52,53,53,54,54,55,55,56,56,57,57,58,58,59,59,60,60],"right_children":[2,4,6,8,10,12,14,16,18,20,22,24,26,28,30,32,-1,34,36,38,40,42,44,46,48,50,52,54,56,58,60,-1,62,64,-1,66,-1,68,70,72,74,-1,76,78,80,82,84,86,88,90,92,94,96,98,100,102,104,106,108,110,112,-1,-1,-1,-1,-1,-1,-1,-1,-1,-1,-1,-1,-1,-1,-1,-1,-1,-1,-1,-1,-1,-1,-1,-1,-1,-1,-1,-1,-1,-1,-1,-1,-1,-1,-1,-1,-1,-1,-1,-1,-1,-1,-1,-1,-1,-1,-1,-1,-1,-1,-1,-1],"split_conditions":[-2.8823483E-1,-1.1380439E0,2.3448143E0,-1.2677516E0,7.054377E-1,8.768981E-1,2.2298834E0,1.0810021E1,-3.3930037E0,-1.9585491E0,-1.4188868E0,5.0051564E-1,5.0051564E-1,3.4726763E0,3.8193226E0,-1.24095745E1,1.7758895E-1,1.5947907E0,9.1035974E-1,-4.0187335E0,-1.765533E0,-2.3047605E0,1.1152818E0,1.1231854E0,-5.715294E-1,-1.1425057E-1,2.6391337E0,1.1027684E0,4.1891127E0,2.753187E0,2.7546585E0,-1.883055E-1,-1.2204653E1,-1.1648799E0,-2.7919712E-2,-1.4188868E0,-1.1077516E-1,-1.0798991E0,-1.0552993E0,-6.035587E-1,9.0671495E-2,-1.6692142E-1,3.3411035E-1,1.4102116E-1,8.383825E-1,-9.339388E-1,8.383825E-1,3.1561743E-2,5.8624643E-1,1.3756019E0,9.0671495E-2,1.5468642E0,3.66785E0,3.1645024E0,-1.0144662E0,6.510278E-1,8.383825E-1,2.779384E0,1.5947907E0,1.3426546E0,2.6391337E0,1.8772195E-1,-6.8212904E-2,3.0765567E-2,1.1563489E-1,-6.988216E-2,-3.988648E-2,5.6493755E-2,-3.8405776E-2,1.4110786E-2,6.727041E-2,-2.9207679E-2,-1.3082823E-1,-5.0100447E-3,-1.9226441E-2,-2.385117E-2,-1.0348543E-1,-5.277192E-2,3.612965E-2,-5.8307886E-2,-1.1365085E-1,6.2482852E-2,1.3371599E-2,6.2834956E-2,1.3193601E-1,-1.4543784E-1,-6.9324166E-2,6.740851E-3,-4.1252367E-2,3.4753434E-2,5.8735777E-2,1.2326723E-1,6.9779E-2,-2.3181846E-2,4.7639977E-2,4.771866E-2,1.02036946E-1,-4.9822867E-2,-9.892789E-2,-7.1625195E-2,-2.9715212E-2,-5.3885616E-2,2.674863E-2,-3.497303E-2,-9.125139E-2,-6.0281125E-3,-7.9872765E-2,5.5834174E-2,6.862543E-3,6.553933E-2,1.1028592E-1,-3.290014E-2,2.959635E-2],"split_indices":[1,1,2,1,2,1,1,0,2,2,0,2,2,0,0,2,0,3,2,0,0,0,2,0,0,2,1,1,2,1,2,0,2,1,0,0,0,1,1,1,2,0,3,0,3,2,3,1,3,1,2,0,1,2,0,1,3,0,3,3,1,0,0,0,0,0,0,0,0,0,0,0,0,0,0,0,0,0,0,0,0,0,0,0,0,0,0,0,0,0,0,0,0,0,0,0,0,0,0,0,0,0,0,0,0,0,0,0,0,0,0,0,0],"split_type":[0,0,0,0,0,0,0,0,0,0,0,0,0,0,0,0,0,0,0,0,0,0,0,0,0,0,0,0,0,0,0,0,0,0,0,0,0,0,0,0,0,0,0,0,0,0,0,0,0,0,0,0,0,0,0,0,0,0,0,0,0,0,0,0,0,0,0,0,0,0,0,0,0,0,0,0,0,0,0,0,0,0,0,0,0,0,0,0,0,0,0,0,0,0,0,0,0,0,0,0,0,0,0,0,0,0,0,0,0,0,0,0,0],"sum_hessian":[1.2076E4,5.46E3,6.616E3,9.82E2,4.478E3,6.109E3,5.07E2,5.02E2,4.8E2,4.305E3,1.73E2,4.508E3,1.601E3,3.67E2,1.4E2,5.01E2,1E0,2E1,4.6E2,1.14E2,4.191E3,1.6E1,1.57E2,4.285E3,2.23E2,9.08E2,6.93E2,3.14E2,5.3E1,1.04E2,3.6E1,3E0,4.98E2,1.8E1,2E0,4.5E2,1E1,1.4E1,1E2,6.8E1,4.123E3,7E0,9E0,1.04E2,5.3E1,4.25E3,3.5E1,4.9E1,1.74E2,7.66E2,1.42E2,4.63E2,2.3E2,1.48E2,1.66E2,4.8E1,5E0,4.4E1,6E1,2.3E1,1.3E1,1E0,4.97E2,1.6E1,2E0,3.6E1,4.14E2,3E0,1.1E1,4.5E1,5.5E1,3.9E1,2.9E1,2.876E3,1.247E3,1E0,8E0,8.6E1,1.8E1,3E1,2.3E1,8.6E1,4.164E3,1.7E1,1.8E1,1.6E1,3.3E1,7.7E1,9.7E1,5.72E2,1.94E2,4.6E1,9.6E1,2.86E2,1.77E2,1.86E2,4.4E1,8.7E1,6.1E1,2.4E1,1.42E2,5E0,4.3E1,3E0,2E0,3.7E1,7E0,1.9E1,4.1E1,1.5E1,8E0,6E0,7E0],"tree_param":{"num_deleted":"0","num_feature":"4","num_nodes":"113","size_leaf_vector":"1"}},{"base_weights":[-3.1355713E-4,-5.619757E-2,3.019273E-2,-1.4624476E-1,-4.022999E-2,7.452343E-4,6.603256E-2,-1.3815017E-1,-3.2550493E-1,-1.6417565E-2,-8.505704E-2,4.713726E-3,-2.655965E-1,8.158864E-2,-5.280373E-3,2.6004103E-1,-1.4315407E-1,-1.507591E-1,-2.7286878E-1,4.3289613E-2,-2.8538669E-2,-2.3917156E-1,-6.8280704E-2,-9.459628E-2,9.642316E-3,-1.8170565E-1,-3.2346725E-1,2.531446E-1,7.6494105E-2,-4.5166157E-2,1.1988601E-1,-1.3006872E-1,5.6350255E-1,-2.2068226E-1,-1.2785378E-1,4.228745E-3,-1.11274995E-1,-2.2376737E-2,9.877034E-2,-3.1113398E-1,-2.4153927E-2,-3.0104232E-1,5.8555182E-2,-8.6323075E-2,1.9135484E-2,-1.3439178E-1,1.8315613E-2,2.0843416E-1,5.665045E-3,-3.6096293E-1,-1.3678932E-1,-2.482185E-1,-4.122676E-1,3.8985598E-1,1.6840498E-1,6.794879E-2,1.8366349E-1,-8.714911E-2,5.242998E-2,8.405971E-2,3.2939446E-1,3.223949E-2,2.9511556E-1,1.1333949E-1,-7.1075074E-2,9.91401E-2,-3.9910726E-2,-2.8121585E-2,1.0853922E-2,7.913653E-3,-2.241468E-2,4.503162E-2,1.4791056E-2,-1.2074014E-1,1.3936751E-2,-7.815132E-3,5.7572205E-2,-1.2942713E-1,-7.376363E-2,4.9599603E-2,-2.5833063E-2,-2.1976518E-2,-6.78156E-2,2.6836913E-2,-2.624782E-2,-2.1651861E-1,-3.5178766E-2,1.4323969E-1,-1.858042E-2,5.1208783E-2,1.1143646E-1,-3.8664234E-3,5.688261E-3,-3.1415947E-2,-1.19653136E-1,-1.0778336E-2,-6.5811016E-2,-1.0581478E-1,-5.9020795E-2,-1.4550339E-1,-6.6695064E-2,7.567086E-2,1.4257048E-1,3.8797323E-2,6.2100682E-2,1.861715E-2,6.540993E-2,1.07137635E-1,4.1993175E-2,-1.6267117E-2,-3.8582068E-2,-2.9625548E-2,3.042931E-2,-9.517986E-2,2.780234E-2,1.4070034E-1,7.4318826E-2],"categories":[],"categories_nodes":[],"categories_segments":[],"categories_sizes":[],"default_left":[0,0,0,0,0,0,0,0,0,0,0,0,0,0,0,0,0,0,0,0,0,0,0,0,0,0,0,0,0,0,0,0,0,0,0,0,0,0,0,0,0,0,0,0,0,0,0,0,0,0,0,0,0,0,0,0,0,0,0,0,0,0,0,0,0,0,0,0,0,0,0,0,0,0,0,0,0,0,0,0,0,0,0,0,0,0,0,0,0,0,0,0,0,0,0,0,0,0,0,0,0,0,0,0,0,0,0,0,0,0,0,0,0,0,0,0,0],"id":8,"left_children":[1,3,5,7,9,11,13,15,17,19,21,23,25,27,29,31,33,-1,35,37,39,41,43,45,47,49,51,53,55,57,59,-1,61,63,65,67,-1,69,71,73,75,77,79,81,83,85,87,89,91,93,95,97,99,101,103,105,107,109,111,113,115,-1,-1,-1,-1,-1,-1,-1,-1,-1,-1,-1,-1,-1,-1,-1,-1,-1,-1,-1,-1,-1,-1,-1,-1,-1,-1,-1,-1,-1,-1,-1,-1,-1,-1,-1,-1,-1,-1,-1,-1,-1,-1,-1,-1,-1,-1,-1,-1,-1,-1,-1,-1,-1,-1,-1,-1],"loss_changes":[2.059073E1,6.126485E0,8.245737E0,8.8659763E-1,3.8670096E0,4.5356746E0,3.9097815E0,1.2646132E0,1.14459515E-1,1.7149973E0,3.233614E0,2.0703418E0,2.4707794E-1,2.5091095E0,3.1605859E0,1.9281689E0,6.941824E-1,0E0,6.264515E-1,1.4594969E0,2.4322875E0,2.2833586E0,1.791769E0,9.011388E-1,3.1843445E0,1.7606837E-1,1.3822389E-1,8.9589024E-1,2.561823E0,1.9713087E0,1.1207161E0,0E0,1.0440902E0,1.0514016E0,1.2575893E0,2.5302524E-2,0E0,4.7150424E-1,5.4364514E-1,9.984906E-1,7.999389E-1,6.275387E-1,3.5406885E-1,1.7016878E0,1.4699738E0,1.4043419E0,1.9824599E0,4.2261076E-1,9.748733E-1,6.7666173E-3,1.9201976E-1,4.8963428E-2,9.943962E-2,2.4437332E-1,5.317509E-2,2.289917E0,1.5186357E0,4.5167089E-1,1.0841861E0,4.8576933E-1,1.3463616E-1,0E0,0E0,0E0,0E0,0E0,0E0,0E0,0E0,0E0,0E0,0E0,0E0,0E0,0E0,0E0,0E0,0E0,0E0,0E0,0E0,0E0,0E0,0E0,0E0,0E0,0E0,0E0,0E0,0E0,0E0,0E0,0E0,0E0,0E0,0E0,0E0,0E0,0E0,0E0,0E0,0E0,0E0,0E0,0E0,0E0,0E0,0E0,0E0,0E0,0E0,0E0,0E0,0E0,0E0,0E0,0E0],"parents":[2147483647,0,0,1,1,2,2,3,3,4,4,5,5,6,6,7,7,8,8,9,9,10,10,11,11,12,12,13,13,14,14,15,15,16,16,18,18,19,19,20,20,21,21,22,22,23,23,24,24,25,25,26,26,27,27,28,28,29,29,30,30,32,32,33,33,34,34,35,35,37,37,38,38,39,39,40,40,41,41,42,42,43,43,44,44,45,45,46,46,47,47,48,48,49,49,50,50,51,51,52,52,53,53,54,54,55,55,56,56,57,57,58,58,59,59,60,60],"right_children":[2,4,6,8,10,12,14,16,18,20,22,24,26,28,30,32,34,-1,36,38,40,42,44,46,48,50,52,54,56,58,60,-1,62,64,66,68,-1,70,72,74,76,78,80,82,84,86,88,90,92,94,96,98,100,102,104,106,108,110,112,114,116,-1,-1,-1,-1,-1,-1,-1,-1,-1,-1,-1,-1,-1,-1,-1,-1,-1,-1,-1,-1,-1,-1,-1,-1,-1,-1,-1,-1,-1,-1,-1,-1,-1,-1,-1,-1,-1,-1,-1,-1,-1,-1,-1,-1,-1,-1,-1,-1,-1,-1,-1,-1,-1,-1,-1,-1],"split_conditions":[-2.0562504E-1,-1.2096068E0,1.6350578E-1,8.383825E-1,9.0671495E-2,1.525126E0,1.7300481E0,-8.311133E0,-7.0816007E0,-5.240947E-1,-1.9388561E0,-1.1223894E0,5.8624643E-1,-5.240947E-1,2.753187E0,-1.24095745E1,-1.3370781E0,-1.507591E-1,-9.339388E-1,-2.3047605E0,-2.709181E0,2.1583207E0,1.337584E0,3.7211862E-1,-3.1917262E-1,1.0250492E-1,8.535717E-1,1.0021331E0,1.3927991E0,3.0104814E0,4.0889363E0,-1.3006872E-1,5.8624643E-1,-3.498764E0,-4.417614E0,-1.2840799E0,-1.11274995E-1,-1.7536271E0,-1.138861E0,1.1027684E0,1.554509E0,-2.9210203E0,1.525126E0,1.0905186E0,1.7300481E0,-8.516055E0,-5.647146E0,8.9208794E-1,-3.8663375E-1,-9.007631E-2,8.535717E-1,1.9349701E0,-1.9833515E-3,1.9879553E-1,1.0250492E-1,2.1583207E0,5.0051564E-1,1.3426546E0,1.198931E0,-1.9351143E0,2.139892E0,3.223949E-2,2.9511556E-1,1.1333949E-1,-7.1075074E-2,9.91401E-2,-3.9910726E-2,-2.8121585E-2,1.0853922E-2,7.913653E-3,-2.241468E-2,4.503162E-2,1.4791056E-2,-1.2074014E-1,1.3936751E-2,-7.815132E-3,5.7572205E-2,-1.2942713E-1,-7.376363E-2,4.9599603E-2,-2.5833063E-2,-2.1976518E-2,-6.78156E-2,2.6836913E-2,-2.624782E-2,-2.1651861E-1,-3.5178766E-2,1.4323969E-1,-1.858042E-2,5.1208783E-2,1.1143646E-1,-3.8664234E-3,5.688261E-3,-3.1415947E-2,-1.19653136E-1,-1.0778336E-2,-6.5811016E-2,-1.0581478E-1,-5.9020795E-2,-1.4550339E-1,-6.6695064E-2,7.567086E-2,1.4257048E-1,3.8797323E-2,6.2100682E-2,1.861715E-2,6.540993E-2,1.07137635E-1,4.1993175E-2,-1.6267117E-2,-3.8582068E-2,-2.9625548E-2,3.042931E-2,-9.517986E-2,2.780234E-2,1.4070034E-1,7.4318826E-2],"split_indices":[0,1,1,3,2,2,2,2,2,2,0,1,3,2,1,2,1,0,2,0,0,1,1,0,2,0,0,1,0,0,0,0,3,0,2,0,0,2,2,1,1,0,2,3,2,2,2,0,1,0,0,2,1,0,0,1,2,3,1,3,2,0,0,0,0,0,0,0,0,0,0,0,0,0,0,0,0,0,0,0,0,0,0,0,0,0,0,0,0,0,0,0,0,0,0,0,0,0,0,0,0,0,0,0,0,0,0,0,0,0,0,0,0,0,0,0,0],"split_type":[0,0,0,0,0,0,0,0,0,0,0,0,0,0,0,0,0,0,0,0,0,0,0,0,0,0,0,0,0,0,0,0,0,0,0,0,0,0,0,0,0,0,0,0,0,0,0,0,0,0,0,0,0,0,0,0,0,0,0,0,0,0,0,0,0,0,0,0,0,0,0,0,0,0,0,0,0,0,0,0,0,0,0,0,0,0,0,0,0,0,0,0,0,0,0,0,0,0,0,0,0,0,0,0,0,0,0,0,0,0,0,0,0,0,0,0,0],"sum_hessian":[1.2076E4,4.264E3,7.812E3,6.41E2,3.623E3,4.289E3,3.523E3,6.15E2,2.6E1,2.367E3,1.256E3,4.227E3,6.2E1,2.892E3,6.31E2,7E0,6.08E2,4E0,2.2E1,3.99E2,1.968E3,1.22E2,1.134E3,1.99E2,4.028E3,2.7E1,3.5E1,8.2E1,2.81E3,4.79E2,1.52E2,2E0,5E0,9.8E1,5.1E2,6E0,1.6E1,1.83E2,2.16E2,2.9E1,1.939E3,1.01E2,2.1E1,9.4E2,1.94E2,1.47E2,5.2E1,7.8E1,3.95E3,4E0,2.3E1,2.1E1,1.4E1,3E1,5.2E1,2.604E3,2.06E2,3.35E2,1.44E2,1.31E2,2.1E1,3E0,2E0,2E0,9.6E1,5E0,5.05E2,1E0,5E0,9.5E1,8.8E1,1.05E2,1.11E2,2.3E1,6E0,1.923E3,1.6E1,2.8E1,7.3E1,1.2E1,9E0,8.61E2,7.9E1,1.17E2,7.7E1,3E0,1.44E2,7E0,4.5E1,6.5E1,1.3E1,1.649E3,2.301E3,1E0,3E0,1.1E1,1.2E1,5E0,1.6E1,9E0,5E0,1.3E1,1.7E1,2.8E1,2.4E1,2.507E3,9.7E1,4E1,1.66E2,1.88E2,1.47E2,3.5E1,1.09E2,2E0,1.29E2,6E0,1.5E1],"tree_param":{"num_deleted":"0","num_feature":"4","num_nodes":"117","size_leaf_vector":"1"}},{"base_weights":[-2.3458162E-4,-2.819018E-2,3.1943027E-2,-1.1081573E-1,-1.94976E-2,4.2421382E-2,-2.8091658E-2,-1.0256296E-1,-2.4464567E-1,-1.4866685E-2,-1.3572095E-1,2.4511572E-2,7.4107334E-2,-7.124331E-2,4.12267E-2,9.4458215E-2,-1.09029815E-1,-2.1618947E-1,-1.818235E-1,-4.2888537E-2,-3.405854E-3,-3.061611E-1,-1.08803384E-1,1.9906059E-2,1.524961E-1,1.2914045E-1,5.8052037E-2,-8.713343E-2,1.0978429E-1,-6.355079E-2,9.539792E-2,-1.3212344E-1,1.8329062E-1,-1.4298183E-1,-9.022027E-2,-3.8192305E-1,-1.8136089E-1,3.4795757E-2,-5.076948E-2,1.3859005E-1,-6.975829E-3,-3.474414E-1,-1.7123583E-1,-8.163302E-2,-2.058375E-1,-1.2392303E-1,2.4370216E-2,2.2964525E-1,1.0029979E-1,2.543487E-1,1.13252565E-1,4.5480013E-2,1.2894215E-1,-8.000665E-2,-2.0215799E-1,3.2646205E-2,1.784259E-1,-1.1130158E-1,7.895938E-3,1.4876005E-1,2.1409689E-2,-6.91739E-3,1.6963181E-1,1.2606223E-1,-4.4384543E-2,-1.1732341E-1,-2.548661E-2,-2.3598148E-2,-1.3142207E-1,-3.0124865E-3,-7.995553E-2,2.1328125E-3,8.038659E-2,-3.774372E-2,-1.2150813E-2,3.2180087E-3,5.1996775E-2,-1.8238355E-3,-7.654752E-2,-1.0995034E-1,7.921923E-3,-7.18056E-3,-5.5996954E-2,-3.196676E-2,3.0317573E-2,3.660161E-3,-8.8037826E-2,-1.7438607E-2,-6.713205E-2,1.8647902E-2,3.6405032E-3,5.053506E-2,9.291874E-2,7.0939935E-4,5.5252988E-2,8.604204E-2,2.2948109E-2,3.1546313E-2,5.772296E-2,1.2275818E-2,6.37665E-2,7.098066E-2,2.5405094E-2,-3.0920016E-2,-1.2507116E-2,-9.748938E-2,-3.324098E-2,4.866433E-2,-2.214737E-3,6.812496E-2,1.9467067E-2,-1.1769093E-2,-5.2204583E-2,1.0845637E-2,-6.761518E-2,3.2935433E-2,7.6849565E-2,-3.741129E-2,1.2999964E-2],"categories":[],"categories_nodes":[],"categories_segments":[],"categories_sizes":[],"default_left":[0,0,0,0,0,0,0,0,0,0,0,0,0,0,0,0,0,0,0,0,0,0,0,0,0,0,0,0,0,0,0,0,0,0,0,0,0,0,0,0,0,0,0,0,0,0,0,0,0,0,0,0,0,0,0,0,0,0,0,0,0,0,0,0,0,0,0,0,0,0,0,0,0,0,0,0,0,0,0,0,0,0,0,0,0,0,0,0,0,0,0,0,0,0,0,0,0,0,0,0,0,0,0,0,0,0,0,0,0,0,0,0,0,0,0,0,0,0,0],"id":9,"left_children":[1,3,5,7,9,11,13,15,17,19,21,23,25,27,29,31,33,35,-1,37,39,41,43,45,47,49,51,53,55,57,59,-1,61,63,65,67,69,71,73,75,77,79,81,83,85,87,89,91,93,95,97,99,101,103,105,107,109,111,113,115,117,-1,-1,-1,-1,-1,-1,-1,-1,-1,-1,-1,-1,-1,-1,-1,-1,-1,-1,-1,-1,-1,-1,-1,-1,-1,-1,-1,-1,-1,-1,-1,-1,-1,-1,-1,-1,-1,-1,-1,-1,-1,-1,-1,-1,-1,-1,-1,-1,-1,-1,-1,-1,-1,-1,-1,-1,-1,-1],"loss_changes":[1.0864697E1,4.639755E0,3.53339E0,6.541562E-1,3.1460342E0,2.7113504E0,2.5005906E0,7.505555E-1,2.289474E-1,1.8066647E0,9.943638E-1,1.7982762E0,1.5175495E0,1.4909892E0,1.8280342E0,9.834847E-1,3.4664392E-1,1.2699115E-1,0E0,1.0015309E0,2.0256126E0,1.0759854E-1,4.9730515E-1,1.8977858E0,4.0381813E-1,7.450299E-1,1.186605E0,3.7238932E-1,2.1656007E-1,3.76159E-1,8.3382726E-1,0E0,1.3535873E0,6.1880445E-1,5.4493165E-1,5.0682664E-2,4.3499756E-1,9.728519E-1,1.13748E0,4.3336034E-1,8.6539614E-1,1.6643715E-1,1.5975595E-2,7.119603E-1,8.059864E-1,5.7168627E-1,1.3229876E0,1.5365696E-1,5.335063E-1,2.2629309E-1,2.022047E-1,8.584194E-1,9.3770313E-1,3.9154506E-1,2.6690495E-1,1.1011283E-1,1.0680002E-1,2.9148376E-1,3.0477005E-1,4.86773E-1,2.937038E-1,0E0,0E0,0E0,0E0,0E0,0E0,0E0,0E0,0E0,0E0,0E0,0E0,0E0,0E0,0E0,0E0,0E0,0E0,0E0,0E0,0E0,0E0,0E0,0E0,0E0,0E0,0E0,0E0,0E0,0E0,0E0,0E0,0E0,0E0,0E0,0E0,0E0,0E0,0E0,0E0,0E0,0E0,0E0,0E0,0E0,0E0,0E0,0E0,0E0,0E0,0E0,0E0,0E0,0E0,0E0,0E0,0E0,0E0],"parents":[2147483647,0,0,1,1,2,2,3,3,4,4,5,5,6,6,7,7,8,8,9,9,10,10,11,11,12,12,13,13,14,14,15,15,16,16,17,17,19,19,20,20,21,21,22,22,23,23,24,24,25,25,26,26,27,27,28,28,29,29,30,30,32,32,33,33,34,34,35,35,36,36,37,37,38,38,39,39,40,40,41,41,42,42,43,43,44,44,45,45,46,46,47,47,48,48,49,49,50,50,51,51,52,52,53,53,54,54,55,55,56,56,57,57,58,58,59,59,60,60],"right_children":[2,4,6,8,10,12,14,16,18,20,22,24,26,28,30,32,34,36,-1,38,40,42,44,46,48,50,52,54,56,58,60,-1,62,64,66,68,70,72,74,76,78,80,82,84,86,88,90,92,94,96,98,100,102,104,106,108,110,112,114,116,118,-1,-1,-1,-1,-1,-1,-1,-1,-1,-1,-1,-1,-1,-1,-1,-1,-1,-1,-1,-1,-1,-1,-1,-1,-1,-1,-1,-1,-1,-1,-1,-1,-1,-1,-1,-1,-1,-1,-1,-1,-1,-1,-1,-1,-1,-1,-1,-1,-1,-1,-1,-1,-1,-1,-1,-1,-1,-1],"split_conditions":[-1.1380033E-1,-1.2520971E0,1.7300481E0,8.383825E-1,7.054377E-1,2.7582803E-1,1.9127685E0,-5.8520684E0,2.5675447E0,-3.0191565E-1,-1.2840799E0,2.2298834E0,-3.1917262E-1,3.3413444E0,1.7311798E0,-6.744339E-1,-1.3124783E0,-7.0816007E0,-1.818235E-1,-1.7536271E0,-3.1917262E-1,1.9349701E0,-4.8950538E-1,-2.4780836E0,7.054377E-1,-5.240947E-1,1.5468642E0,3.9841907E0,3.66785E0,3.4726763E0,2.5497363E0,-1.3212344E-1,2.9508615E-1,-4.0187335E0,-1.9388561E0,1.0905186E0,-1.138861E0,-5.633046E-1,-5.715294E-1,-5.1560063E-2,1.5947907E0,1.5947907E0,8.383825E-1,1.3927991E0,3.3411035E-1,-5.240947E-1,-3.1917262E-1,2.6391337E0,2.8627677E0,1.2615485E0,7.765392E-1,2.6391337E0,5.8624643E-1,2.7546585E0,8.32468E-2,1.3426546E0,2.351199E0,8.383825E-1,1.5947907E0,4.0889363E0,8.197428E-2,-6.91739E-3,1.6963181E-1,1.2606223E-1,-4.4384543E-2,-1.1732341E-1,-2.548661E-2,-2.3598148E-2,-1.3142207E-1,-3.0124865E-3,-7.995553E-2,2.1328125E-3,8.038659E-2,-3.774372E-2,-1.2150813E-2,3.2180087E-3,5.1996775E-2,-1.8238355E-3,-7.654752E-2,-1.0995034E-1,7.921923E-3,-7.18056E-3,-5.5996954E-2,-3.196676E-2,3.0317573E-2,3.660161E-3,-8.8037826E-2,-1.7438607E-2,-6.713205E-2,1.8647902E-2,3.6405032E-3,5.053506E-2,9.291874E-2,7.0939935E-4,5.5252988E-2,8.604204E-2,2.2948109E-2,3.1546313E-2,5.772296E-2,1.2275818E-2,6.37665E-2,7.098066E-2,2.5405094E-2,-3.0920016E-2,-1.2507116E-2,-9.748938E-2,-3.324098E-2,4.866433E-2,-2.214737E-3,6.812496E-2,1.9467067E-2,-1.1769093E-2,-5.2204583E-2,1.0845637E-2,-6.761518E-2,3.2935433E-2,7.6849565E-2,-3.741129E-2,1.2999964E-2],"split_indices":[1,1,2,3,2,0,0,2,0,0,0,1,2,1,1,3,1,2,0,2,2,2,1,0,2,2,0,2,1,0,2,0,0,0,0,3,2,1,0,0,3,3,3,0,3,2,2,1,1,1,0,1,3,2,0,3,3,3,3,0,3,0,0,0,0,0,0,0,0,0,0,0,0,0,0,0,0,0,0,0,0,0,0,0,0,0,0,0,0,0,0,0,0,0,0,0,0,0,0,0,0,0,0,0,0,0,0,0,0,0,0,0,0,0,0,0,0,0,0],"split_type":[0,0,0,0,0,0,0,0,0,0,0,0,0,0,0,0,0,0,0,0,0,0,0,0,0,0,0,0,0,0,0,0,0,0,0,0,0,0,0,0,0,0,0,0,0,0,0,0,0,0,0,0,0,0,0,0,0,0,0,0,0,0,0,0,0,0,0,0,0,0,0,0,0,0,0,0,0,0,0,0,0,0,0,0,0,0,0,0,0,0,0,0,0,0,0,0,0,0,0,0,0,0,0,0,0,0,0,0,0,0,0,0,0,0,0,0,0,0,0],"sum_hessian":[1.2076E4,6.462E3,5.614E3,6.14E2,5.848E3,4.78E3,8.34E2,5.8E2,3.4E1,5.625E3,2.23E2,3.055E3,1.725E3,5.14E2,3.2E2,1.8E1,5.62E2,3.3E1,1E0,1.632E3,3.993E3,2.9E1,1.94E2,2.95E3,1.05E2,3.88E2,1.337E3,4.73E2,4.1E1,1.09E2,2.11E2,2E0,1.6E1,1.98E2,3.64E2,4E0,2.9E1,1.5E2,1.482E3,9.7E1,3.896E3,2.1E1,8E0,1.53E2,4.1E1,8.8E1,2.862E3,4.1E1,6.4E1,4.2E1,3.46E2,1.137E3,2E2,4.47E2,2.6E1,2E1,2.1E1,6.5E1,4.4E1,1.22E2,8.9E1,1.1E1,5E0,1E0,1.97E2,5E0,3.59E2,1E0,3E0,1E1,1.9E1,1.35E2,1.5E1,1.77E2,1.305E3,2.1E1,7.6E1,3.883E3,1.3E1,2E1,1E0,1E0,7E0,1.35E2,1.8E1,1.2E1,2.9E1,5.4E1,3.4E1,6.99E2,2.163E3,2.5E1,1.6E1,3E1,3.4E1,3.5E1,7E0,3.16E2,3E1,1.108E3,2.9E1,5.7E1,1.43E2,2.78E2,1.69E2,1E1,1.6E1,4E0,1.6E1,1.4E1,7E0,3.1E1,3.4E1,4E1,4E0,9.1E1,3.1E1,1.1E1,7.8E1],"tree_param":{"num_deleted":"0","num_feature":"4","num_nodes":"119","size_leaf_vector":"1"}},{"base_weights":[-1.8571914E-4,-2.3455111E-2,2.083928E-2,-6.567701E-2,-1.3941151E-2,6.440932E-2,1.3183623E-2,-6.1065957E-2,-1.8411689E-1,7.0257924E-2,-1.7402647E-2,-1.9713108E-1,6.769008E-2,-1.2769105E-1,1.52462125E-2,8.224033E-2,-6.5809906E-2,-2.102665E-1,1.21435285E-1,-1.3724224E-1,1.0505193E-1,-1.037557E-1,-1.144596E-2,-2.9103607E-3,-4.6845803E-1,5.9082408E-2,1.5439564E-1,-1.1090197E-1,-9.3202874E-2,1.73202E-2,-1.0282123E-1,1.9338869E-1,-1.9273977E-1,3.6339834E-2,-6.883975E-2,-2.1632177E-1,2.0668032E-3,-6.7889765E-2,-3.2569364E-1,8.6859375E-2,2.6221913E-1,-2.0606104E-1,-2.7171157E-2,-9.930481E-3,-1.0218683E-1,-2.3322573E-1,2.8571144E-1,-1.5224187E-1,-1.8855646E-1,3.302866E-2,7.912175E-2,1.9065228E-1,2.0325392E-2,-7.373526E-2,-1.9942261E-1,1.5488516E-2,1.4133354E-1,-1.7924435E-1,-5.0491292E-2,-1.0267147E-1,7.72915E-2,-7.84799E-2,6.4049914E-2,-1.2093563E-1,1.9929565E-2,-9.807243E-2,-2.005972E-2,-1.0185212E-1,-5.8640096E-2,-6.279243E-2,-6.6907876E-3,-1.4043471E-1,6.072301E-3,1.0181678E-1,2.2600178E-2,2.8989334E-2,9.280877E-2,-2.9487936E-2,-7.370437E-2,4.580772E-3,-3.8905855E-2,-4.8618317E-3,5.4657226E-3,-5.0734513E-2,-1.191969E-2,-1.394696E-1,1.04019895E-1,1.0408369E-1,1.5301333E-2,-1.2806644E-1,5.9557594E-2,3.517404E-2,5.8886413E-3,-2.157823E-2,2.5038594E-2,7.355841E-2,3.8603924E-2,-4.1936576E-2,2.6248157E-2,-1.5088891E-2,-4.4888105E-2,-8.0674894E-2,-6.6055874E-3,5.706282E-3,-1.1068566E-2,8.5410565E-2,2.9507086E-2,-3.79484E-2,-5.985133E-2,1.8174045E-2,-2.1079587E-2],"categories":[],"categories_nodes":[],"categories_segments":[],"categories_sizes":[],"default_left":[0,0,0,0,0,0,0,0,0,0,0,0,0,0,0,0,0,0,0,0,0,0,0,0,0,0,0,0,0,0,0,0,0,0,0,0,0,0,0,0,0,0,0,0,0,0,0,0,0,0,0,0,0,0,0,0,0,0,0,0,0,0,0,0,0,0,0,0,0,0,0,0,0,0,0,0,0,0,0,0,0,0,0,0,0,0,0,0,0,0,0,0,0,0,0,0,0,0,0,0,0,0,0,0,0,0,0,0,0,0,0],"id":10,"left_children":[1,3,5,7,9,11,13,15,17,19,21,23,25,27,29,31,33,35,-1,37,39,41,43,45,47,49,51,53,-1,55,57,59,61,63,65,67,-1,69,71,73,75,77,79,81,83,85,87,89,-1,91,93,95,97,99,101,103,105,107,109,-1,-1,-1,-1,-1,-1,-1,-1,-1,-1,-1,-1,-1,-1,-1,-1,-1,-1,-1,-1,-1,-1,-1,-1,-1,-1,-1,-1,-1,-1,-1,-1,-1,-1,-1,-1,-1,-1,-1,-1,-1,-1,-1,-1,-1,-1,-1,-1,-1,-1,-1,-1],"loss_changes":[5.9090276E0,2.302016E0,2.1155717E0,5.6438065E-1,1.3652313E0,8.267772E-1,1.5704255E0,6.961267E-1,6.8569446E-1,1.3500736E0,2.3114567E0,6.3100433E-1,6.901922E-1,2.0517313E-1,1.3047367E0,1.045872E0,3.070469E-1,5.1457882E-2,0E0,3.307671E-1,4.3184793E-1,2.2665532E0,5.775144E-1,5.9842753E-1,1.5738595E-1,4.432602E-1,4.044435E-1,2.2546697E-1,0E0,1.1858227E0,3.5887778E-1,9.141057E-1,3.3558756E-1,4.102819E-1,4.65158E-1,2.8690815E-2,0E0,1.3071586E-1,3.543561E-1,3.9354765E-1,9.5008135E-2,5.0530434E-1,7.2856015E-1,7.314744E-1,2.816987E-1,8.329992E-1,3.9792597E-2,3.7375873E-1,0E0,4.186331E-1,3.219967E-1,1.9153738E-1,2.165682E-1,8.6752E-2,2.5297654E-1,9.5459116E-1,4.402702E-1,1.4306068E-2,1.272509E-1,0E0,0E0,0E0,0E0,0E0,0E0,0E0,0E0,0E0,0E0,0E0,0E0,0E0,0E0,0E0,0E0,0E0,0E0,0E0,0E0,0E0,0E0,0E0,0E0,0E0,0E0,0E0,0E0,0E0,0E0,0E0,0E0,0E0,0E0,0E0,0E0,0E0,0E0,0E0,0E0,0E0,0E0,0E0,0E0,0E0,0E0,0E0,0E0,0E0,0E0,0E0,0E0],"parents":[2147483647,0,0,1,1,2,2,3,3,4,4,5,5,6,6,7,7,8,8,9,9,10,10,11,11,12,12,13,13,14,14,15,15,16,16,17,17,19,19,20,20,21,21,22,22,23,23,24,24,25,25,26,26,27,27,29,29,30,30,31,31,32,32,33,33,34,34,35,35,37,37,38,38,39,39,40,40,41,41,42,42,43,43,44,44,45,45,46,46,47,47,49,49,50,50,51,51,52,52,53,53,54,54,55,55,56,56,57,57,58,58],"right_children":[2,4,6,8,10,12,14,16,18,20,22,24,26,28,30,32,34,36,-1,38,40,42,44,46,48,50,52,54,-1,56,58,60,62,64,66,68,-1,70,72,74,76,78,80,82,84,86,88,90,-1,92,94,96,98,100,102,104,106,108,110,-1,-1,-1,-1,-1,-1,-1,-1,-1,-1,-1,-1,-1,-1,-1,-1,-1,-1,-1,-1,-1,-1,-1,-1,-1,-1,-1,-1,-1,-1,-1,-1,-1,-1,-1,-1,-1,-1,-1,-1,-1,-1,-1,-1,-1,-1,-1,-1,-1,-1,-1,-1],"split_conditions":[-9.007631E-2,-1.0687174E0,-3.1917262E-1,1.3426546E0,-9.339388E-1,-1.3527324E0,-1.0977898E0,-3.5979257E0,3.359743E0,-4.0187335E0,-1.5536937E0,5.8624643E-1,7.38023E-1,1.1152818E0,3.5743465E0,-5.13755E-1,-3.1136014E0,-1.0798991E0,1.21435285E-1,-1.548705E0,5.7051957E-1,5.7051957E-1,2.5497363E0,-1.7016178E-1,4.4915113E-1,5.8624643E-1,1.5947907E0,3.3411035E-1,-9.3202874E-2,3.3413444E0,1.2280034E0,-1.24095745E1,-1.3370781E0,-1.178706E0,-2.709181E0,-1.3527324E0,2.0668032E-3,-9.792637E-1,1.12069964E-1,-2.7782373E0,-2.709181E0,-5.240947E-1,1.525126E0,2.4852723E-2,1.2973299E0,2.5675447E0,6.4173234E-1,1.795374E-1,-1.8855646E-1,-5.240947E-1,-1.2342064E0,8.075716E-1,-1.1648799E0,2.1805365E-1,1.1231854E0,1.5947907E0,1.7300481E0,4.4915113E-1,5.8624643E-1,-1.0267147E-1,7.72915E-2,-7.84799E-2,6.4049914E-2,-1.2093563E-1,1.9929565E-2,-9.807243E-2,-2.005972E-2,-1.0185212E-1,-5.8640096E-2,-6.279243E-2,-6.6907876E-3,-1.4043471E-1,6.072301E-3,1.0181678E-1,2.2600178E-2,2.8989334E-2,9.280877E-2,-2.9487936E-2,-7.370437E-2,4.580772E-3,-3.8905855E-2,-4.8618317E-3,5.4657226E-3,-5.0734513E-2,-1.191969E-2,-1.394696E-1,1.04019895E-1,1.0408369E-1,1.5301333E-2,-1.2806644E-1,5.9557594E-2,3.517404E-2,5.8886413E-3,-2.157823E-2,2.5038594E-2,7.355841E-2,3.8603924E-2,-4.1936576E-2,2.6248157E-2,-1.5088891E-2,-4.4888105E-2,-8.0674894E-2,-6.6055874E-3,5.706282E-3,-1.1068566E-2,8.5410565E-2,2.9507086E-2,-3.79484E-2,-5.985133E-2,1.8174045E-2,-2.1079587E-2],"split_indices":[0,1,2,3,2,1,1,2,3,0,0,3,0,2,2,0,0,1,0,2,1,1,2,3,0,3,3,3,0,1,1,2,1,3,0,1,0,1,1,2,0,2,2,1,1,0,0,0,0,2,1,1,1,0,0,3,2,0,3,0,0,0,0,0,0,0,0,0,0,0,0,0,0,0,0,0,0,0,0,0,0,0,0,0,0,0,0,0,0,0,0,0,0,0,0,0,0,0,0,0,0,0,0,0,0,0,0,0,0,0,0],"split_type":[0,0,0,0,0,0,0,0,0,0,0,0,0,0,0,0,0,0,0,0,0,0,0,0,0,0,0,0,0,0,0,0,0,0,0,0,0,0,0,0,0,0,0,0,0,0,0,0,0,0,0,0,0,0,0,0,0,0,0,0,0,0,0,0,0,0,0,0,0,0,0,0,0,0,0,0,0,0,0,0,0,0,0,0,0,0,0,0,0,0,0,0,0,0,0,0,0,0,0,0,0,0,0,0,0,0,0,0,0,0,0],"sum_hessian":[1.2076E4,5.732E3,6.344E3,1.053E3,4.679E3,9.47E2,5.397E3,1.015E3,3.8E1,1.84E2,4.495E3,1.1E1,9.36E2,7.7E1,5.32E3,3.2E1,9.83E2,3.7E1,1E0,2.6E1,1.58E2,2.89E2,4.206E3,7E0,4E0,8.53E2,8.3E1,7.2E1,5E0,5.229E3,9.1E1,2.3E1,9E0,2.8E1,9.55E2,3.6E1,1E0,2E1,6E0,1.43E2,1.5E1,1.23E2,1.66E2,4.138E3,6.8E1,4E0,3E0,2E0,2E0,3.72E2,4.81E2,6.5E1,1.8E1,5.2E1,2E1,5.154E3,7.5E1,3.6E1,5.5E1,2E0,2.1E1,8E0,1E0,1E0,2.7E1,6E0,9.49E2,3E0,3.3E1,4E0,1.6E1,4E0,2E0,5E0,1.38E2,4E0,1.1E1,3.4E1,8.9E1,1.18E2,4.8E1,3.384E3,7.54E2,3.2E1,3.6E1,3E0,1E0,2E0,1E0,1E0,1E0,5E1,3.22E2,1.3E1,4.68E2,3.3E1,3.2E1,5E0,1.3E1,4.1E1,1.1E1,1.4E1,6E0,4.829E3,3.25E2,1.6E1,5.9E1,1.2E1,2.4E1,8E0,4.7E1],"tree_param":{"num_deleted":"0","num_feature":"4","num_nodes":"111","size_leaf_vector":"1"}},{"base_weights":[-1.8936553E-4,-2.3751797E-2,1.16754705E-2,-5.5816177E-2,-1.7025078E-2,-3.0346725E-2,1.5956203E-2,-5.6737978E-2,8.8416904E-2,-1.876098E-2,1.2332086E-1,1.7865528E-1,-3.8477603E-2,1.0251947E-1,1.4247158E-2,-5.498395E-2,-3.4819263E-1,8.330096E-2,-2.0737896E-2,2.4133298E-1,-1.2151199E-1,-1.5203234E-2,2.5695884E-1,-9.486704E-2,1.2605248E-3,1.8103816E-1,8.2334876E-2,8.698294E-3,4.058835E-2,-6.656722E-2,-2.8881546E-2,-2.1360362E-2,-1.2503682E-1,3.4303214E-2,2.1386525E-1,-1.9746598E-2,-1.3808113E-1,3.0342352E-2,5.2012527E-1,2.8950483E-2,-2.3797765E-1,3.5689957E-2,-7.0532665E-2,1.04258806E-1,3.5007063E-1,-1.5852576E-1,-5.237209E-2,3.613046E-2,-4.173395E-2,2.0250262E-1,-5.977537E-2,-1.0447588E-2,9.870343E-2,1.3276681E-2,-6.516503E-2,8.102307E-2,1.8823296E-2,-2.1725774E-2,1.1656061E-2,-5.432733E-3,-3.8414694E-2,1.8224546E-3,6.785537E-2,1.4633128E-2,8.984372E-2,-5.3468766E-3,-1.9161755E-2,-5.0628915E-2,9.201551E-3,3.110273E-2,-7.0173055E-2,1.37240235E-2,1.6772754E-1,-5.068039E-2,4.2567436E-2,-1.6794775E-2,-8.6793676E-2,-7.152582E-2,1.329177E-2,4.3442927E-2,-7.533908E-3,1.21694975E-1,5.733891E-2,-3.2673288E-2,-6.093052E-2,-4.924076E-3,-4.679468E-2,-5.0532385E-3,2.4143431E-2,-4.4336464E-2,-7.6236576E-3,6.7895256E-2,2.4429275E-2,6.3526607E-3,-8.220611E-2,3.8867064E-2,1.8051455E-2,3.8173078E-3,8.0327265E-2,-2.5707793E-3,-2.967768E-2,1.7264633E-2,5.5341274E-2,3.4426448E-3,5.0339382E-2],"categories":[],"categories_nodes":[],"categories_segments":[],"categories_sizes":[],"default_left":[0,0,0,0,0,0,0,0,0,0,0,0,0,0,0,0,0,0,0,0,0,0,0,0,0,0,0,0,0,0,0,0,0,0,0,0,0,0,0,0,0,0,0,0,0,0,0,0,0,0,0,0,0,0,0,0,0,0,0,0,0,0,0,0,0,0,0,0,0,0,0,0,0,0,0,0,0,0,0,0,0,0,0,0,0,0,0,0,0,0,0,0,0,0,0,0,0,0,0,0,0,0,0,0,0],"id":11,"left_children":[1,3,5,7,9,11,13,15,-1,17,19,21,23,25,27,29,31,33,35,37,39,41,43,45,47,49,51,53,55,57,59,-1,-1,61,63,65,67,69,71,73,75,-1,77,79,81,83,85,87,89,91,-1,93,95,97,99,101,103,-1,-1,-1,-1,-1,-1,-1,-1,-1,-1,-1,-1,-1,-1,-1,-1,-1,-1,-1,-1,-1,-1,-1,-1,-1,-1,-1,-1,-1,-1,-1,-1,-1,-1,-1,-1,-1,-1,-1,-1,-1,-1,-1,-1,-1,-1,-1,-1],"loss_changes":[3.3765764E0,8.715081E-1,1.4455065E0,2.4323463E-1,8.172456E-1,1.2695062E0,1.0771731E0,3.387084E-1,0E0,6.6857064E-1,1.2139478E0,4.2894125E-1,1.6045401E0,2.0856059E-1,1.0448633E0,2.0881629E-1,4.6326935E-2,3.9569718E-1,3.74506E-1,1.6312499E0,2.5222152E-1,7.520285E-2,2.4786568E-1,7.9242945E-1,6.3267726E-1,2.6890475E-1,1.7416465E-1,1.9988024E0,1.0932744E0,3.0017114E-1,2.2842848E-1,0E0,0E0,2.5320137E-1,2.2566736E-1,2.7193356E-1,1.4497316E-1,3.5368595E-1,1.9624186E-1,1.8041572E-1,5.8544725E-2,0E0,1.4552248E-1,5.0851963E-2,2.8474092E-2,2.3885202E-1,6.643342E-1,5.4874206E-1,3.2340196E-1,5.942011E-2,0E0,1.5583242E-1,1.0752213E-1,7.7864385E-1,6.583458E-1,1.0457227E0,8.8473094E-1,0E0,0E0,0E0,0E0,0E0,0E0,0E0,0E0,0E0,0E0,0E0,0E0,0E0,0E0,0E0,0E0,0E0,0E0,0E0,0E0,0E0,0E0,0E0,0E0,0E0,0E0,0E0,0E0,0E0,0E0,0E0,0E0,0E0,0E0,0E0,0E0,0E0,0E0,0E0,0E0,0E0,0E0,0E0,0E0,0E0,0E0,0E0,0E0],"parents":[2147483647,0,0,1,1,2,2,3,3,4,4,5,5,6,6,7,7,9,9,10,10,11,11,12,12,13,13,14,14,15,15,16,16,17,17,18,18,19,19,20,20,21,21,22,22,23,23,24,24,25,25,26,26,27,27,28,28,29,29,30,30,33,33,34,34,35,35,36,36,37,37,38,38,39,39,40,40,42,42,43,43,44,44,45,45,46,46,47,47,48,48,49,49,51,51,52,52,53,53,54,54,55,55,56,56],"right_children":[2,4,6,8,10,12,14,16,-1,18,20,22,24,26,28,30,32,34,36,38,40,42,44,46,48,50,52,54,56,58,60,-1,-1,62,64,66,68,70,72,74,76,-1,78,80,82,84,86,88,90,92,-1,94,96,98,100,102,104,-1,-1,-1,-1,-1,-1,-1,-1,-1,-1,-1,-1,-1,-1,-1,-1,-1,-1,-1,-1,-1,-1,-1,-1,-1,-1,-1,-1,-1,-1,-1,-1,-1,-1,-1,-1,-1,-1,-1,-1,-1,-1,-1,-1,-1,-1,-1,-1],"split_conditions":[-5.342322E-1,-1.2342064E0,-4.174644E-1,1.0810021E1,1.0268948E0,-1.7536271E0,-5.240947E-1,3.4726763E0,8.8416904E-2,-2.7782373E0,9.1035974E-1,-3.498764E0,5.347381E-1,-9.339388E-1,1.0781686E0,-1.1425057E-1,-6.744339E-1,-1.0144662E0,1.8469267E0,-9.926818E-1,8.383825E-1,8.383825E-1,-3.4637964E-1,-1.5536937E0,9.1035974E-1,2.1053498E0,-1.7865418E-1,5.0051564E-1,5.0051564E-1,3.336024E-1,3.3411035E-1,-2.1360362E-2,-1.2503682E-1,-1.0217541E0,-1.1648799E0,7.054377E-1,2.855471E0,-1.0642446E0,-1.3437829E0,-9.367733E-1,-7.6904786E-1,3.5689957E-2,1.0905186E0,-3.6427036E-1,-2.073663E0,-5.240947E-1,9.0671495E-2,1.337584E0,-2.709181E0,5.0692546E-1,-5.977537E-2,1.5947907E0,1.198931E0,2.1053498E0,5.8624643E-1,-1.1425057E-1,4.512615E0,-2.1725774E-2,1.1656061E-2,-5.432733E-3,-3.8414694E-2,1.8224546E-3,6.785537E-2,1.4633128E-2,8.984372E-2,-5.3468766E-3,-1.9161755E-2,-5.0628915E-2,9.201551E-3,3.110273E-2,-7.0173055E-2,1.37240235E-2,1.6772754E-1,-5.068039E-2,4.2567436E-2,-1.6794775E-2,-8.6793676E-2,-7.152582E-2,1.329177E-2,4.3442927E-2,-7.533908E-3,1.21694975E-1,5.733891E-2,-3.2673288E-2,-6.093052E-2,-4.924076E-3,-4.679468E-2,-5.0532385E-3,2.4143431E-2,-4.4336464E-2,-7.6236576E-3,6.7895256E-2,2.4429275E-2,6.3526607E-3,-8.220611E-2,3.8867064E-2,1.8051455E-2,3.8173078E-3,8.0327265E-2,-2.5707793E-3,-2.967768E-2,1.7264633E-2,5.5341274E-2,3.4426448E-3,5.0339382E-2],"split_indices":[1,1,0,0,0,2,2,0,0,2,2,0,1,2,1,2,3,0,3,1,3,3,1,0,2,0,1,2,2,0,3,0,0,1,1,2,3,1,2,1,1,0,3,1,0,2,2,1,0,0,0,3,1,0,3,2,0,0,0,0,0,0,0,0,0,0,0,0,0,0,0,0,0,0,0,0,0,0,0,0,0,0,0,0,0,0,0,0,0,0,0,0,0,0,0,0,0,0,0,0,0,0,0,0,0],"split_type":[0,0,0,0,0,0,0,0,0,0,0,0,0,0,0,0,0,0,0,0,0,0,0,0,0,0,0,0,0,0,0,0,0,0,0,0,0,0,0,0,0,0,0,0,0,0,0,0,0,0,0,0,0,0,0,0,0,0,0,0,0,0,0,0,0,0,0,0,0,0,0,0,0,0,0,0,0,0,0,0,0,0,0,0,0,0,0,0,0,0,0,0,0,0,0,0,0,0,0,0,0,0,0,0,0],"sum_hessian":[1.2076E4,4.044E3,8.032E3,7E2,3.344E3,7.42E2,7.29E3,6.99E2,1E0,3.304E3,4E1,2.7E1,7.15E2,1.4E2,7.15E3,6.96E2,3E0,6.2E1,3.242E3,2.7E1,1.3E1,8E0,1.9E1,2.95E2,4.2E2,2.7E1,1.13E2,5.907E3,1.243E3,4.81E2,2.15E2,1E0,2E0,4.6E1,1.6E1,3.216E3,2.6E1,1.6E1,1.1E1,6E0,7E0,2E0,6E0,8E0,1.1E1,1.17E2,1.78E2,2.32E2,1.88E2,2.6E1,1E0,1.7E1,9.6E1,5.563E3,3.44E2,4.34E2,8.09E2,4.56E2,2.5E1,1.95E2,2E1,4.1E1,5E0,6E0,1E1,3.083E3,1.33E2,2.2E1,4E0,1.3E1,3E0,1E0,1E1,2E0,4E0,2E0,5E0,2E0,4E0,6E0,2E0,7E0,4E0,5.7E1,6E1,1.33E2,4.5E1,1.06E2,1.26E2,2.4E1,1.64E2,2.1E1,5E0,1.6E1,1E0,5.2E1,4.4E1,5.552E3,1.1E1,1.29E2,2.15E2,3.55E2,7.9E1,7.72E2,3.7E1],"tree_param":{"num_deleted":"0","num_feature":"4","num_nodes":"105","size_leaf_vector":"1"}},{"base_weights":[-1.13255395E-4,-8.405738E-3,2.0416338E-2,-9.3795825E-3,1.08752355E-1,3.0105205E-2,-3.7971286E-3,-2.9455312E-3,-3.0827101E-2,3.9091226E-2,1.7928691E-1,3.148722E-2,-1.4159529E-1,-7.8626415E-3,1.4786746E-1,-4.139149E-2,8.2946836E-4,-2.0489962E-1,-2.8845364E-2,1.1095795E-1,-4.293243E-2,7.6445885E-2,6.1588697E-2,2.6173439E-2,8.037123E-2,-1.510851E-1,5.8066696E-3,2.4228357E-2,-3.2768723E-2,-2.2605697E-2,1.6301546E-1,-7.629728E-2,-3.9862167E-2,-3.0497994E-4,1.1664625E-1,-2.6925716E-1,-5.8616802E-2,-2.5709119E-2,-8.420623E-2,4.5304015E-2,2.0377585E-1,-7.418332E-2,1.6773742E-2,-1.8826973E-2,1.8535003E-1,3.116995E-2,-3.6335565E-2,1.5257037E-1,6.0672138E-2,-1.6631E-1,-7.519339E-2,3.976416E-3,7.432762E-2,-9.298072E-2,-8.009763E-3,4.4152024E-3,-1.45877665E-2,8.4801644E-2,1.074259E-1,1.0288114E-1,-1.2728703E-2,7.666047E-3,-7.3853025E-4,-4.2100087E-2,4.1484173E-2,2.5276164E-2,-9.015783E-2,5.3487183E-3,-5.759088E-2,-7.4915173E-3,-7.426763E-2,-2.9598493E-2,7.371287E-3,-3.059453E-2,1.9822894E-2,8.953593E-2,3.6742378E-2,3.602797E-3,-2.4933236E-2,-1.8847652E-2,1.215336E-2,-1.0896258E-2,2.07927E-2,7.590279E-2,2.6480425E-2,7.298879E-3,3.949726E-2,-4.326568E-2,-5.61888E-3,3.1641603E-2,6.790283E-2,1.2046038E-2,5.2172735E-2,-1.8232776E-2,-5.336128E-2,2.0694135E-2,-5.8290828E-2,-7.183668E-4,6.3708276E-2,2.8760182E-2,5.4141385E-3,-5.030881E-4,-3.9734498E-2,-1.4399614E-3,-1.2550381E-1,5.3195562E-2,-6.3141435E-4],"categories":[],"categories_nodes":[],"categories_segments":[],"categories_sizes":[],"default_left":[0,0,0,0,0,0,0,0,0,0,0,0,0,0,0,0,0,0,0,0,0,0,0,0,0,0,0,0,0,0,0,0,0,0,0,0,0,0,0,0,0,0,0,0,0,0,0,0,0,0,0,0,0,0,0,0,0,0,0,0,0,0,0,0,0,0,0,0,0,0,0,0,0,0,0,0,0,0,0,0,0,0,0,0,0,0,0,0,0,0,0,0,0,0,0,0,0,0,0,0,0,0,0,0,0,0,0],"id":12,"left_children":[1,3,5,7,9,11,13,15,17,19,21,23,25,27,29,31,33,35,37,39,41,-1,43,45,47,49,-1,51,53,55,57,-1,59,61,63,65,67,69,71,73,75,77,79,81,83,85,87,89,91,93,95,97,99,101,103,-1,-1,-1,105,-1,-1,-1,-1,-1,-1,-1,-1,-1,-1,-1,-1,-1,-1,-1,-1,-1,-1,-1,-1,-1,-1,-1,-1,-1,-1,-1,-1,-1,-1,-1,-1,-1,-1,-1,-1,-1,-1,-1,-1,-1,-1,-1,-1,-1,-1,-1,-1],"loss_changes":[2.0561755E0,9.825693E-1,8.153527E-1,1.1774156E0,3.4185123E-1,5.934193E-1,6.140574E-1,9.528355E-1,6.7332745E-1,2.2287026E-1,2.954582E-1,6.376827E-1,3.347227E-2,7.7527785E-1,7.082558E-2,1.8101406E-1,7.8560525E-1,1.9133383E-1,3.3605742E-1,1.1264533E-1,3.483002E-2,0E0,1.5277486E-1,6.9543517E-1,3.335073E-1,9.447962E-3,0E0,4.2989796E-1,8.132247E-1,3.629101E-3,1.292736E-1,0E0,5.883801E-1,3.303401E-1,3.4186125E-1,1.9112921E-1,8.4976785E-2,2.956431E-1,1.6595566E-1,4.6511605E-2,2.5026113E-2,1.0231867E-2,1.5771523E-2,1.793577E-2,1.707831E-2,1.4120929E0,3.1069833E-1,1.5332973E-1,4.368003E-1,7.4908435E-3,9.926537E-2,4.0277487E-1,1.4616585E-1,5.727407E-1,5.090404E-1,0E0,0E0,0E0,1.381701E-1,0E0,0E0,0E0,0E0,0E0,0E0,0E0,0E0,0E0,0E0,0E0,0E0,0E0,0E0,0E0,0E0,0E0,0E0,0E0,0E0,0E0,0E0,0E0,0E0,0E0,0E0,0E0,0E0,0E0,0E0,0E0,0E0,0E0,0E0,0E0,0E0,0E0,0E0,0E0,0E0,0E0,0E0,0E0,0E0,0E0,0E0,0E0,0E0],"parents":[2147483647,0,0,1,1,2,2,3,3,4,4,5,5,6,6,7,7,8,8,9,9,10,10,11,11,12,12,13,13,14,14,15,15,16,16,17,17,18,18,19,19,20,20,22,22,23,23,24,24,25,25,27,27,28,28,29,29,30,30,32,32,33,33,34,34,35,35,36,36,37,37,38,38,39,39,40,40,41,41,42,42,43,43,44,44,45,45,46,46,47,47,48,48,49,49,50,50,51,51,52,52,53,53,54,54,58,58],"right_children":[2,4,6,8,10,12,14,16,18,20,22,24,26,28,30,32,34,36,38,40,42,-1,44,46,48,50,-1,52,54,56,58,-1,60,62,64,66,68,70,72,74,76,78,80,82,84,86,88,90,92,94,96,98,100,102,104,-1,-1,-1,106,-1,-1,-1,-1,-1,-1,-1,-1,-1,-1,-1,-1,-1,-1,-1,-1,-1,-1,-1,-1,-1,-1,-1,-1,-1,-1,-1,-1,-1,-1,-1,-1,-1,-1,-1,-1,-1,-1,-1,-1,-1,-1,-1,-1,-1,-1,-1,-1],"split_conditions":[1.795374E-1,2.8627677E0,1.0905186E0,9.0671495E-2,-8.0262685E-1,3.9841907E0,3.66785E0,-1.2342064E0,-3.1136014E0,1.3202039E0,1.9349701E0,1.554509E0,2.1583207E0,2.9559356E-1,1.3202039E0,-1.24095745E1,1.554509E0,2.139892E0,1.8469267E0,3.3413444E0,2.3448143E0,7.6445885E-2,2.5497363E0,1.3202039E0,7.054377E-1,4.0889363E0,5.8066696E-3,1.0580416E0,1.337584E0,2.9508615E-1,1.7300481E0,-7.629728E-2,-1.1180042E1,-5.240947E-1,-1.7016178E-1,-9.2656994E-1,6.510278E-1,4.1891127E0,4.4730548E-2,8.197428E-2,9.1035974E-1,-3.498764E0,3.3411035E-1,1.21763036E-1,1.8469267E0,9.6912044E-1,-1.092871E-2,-1.1425057E-1,4.0889363E0,4.29893E-1,4.394035E0,1.9127685E0,1.5947907E0,9.1035974E-1,3.1076071E0,4.4152024E-3,-1.45877665E-2,8.4801644E-2,2.351199E0,1.0288114E-1,-1.2728703E-2,7.666047E-3,-7.3853025E-4,-4.2100087E-2,4.1484173E-2,2.5276164E-2,-9.015783E-2,5.3487183E-3,-5.759088E-2,-7.4915173E-3,-7.426763E-2,-2.9598493E-2,7.371287E-3,-3.059453E-2,1.9822894E-2,8.953593E-2,3.6742378E-2,3.602797E-3,-2.4933236E-2,-1.8847652E-2,1.215336E-2,-1.0896258E-2,2.07927E-2,7.590279E-2,2.6480425E-2,7.298879E-3,3.949726E-2,-4.326568E-2,-5.61888E-3,3.1641603E-2,6.790283E-2,1.2046038E-2,5.2172735E-2,-1.8232776E-2,-5.336128E-2,2.0694135E-2,-5.8290828E-2,-7.183668E-4,6.3708276E-2,2.8760182E-2,5.4141385E-3,-5.030881E-4,-3.9734498E-2,-1.4399614E-3,-1.2550381E-1,5.3195562E-2,-6.3141435E-4],"split_indices":[0,1,3,2,0,2,1,1,0,2,2,1,1,2,2,2,1,2,3,1,2,0,2,2,2,0,0,1,1,0,2,0,2,2,3,3,1,2,0,3,2,0,3,0,3,0,1,2,0,0,2,0,3,2,3,0,0,0,3,0,0,0,0,0,0,0,0,0,0,0,0,0,0,0,0,0,0,0,0,0,0,0,0,0,0,0,0,0,0,0,0,0,0,0,0,0,0,0,0,0,0,0,0,0,0,0,0],"split_type":[0,0,0,0,0,0,0,0,0,0,0,0,0,0,0,0,0,0,0,0,0,0,0,0,0,0,0,0,0,0,0,0,0,0,0,0,0,0,0,0,0,0,0,0,0,0,0,0,0,0,0,0,0,0,0,0,0,0,0,0,0,0,0,0,0,0,0,0,0,0,0,0,0,0,0,0,0,0,0,0,0,0,0,0,0,0,0,0,0,0,0,0,0,0,0,0,0,0,0,0,0,0,0,0,0,0,0],"sum_hessian":[1.2076E4,8.602E3,3.474E3,8.532E3,7E1,2.481E3,9.93E2,6.564E3,1.968E3,3.6E1,3.4E1,2.462E3,1.9E1,9.68E2,2.5E1,5.86E2,5.978E3,2.1E1,1.947E3,1.9E1,1.7E1,2E1,1.4E1,2.222E3,2.4E2,1.8E1,1E0,4.23E2,5.45E2,2E0,2.3E1,3E0,5.83E2,5.921E3,5.7E1,1.4E1,7E0,1.844E3,1.03E2,1.2E1,7E0,1.1E1,6E0,9E0,5E0,2.058E3,1.64E2,5E1,1.9E2,1.4E1,4E0,3.02E2,1.21E2,1.58E2,3.87E2,1E0,1E0,6E0,1.7E1,3E0,5.8E2,4.55E2,5.466E3,4E0,5.3E1,1E0,1.3E1,5E0,2E0,1.839E3,5E0,9.1E1,1.2E1,1E0,1.1E1,2E0,5E0,1E0,1E1,1E0,5E0,8E0,1E0,2E0,3E0,1.928E3,1.3E2,2.2E1,1.42E2,3.2E1,1.8E1,1.62E2,2.8E1,2E0,1.2E1,2E0,2E0,2.94E2,8E0,8.7E1,3.4E1,4.8E1,1.1E2,3.85E2,2E0,1E1,7E0],"tree_param":{"num_deleted":"0","num_feature":"4","num_nodes":"107","size_leaf_vector":"1"}},{"base_weights":[-6.348807E-5,-7.776659E-3,1.3908569E-2,-2.857866E-2,-3.4217688E-3,1.5402691E-2,-7.038599E-2,1.8005794E-1,-3.058892E-2,-2.1096711E-1,-2.7743746E-3,-6.2927897E-3,2.0881524E-2,-6.1738864E-2,-5.3729426E-2,-2.3036852E-2,6.427805E-1,-2.5785288E-2,-9.03011E-2,-2.4636179E-1,6.922978E-2,-1.7705075E-3,-1.0084811E-1,-8.423818E-3,1.7398217E-1,3.1168573E-2,4.7136904E-3,-4.057606E-2,-1.1367521E-1,-5.913038E-2,7.9719506E-2,2.1734752E-1,5.9647E-2,1.3188705E-2,-3.0178217E-2,1.01796724E-1,-9.814748E-2,-1.7264509E-1,-1.2547186E-1,6.707484E-2,-2.0543172E-3,-1.795261E-1,-6.444793E-2,-6.6116536E-3,-3.1082028E-1,6.555695E-2,5.253993E-2,2.729162E-2,1.1196427E-1,1.5942536E-1,3.485111E-4,-7.129939E-2,-4.542891E-3,-1.4003998E-1,2.6793882E-2,4.8444614E-2,-6.5918686E-3,-8.4761485E-2,7.560168E-3,8.540881E-2,-9.300613E-3,-6.149683E-2,-2.3370042E-2,-8.263187E-2,9.910377E-2,3.311498E-4,-4.057768E-3,-1.5116222E-2,-7.355592E-2,3.456671E-2,-3.1591628E-2,5.544838E-2,-2.394297E-3,-2.210997E-2,-1.3330019E-1,3.4846272E-2,-2.0745449E-2,-1.981723E-2,9.0336045E-3,6.054051E-2,1.6575156E-2,7.7512465E-2,3.657792E-2,-1.0680269E-3,3.6393296E-2,-5.2607436E-2,-1.5539405E-2,-1.20781185E-2,4.391376E-2,-4.641469E-2,1.4215556E-2,1.0542477E-2,2.626151E-4],"categories":[],"categories_nodes":[],"categories_segments":[],"categories_sizes":[],"default_left":[0,0,0,0,0,0,0,0,0,0,0,0,0,0,0,0,0,0,0,0,0,0,0,0,0,0,0,0,0,0,0,0,0,0,0,0,0,0,0,0,0,0,0,0,0,0,0,0,0,0,0,0,0,0,0,0,0,0,0,0,0,0,0,0,0,0,0,0,0,0,0,0,0,0,0,0,0,0,0,0,0,0,0,0,0,0,0,0,0,0,0,0,0],"id":13,"left_children":[1,3,5,7,9,11,13,15,17,19,21,23,25,27,-1,29,31,33,35,37,-1,39,41,43,45,47,49,51,53,-1,55,-1,-1,57,59,-1,61,63,-1,-1,65,67,69,71,73,-1,75,77,79,81,83,85,87,89,91,-1,-1,-1,-1,-1,-1,-1,-1,-1,-1,-1,-1,-1,-1,-1,-1,-1,-1,-1,-1,-1,-1,-1,-1,-1,-1,-1,-1,-1,-1,-1,-1,-1,-1,-1,-1,-1,-1],"loss_changes":[1.3016328E0,7.048768E-1,5.421497E-1,5.704583E-1,8.6417913E-1,5.019833E-1,5.9446305E-2,1.2365026E0,3.8059688E-1,3.695519E-1,6.3159424E-1,3.2877934E-1,5.605153E-1,7.3424935E-2,0E0,1.9457507E-1,1.0591745E-3,2.1218473E-1,3.670318E-1,1.6852808E-1,0E0,4.067809E-1,1.745829E-1,4.599024E-1,4.2610407E-2,6.42221E-1,8.8599604E-1,5.724316E-2,7.782096E-2,0E0,6.175062E-2,0E0,0E0,4.54701E-1,2.9727995E-1,0E0,1.9603133E-1,8.665606E-1,0E0,0E0,2.2992386E-1,1.5723133E-1,3.49814E-1,2.2141477E-1,1.2554663E-1,0E0,3.89975E-2,5.1986325E-1,4.6778202E-1,1.0207546E-1,6.041898E-1,4.7736853E-2,1.4065728E-1,5.4091156E-2,8.346776E-4,0E0,0E0,0E0,0E0,0E0,0E0,0E0,0E0,0E0,0E0,0E0,0E0,0E0,0E0,0E0,0E0,0E0,0E0,0E0,0E0,0E0,0E0,0E0,0E0,0E0,0E0,0E0,0E0,0E0,0E0,0E0,0E0,0E0,0E0,0E0,0E0,0E0,0E0],"parents":[2147483647,0,0,1,1,2,2,3,3,4,4,5,5,6,6,7,7,8,8,9,9,10,10,11,11,12,12,13,13,15,15,16,16,17,17,18,18,19,19,21,21,22,22,23,23,24,24,25,25,26,26,27,27,28,28,30,30,33,33,34,34,36,36,37,37,40,40,41,41,42,42,43,43,44,44,46,46,47,47,48,48,49,49,50,50,51,51,52,52,53,53,54,54],"right_children":[2,4,6,8,10,12,14,16,18,20,22,24,26,28,-1,30,32,34,36,38,-1,40,42,44,46,48,50,52,54,-1,56,-1,-1,58,60,-1,62,64,-1,-1,66,68,70,72,74,-1,76,78,80,82,84,86,88,90,92,-1,-1,-1,-1,-1,-1,-1,-1,-1,-1,-1,-1,-1,-1,-1,-1,-1,-1,-1,-1,-1,-1,-1,-1,-1,-1,-1,-1,-1,-1,-1,-1,-1,-1,-1,-1,-1,-1],"split_conditions":[1.4337872E-1,-3.9820626E-1,3.7792687E0,-4.827458E0,-1.3527324E0,8.197428E-2,4.803879E0,-6.4856184E-1,1.3426546E0,3.8193226E0,1.525126E0,4.0889363E0,1.0905186E0,1.7826157E0,-5.3729426E-2,-1.24095745E1,-1.3527324E0,-1.9585491E0,-3.8028479E0,6.4173234E-1,6.922978E-2,-4.417614E0,1.9349701E0,3.8193226E0,1.7826157E0,3.0104814E0,-7.290168E-1,1.2280034E0,2.2298834E0,-5.913038E-2,5.8624643E-1,2.1734752E-1,5.9647E-2,-1.3370781E0,-1.3527324E0,1.01796724E-1,-3.1136014E0,2.9508615E-1,-1.2547186E-1,6.707484E-2,9.0671495E-2,-1.7016178E-1,2.139892E0,-9.339388E-1,2.5497363E0,6.555695E-2,-1.430842E0,-2.073663E0,1.9349701E0,-1.138861E0,3.66785E0,-8.0262685E-1,3.4726763E0,4.512615E0,1.5947907E0,4.8444614E-2,-6.5918686E-3,-8.4761485E-2,7.560168E-3,8.540881E-2,-9.300613E-3,-6.149683E-2,-2.3370042E-2,-8.263187E-2,9.910377E-2,3.311498E-4,-4.057768E-3,-1.5116222E-2,-7.355592E-2,3.456671E-2,-3.1591628E-2,5.544838E-2,-2.394297E-3,-2.210997E-2,-1.3330019E-1,3.4846272E-2,-2.0745449E-2,-1.981723E-2,9.0336045E-3,6.054051E-2,1.6575156E-2,7.7512465E-2,3.657792E-2,-1.0680269E-3,3.6393296E-2,-5.2607436E-2,-1.5539405E-2,-1.20781185E-2,4.391376E-2,-4.641469E-2,1.4215556E-2,1.0542477E-2,2.626151E-4],"split_indices":[1,0,2,2,1,3,2,0,3,0,2,0,3,1,0,2,1,2,2,0,0,2,2,0,1,0,2,1,1,0,3,0,0,1,1,0,0,0,0,0,2,3,2,2,2,0,3,0,2,2,1,0,0,0,3,0,0,0,0,0,0,0,0,0,0,0,0,0,0,0,0,0,0,0,0,0,0,0,0,0,0,0,0,0,0,0,0,0,0,0,0,0,0],"split_type":[0,0,0,0,0,0,0,0,0,0,0,0,0,0,0,0,0,0,0,0,0,0,0,0,0,0,0,0,0,0,0,0,0,0,0,0,0,0,0,0,0,0,0,0,0,0,0,0,0,0,0,0,0,0,0,0,0,0,0,0,0,0,0,0,0,0,0,0,0,0,0,0,0,0,0,0,0,0,0,0,0,0,0,0,0,0,0,0,0,0,0,0,0],"sum_hessian":[1.2076E4,7.781E3,4.295E3,1.346E3,6.435E3,4.221E3,7.4E1,1.2E1,1.334E3,1.9E1,6.416E3,8.51E2,3.37E3,7E1,4E0,9E0,3E0,1.236E3,9.8E1,1.8E1,1E0,6.352E3,6.4E1,8.42E2,9E0,2.059E3,1.311E3,5.1E1,1.9E1,3E0,6E0,2E0,1E0,1.25E2,1.111E3,1E0,9.7E1,1.4E1,4E0,7E0,6.345E3,1.9E1,4.5E1,8.38E2,4E0,6E0,3E0,1.966E3,9.3E1,3.5E1,1.276E3,2.7E1,2.4E1,1.6E1,3E0,3E0,3E0,4E0,1.21E2,2E0,1.109E3,1.4E1,8.3E1,1.2E1,2E0,4.976E3,1.369E3,7E0,1.2E1,8E0,3.7E1,5E0,8.33E2,2E0,2E0,2E0,1E0,5.7E1,1.909E3,3.5E1,5.8E1,8E0,2.7E1,1.237E3,3.9E1,3E0,2.4E1,2E1,4E0,1.5E1,1E0,2E0,1E0],"tree_param":{"num_deleted":"0","num_feature":"4","num_nodes":"93","size_leaf_vector":"1"}},{"base_weights":[-2.0008614E-5,-5.433617E-3,1.0537459E-2,-4.8819605E-2,-4.1058017E-3,1.1028349E-2,-2.1349804E-1,-2.0901868E-2,-9.671339E-2,-4.9307076E-3,5.598645E-2,-9.285443E-2,1.1768018E-2,-8.972812E-3,-2.6167917E-1,-3.9294515E-2,5.7829086E-2,-1.3134561E-1,-1.4888247E-2,-4.0098457E-3,-5.5738214E-2,1.9427344E-1,2.8943019E-2,3.017717E-2,-1.5919618E-1,3.2991033E-2,7.5987587E-3,-9.1019034E-2,-1.7060639E-3,-5.893394E-3,-2.1101563E-1,-9.936933E-3,1.5465902E-1,-1.8032324E-1,-4.8324946E-2,-5.7996966E-2,9.4744585E-2,-1.6678656E-2,-1.3026422E-3,5.574829E-2,-8.259637E-2,-2.5646193E-2,2.1710144E-1,-3.4829646E-2,6.7145295E-2,-2.7393433E-1,1.7846078E-1,-3.319494E-1,-9.0998694E-2,3.1465564E-2,8.327687E-2,6.446713E-3,8.9477435E-2,2.649852E-2,-1.5279206E-2,-1.0192664E-2,-8.5338935E-2,-2.5731634E-2,1.05385E-2,5.6129996E-2,-3.032873E-2,-6.2209282E-2,-4.6312736E-4,1.4905915E-2,-3.0130804E-2,-7.168938E-3,-3.1848203E-2,7.209569E-2,1.8499882E-3,-5.565282E-3,2.8439878E-2,3.4000475E-2,-8.069109E-4,1.7300086E-3,5.9318714E-2,-4.7122493E-2,-1.959594E-2,4.421979E-3,6.888287E-2,3.3183213E-2,-1.7372616E-2,2.8109015E-3,3.3055265E-2,-1.0368426E-1,-8.834213E-3,-8.3911926E-2,8.516139E-2,-2.776766E-2,-1.105972E-1,-3.4823075E-2,-1.3726634E-2,6.896816E-3,1.6658532E-2,-2.8829776E-2,2.2022321E-3,-4.551846E-2,3.463312E-2],"categories":[],"categories_nodes":[],"categories_segments":[],"categories_sizes":[],"default_left":[0,0,0,0,0,0,0,0,0,0,0,0,0,0,0,0,0,0,0,0,0,0,0,0,0,0,0,0,0,0,0,0,0,0,0,0,0,0,0,0,0,0,0,0,0,0,0,0,0,0,0,0,0,0,0,0,0,0,0,0,0,0,0,0,0,0,0,0,0,0,0,0,0,0,0,0,0,0,0,0,0,0,0,0,0,0,0,0,0,0,0,0,0,0,0,0,0],"id":14,"left_children":[1,3,5,7,9,11,13,15,17,19,21,23,25,-1,27,29,31,33,35,37,39,41,43,45,47,49,51,-1,-1,53,55,57,59,61,63,65,67,69,71,73,75,-1,77,79,81,83,85,87,89,91,-1,93,95,-1,-1,-1,-1,-1,-1,-1,-1,-1,-1,-1,-1,-1,-1,-1,-1,-1,-1,-1,-1,-1,-1,-1,-1,-1,-1,-1,-1,-1,-1,-1,-1,-1,-1,-1,-1,-1,-1,-1,-1,-1,-1,-1,-1],"loss_changes":[6.90306E-1,4.5974642E-1,4.5260075E-1,3.1486797E-1,3.8434792E-1,3.150559E-1,7.178295E-2,2.2093105E-1,2.445839E-1,3.57414E-1,3.870514E-1,2.4150592E-1,3.5881835E-1,0E0,7.303023E-2,7.0424473E-1,1.9182846E-1,2.3932135E-1,1.3310045E-1,2.575148E-1,4.1183242E-1,1.2712783E-1,2.1916586E-1,5.449288E-1,1.9363838E-1,2.3976827E-1,3.1947795E-1,0E0,0E0,4.4582203E-1,2.5039822E-1,6.452862E-2,1.1847818E-1,1.8338633E-1,1.2756968E-1,3.0311264E-2,1.016755E-1,2.7768523E-1,9.842542E-1,1.9046319E-1,1.3128078E-1,0E0,3.7114084E-2,1.20530695E-1,1.3821724E-1,5.992171E-2,4.6576574E-1,9.815156E-3,1.1708155E-2,1.339497E-1,0E0,3.07566E-1,3.1188732E-1,0E0,0E0,0E0,0E0,0E0,0E0,0E0,0E0,0E0,0E0,0E0,0E0,0E0,0E0,0E0,0E0,0E0,0E0,0E0,0E0,0E0,0E0,0E0,0E0,0E0,0E0,0E0,0E0,0E0,0E0,0E0,0E0,0E0,0E0,0E0,0E0,0E0,0E0,0E0,0E0,0E0,0E0,0E0,0E0],"parents":[2147483647,0,0,1,1,2,2,3,3,4,4,5,5,6,6,7,7,8,8,9,9,10,10,11,11,12,12,14,14,15,15,16,16,17,17,18,18,19,19,20,20,21,21,22,22,23,23,24,24,25,25,26,26,29,29,30,30,31,31,32,32,33,33,34,34,35,35,36,36,37,37,38,38,39,39,40,40,42,42,43,43,44,44,45,45,46,46,47,47,48,48,49,49,51,51,52,52],"right_children":[2,4,6,8,10,12,14,16,18,20,22,24,26,-1,28,30,32,34,36,38,40,42,44,46,48,50,52,-1,-1,54,56,58,60,62,64,66,68,70,72,74,76,-1,78,80,82,84,86,88,90,92,-1,94,96,-1,-1,-1,-1,-1,-1,-1,-1,-1,-1,-1,-1,-1,-1,-1,-1,-1,-1,-1,-1,-1,-1,-1,-1,-1,-1,-1,-1,-1,-1,-1,-1,-1,-1,-1,-1,-1,-1,-1,-1,-1,-1,-1,-1],"split_conditions":[1.21763036E-1,-2.709181E0,3.1076071E0,-5.240947E-1,2.5071898E0,-1.2811695E0,-1.3370781E0,2.999225E-1,1.3426546E0,1.8469267E0,7.054377E-1,-5.647146E0,-3.1917262E-1,-8.972812E-3,2.015195E0,-1.7865418E-1,1.0905186E0,1.1152818E0,2.1583207E0,-1.0262269E0,-5.240947E-1,8.197428E-2,2.8627677E0,2.9508615E-1,-1.3393145E0,2.779384E0,4.512615E0,-9.1019034E-2,-1.7060639E-3,5.8624643E-1,-1.7536271E0,7.2929966E-1,1.8469267E0,1.5030732E0,8.383825E-1,1.2615485E0,2.9559356E-1,4.4730548E-2,-1.138861E0,2.603335E0,-2.5468972E-1,-2.5646193E-2,-1.9388561E0,9.1035974E-1,-8.0262685E-1,-1.3527324E0,-3.1957946E0,2.1805365E-1,-1.7016178E-1,5.4544175E-1,8.327687E-2,-1.1223894E0,1.3202039E0,2.649852E-2,-1.5279206E-2,-1.0192664E-2,-8.5338935E-2,-2.5731634E-2,1.05385E-2,5.6129996E-2,-3.032873E-2,-6.2209282E-2,-4.6312736E-4,1.4905915E-2,-3.0130804E-2,-7.168938E-3,-3.1848203E-2,7.209569E-2,1.8499882E-3,-5.565282E-3,2.8439878E-2,3.4000475E-2,-8.069109E-4,1.7300086E-3,5.9318714E-2,-4.7122493E-2,-1.959594E-2,4.421979E-3,6.888287E-2,3.3183213E-2,-1.7372616E-2,2.8109015E-3,3.3055265E-2,-1.0368426E-1,-8.834213E-3,-8.3911926E-2,8.516139E-2,-2.776766E-2,-1.105972E-1,-3.4823075E-2,-1.3726634E-2,6.896816E-3,1.6658532E-2,-2.8829776E-2,2.2022321E-3,-4.551846E-2,3.463312E-2],"split_indices":[0,0,3,2,1,1,1,1,3,3,2,2,2,0,1,1,3,2,1,1,2,3,1,0,1,0,0,0,0,3,2,1,3,1,3,1,2,0,2,3,1,0,0,2,0,1,3,0,3,0,0,1,2,0,0,0,0,0,0,0,0,0,0,0,0,0,0,0,0,0,0,0,0,0,0,0,0,0,0,0,0,0,0,0,0,0,0,0,0,0,0,0,0,0,0,0,0],"split_type":[0,0,0,0,0,0,0,0,0,0,0,0,0,0,0,0,0,0,0,0,0,0,0,0,0,0,0,0,0,0,0,0,0,0,0,0,0,0,0,0,0,0,0,0,0,0,0,0,0,0,0,0,0,0,0,0,0,0,0,0,0,0,0,0,0,0,0,0,0,0,0,0,0,0,0,0,0,0,0,0,0,0,0,0,0,0,0,0,0,0,0,0,0,0,0,0,0],"sum_hessian":[1.2076E4,7.983E3,4.093E3,2.36E2,7.747E3,4.085E3,8E0,1.5E2,8.6E1,7.643E3,1.04E2,2.8E1,4.057E3,2E0,6E0,1.22E2,2.8E1,6E1,2.6E1,7.508E3,1.35E2,1.6E1,8.8E1,1E1,1.8E1,6.65E2,3.392E3,5E0,1E0,1.03E2,1.9E1,1.7E1,1.1E1,3.7E1,2.3E1,1.9E1,7E0,1.321E3,6.187E3,2.6E1,1.09E2,1E0,1.5E1,3.3E1,5.5E1,3E0,7E0,4E0,1.4E1,6.62E2,3E0,3.346E3,4.6E1,3.3E1,7E1,6E0,1.3E1,6E0,1.1E1,1E1,1E0,3.2E1,5E0,8E0,1.5E1,1.2E1,7E0,2E0,5E0,1.3E3,2.1E1,7.3E1,6.114E3,2E1,6E0,1.9E1,9E1,1E0,1.4E1,4E0,2.9E1,2.4E1,3.1E1,2E0,1E0,1E0,6E0,1E0,3E0,8E0,6E0,4.91E2,1.71E2,2.8E1,3.318E3,4E0,4.2E1],"tree_param":{"num_deleted":"0","num_feature":"4","num_nodes":"97","size_leaf_vector":"1"}},{"base_weights":[-3.8647016E-5,-5.195434E-3,