{"learner":{"attributes":{"scikit_learn":"{\"_estimator_type\": \"regressor\"}"},"feature_names":["IREG_UBUS","IREG_IBUS","IREG_PWM","windspeed"],"feature_types":["float","float","float","float"],"gradient_booster":{"model":{"gbtree_model_param":{"num_parallel_tree":"1","num_trees":"100"},"iteration_indptr":[0,1,2,3,4,5,6,7,8,9,10,11,12,13,14,15,16,17,18,19,20,21,22,23,24,25,26,27,28,29,30,31,32,33,34,35,36,37,38,39,40,41,42,43,44,45,46,47,48,49,50,51,52,53,54,55,56,57,58,59,60,61,62,63,64,65,66,67,68,69,70,71,72,73,74,75,76,77,78,79,80,81,82,83,84,85,86,87,88,89,90,91,92,93,94,95,96,97,98,99,100],"tree_info":[0,0,0,0,0,0,0,0,0,0,0,0,0,0,0,0,0,0,0,0,0,0,0,0,0,0,0,0,0,0,0,0,0,0,0,0,0,0,0,0,0,0,0,0,0,0,0,0,0,0,0,0,0,0,0,0,0,0,0,0,0,0,0,0,0,0,0,0,0,0,0,0,0,0,0,0,0,0,0,0,0,0,0,0,0,0,0,0,0,0,0,0,0,0,0,0,0,0,0,0],"trees":[{"base_weights":[3.8891135E-9,-1.3334665E0,4.6169895E-1,-1.9479111E0,-8.515406E-1,4.432098E-2,8.7753874E-1,-2.281135E0,-1.7013669E0,-1.2383115E0,-6.997419E-1,2.525045E-1,-1.9281538E-1,9.5098126E-1,-8.552311E-1,-7.232526E-1,-6.4238644E-1,-5.5045867E-1,-4.6528527E-1,1.3030791E-1,-1.2461736E0,-4.9570394E-1,-9.389044E-1,1.3033772E-1,3.7634766E-1,-1.4545433E-1,-1.6161156E0,6.984173E-1,1.1697576E0,-1.2526425E0,-7.00369E-2,-1.3106216E0,-1.0994549E0,8.69192E-1,-5.2402854E-1,-2.3906067E-1,-3.1001532E-1,5.3422894E-2,1.8657522E-1,3.2748836E-1,4.467304E-1,-2.6758772E-1,-2.2402007E-2,-1.6883734E0,-2.344014E-1,7.2307044E-1,-6.727054E-1,1.263546E0,6.7102855E-1,-4.1074327E-1,-7.95722E-1,-4.1501E-1,3.1964108E-1,-8.192192E-2,-3.9446062E-1,-1.6671365E-1,-3.397392E-1,2.773016E-2,2.900858E-1,-1.3526353E-1,-1.7705569E-1,1.244382E-2,2.1132238E-1,4.785653E-2,6.717596E-2,8.3914466E-2,1.0427477E-1,8.275759E-3,1.3446578E-1,-7.5929046E-2,-2.5735536E-1,-2.098837E-2,2.672501E-2,-3.4377205E-1,-5.4962313E-1,-7.641478E-3,-9.7839154E-2,1.7902516E-1,2.533892E-1,-7.792583E-2,-2.6252508E-1,3.2420978E-1,4.0150732E-1,3.6434777E-2,3.0824733E-1,-2.914002E-1,-1.0234395E-1,-1.5096837E-1,-5.7566877E-2,1.3480622E-1,3.5263415E-2],"categories":[],"categories_nodes":[],"categories_segments":[],"categories_sizes":[],"default_left":[0,0,0,0,0,0,0,0,0,0,0,0,0,0,0,0,0,0,0,0,0,0,0,0,0,0,0,0,0,0,0,0,0,0,0,0,0,0,0,0,0,0,0,0,0,0,0,0,0,0,0,0,0,0,0,0,0,0,0,0,0,0,0,0,0,0,0,0,0,0,0,0,0,0,0,0,0,0,0,0,0,0,0,0,0,0,0,0,0,0,0],"id":0,"left_children":[1,3,5,7,9,11,13,15,17,19,21,23,25,27,29,-1,-1,-1,-1,-1,31,33,35,37,39,41,43,45,47,49,51,53,55,57,59,-1,-1,61,63,65,67,69,71,73,75,77,79,81,83,-1,85,87,89,-1,-1,-1,-1,-1,-1,-1,-1,-1,-1,-1,-1,-1,-1,-1,-1,-1,-1,-1,-1,-1,-1,-1,-1,-1,-1,-1,-1,-1,-1,-1,-1,-1,-1,-1,-1,-1,-1],"loss_changes":[4.0885986E3,5.041084E2,8.5614417E2,5.7734863E1,5.5437744E1,1.2164176E2,3.1527026E2,5.695801E-1,5.888794E0,4.078827E0,3.325415E1,1.980088E1,7.742007E1,1.3019287E2,3.1428833E1,0E0,0E0,0E0,0E0,0E0,1.0931396E0,1.4953049E1,3.4305115E0,2.8535118E0,2.0923996E0,1.6766142E1,3.298317E0,3.777057E1,5.850952E1,2.4770813E0,4.837649E0,4.385376E-1,9.501419E-1,5.181117E-1,1.5147934E0,0E0,0E0,2.155567E0,3.502159E-1,2.7523804E-1,1.5237808E-1,4.572815E0,2.9595337E0,6.2901306E-1,4.918778E-2,1.6141357E1,1.4441471E0,1.3149292E1,3.964382E1,0E0,9.458952E-1,2.774167E-1,3.9282763E-1,0E0,0E0,0E0,0E0,0E0,0E0,0E0,0E0,0E0,0E0,0E0,0E0,0E0,0E0,0E0,0E0,0E0,0E0,0E0,0E0,0E0,0E0,0E0,0E0,0E0,0E0,0E0,0E0,0E0,0E0,0E0,0E0,0E0,0E0,0E0,0E0,0E0,0E0],"parents":[2147483647,0,0,1,1,2,2,3,3,4,4,5,5,6,6,7,7,8,8,9,9,10,10,11,11,12,12,13,13,14,14,20,20,21,21,22,22,23,23,24,24,25,25,26,26,27,27,28,28,29,29,30,30,31,31,32,32,33,33,34,34,37,37,38,38,39,39,40,40,41,41,42,42,43,43,44,44,45,45,46,46,47,47,48,48,50,50,51,51,52,52],"right_children":[2,4,6,8,10,12,14,16,18,20,22,24,26,28,30,-1,-1,-1,-1,-1,32,34,36,38,40,42,44,46,48,50,52,54,56,58,60,-1,-1,62,64,66,68,70,72,74,76,78,80,82,84,-1,86,88,90,-1,-1,-1,-1,-1,-1,-1,-1,-1,-1,-1,-1,-1,-1,-1,-1,-1,-1,-1,-1,-1,-1,-1,-1,-1,-1,-1,-1,-1,-1,-1,-1,-1,-1,-1,-1,-1,-1],"split_conditions":[-8.14045E-1,-1.0368148E0,1.4609267E-1,-1.0925072E0,-9.4993454E-1,6.570997E-2,3.9554427E0,-1.123695E0,-1.0657748E0,-5.918494E0,6.641304E-1,-1.4796342E-1,1.8609712E0,7.5870955E-1,1.9839432E0,-7.232526E-1,-6.4238644E-1,-5.5045867E-1,-4.6528527E-1,1.3030791E-1,-9.9448854E-1,-2.926392E0,9.633406E-1,-3.2172382E-1,2.3569303E-2,-6.090968E-1,3.908123E0,6.641304E-1,1.2625508E0,1.7121642E0,2.5943325E0,-2.0287616E0,6.641304E-1,-7.4993763E0,3.6492017E-1,-2.3906067E-1,-3.1001532E-1,8.074268E-1,-2.1924974E-1,-9.449867E-2,-7.805618E0,6.641304E-1,-3.9301017E-1,2.4593916E0,5.24793E0,4.1787177E-1,1.8609712E0,1.0193502E0,2.4963136E0,-4.1074327E-1,1.8409922E0,1.228509E0,4.254653E0,-8.192192E-2,-3.9446062E-1,-1.6671365E-1,-3.397392E-1,2.773016E-2,2.900858E-1,-1.3526353E-1,-1.7705569E-1,1.244382E-2,2.1132238E-1,4.785653E-2,6.717596E-2,8.3914466E-2,1.0427477E-1,8.275759E-3,1.3446578E-1,-7.5929046E-2,-2.5735536E-1,-2.098837E-2,2.672501E-2,-3.4377205E-1,-5.4962313E-1,-7.641478E-3,-9.7839154E-2,1.7902516E-1,2.533892E-1,-7.792583E-2,-2.6252508E-1,3.2420978E-1,4.0150732E-1,3.6434777E-2,3.0824733E-1,-2.914002E-1,-1.0234395E-1,-1.5096837E-1,-5.7566877E-2,1.3480622E-1,3.5263415E-2],"split_indices":[1,1,1,1,1,2,2,1,1,2,2,1,2,1,1,0,0,0,0,0,1,2,2,1,1,1,0,2,2,1,1,2,2,0,2,0,0,0,1,1,0,2,1,2,0,1,2,1,1,0,0,0,2,0,0,0,0,0,0,0,0,0,0,0,0,0,0,0,0,0,0,0,0,0,0,0,0,0,0,0,0,0,0,0,0,0,0,0,0,0,0],"split_type":[0,0,0,0,0,0,0,0,0,0,0,0,0,0,0,0,0,0,0,0,0,0,0,0,0,0,0,0,0,0,0,0,0,0,0,0,0,0,0,0,0,0,0,0,0,0,0,0,0,0,0,0,0,0,0,0,0,0,0,0,0,0,0,0,0,0,0,0,0,0,0,0,0,0,0,0,0,0,0,0,0,0,0,0,0,0,0,0,0,0,0],"sum_hessian":[6.639E3,1.707E3,4.932E3,7.49E2,9.58E2,2.462E3,2.47E3,3.15E2,4.34E2,2.68E2,6.9E2,1.311E3,1.151E3,2.37E3,1E2,1.55E2,1.6E2,2.24E2,2.1E2,1E0,2.67E2,3.74E2,3.16E2,6.61E2,6.5E2,1.115E3,3.6E1,1.102E3,1.268E3,6.6E1,3.4E1,1.8E2,8.7E1,7E0,3.67E2,1.3E2,1.86E2,2.8E2,3.81E2,3.87E2,2.63E2,5.59E2,5.56E2,3.4E1,2E0,1.083E3,1.9E1,1.066E3,2.02E2,5.1E1,1.5E1,1.8E1,1.6E1,1E0,1.79E2,6E0,8.1E1,1E0,6E0,1.78E2,1.89E2,2.76E2,4E0,2.24E2,1.57E2,1.19E2,2.68E2,1E0,2.62E2,5.47E2,1.2E1,3.9E2,1.66E2,9E0,2.5E1,1E0,1E0,5.34E2,5.49E2,7E0,1.2E1,3.14E2,7.52E2,8E1,1.22E2,1E1,5E0,1.2E1,6E0,9E0,7E0],"tree_param":{"num_deleted":"0","num_feature":"4","num_nodes":"91","size_leaf_vector":"1"}},{"base_weights":[-6.1970117E-4,-8.8339466E-1,3.4281516E-1,-1.3424976E0,-5.356354E-1,8.3501406E-2,6.5164787E-1,-1.5441134E0,-1.115065E0,-3.404519E-1,-7.369089E-1,2.1099745E-1,-1.1612356E-1,7.1444136E-1,-4.8320973E-1,-4.9792978E-1,-4.2185172E-1,1.10761724E-1,-1.1199554E0,6.481614E-1,-3.5465163E-1,-2.5937927E-1,-6.715019E-1,1.0048886E-1,3.0645436E-1,-7.2611354E-2,-1.1469715E0,5.5946195E-1,8.503147E-1,-8.730818E-1,7.917597E-2,-3.5645127E-1,-3.0342802E-1,2.3570636E-2,2.154923E-1,-2.6484653E-1,-3.40792E-1,-1.6725025E-1,-7.4167395E-1,1.8437946E-2,1.3514274E-1,2.4665861E-1,3.5994613E-1,-1.3590014E-1,1.4780785E-2,-4.098992E-1,-8.483277E-1,5.792937E-1,-3.2053772E-1,9.216503E-1,5.399635E-1,-9.615397E-1,-4.9642813E-1,-2.2428901E-1,3.4458053E-1,-8.7514624E-2,-1.23624906E-1,-2.1688591E-1,-4.1276187E-1,3.3184665E-3,1.6449293E-1,3.303615E-2,5.1395297E-2,2.0309581E-1,7.3175326E-2,1.2404207E-1,1.0353064E-1,-3.639343E-2,-1.3384914E-1,-1.9558276E-1,5.4014726E-3,-1.20441206E-1,-3.0334842E-1,1.4765087E-1,2.000561E-1,-2.2414996E-1,-7.215496E-2,1.6278958E-1,2.8066894E-1,7.706438E-2,2.4617271E-1,-3.260568E-1,-2.2788258E-1,-2.0662297E-1,-8.7507315E-2,-9.714634E-2,1.4841934E-2,4.2104065E-2,1.5288395E-1],"categories":[],"categories_nodes":[],"categories_segments":[],"categories_sizes":[],"default_left":[0,0,0,0,0,0,0,0,0,0,0,0,0,0,0,0,0,0,0,0,0,0,0,0,0,0,0,0,0,0,0,0,0,0,0,0,0,0,0,0,0,0,0,0,0,0,0,0,0,0,0,0,0,0,0,0,0,0,0,0,0,0,0,0,0,0,0,0,0,0,0,0,0,0,0,0,0,0,0,0,0,0,0,0,0,0,0,0,0],"id":1,"left_children":[1,3,5,7,9,11,13,15,17,19,21,23,25,27,29,-1,-1,-1,31,33,35,-1,37,39,41,43,45,47,49,51,53,-1,-1,-1,-1,-1,55,-1,57,59,61,63,65,67,69,-1,71,73,75,77,79,81,83,85,87,-1,-1,-1,-1,-1,-1,-1,-1,-1,-1,-1,-1,-1,-1,-1,-1,-1,-1,-1,-1,-1,-1,-1,-1,-1,-1,-1,-1,-1,-1,-1,-1,-1,-1],"loss_changes":[2.0133895E3,2.962433E2,3.828299E2,3.5007446E1,4.139151E1,6.619812E1,1.558382E2,4.3983154E0,3.1717834E0,7.8104134E0,3.770691E0,1.671016E1,4.539914E1,4.307141E1,2.5283854E1,0E0,0E0,0E0,1.604126E0,2.632017E-1,3.60083E0,0E0,2.3784027E0,2.093082E0,2.6332016E0,5.3891463E0,1.526825E0,1.709665E1,2.3855347E1,1.7882881E0,3.9432533E0,0E0,0E0,0E0,0E0,0E0,1.7026215E0,0E0,1.5342102E0,8.538141E-1,4.5001507E-1,3.1256104E-1,2.1247482E-1,2.5032606E0,8.930729E-1,0E0,1.0493164E0,6.903717E0,5.713599E-1,4.201355E0,1.6311966E1,5.4089737E-1,3.8971043E-1,6.427274E-1,8.0481315E-1,0E0,0E0,0E0,0E0,0E0,0E0,0E0,0E0,0E0,0E0,0E0,0E0,0E0,0E0,0E0,0E0,0E0,0E0,0E0,0E0,0E0,0E0,0E0,0E0,0E0,0E0,0E0,0E0,0E0,0E0,0E0,0E0,0E0,0E0],"parents":[2147483647,0,0,1,1,2,2,3,3,4,4,5,5,6,6,7,7,8,8,9,9,10,10,11,11,12,12,13,13,14,14,18,18,19,19,20,20,22,22,23,23,24,24,25,25,26,26,27,27,28,28,29,29,30,30,36,36,38,38,39,39,40,40,41,41,42,42,43,43,44,44,46,46,47,47,48,48,49,49,50,50,51,51,52,52,53,53,54,54],"right_children":[2,4,6,8,10,12,14,16,18,20,22,24,26,28,30,-1,-1,-1,32,34,36,-1,38,40,42,44,46,48,50,52,54,-1,-1,-1,-1,-1,56,-1,58,60,62,64,66,68,70,-1,72,74,76,78,80,82,84,86,88,-1,-1,-1,-1,-1,-1,-1,-1,-1,-1,-1,-1,-1,-1,-1,-1,-1,-1,-1,-1,-1,-1,-1,-1,-1,-1,-1,-1,-1,-1,-1,-1,-1,-1],"split_conditions":[-7.6280797E-1,-1.0212209E0,2.8198224E-1,-1.079141E0,6.641304E-1,6.570997E-2,3.6562326E0,-1.1103288E0,-5.918494E0,-2.926392E0,-9.7443926E-1,-1.1677565E-1,1.8609712E0,8.7677747E-1,1.9839432E0,-4.9792978E-1,-4.2185172E-1,1.10761724E-1,-1.0524087E0,-7.4993763E0,-1.0189931E0,-2.5937927E-1,9.633406E-1,-3.506839E-1,7.035095E-2,-5.333551E-1,-1.11297995E-1,3.6492017E-1,9.633406E-1,2.0323932E0,2.5943325E0,-3.5645127E-1,-3.0342802E-1,2.3570636E-2,2.154923E-1,-2.6484653E-1,3.6492017E-1,-1.6725025E-1,1.561761E0,1.1902288E0,-2.1033895E-1,-2.3279717E0,-2.3350024E-1,3.6492017E-1,-4.5135207E0,-4.098992E-1,2.4593916E0,5.4262286E-1,-3.4416752E0,-1.259704E0,2.8304684E0,1.2978123E0,1.1886551E0,1.994113E0,3.2359092E0,-8.7514624E-2,-1.23624906E-1,-2.1688591E-1,-4.1276187E-1,3.3184665E-3,1.6449293E-1,3.303615E-2,5.1395297E-2,2.0309581E-1,7.3175326E-2,1.2404207E-1,1.0353064E-1,-3.639343E-2,-1.3384914E-1,-1.9558276E-1,5.4014726E-3,-1.20441206E-1,-3.0334842E-1,1.4765087E-1,2.000561E-1,-2.2414996E-1,-7.215496E-2,1.6278958E-1,2.8066894E-1,7.706438E-2,2.4617271E-1,-3.260568E-1,-2.2788258E-1,-2.0662297E-1,-8.7507315E-2,-9.714634E-2,1.4841934E-2,4.2104065E-2,1.5288395E-1],"split_indices":[1,1,1,1,2,2,2,1,2,2,1,1,2,1,1,0,0,0,1,0,1,0,2,1,1,1,0,2,2,0,1,0,0,0,0,0,2,0,2,0,1,2,2,2,0,0,2,1,0,0,1,1,1,0,1,0,0,0,0,0,0,0,0,0,0,0,0,0,0,0,0,0,0,0,0,0,0,0,0,0,0,0,0,0,0,0,0,0,0],"split_type":[0,0,0,0,0,0,0,0,0,0,0,0,0,0,0,0,0,0,0,0,0,0,0,0,0,0,0,0,0,0,0,0,0,0,0,0,0,0,0,0,0,0,0,0,0,0,0,0,0,0,0,0,0,0,0,0,0,0,0,0,0,0,0,0,0,0,0,0,0,0,0,0,0,0,0,0,0,0,0,0,0,0,0,0,0,0,0,0,0],"sum_hessian":[6.639E3,1.859E3,4.78E3,8E2,1.059E3,2.599E3,2.181E3,4.21E2,3.79E2,5.39E2,5.2E2,1.586E3,1.013E3,2.067E3,1.14E2,2.23E2,1.98E2,1E0,3.78E2,7E0,5.32E2,1.72E2,3.48E2,7.36E2,8.5E2,9.73E2,4E1,9.68E2,1.099E3,6.7E1,4.7E1,2.26E2,1.52E2,1E0,6E0,1.2E1,5.2E2,1.36E2,2.12E2,2.19E2,5.17E2,4.04E2,4.46E2,5.64E2,4.09E2,2.1E1,1.9E1,9.47E2,2.1E1,8.92E2,2.07E2,5.3E1,1.4E1,2.2E1,2.5E1,3.11E2,2.09E2,2.08E2,4E0,2.17E2,2E0,3.08E2,2.09E2,1E0,4.03E2,9.1E1,3.55E2,5.4E2,2.4E1,1E0,4.08E2,6E0,1.3E1,4.78E2,4.69E2,2E0,1.9E1,3.3E1,8.59E2,1.04E2,1.03E2,3E1,2.3E1,6E0,8E0,1.6E1,6E0,1.2E1,1.3E1],"tree_param":{"num_deleted":"0","num_feature":"4","num_nodes":"89","size_leaf_vector":"1"}},{"base_weights":[-9.0327865E-4,-6.521225E-1,2.283229E-1,-9.7461057E-1,-4.2593035E-1,3.368839E-2,4.4258958E-1,-1.1417853E0,-8.596957E-1,-5.920584E-1,-3.2688588E-1,1.3456346E-1,-9.360851E-2,4.8516822E-1,-3.6257735E-1,-2.084288E-1,-1.1504796E0,-2.760718E-1,-2.3476484E-1,1.3562979E-1,-5.987969E-1,-2.4574487E-1,-4.484292E-1,6.459971E-2,1.9407563E-1,-6.3986324E-2,-7.804903E-1,3.409488E-1,5.731479E-1,-6.416496E-1,5.7770755E-2,-3.744508E-1,-3.2427308E-1,-6.735284E-1,-5.380951E-1,4.4858834E-1,-2.5788853E-1,-4.221467E-1,-5.87407E-1,6.1296422E-2,4.8639208E-1,1.4580102E-1,2.1868245E-1,-1.6007172E-1,-2.1126661E-2,-2.9461095E-1,-5.068226E-1,3.5009712E-1,-3.8365468E-1,6.0642415E-1,2.837776E-1,-8.275862E-1,-5.0132847E-1,2.831654E-1,-1.6091894E-1,-5.6506436E-2,-2.0260149E-1,-1.0102058E-1,-1.651707E-1,2.003504E-2,1.5032758E-1,-7.8657284E-2,1.6198447E-2,-1.165746E-1,-1.3547058E-1,-2.6691648E-1,-1.577017E-1,-1.6673958E-2,2.2996236E-2,1.7683901E-1,6.6357024E-2,3.8193725E-2,4.9739297E-2,-2.7664877E-2,6.620881E-2,-4.4678316E-2,-7.9580896E-2,-1.629501E-2,1.1681852E-2,-7.85726E-2,-2.1837799E-1,1.8359369E-2,1.07027136E-1,-2.3677165E-2,-1.4641897E-1,1.5555155E-1,2.057349E-1,-5.3526345E-4,1.6179112E-1,-2.8899544E-1,-1.9100456E-1,-1.7000237E-1,-6.870573E-2,5.104672E-2,1.5999286E-1,-8.5574105E-2,-7.263753E-3],"categories":[],"categories_nodes":[],"categories_segments":[],"categories_sizes":[],"default_left":[0,0,0,0,0,0,0,0,0,0,0,0,0,0,0,0,0,0,0,0,0,0,0,0,0,0,0,0,0,0,0,0,0,0,0,0,0,0,0,0,0,0,0,0,0,0,0,0,0,0,0,0,0,0,0,0,0,0,0,0,0,0,0,0,0,0,0,0,0,0,0,0,0,0,0,0,0,0,0,0,0,0,0,0,0,0,0,0,0,0,0,0,0,0,0,0,0],"id":2,"left_children":[1,3,5,7,9,11,13,15,17,19,21,23,25,27,29,-1,31,-1,-1,-1,33,35,37,39,41,43,45,47,49,51,53,-1,-1,55,57,59,61,63,65,67,69,71,73,75,77,-1,79,81,83,85,87,89,91,93,95,-1,-1,-1,-1,-1,-1,-1,-1,-1,-1,-1,-1,-1,-1,-1,-1,-1,-1,-1,-1,-1,-1,-1,-1,-1,-1,-1,-1,-1,-1,-1,-1,-1,-1,-1,-1,-1,-1,-1,-1,-1,-1],"loss_changes":[9.913448E2,1.2570557E2,2.0483368E2,1.2696533E1,1.6556717E1,3.3078392E1,8.0329315E1,3.1610107E-1,1.2695923E0,2.937378E0,6.201576E0,5.9706917E0,2.3125225E1,2.7985474E1,1.3879353E1,0E0,5.538025E-1,0E0,0E0,0E0,1.3477631E0,3.3703384E0,6.8346405E-1,8.9255047E-1,8.8991547E-1,4.4977975E0,2.0946465E0,5.729103E0,1.3096893E1,1.4375572E0,2.4115582E0,0E0,0E0,1.7684937E-2,3.4960175E-1,1.0685825E-1,5.240612E-1,3.981018E-2,2.4150276E-1,1.1853375E0,6.290078E-3,7.6865196E-2,3.4087372E-1,3.5556698E-1,1.511269E0,0E0,1.0006814E0,1.58284E0,3.114617E-1,8.2612E0,1.0508428E1,1.3811493E-1,6.353779E-1,5.8770335E-1,4.180045E-1,0E0,0E0,0E0,0E0,0E0,0E0,0E0,0E0,0E0,0E0,0E0,0E0,0E0,0E0,0E0,0E0,0E0,0E0,0E0,0E0,0E0,0E0,0E0,0E0,0E0,0E0,0E0,0E0,0E0,0E0,0E0,0E0,0E0,0E0,0E0,0E0,0E0,0E0,0E0,0E0,0E0,0E0],"parents":[2147483647,0,0,1,1,2,2,3,3,4,4,5,5,6,6,7,7,8,8,9,9,10,10,11,11,12,12,13,13,14,14,16,16,20,20,21,21,22,22,23,23,24,24,25,25,26,26,27,27,28,28,29,29,30,30,33,33,34,34,35,35,36,36,37,37,38,38,39,39,40,40,41,41,42,42,43,43,44,44,46,46,47,47,48,48,49,49,50,50,51,51,52,52,53,53,54,54],"right_children":[2,4,6,8,10,12,14,16,18,20,22,24,26,28,30,-1,32,-1,-1,-1,34,36,38,40,42,44,46,48,50,52,54,-1,-1,56,58,60,62,64,66,68,70,72,74,76,78,-1,80,82,84,86,88,90,92,94,96,-1,-1,-1,-1,-1,-1,-1,-1,-1,-1,-1,-1,-1,-1,-1,-1,-1,-1,-1,-1,-1,-1,-1,-1,-1,-1,-1,-1,-1,-1,-1,-1,-1,-1,-1,-1,-1,-1,-1,-1,-1,-1],"split_conditions":[-8.073619E-1,-1.0390425E0,2.1069591E-1,-1.1058733E0,-9.3434066E-1,6.570997E-2,3.6562326E0,-2.627182E0,-1.0702302E0,-4.4224434E0,6.641304E-1,-1.4796342E-1,1.2625508E0,6.7182934E-1,1.9839432E0,-2.084288E-1,-1.1311308E0,-2.760718E-1,-2.3476484E-1,1.3562979E-1,-1.0078547E0,-2.926392E0,1.2625508E0,9.6054757E-1,-3.2123137E-2,-6.892939E-1,2.7150398E-1,6.641304E-1,1.8609712E0,1.0661318E0,4.254653E0,-3.744508E-1,-3.2427308E-1,-2.0287616E0,6.641304E-1,-7.4993763E0,1.0472716E0,9.633406E-1,-1.1065831E0,-4.642965E-1,-6.67017E-1,1.6587156E-1,-4.1307187E0,3.6492017E-1,-4.642965E-1,-2.9461095E-1,2.4593916E0,-9.5346236E-1,1.8609712E0,1.1552397E0,2.8304684E0,-1.11297995E-1,2.1472337E0,4.865128E0,2.413889E0,-5.6506436E-2,-2.0260149E-1,-1.0102058E-1,-1.651707E-1,2.003504E-2,1.5032758E-1,-7.8657284E-2,1.6198447E-2,-1.165746E-1,-1.3547058E-1,-2.6691648E-1,-1.577017E-1,-1.6673958E-2,2.2996236E-2,1.7683901E-1,6.6357024E-2,3.8193725E-2,4.9739297E-2,-2.7664877E-2,6.620881E-2,-4.4678316E-2,-7.9580896E-2,-1.629501E-2,1.1681852E-2,-7.85726E-2,-2.1837799E-1,1.8359369E-2,1.07027136E-1,-2.3677165E-2,-1.4641897E-1,1.5555155E-1,2.057349E-1,-5.3526345E-4,1.6179112E-1,-2.8899544E-1,-1.9100456E-1,-1.7000237E-1,-6.870573E-2,5.104672E-2,1.5999286E-1,-8.5574105E-2,-7.263753E-3],"split_indices":[1,1,1,1,1,2,2,2,1,2,2,1,2,1,1,0,2,0,0,0,1,2,2,0,1,1,0,2,2,1,2,0,0,2,2,0,3,2,0,1,1,3,0,2,1,0,2,0,2,1,1,0,0,0,1,0,0,0,0,0,0,0,0,0,0,0,0,0,0,0,0,0,0,0,0,0,0,0,0,0,0,0,0,0,0,0,0,0,0,0,0,0,0,0,0,0,0],"split_type":[0,0,0,0,0,0,0,0,0,0,0,0,0,0,0,0,0,0,0,0,0,0,0,0,0,0,0,0,0,0,0,0,0,0,0,0,0,0,0,0,0,0,0,0,0,0,0,0,0,0,0,0,0,0,0,0,0,0,0,0,0,0,0,0,0,0,0,0,0,0,0,0,0,0,0,0,0,0,0,0,0,0,0,0,0,0,0,0,0,0,0,0,0,0,0,0,0],"sum_hessian":[6.639E3,1.728E3,4.911E3,7.11E2,1.017E3,2.574E3,2.337E3,2.86E2,4.25E2,3.78E2,6.39E2,1.436E3,1.138E3,2.22E3,1.17E2,7E0,2.79E2,2.32E2,1.93E2,2E0,3.76E2,3.85E2,2.54E2,6.61E2,7.75E2,1.092E3,4.6E1,8.43E2,1.377E3,7E1,4.7E1,1.09E2,1.7E2,1.64E2,2.12E2,6E0,3.79E2,2.17E2,3.7E1,6.57E2,4E0,2.64E2,5.11E2,3.36E2,7.56E2,2.5E1,2.1E1,8.33E2,1E1,1.234E3,1.43E2,2.8E1,4.2E1,2.3E1,2.4E1,1E0,1.63E2,1.4E1,1.98E2,1E0,5E0,3.74E2,5E0,1.08E2,1.09E2,4E0,3.3E1,7.6E1,5.81E2,2E0,2E0,1.41E2,1.23E2,3E0,5.08E2,3.06E2,3E1,4.87E2,2.69E2,1.1E1,1E1,1.9E1,8.14E2,3E0,7E0,5.89E2,6.45E2,6.8E1,7.5E1,1.4E1,1.4E1,3.3E1,9E0,1.7E1,6E0,1.2E1,1.2E1],"tree_param":{"num_deleted":"0","num_feature":"4","num_nodes":"97","size_leaf_vector":"1"}},{"base_weights":[-1.0605396E-3,-4.927467E-1,1.4876388E-1,-7.013485E-1,-3.426729E-1,3.7250936E-1,4.8678495E-2,-7.9641044E-1,-6.139644E-1,-4.588092E-1,-2.721791E-1,2.9582804E-1,4.7408566E-1,1.5513382E-2,3.46932E-1,-8.876254E-1,-7.563044E-1,-2.014206E-1,-1.7457251E-1,7.380299E-2,-4.6161398E-1,-2.2456576E-1,-3.5998186E-1,-5.143884E-2,3.0378798E-1,4.1874614E-1,5.1857156E-1,1.14381574E-1,-9.9719554E-2,3.9761886E-1,-1.7236249E-1,-8.938883E-1,-5.1412765E-2,-8.8960975E-2,-2.2774866E-1,-4.5417917E-1,-7.985494E-1,-2.3442017E-1,2.494168E-1,-1.1079314E-1,-8.430861E-2,-7.980151E-3,-1.889106E-1,2.4218619E-1,3.3984157E-1,2.0562056E-2,1.2590091E-1,-1.6474287E-1,5.2460617E-1,5.8271036E-2,1.7572829E-1,-6.8433866E-2,-5.4951304E-1,1.2830167E-1,4.3881434E-1,-5.430749E-2,-3.0253765E-1,-6.5561414E-2,-2.6976004E-1,-1.4270805E-1,-1.2162145E-1,-5.0401893E-2,-2.6731706E-1,-7.791289E-2,-6.1299074E-2,3.5630623E-3,1.1686962E-1,1.9555448E-2,-2.9531656E-2,-7.705051E-2,1.2418056E-2,1.680526E-1,7.005203E-2,9.059475E-2,1.0756967E-1,-7.930307E-2,2.0108879E-2,1.578759E-1,-1.1721674E-2,4.4190595E-3,2.6774356E-2,4.68259E-2,8.4823824E-2,-2.234313E-2,1.4461E-1,-2.0221983E-1,-1.1288696E-1,1.01067655E-1,-4.6531716E-3,1.4808685E-1,7.969391E-2,-2.9752892E-2,6.0928605E-2,1.3371964E-2,-9.915453E-2],"categories":[],"categories_nodes":[],"categories_segments":[],"categories_sizes":[],"default_left":[0,0,0,0,0,0,0,0,0,0,0,0,0,0,0,0,0,0,0,0,0,0,0,0,0,0,0,0,0,0,0,0,0,0,0,0,0,0,0,0,0,0,0,0,0,0,0,0,0,0,0,0,0,0,0,0,0,0,0,0,0,0,0,0,0,0,0,0,0,0,0,0,0,0,0,0,0,0,0,0,0,0,0,0,0,0,0,0,0,0,0,0,0,0,0],"id":3,"left_children":[1,3,5,7,9,11,13,15,17,19,21,23,25,27,29,31,33,-1,-1,-1,35,37,39,41,43,45,47,49,51,53,55,57,-1,-1,-1,59,61,63,65,-1,-1,67,69,71,73,-1,-1,75,77,79,81,83,85,87,89,91,93,-1,-1,-1,-1,-1,-1,-1,-1,-1,-1,-1,-1,-1,-1,-1,-1,-1,-1,-1,-1,-1,-1,-1,-1,-1,-1,-1,-1,-1,-1,-1,-1,-1,-1,-1,-1,-1,-1],"loss_changes":[4.8921948E2,4.831476E1,1.1396557E2,4.8938904E0,7.2760696E0,1.2111847E1,3.4793304E1,4.5178223E-1,2.3899841E-1,7.8569794E-1,2.281189E0,2.5006561E0,1.4445953E0,3.6092632E1,9.333675E0,2.4155426E-1,6.3941956E-2,0E0,0E0,0E0,4.865265E-1,1.7819977E0,4.1309357E-2,1.23953655E-1,1.8699265E0,7.0201874E-2,1.6121216E0,5.8587074E0,2.0549877E1,3.5050812E0,4.7534055E-1,1.1559296E-1,0E0,0E0,0E0,1.5763092E-1,2.0027614E-1,2.2239876E-1,2.617002E-1,0E0,0E0,1.1892966E-1,8.884768E-2,7.7446365E-1,2.8302002E-1,0E0,0E0,1.10057645E-1,3.612442E-1,1.2017765E0,1.6669254E0,4.590014E0,1.7960262E0,1.3251317E0,2.5073853E0,2.2803073E-1,1.6040099E-1,0E0,0E0,0E0,0E0,0E0,0E0,0E0,0E0,0E0,0E0,0E0,0E0,0E0,0E0,0E0,0E0,0E0,0E0,0E0,0E0,0E0,0E0,0E0,0E0,0E0,0E0,0E0,0E0,0E0,0E0,0E0,0E0,0E0,0E0,0E0,0E0,0E0,0E0],"parents":[2147483647,0,0,1,1,2,2,3,3,4,4,5,5,6,6,7,7,8,8,9,9,10,10,11,11,12,12,13,13,14,14,15,15,16,16,20,20,21,21,22,22,23,23,24,24,25,25,26,26,27,27,28,28,29,29,30,30,31,31,35,35,36,36,37,37,38,38,41,41,42,42,43,43,44,44,47,47,48,48,49,49,50,50,51,51,52,52,53,53,54,54,55,55,56,56],"right_children":[2,4,6,8,10,12,14,16,18,20,22,24,26,28,30,32,34,-1,-1,-1,36,38,40,42,44,46,48,50,52,54,56,58,-1,-1,-1,60,62,64,66,-1,-1,68,70,72,74,-1,-1,76,78,80,82,84,86,88,90,92,94,-1,-1,-1,-1,-1,-1,-1,-1,-1,-1,-1,-1,-1,-1,-1,-1,-1,-1,-1,-1,-1,-1,-1,-1,-1,-1,-1,-1,-1,-1,-1,-1,-1,-1,-1,-1,-1,-1],"split_conditions":[-8.496882E-1,-1.0524087E0,-2.3350024E-1,-1.0969626E0,-9.7443926E-1,9.1464835E-1,1.8190936E0,-1.1370611E0,-1.079141E0,-5.918494E0,9.633406E-1,-2.9440327E0,1.1886551E0,6.570997E-2,4.254653E0,1.6348717E0,-2.926392E0,-2.014206E-1,-1.7457251E-1,7.380299E-2,1.2625508E0,1.0472716E0,-8.7642056E-1,5.04752E-1,4.9138582E-1,-2.0635881E0,-4.3604E0,-3.880623E-2,3.057812E0,-2.6441878E-1,5.1522837E0,-1.0705857E1,-5.1412765E-2,-8.8960975E-2,-2.2774866E-1,-1.0078547E0,-1.2792847E-1,-8.8755906E-1,-6.1212893E0,-1.1079314E-1,-8.430861E-2,-4.5135207E0,-3.9775982E0,-1.1311308E0,6.3173074E-1,2.0562056E-2,1.2590091E-1,-5.011163E0,3.0659585E0,-2.749422E-1,8.45707E-1,3.180799E0,1.0661318E0,6.641304E-1,2.758602E0,3.2359092E0,4.596716E-1,-6.5561414E-2,-2.6976004E-1,-1.4270805E-1,-1.2162145E-1,-5.0401893E-2,-2.6731706E-1,-7.791289E-2,-6.1299074E-2,3.5630623E-3,1.1686962E-1,1.9555448E-2,-2.9531656E-2,-7.705051E-2,1.2418056E-2,1.680526E-1,7.005203E-2,9.059475E-2,1.0756967E-1,-7.930307E-2,2.0108879E-2,1.578759E-1,-1.1721674E-2,4.4190595E-3,2.6774356E-2,4.68259E-2,8.4823824E-2,-2.234313E-2,1.4461E-1,-2.0221983E-1,-1.1288696E-1,1.01067655E-1,-4.6531716E-3,1.4808685E-1,7.969391E-2,-2.9752892E-2,6.0928605E-2,1.3371964E-2,-9.915453E-2],"split_indices":[1,1,2,1,1,1,1,1,1,2,2,0,1,2,2,3,2,0,0,0,2,3,1,1,1,0,0,1,2,0,2,2,0,0,0,1,3,1,0,0,0,0,0,2,1,0,0,0,0,1,0,0,1,2,2,1,3,0,0,0,0,0,0,0,0,0,0,0,0,0,0,0,0,0,0,0,0,0,0,0,0,0,0,0,0,0,0,0,0,0,0,0,0,0,0],"split_type":[0,0,0,0,0,0,0,0,0,0,0,0,0,0,0,0,0,0,0,0,0,0,0,0,0,0,0,0,0,0,0,0,0,0,0,0,0,0,0,0,0,0,0,0,0,0,0,0,0,0,0,0,0,0,0,0,0,0,0,0,0,0,0,0,0,0,0,0,0,0,0,0,0,0,0,0,0,0,0,0,0,0,0,0,0,0,0,0,0,0,0,0,0,0,0],"sum_hessian":[6.639E3,1.55E3,5.089E3,6.47E2,9.03E2,1.572E3,3.517E3,3.06E2,3.41E2,3.39E2,5.64E2,8.98E2,6.74E2,3.166E3,3.51E2,8.7E1,2.19E2,1.15E2,2.26E2,1E0,3.38E2,3.68E2,1.96E2,2E1,8.78E2,3.05E2,3.69E2,1.704E3,1.462E3,3.2E2,3.1E1,8.6E1,1E0,2E0,2.17E2,3.33E2,5E0,3.61E2,7E0,1.72E2,2.4E1,1.6E1,4E0,3.27E2,5.51E2,1E0,3.04E2,3E0,3.66E2,8.91E2,8.13E2,1.368E3,9.4E1,4.3E1,2.77E2,1.7E1,1.4E1,1E0,8.5E1,2.25E2,1.08E2,1E0,4E0,1.92E2,1.69E2,3E0,4E0,9E0,7E0,3E0,1E0,7E0,3.2E2,1.88E2,3.63E2,2E0,1E0,3.65E2,1E0,3.71E2,5.2E2,6.89E2,1.24E2,1.354E3,1.4E1,5.3E1,4.1E1,1.7E1,2.6E1,2.09E2,6.8E1,1.5E1,2E0,1E0,1.3E1],"tree_param":{"num_deleted":"0","num_feature":"4","num_nodes":"95","size_leaf_vector":"1"}},{"base_weights":[-8.879963E-4,-2.9810494E-1,1.2464482E-1,-4.559409E-1,-1.7713194E-1,2.6051614E-1,5.579237E-2,-5.444788E-1,-3.8086423E-1,-1.1379433E-1,-2.6016626E-1,2.0621811E-1,3.3220577E-1,3.172161E-2,2.4361826E-1,-1.7624494E-1,-4.941542E-1,-3.7451944E-1,-2.2301976E-1,2.474124E-1,-1.2054743E-1,-2.5051746E-1,-2.4052463E-1,7.352629E-3,2.1357498E-1,-6.344246E-2,3.341357E-1,5.420664E-2,-2.8201917E-1,2.85706E-1,-7.383188E-2,-2.4470009E-2,-1.4878306E-1,-4.1240275E-1,-3.345044E-1,9.204578E-3,3.2579228E-1,-1.5984233E-1,-1.05394855E-1,-8.593675E-2,-2.3293856E-1,-9.90969E-3,8.396203E-2,1.6762942E-1,2.3976324E-1,2.9919663E-1,3.7657928E-1,2.3856988E-5,1.04796275E-1,-3.7522617E-1,2.3076417E-2,9.714922E-2,3.1807E-1,-2.0763965E-1,5.7249717E-2,-1.2745798E-1,-1.0629891E-1,6.273255E-2,-1.0134175E-1,-2.3172107E-2,1.9129902E-2,-2.662426E-2,1.1661097E-1,-4.893425E-2,5.9946362E-2,-3.5283327E-2,-2.5737632E-2,-6.548191E-2,-9.074871E-2,5.5038285E-2,-1.0871937E-2,1.1040095E-1,4.8774123E-2,6.6186614E-2,7.929566E-2,8.428408E-2,9.507163E-2,9.273398E-2,1.18730545E-1,-8.035953E-3,7.7077257E-3,2.5389481E-2,5.2152585E-2,-1.520935E-1,-8.8480055E-2,8.117037E-2,-5.275195E-2,7.268037E-2,-3.8354727E-4,1.0329834E-1,5.3507585E-2,-6.825113E-2,2.8446387E-2,7.2328314E-2,-8.028125E-3],"categories":[],"categories_nodes":[],"categories_segments":[],"categories_sizes":[],"default_left":[0,0,0,0,0,0,0,0,0,0,0,0,0,0,0,0,0,0,0,0,0,0,0,0,0,0,0,0,0,0,0,0,0,0,0,0,0,0,0,0,0,0,0,0,0,0,0,0,0,0,0,0,0,0,0,0,0,0,0,0,0,0,0,0,0,0,0,0,0,0,0,0,0,0,0,0,0,0,0,0,0,0,0,0,0,0,0,0,0,0,0,0,0,0,0],"id":4,"left_children":[1,3,5,7,9,11,13,15,17,19,21,23,25,27,29,-1,31,33,-1,35,37,39,-1,41,43,-1,45,47,49,51,53,-1,-1,55,57,59,61,63,65,-1,67,69,-1,71,73,75,77,79,81,83,85,87,89,91,93,-1,-1,-1,-1,-1,-1,-1,-1,-1,-1,-1,-1,-1,-1,-1,-1,-1,-1,-1,-1,-1,-1,-1,-1,-1,-1,-1,-1,-1,-1,-1,-1,-1,-1,-1,-1,-1,-1,-1,-1],"loss_changes":[2.4777876E2,3.7572388E1,4.3664307E1,5.4759216E0,5.850174E0,6.042877E0,1.4007717E1,5.537262E-1,7.934799E-1,1.5811968E0,2.323124E0,1.3093071E0,7.789154E-1,1.9408026E1,4.724081E0,0E0,9.685516E-2,5.593643E-1,0E0,2.210496E-1,3.552904E-1,2.3398972E-1,0E0,1.5801673E-1,9.994011E-1,0E0,8.8534546E-1,7.0336275E0,5.2410755E0,1.8669624E0,7.4855614E-1,0E0,0E0,1.7292023E-2,4.816208E-1,2.3791686E-2,2.6920813E-1,2.3499632E-1,9.862995E-2,0E0,2.6550293E-1,1.6957553E-1,0E0,2.608776E-1,1.9926071E-1,3.1837463E-2,2.6604843E-1,8.540357E-1,1.8328476E0,1.3420773E0,2.2137003E0,6.716435E-1,9.107437E-1,1.4774269E-1,3.4623766E-1,0E0,0E0,0E0,0E0,0E0,0E0,0E0,0E0,0E0,0E0,0E0,0E0,0E0,0E0,0E0,0E0,0E0,0E0,0E0,0E0,0E0,0E0,0E0,0E0,0E0,0E0,0E0,0E0,0E0,0E0,0E0,0E0,0E0,0E0,0E0,0E0,0E0,0E0,0E0,0E0],"parents":[2147483647,0,0,1,1,2,2,3,3,4,4,5,5,6,6,7,7,8,8,9,9,10,10,11,11,12,12,13,13,14,14,16,16,17,17,19,19,20,20,21,21,23,23,24,24,26,26,27,27,28,28,29,29,30,30,33,33,34,34,35,35,36,36,37,37,38,38,40,40,41,41,43,43,44,44,45,45,46,46,47,47,48,48,49,49,50,50,51,51,52,52,53,53,54,54],"right_children":[2,4,6,8,10,12,14,16,18,20,22,24,26,28,30,-1,32,34,-1,36,38,40,-1,42,44,-1,46,48,50,52,54,-1,-1,56,58,60,62,64,66,-1,68,70,-1,72,74,76,78,80,82,84,86,88,90,92,94,-1,-1,-1,-1,-1,-1,-1,-1,-1,-1,-1,-1,-1,-1,-1,-1,-1,-1,-1,-1,-1,-1,-1,-1,-1,-1,-1,-1,-1,-1,-1,-1,-1,-1,-1,-1,-1,-1,-1,-1],"split_conditions":[-7.249371E-1,-1.0189931E0,-2.3350024E-1,-1.0880518E0,6.641304E-1,9.1464835E-1,1.8190936E0,-1.1192396E0,9.633406E-1,-2.3350024E-1,1.561761E0,-1.1448634E0,-5.011163E0,6.641304E-1,3.9554427E0,-1.7624494E-1,-2.926392E0,-1.0635471E0,-2.2301976E-1,-6.1212893E0,-8.6973745E-1,-9.5439E-1,-2.4052463E-1,2.5162718E0,4.9138582E-1,-6.344246E-2,1.2465754E0,-2.3929901E-1,1.7261516E0,-2.2613859E-1,2.413889E0,-2.4470009E-2,-1.4878306E-1,6.570997E-2,-5.918494E0,-7.6907773E0,-1.0078547E0,4.246248E-1,-7.8954035E-1,-8.593675E-2,1.2625508E0,-1.7295513E0,8.396203E-2,-5.3271043E-1,7.534716E-1,1.0472716E0,4.1822802E-2,-4.8211807E-1,5.011852E-1,-5.7066035E-1,2.758602E0,6.641304E-1,3.057812E0,3.397672E0,1.6348717E0,-1.2745798E-1,-1.0629891E-1,6.273255E-2,-1.0134175E-1,-2.3172107E-2,1.9129902E-2,-2.662426E-2,1.1661097E-1,-4.893425E-2,5.9946362E-2,-3.5283327E-2,-2.5737632E-2,-6.548191E-2,-9.074871E-2,5.5038285E-2,-1.0871937E-2,1.1040095E-1,4.8774123E-2,6.6186614E-2,7.929566E-2,8.428408E-2,9.507163E-2,9.273398E-2,1.18730545E-1,-8.035953E-3,7.7077257E-3,2.5389481E-2,5.2152585E-2,-1.520935E-1,-8.8480055E-2,8.117037E-2,-5.275195E-2,7.268037E-2,-3.8354727E-4,1.0329834E-1,5.3507585E-2,-6.825113E-2,2.8446387E-2,7.2328314E-2,-8.028125E-3],"split_indices":[1,1,2,1,2,1,1,1,2,2,2,0,0,2,2,0,2,1,0,0,1,1,0,3,1,0,1,1,0,0,1,0,0,2,2,0,1,0,1,0,2,2,0,2,3,3,0,1,0,0,2,2,2,3,3,0,0,0,0,0,0,0,0,0,0,0,0,0,0,0,0,0,0,0,0,0,0,0,0,0,0,0,0,0,0,0,0,0,0,0,0,0,0,0,0],"split_type":[0,0,0,0,0,0,0,0,0,0,0,0,0,0,0,0,0,0,0,0,0,0,0,0,0,0,0,0,0,0,0,0,0,0,0,0,0,0,0,0,0,0,0,0,0,0,0,0,0,0,0,0,0,0,0,0,0,0,0,0,0,0,0,0,0,0,0,0,0,0,0,0,0,0,0,0,0,0,0,0,0,0,0,0,0,0,0,0,0,0,0,0,0,0,0],"sum_hessian":[6.639E3,1.971E3,4.668E3,8.54E2,1.117E3,1.569E3,3.099E3,3.89E2,4.65E2,6.35E2,4.82E2,8.95E2,6.74E2,2.748E3,3.51E2,2.04E2,1.85E2,4.59E2,6E0,1.1E1,6.24E2,4.75E2,7E0,3.2E1,8.63E2,2E0,6.72E2,2.565E3,1.83E2,3.1E2,4.1E1,1E0,1.84E2,2.31E2,2.28E2,3E0,8E0,1.71E2,4.53E2,1.51E2,3.24E2,3.1E1,1E0,3.16E2,5.47E2,3.73E2,2.99E2,1.239E3,1.326E3,1.4E2,4.3E1,4.6E1,2.64E2,2E1,2.1E1,1.85E2,4.6E1,1E0,2.27E2,1E0,2E0,1E0,7E0,1.7E2,1E0,2.76E2,1.77E2,2.71E2,5.3E1,3E0,2.8E1,6E0,3.1E2,3.13E2,2.34E2,1.92E2,1.81E2,7E1,2.29E2,6.06E2,6.33E2,1.028E3,2.98E2,5.1E1,8.9E1,1.9E1,2.4E1,1.8E1,2.8E1,2.21E2,4.3E1,1.9E1,1E0,6E0,1.5E1],"tree_param":{"num_deleted":"0","num_feature":"4","num_nodes":"95","size_leaf_vector":"1"}},{"base_weights":[-6.8376865E-4,-2.0372342E-1,8.997882E-2,-3.26928E-1,-1.2461095E-1,3.1694554E-2,1.6709505E-1,-3.820313E-1,-2.7397355E-1,-7.95333E-2,-1.8589914E-1,3.979727E-2,-3.0834213E-1,1.8778019E-1,-7.543529E-2,-4.5149043E-1,-3.6059752E-1,-2.6850107E-1,-1.6567186E-1,1.8035072E-1,-8.380767E-2,-1.7933013E-1,-1.7738691E-1,6.7544696E-3,7.530207E-2,-2.364411E-1,-1.5392277E-1,1.5271442E-1,2.3174924E-1,-1.6193877E-1,2.2824644E-1,-4.5535704E-1,-1.7264092E-2,-5.394343E-2,-1.0854181E-1,5.3322665E-2,-2.7004176E-1,8.435943E-2,3.5124347E-1,-6.83223E-2,-1.1610297E-1,-6.389603E-2,-1.6739254E-1,-1.0798615E-2,2.734669E-2,5.4565165E-2,9.677262E-2,-3.7329566E-1,-1.4644699E-1,1.6223608E-1,-1.890585E-1,7.492911E-2,2.4726485E-1,-2.1684155E-1,-5.602805E-2,1.13586806E-1,3.9212254E-1,-3.985708E-2,-1.3841468E-1,-8.9059025E-2,-7.296341E-2,4.89607E-2,-1.6498433E-2,2.1056995E-2,1.2645939E-1,-3.0068545E-2,-1.8909615E-2,-4.1492507E-2,-2.5337847E-2,-4.1077383E-2,-5.528573E-2,-3.5913324E-3,4.749719E-2,-5.2829176E-2,8.7957345E-3,1.5085566E-2,4.443892E-2,2.1974219E-2,3.2419533E-2,-4.158974E-2,-1.1818922E-1,-6.323037E-2,8.116126E-3,-3.908547E-2,4.9246233E-2,-7.747028E-2,8.716641E-2,-8.171952E-2,2.8032456E-2,7.1738936E-2,1.4042535E-1,-8.7496474E-2,-4.8266947E-2,-4.239509E-3,-5.7861857E-2,8.753339E-3,4.792092E-2,1.2404589E-1,1.7159067E-2],"categories":[],"categories_nodes":[],"categories_segments":[],"categories_sizes":[],"default_left":[0,0,0,0,0,0,0,0,0,0,0,0,0,0,0,0,0,0,0,0,0,0,0,0,0,0,0,0,0,0,0,0,0,0,0,0,0,0,0,0,0,0,0,0,0,0,0,0,0,0,0,0,0,0,0,0,0,0,0,0,0,0,0,0,0,0,0,0,0,0,0,0,0,0,0,0,0,0,0,0,0,0,0,0,0,0,0,0,0,0,0,0,0,0,0,0,0,0,0],"id":5,"left_children":[1,3,5,7,9,11,13,15,17,19,21,23,25,27,29,31,33,35,-1,37,39,41,-1,43,45,47,-1,49,51,53,55,57,-1,-1,-1,-1,59,61,63,65,67,-1,69,71,73,75,77,79,81,83,85,87,89,91,93,95,97,-1,-1,-1,-1,-1,-1,-1,-1,-1,-1,-1,-1,-1,-1,-1,-1,-1,-1,-1,-1,-1,-1,-1,-1,-1,-1,-1,-1,-1,-1,-1,-1,-1,-1,-1,-1,-1,-1,-1,-1,-1,-1],"loss_changes":[1.22248116E2,1.9940636E1,2.0629704E1,2.2326279E0,3.4386253E0,7.2199297E0,9.927315E0,4.1781235E-1,4.7912216E-1,8.1714153E-1,1.3026981E0,2.9981341E0,7.766428E-1,2.7722397E0,4.135008E0,1.0784149E-1,1.1444092E-3,3.2713318E-1,0E0,1.6721988E-1,3.4764194E-1,1.7407608E-1,0E0,4.7922584E-1,5.4324627E-1,5.24189E-1,0E0,3.3369865E0,1.9425964E0,6.972556E-1,6.131091E-1,1.0775566E-1,0E0,0E0,0E0,0E0,2.1925354E-1,1.07859075E-1,4.9431264E-2,7.52089E-2,1.492269E-1,0E0,1.7549992E-1,1.4387444E-1,2.4994242E-1,2.4443519E-1,1.5254164E-1,3.268552E-2,3.4049374E-1,5.762749E-1,1.0040044E0,5.0126344E-1,1.2048149E0,2.8795028E-1,2.4380615E-1,8.103892E-2,7.652378E-2,0E0,0E0,0E0,0E0,0E0,0E0,0E0,0E0,0E0,0E0,0E0,0E0,0E0,0E0,0E0,0E0,0E0,0E0,0E0,0E0,0E0,0E0,0E0,0E0,0E0,0E0,0E0,0E0,0E0,0E0,0E0,0E0,0E0,0E0,0E0,0E0,0E0,0E0,0E0,0E0,0E0,0E0],"parents":[2147483647,0,0,1,1,2,2,3,3,4,4,5,5,6,6,7,7,8,8,9,9,10,10,11,11,12,12,13,13,14,14,15,15,16,16,17,17,19,19,20,20,21,21,23,23,24,24,25,25,27,27,28,28,29,29,30,30,31,31,36,36,37,37,38,38,39,39,40,40,42,42,43,43,44,44,45,45,46,46,47,47,48,48,49,49,50,50,51,51,52,52,53,53,54,54,55,55,56,56],"right_children":[2,4,6,8,10,12,14,16,18,20,22,24,26,28,30,32,34,36,-1,38,40,42,-1,44,46,48,-1,50,52,54,56,58,-1,-1,-1,-1,60,62,64,66,68,-1,70,72,74,76,78,80,82,84,86,88,90,92,94,96,98,-1,-1,-1,-1,-1,-1,-1,-1,-1,-1,-1,-1,-1,-1,-1,-1,-1,-1,-1,-1,-1,-1,-1,-1,-1,-1,-1,-1,-1,-1,-1,-1,-1,-1,-1,-1,-1,-1,-1,-1,-1,-1],"split_conditions":[-6.9820476E-1,-1.0212209E0,3.9113942E-1,-1.0880518E0,6.641304E-1,6.641304E-1,3.057812E0,-1.1370611E0,9.633406E-1,-2.3350024E-1,1.561761E0,-1.7915118E-1,3.6562326E0,1.0906365E0,3.2359092E0,1.6348717E0,-2.627182E0,-5.918494E0,-1.6567186E-1,-8.786482E-1,3.6492017E-1,-9.922608E-1,-1.7738691E-1,-4.1528714E-1,9.708332E-2,-4.175396E-1,-1.5392277E-1,6.641304E-1,-5.7066035E-1,1.7261516E0,2.6831565E0,-9.808227E0,-1.7264092E-2,-5.394343E-2,-1.0854181E-1,5.3322665E-2,6.570997E-2,-2.926392E0,-2.1784286E0,-8.608267E-1,-4.217285E-1,-6.389603E-2,9.633406E-1,1.7261516E0,-2.9440327E0,6.570997E-2,1.6587156E-1,1.2625508E0,1.3410717E0,-3.4416752E0,3.8698428E0,-4.5135207E0,3.8698428E0,1.3156339E0,2.2224717E0,7.308664E-1,3.1038718E0,-3.985708E-2,-1.3841468E-1,-8.9059025E-2,-7.296341E-2,4.89607E-2,-1.6498433E-2,2.1056995E-2,1.2645939E-1,-3.0068545E-2,-1.8909615E-2,-4.1492507E-2,-2.5337847E-2,-4.1077383E-2,-5.528573E-2,-3.5913324E-3,4.749719E-2,-5.2829176E-2,8.7957345E-3,1.5085566E-2,4.443892E-2,2.1974219E-2,3.2419533E-2,-4.158974E-2,-1.1818922E-1,-6.323037E-2,8.116126E-3,-3.908547E-2,4.9246233E-2,-7.747028E-2,8.716641E-2,-8.171952E-2,2.8032456E-2,7.1738936E-2,1.4042535E-1,-8.7496474E-2,-4.8266947E-2,-4.239509E-3,-5.7861857E-2,8.753339E-3,4.792092E-2,1.2404589E-1,1.7159067E-2],"split_indices":[1,1,1,1,2,2,2,1,2,2,2,1,2,1,1,3,2,2,0,1,2,1,0,1,1,0,0,2,0,0,0,2,0,0,0,0,2,2,0,1,3,0,2,0,0,2,3,2,3,0,0,0,0,1,3,0,3,0,0,0,0,0,0,0,0,0,0,0,0,0,0,0,0,0,0,0,0,0,0,0,0,0,0,0,0,0,0,0,0,0,0,0,0,0,0,0,0,0,0],"split_type":[0,0,0,0,0,0,0,0,0,0,0,0,0,0,0,0,0,0,0,0,0,0,0,0,0,0,0,0,0,0,0,0,0,0,0,0,0,0,0,0,0,0,0,0,0,0,0,0,0,0,0,0,0,0,0,0,0,0,0,0,0,0,0,0,0,0,0,0,0,0,0,0,0,0,0,0,0,0,0,0,0,0,0,0,0,0,0,0,0,0,0,0,0,0,0,0,0,0,0],"sum_hessian":[6.639E3,2.049E3,4.59E3,8E2,1.249E3,2.615E3,1.975E3,3.89E2,4.11E2,7.21E2,5.28E2,2.555E3,6E1,1.82E3,1.55E2,8.7E1,3.02E2,4.05E2,6E0,1.1E1,7.1E2,5.21E2,7E0,1.324E3,1.231E3,4.6E1,1.4E1,1.015E3,8.05E2,1.21E2,3.4E1,8.6E1,1E0,3E0,2.99E2,1E0,4.04E2,8E0,3E0,4.82E2,2.28E2,1.32E2,3.89E2,7.15E2,6.09E2,6.28E2,6.03E2,1.7E1,2.9E1,9.88E2,2.7E1,7.3E1,7.32E2,7.9E1,4.2E1,2.1E1,1.3E1,2E0,8.4E1,1.97E2,2.07E2,5E0,3E0,1E0,2E0,6.6E1,4.16E2,1.32E2,9.6E1,1.42E2,2.47E2,7.11E2,4E0,5E0,6.04E2,6.02E2,2.6E1,1.98E2,4.05E2,2E0,1.5E1,2.1E1,8E0,6E0,9.82E2,2.4E1,3E0,3E0,7E1,7.08E2,2.4E1,3.2E1,4.7E1,3.3E1,9E0,8E0,1.3E1,1.2E1,1E0],"tree_param":{"num_deleted":"0","num_feature":"4","num_nodes":"99","size_leaf_vector":"1"}},{"base_weights":[-6.2661775E-4,-1.4586571E-1,6.1784115E-2,-2.2378972E-1,-8.471819E-2,1.3115524E-1,2.6356788E-2,-2.8226876E-1,-1.9501261E-1,-5.4808956E-2,-1.270412E-1,8.975792E-2,1.6123815E-1,1.3396438E-2,1.1584538E-1,-3.2952768E-1,-2.6460785E-1,-1.9162792E-1,-1.2531558E-1,1.6629975E-1,-5.8477763E-2,-1.2134094E-1,-1.3082285E-1,2.862122E-2,9.5682494E-2,-1.336554E-1,1.63019E-1,2.6382186E-2,-1.6661267E-1,1.6520727E-1,3.255672E-2,-3.4165785E-1,-4.0532902E-2,-2.5870794E-1,-1.15257666E-1,-2.1199152E-1,-1.6357417E-1,6.940268E-2,9.5555685E-2,-6.966554E-2,-4.2456083E-2,-1.19485155E-1,-3.0117372E-1,2.1876857E-2,6.398079E-2,8.179025E-2,1.2847072E-1,-1.868535E-1,-1.8172791E-2,1.4681736E-1,1.9929299E-1,6.4211013E-3,5.5019137E-2,-1.8874834E-1,1.6086061E-1,-3.657847E-3,1.8112576E-1,-4.0557485E-2,2.273233E-1,-2.4516607E-2,-1.0328359E-1,-7.93833E-2,-6.080159E-2,-6.2738076E-2,-1.0776925E-1,4.5324266E-2,-4.9633387E-2,-6.262314E-4,4.2424396E-2,-1.7827515E-2,-2.717376E-2,-1.3374485E-2,9.738608E-3,-3.8788717E-2,-3.01595E-2,-8.894742E-4,-1.1987651E-1,1.5288594E-2,-3.6433802E-3,-3.1696077E-2,2.4876283E-2,8.2112685E-2,3.6543887E-2,-6.814787E-2,-9.890307E-3,-7.1553336E-3,-1.0224223E-3,4.9435265E-2,4.0784407E-2,-3.2864906E-2,6.0584143E-2,-1.5787792E-1,2.141271E-3,-8.673775E-2,1.7195389E-2,-8.7957785E-2,-4.4291534E-2,-1.4913905E-2,9.551166E-2,-5.88015E-2,1.9333366E-2,7.35901E-2,4.1480772E-2,-2.9242555E-2,3.476781E-2,4.1245867E-2,9.3085825E-2],"categories":[],"categories_nodes":[],"categories_segments":[],"categories_sizes":[],"default_left":[0,0,0,0,0,0,0,0,0,0,0,0,0,0,0,0,0,0,0,0,0,0,0,0,0,0,0,0,0,0,0,0,0,0,0,0,0,0,0,0,0,0,0,0,0,0,0,0,0,0,0,0,0,0,0,0,0,0,0,0,0,0,0,0,0,0,0,0,0,0,0,0,0,0,0,0,0,0,0,0,0,0,0,0,0,0,0,0,0,0,0,0,0,0,0,0,0,0,0,0,0,0,0,0,0,0,0],"id":6,"left_children":[1,3,5,7,9,11,13,15,17,19,21,23,25,27,29,31,33,35,-1,37,39,41,-1,43,45,47,49,51,53,55,57,59,-1,61,-1,63,65,67,-1,69,71,73,75,77,-1,79,81,83,85,87,89,91,93,95,97,99,101,103,105,-1,-1,-1,-1,-1,-1,-1,-1,-1,-1,-1,-1,-1,-1,-1,-1,-1,-1,-1,-1,-1,-1,-1,-1,-1,-1,-1,-1,-1,-1,-1,-1,-1,-1,-1,-1,-1,-1,-1,-1,-1,-1,-1,-1,-1,-1,-1,-1],"loss_changes":[6.0197147E1,9.491703E0,1.1412252E1,1.4208183E0,1.4107876E0,1.9407291E0,3.5660038E0,1.5234566E-1,3.6544418E-1,5.434977E-1,7.626982E-1,2.3740578E-1,4.9864006E-1,6.287737E0,1.5939107E0,1.2835407E-1,5.159092E-2,2.989483E-1,0E0,1.4013943E-1,1.1319423E-1,1.16196156E-1,0E0,7.0054345E-2,2.6461554E-1,3.3465087E-2,5.014324E-1,1.4332812E0,1.3424034E0,6.565542E-1,2.0882893E0,1.8870354E-2,0E0,1.4843941E-2,0E0,6.61726E-2,1.7213058E-1,4.1480348E-2,0E0,7.600057E-2,4.4282913E-2,7.12347E-2,1.1620766E-1,5.9000492E-2,0E0,9.925938E-2,1.3877821E-1,1.7321184E-2,1.7023005E-4,1.0023975E-1,2.483635E-1,5.682152E-1,8.314345E-1,6.8664074E-1,4.1384068E-1,3.008161E-1,5.793991E-1,9.641085E-1,2.554655E-1,0E0,0E0,0E0,0E0,0E0,0E0,0E0,0E0,0E0,0E0,0E0,0E0,0E0,0E0,0E0,0E0,0E0,0E0,0E0,0E0,0E0,0E0,0E0,0E0,0E0,0E0,0E0,0E0,0E0,0E0,0E0,0E0,0E0,0E0,0E0,0E0,0E0,0E0,0E0,0E0,0E0,0E0,0E0,0E0,0E0,0E0,0E0,0E0],"parents":[2147483647,0,0,1,1,2,2,3,3,4,4,5,5,6,6,7,7,8,8,9,9,10,10,11,11,12,12,13,13,14,14,15,15,16,16,17,17,19,19,20,20,21,21,23,23,24,24,25,25,26,26,27,27,28,28,29,29,30,30,31,31,33,33,35,35,36,36,37,37,39,39,40,40,41,41,42,42,43,43,45,45,46,46,47,47,48,48,49,49,50,50,51,51,52,52,53,53,54,54,55,55,56,56,57,57,58,58],"right_children":[2,4,6,8,10,12,14,16,18,20,22,24,26,28,30,32,34,36,-1,38,40,42,-1,44,46,48,50,52,54,56,58,60,-1,62,-1,64,66,68,-1,70,72,74,76,78,-1,80,82,84,86,88,90,92,94,96,98,100,102,104,106,-1,-1,-1,-1,-1,-1,-1,-1,-1,-1,-1,-1,-1,-1,-1,-1,-1,-1,-1,-1,-1,-1,-1,-1,-1,-1,-1,-1,-1,-1,-1,-1,-1,-1,-1,-1,-1,-1,-1,-1,-1,-1,-1,-1,-1,-1,-1,-1],"split_conditions":[-7.160263E-1,-1.0078547E0,-2.3350024E-1,-1.1058733E0,6.641304E-1,7.2529405E-1,1.6163731E0,-1.4303411E0,9.633406E-1,-2.3350024E-1,1.561761E0,-5.7066035E-1,-4.3604E0,3.6492017E-1,2.4593916E0,1.0472716E0,7.534716E-1,-1.0635471E0,-1.2531558E-1,-6.472208E-1,-4.217285E-1,1.0472716E0,-1.3082285E-1,2.5162718E0,7.534716E-1,-5.011163E0,1.2777631E0,-1.3014184E-1,3.8698428E0,-1.1065831E0,3.4698176E0,-9.808227E0,-4.0532902E-2,-2.3350024E-1,-1.15257666E-1,1.3410717E0,-5.918494E0,1.3410717E0,9.5555685E-2,3.6492017E-1,5.011852E-1,-3.409792E-1,1.2625508E0,1.0472716E0,6.398079E-2,-2.8385296E-1,-5.3271043E-1,1.4448404E0,-4.39868E0,-5.3271043E-1,-1.1311308E0,-4.5135207E0,-1.5276654E0,-5.7066035E-1,7.534716E-1,1.9839432E0,3.6492017E-1,2.951118E0,3.783923E0,-2.4516607E-2,-1.0328359E-1,-7.93833E-2,-6.080159E-2,-6.2738076E-2,-1.0776925E-1,4.5324266E-2,-4.9633387E-2,-6.262314E-4,4.2424396E-2,-1.7827515E-2,-2.717376E-2,-1.3374485E-2,9.738608E-3,-3.8788717E-2,-3.01595E-2,-8.894742E-4,-1.1987651E-1,1.5288594E-2,-3.6433802E-3,-3.1696077E-2,2.4876283E-2,8.2112685E-2,3.6543887E-2,-6.814787E-2,-9.890307E-3,-7.1553336E-3,-1.0224223E-3,4.9435265E-2,4.0784407E-2,-3.2864906E-2,6.0584143E-2,-1.5787792E-1,2.141271E-3,-8.673775E-2,1.7195389E-2,-8.7957785E-2,-4.4291534E-2,-1.4913905E-2,9.551166E-2,-5.88015E-2,1.9333366E-2,7.35901E-2,4.1480772E-2,-2.9242555E-2,3.476781E-2,4.1245867E-2,9.3085825E-2],"split_indices":[1,1,2,1,2,1,1,2,2,2,2,0,0,2,2,3,3,1,0,0,3,3,0,3,3,0,1,1,0,0,1,2,0,2,0,3,2,3,0,2,0,0,2,3,0,1,2,1,0,2,2,0,0,0,3,1,2,0,1,0,0,0,0,0,0,0,0,0,0,0,0,0,0,0,0,0,0,0,0,0,0,0,0,0,0,0,0,0,0,0,0,0,0,0,0,0,0,0,0,0,0,0,0,0,0,0,0],"split_type":[0,0,0,0,0,0,0,0,0,0,0,0,0,0,0,0,0,0,0,0,0,0,0,0,0,0,0,0,0,0,0,0,0,0,0,0,0,0,0,0,0,0,0,0,0,0,0,0,0,0,0,0,0,0,0,0,0,0,0,0,0,0,0,0,0,0,0,0,0,0,0,0,0,0,0,0,0,0,0,0,0,0,0,0,0,0,0,0,0,0,0,0,0,0,0,0,0,0,0,0,0,0,0,0,0,0,0],"sum_hessian":[6.639E3,1.995E3,4.644E3,8.76E2,1.119E3,1.569E3,3.075E3,2.86E2,5.9E2,6.57E2,4.62E2,6.62E2,9.07E2,2.687E3,3.88E2,7.3E1,2.13E2,5.83E2,7E0,1E1,6.47E2,4.55E2,7E0,5.9E1,6.03E2,5E0,9.02E2,2.507E3,1.8E2,2.43E2,1.45E2,6.8E1,5E0,2.06E2,7E0,3.34E2,2.49E2,7E0,3E0,3.79E2,2.68E2,4.52E2,3E0,5.8E1,1E0,4.26E2,1.77E2,3E0,2E0,6.27E2,2.75E2,1.478E3,1.029E3,1.69E2,1.1E1,2.1E1,2.22E2,1.06E2,3.9E1,1E0,6.7E1,1.83E2,2.3E1,3.3E2,4E0,1E0,2.48E2,4E0,3E0,2.57E2,1.22E2,2.61E2,7E0,2.94E2,1.58E2,1E0,2E0,3.1E1,2.7E1,2E0,4.24E2,6E0,1.71E2,2E0,1E0,1E0,1E0,2.31E2,3.96E2,2E0,2.73E2,1E0,1.477E3,6E0,1.023E3,4.6E1,1.23E2,5E0,6E0,5E0,1.6E1,8.7E1,1.35E2,7.8E1,2.8E1,2E1,1.9E1],"tree_param":{"num_deleted":"0","num_feature":"4","num_nodes":"107","size_leaf_vector":"1"}},{"base_weights":[-5.5881846E-4,-9.846685E-2,4.557564E-2,-1.5485351E-1,-5.4528296E-2,9.197533E-2,2.0848317E-2,-1.8830402E-1,-1.2687123E-1,-4.1102275E-2,-1.0091512E-1,5.7218995E-2,1.09498724E-1,-2.0493574E-3,4.8443604E-2,-2.164193E-1,-1.7083037E-1,4.6896316E-2,-1.2833756E-1,1.2227915E-1,-4.3190934E-2,-9.3764E-2,-3.2160613E-1,2.472995E-1,5.4928932E-2,-1.198894E-1,1.10942945E-1,7.1674255E-3,-1.508688E-1,3.1809013E-2,1.0578236E-1,-2.5426617E-1,-6.143682E-2,-1.6624463E-1,-8.1342764E-2,3.8525626E-2,-5.5889785E-3,-1.2469784E-1,-2.6778117E-1,8.298686E-3,1.7823204E-1,-3.351717E-2,-5.791571E-2,-9.015379E-2,-7.817278E-2,-1.02697074E-1,-2.648762E-2,-2.2927666E-2,9.81989E-2,2.9831499E-2,6.8808064E-2,-1.554774E-1,-2.0612935E-2,1.017329E-1,1.4778107E-1,4.0556374E-3,1.5154435E-1,-2.1655558E-1,-8.3407395E-2,4.091796E-2,-9.657328E-2,1.3167189E-1,1.7200416E-2,-8.338705E-2,-3.0399663E-2,-5.0466824E-2,-3.2068055E-2,6.238306E-3,-1.2710846E-2,-4.1070282E-2,-3.283371E-2,-9.502122E-2,-4.0768497E-2,-1.712759E-2,1.1675803E-2,1.6960114E-2,6.281277E-2,-1.123225E-2,-8.12309E-4,-1.8354563E-2,6.5814336E-3,-3.2216772E-2,-2.2830086E-2,-8.802391E-3,1.0651961E-2,1.8486707E-2,3.132003E-2,-5.5263013E-2,-6.08203E-3,-8.406758E-3,-8.6906255E-4,2.5420995E-2,3.3939872E-2,4.5790445E-2,-3.3945784E-3,-7.3828064E-2,1.9286383E-3,1.38831735E-2,5.541155E-2,-4.937006E-2,-8.3553605E-2,-2.939144E-2,1.0460908E-2,1.0437652E-2,4.5150004E-2,-1.1046509E-2,-6.007896E-2,3.485695E-2,1.0436995E-1,-4.7217254E-2,3.4144E-2],"categories":[],"categories_nodes":[],"categories_segments":[],"categories_sizes":[],"default_left":[0,0,0,0,0,0,0,0,0,0,0,0,0,0,0,0,0,0,0,0,0,0,0,0,0,0,0,0,0,0,0,0,0,0,0,0,0,0,0,0,0,0,0,0,0,0,0,0,0,0,0,0,0,0,0,0,0,0,0,0,0,0,0,0,0,0,0,0,0,0,0,0,0,0,0,0,0,0,0,0,0,0,0,0,0,0,0,0,0,0,0,0,0,0,0,0,0,0,0,0,0,0,0,0,0,0,0,0,0,0,0],"id":7,"left_children":[1,3,5,7,9,11,13,15,17,19,21,23,25,27,29,31,33,35,37,39,41,43,45,47,49,51,53,55,57,59,61,63,-1,65,-1,-1,67,69,71,73,75,77,79,81,-1,-1,-1,-1,-1,83,85,87,89,91,93,95,97,99,101,103,105,107,109,-1,-1,-1,-1,-1,-1,-1,-1,-1,-1,-1,-1,-1,-1,-1,-1,-1,-1,-1,-1,-1,-1,-1,-1,-1,-1,-1,-1,-1,-1,-1,-1,-1,-1,-1,-1,-1,-1,-1,-1,-1,-1,-1,-1,-1,-1,-1,-1],"loss_changes":[2.9996931E1,5.261301E0,5.1771755E0,8.4754753E-1,7.4133253E-1,9.4933224E-1,1.8615823E0,1.7034721E-1,1.359663E-1,3.226415E-1,3.9279938E-1,2.1625245E-1,3.585024E-1,2.2107875E0,1.270921E0,1.7473698E-2,7.682514E-2,2.2111373E-2,2.234211E-1,7.505135E-2,1.289649E-1,1.3368917E-1,8.444846E-3,1.8046287E-1,1.8012416E-1,2.15265E-2,3.3646107E-1,6.813778E-1,3.9848185E-1,1.2166477E0,6.8573856E-1,9.139633E-2,0E0,1.2073517E-2,0E0,0E0,4.762615E-3,7.714844E-2,3.4436762E-2,1.2233505E-2,1.8484414E-2,6.723207E-2,9.6018314E-2,5.4077625E-2,0E0,0E0,0E0,0E0,0E0,6.417364E-2,7.950008E-2,1.5689269E-2,3.1262846E-4,1.5161896E-1,1.6003084E-1,8.8432944E-1,1.0315615E-1,1.0555506E-1,8.610085E-2,6.452309E-1,4.2012483E-1,7.362337E-1,1.181789E0,0E0,0E0,0E0,0E0,0E0,0E0,0E0,0E0,0E0,0E0,0E0,0E0,0E0,0E0,0E0,0E0,0E0,0E0,0E0,0E0,0E0,0E0,0E0,0E0,0E0,0E0,0E0,0E0,0E0,0E0,0E0,0E0,0E0,0E0,0E0,0E0,0E0,0E0,0E0,0E0,0E0,0E0,0E0,0E0,0E0,0E0,0E0,0E0],"parents":[2147483647,0,0,1,1,2,2,3,3,4,4,5,5,6,6,7,7,8,8,9,9,10,10,11,11,12,12,13,13,14,14,15,15,16,16,17,17,18,18,19,19,20,20,21,21,22,22,23,23,24,24,25,25,26,26,27,27,28,28,29,29,30,30,31,31,33,33,36,36,37,37,38,38,39,39,40,40,41,41,42,42,43,43,49,49,50,50,51,51,52,52,53,53,54,54,55,55,56,56,57,57,58,58,59,59,60,60,61,61,62,62],"right_children":[2,4,6,8,10,12,14,16,18,20,22,24,26,28,30,32,34,36,38,40,42,44,46,48,50,52,54,56,58,60,62,64,-1,66,-1,-1,68,70,72,74,76,78,80,82,-1,-1,-1,-1,-1,84,86,88,90,92,94,96,98,100,102,104,106,108,110,-1,-1,-1,-1,-1,-1,-1,-1,-1,-1,-1,-1,-1,-1,-1,-1,-1,-1,-1,-1,-1,-1,-1,-1,-1,-1,-1,-1,-1,-1,-1,-1,-1,-1,-1,-1,-1,-1,-1,-1,-1,-1,-1,-1,-1,-1,-1,-1],"split_conditions":[-6.67017E-1,-9.9448854E-1,-2.3350024E-1,-1.079141E0,9.633406E-1,6.3173074E-1,4.1822802E-2,-8.319207E-1,-1.7295513E0,-2.3350024E-1,1.561761E0,-1.7295513E0,-3.9775982E0,1.8609712E0,1.6163731E0,-1.7295513E0,1.0472716E0,-5.918494E0,1.0472716E0,-2.1784286E0,3.6492017E-1,-8.14045E-1,2.5162718E0,-7.805618E0,-7.301779E-2,1.4448404E0,1.3468217E0,2.1710699E0,1.3156339E0,1.8609712E0,2.5162718E0,1.0472716E0,-6.143682E-2,4.596716E-1,-8.1342764E-2,3.8525626E-2,-2.982313E0,3.6492017E-1,1.183832E-1,-7.6907773E0,-9.209745E-1,1.6587156E-1,5.011852E-1,-9.3434066E-1,-7.817278E-2,-1.02697074E-1,-2.648762E-2,-2.2927666E-2,9.81989E-2,7.035095E-2,1.0472716E0,2.2224717E0,-5.7384872E0,7.534716E-1,2.5162718E0,-1.6807861E0,-2.2549891E0,1.6348717E0,3.2359092E0,1.6495912E0,1.6348717E0,5.133089E0,2.8304684E0,-8.338705E-2,-3.0399663E-2,-5.0466824E-2,-3.2068055E-2,6.238306E-3,-1.2710846E-2,-4.1070282E-2,-3.283371E-2,-9.502122E-2,-4.0768497E-2,-1.712759E-2,1.1675803E-2,1.6960114E-2,6.281277E-2,-1.123225E-2,-8.12309E-4,-1.8354563E-2,6.5814336E-3,-3.2216772E-2,-2.2830086E-2,-8.802391E-3,1.0651961E-2,1.8486707E-2,3.132003E-2,-5.5263013E-2,-6.08203E-3,-8.406758E-3,-8.6906255E-4,2.5420995E-2,3.3939872E-2,4.5790445E-2,-3.3945784E-3,-7.3828064E-2,1.9286383E-3,1.38831735E-2,5.541155E-2,-4.937006E-2,-8.3553605E-2,-2.939144E-2,1.0460908E-2,1.0437652E-2,4.5150004E-2,-1.1046509E-2,-6.007896E-2,3.485695E-2,1.0436995E-1,-4.7217254E-2,3.4144E-2],"split_indices":[1,1,2,1,2,1,0,2,2,2,2,2,0,2,1,2,3,2,3,0,2,1,3,0,0,1,1,1,1,2,3,3,0,3,0,0,0,2,0,0,1,3,0,1,0,0,0,0,0,1,3,3,0,3,3,0,0,3,1,0,3,0,1,0,0,0,0,0,0,0,0,0,0,0,0,0,0,0,0,0,0,0,0,0,0,0,0,0,0,0,0,0,0,0,0,0,0,0,0,0,0,0,0,0,0,0,0,0,0,0,0],"split_type":[0,0,0,0,0,0,0,0,0,0,0,0,0,0,0,0,0,0,0,0,0,0,0,0,0,0,0,0,0,0,0,0,0,0,0,0,0,0,0,0,0,0,0,0,0,0,0,0,0,0,0,0,0,0,0,0,0,0,0,0,0,0,0,0,0,0,0,0,0,0,0,0,0,0,0,0,0,0,0,0,0,0,0,0,0,0,0,0,0,0,0,0,0,0,0,0,0,0,0,0,0,0,0,0,0,0,0,0,0,0,0],"sum_hessian":[6.639E3,2.126E3,4.513E3,9.3E2,1.196E3,1.568E3,2.945E3,4.21E2,5.09E2,9.29E2,2.67E2,5.27E2,1.041E3,1.61E3,1.335E3,1.57E2,2.64E2,4E0,5.05E2,1.1E1,9.18E2,2.6E2,7E0,5E0,5.22E2,6E0,1.035E3,1.517E3,9.3E1,1.036E3,2.99E2,3.2E1,1.25E2,2.55E2,9E0,1E0,3E0,4.94E2,1.1E1,4E0,7E0,5.56E2,3.62E2,2.56E2,4E0,6E0,1E0,1E0,4E0,1.87E2,3.35E2,4E0,2E0,8.31E2,2.04E2,1.486E3,3.1E1,4.6E1,4.7E1,9.68E2,6.8E1,2.31E2,6.8E1,2.7E1,5E0,2.45E2,1E1,2E0,1E0,2.7E2,2.24E2,7E0,4E0,1E0,3E0,2E0,5E0,4.93E2,6.3E1,3.48E2,1.4E1,1.12E2,1.44E2,1.6E1,1.71E2,2.81E2,5.4E1,3E0,1E0,1E0,1E0,3.37E2,4.94E2,1.98E2,6E0,1.3E1,1.473E3,8E0,2.3E1,2.7E1,1.9E1,4.2E1,5E0,9.18E2,5E1,4.4E1,2.4E1,2.17E2,1.4E1,2.4E1,4.4E1],"tree_param":{"num_deleted":"0","num_feature":"4","num_nodes":"111","size_leaf_vector":"1"}},{"base_weights":[-4.8370616E-4,-6.2392555E-2,3.6059827E-2,-1.0838834E-1,-3.3725183E-2,6.481048E-2,1.8802235E-2,-1.4226098E-1,-9.41507E-2,-3.162398E-2,-2.7487063E-1,4.9814492E-2,8.785653E-2,1.5722048E-2,1.6716817E-1,-1.4514536E-1,-9.859413E-3,-9.154128E-2,-1.7860225E-1,-1.767585E-2,-5.184837E-2,-2.852685E-1,-2.2514481E-2,7.889787E-2,3.786652E-2,7.269574E-2,1.13516666E-1,2.3090519E-2,-7.130452E-2,8.1833474E-2,1.2602544E-1,-1.8143432E-1,-1.3955086E-1,3.2746777E-2,-4.7887955E-2,-3.1368155E-2,-7.969072E-2,-8.710056E-2,-1.2945111E-1,-2.2131432E-2,8.91834E-3,-4.7415935E-2,-9.5246874E-2,-2.5306357E-2,-8.875944E-2,-4.2080823E-2,8.650456E-2,4.0970273E-2,-6.56545E-3,6.56775E-2,9.949317E-2,1.1529913E-1,-4.3397874E-2,1.1683879E-2,5.4944307E-2,-8.804527E-2,1.14083834E-1,-5.173527E-2,1.5289798E-1,-6.0000483E-2,-2.5169553E-2,-4.0782876E-2,-6.51149E-2,-1.6591318E-3,-2.65206E-2,-8.47112E-3,-2.41093E-2,-2.1033514E-2,-4.56329E-2,-2.0017575E-2,-6.1797355E-3,4.6046093E-2,1.6299332E-3,-1.505323E-2,5.772219E-3,-7.7380806E-2,-2.4351403E-2,2.4800884E-2,-2.2415409E-2,5.3558208E-2,2.4042552E-2,5.1877373E-3,1.3811058E-2,-2.5575222E-2,1.32757295E-2,9.547176E-3,2.0516438E-2,1.1323496E-2,3.0430188E-2,3.5345368E-2,9.580676E-3,-1.1885183E-1,3.7144707E-3,1.7489035E-2,-7.437672E-2,-7.916179E-2,-2.388025E-2,4.916207E-2,-1.0238277E-1,-2.64802E-2,1.963875E-2,6.533459E-2,2.8003769E-2],"categories":[],"categories_nodes":[],"categories_segments":[],"categories_sizes":[],"default_left":[0,0,0,0,0,0,0,0,0,0,0,0,0,0,0,0,0,0,0,0,0,0,0,0,0,0,0,0,0,0,0,0,0,0,0,0,0,0,0,0,0,0,0,0,0,0,0,0,0,0,0,0,0,0,0,0,0,0,0,0,0,0,0,0,0,0,0,0,0,0,0,0,0,0,0,0,0,0,0,0,0,0,0,0,0,0,0,0,0,0,0,0,0,0,0,0,0,0,0,0,0,0,0],"id":8,"left_children":[1,3,5,7,9,11,13,15,17,19,21,23,25,27,29,31,33,35,37,39,41,43,-1,45,47,49,51,53,55,-1,57,59,61,-1,63,-1,65,-1,67,69,71,73,75,-1,-1,77,79,81,83,85,87,89,-1,91,93,95,97,99,101,-1,-1,-1,-1,-1,-1,-1,-1,-1,-1,-1,-1,-1,-1,-1,-1,-1,-1,-1,-1,-1,-1,-1,-1,-1,-1,-1,-1,-1,-1,-1,-1,-1,-1,-1,-1,-1,-1,-1,-1,-1,-1,-1,-1],"loss_changes":[1.5024374E1,3.2466412E0,2.0707746E0,4.4282913E-1,7.614851E-1,5.3682995E-1,1.1905849E0,1.0473633E-1,1.3107824E-1,4.244789E-1,5.6014657E-3,3.2747293E-1,2.3138905E-1,1.6426125E0,1.9591248E-1,2.9901505E-2,3.6909115E-2,9.2107296E-2,6.676E-2,1.06129766E-1,1.1378586E-1,5.8990717E-4,0E0,2.5762856E-1,9.349334E-2,6.681299E-2,1.2114215E-1,8.5685146E-1,6.3075244E-1,0E0,1.9898552E-1,4.298234E-2,3.760004E-2,0E0,9.80754E-3,0E0,9.688616E-3,0E0,9.503484E-3,5.0967604E-2,6.416337E-2,1.0404611E-1,1.0729951E-1,0E0,0E0,7.539251E-2,1.3792658E-1,7.502222E-2,1.8371044E-1,2.645421E-2,5.638778E-3,4.3691397E-2,0E0,4.9975014E-1,6.460022E-1,2.5219178E-1,4.413541E-1,3.1467058E-2,1.14910126E-1,0E0,0E0,0E0,0E0,0E0,0E0,0E0,0E0,0E0,0E0,0E0,0E0,0E0,0E0,0E0,0E0,0E0,0E0,0E0,0E0,0E0,0E0,0E0,0E0,0E0,0E0,0E0,0E0,0E0,0E0,0E0,0E0,0E0,0E0,0E0,0E0,0E0,0E0,0E0,0E0,0E0,0E0,0E0,0E0],"parents":[2147483647,0,0,1,1,2,2,3,3,4,4,5,5,6,6,7,7,8,8,9,9,10,10,11,11,12,12,13,13,14,14,15,15,16,16,17,17,18,18,19,19,20,20,21,21,23,23,24,24,25,25,26,26,27,27,28,28,30,30,31,31,32,32,34,34,36,36,38,38,39,39,40,40,41,41,42,42,45,45,46,46,47,47,48,48,49,49,50,50,51,51,53,53,54,54,55,55,56,56,57,57,58,58],"right_children":[2,4,6,8,10,12,14,16,18,20,22,24,26,28,30,32,34,36,38,40,42,44,-1,46,48,50,52,54,56,-1,58,60,62,-1,64,-1,66,-1,68,70,72,74,76,-1,-1,78,80,82,84,86,88,90,-1,92,94,96,98,100,102,-1,-1,-1,-1,-1,-1,-1,-1,-1,-1,-1,-1,-1,-1,-1,-1,-1,-1,-1,-1,-1,-1,-1,-1,-1,-1,-1,-1,-1,-1,-1,-1,-1,-1,-1,-1,-1,-1,-1,-1,-1,-1,-1,-1],"split_conditions":[-5.333551E-1,-9.922608E-1,-2.3350024E-1,-2.3350024E-1,1.561761E0,4.62905E-1,3.4698176E0,-1.0702302E0,7.534716E-1,3.6492017E-1,2.5162718E0,-5.3271043E-1,1.1686059E0,2.4593916E0,2.4593916E0,-1.7295513E0,-5.918494E0,6.570997E-2,-1.259704E0,1.6587156E-1,1.2625508E0,-2.7143514E0,-2.2514481E-2,-3.4416752E0,1.0193502E0,1.3410717E0,3.0659585E0,3.8634458E-1,4.865128E0,8.1833474E-2,3.480644E-1,-1.4957818E-1,7.534716E-1,3.2746777E-2,-1.7295513E0,-3.1368155E-2,-1.0657748E0,-8.710056E-2,1.0472716E0,6.570997E-2,-3.8240228E0,5.011852E-1,-1.1065831E0,-2.5306357E-2,-8.875944E-2,-9.449867E-2,-8.319207E-1,-2.6441878E-1,1.507216E0,1.6587156E-1,5.3148437E-1,2.185514E0,-4.3397874E-2,-4.5135207E0,3.397672E0,-1.7915118E-1,2.8100717E0,3.783923E0,2.5162718E0,-6.0000483E-2,-2.5169553E-2,-4.0782876E-2,-6.51149E-2,-1.6591318E-3,-2.65206E-2,-8.47112E-3,-2.41093E-2,-2.1033514E-2,-4.56329E-2,-2.0017575E-2,-6.1797355E-3,4.6046093E-2,1.6299332E-3,-1.505323E-2,5.772219E-3,-7.7380806E-2,-2.4351403E-2,2.4800884E-2,-2.2415409E-2,5.3558208E-2,2.4042552E-2,5.1877373E-3,1.3811058E-2,-2.5575222E-2,1.32757295E-2,9.547176E-3,2.0516438E-2,1.1323496E-2,3.0430188E-2,3.5345368E-2,9.580676E-3,-1.1885183E-1,3.7144707E-3,1.7489035E-2,-7.437672E-2,-7.916179E-2,-2.388025E-2,4.916207E-2,-1.0238277E-1,-2.64802E-2,1.963875E-2,6.533459E-2,2.8003769E-2],"split_indices":[1,1,2,2,2,0,1,1,3,2,3,2,1,2,2,2,2,2,0,3,2,0,0,0,1,3,0,0,0,0,0,0,3,0,2,0,1,0,3,2,2,0,0,0,0,1,2,0,1,3,1,0,0,0,3,1,3,1,3,0,0,0,0,0,0,0,0,0,0,0,0,0,0,0,0,0,0,0,0,0,0,0,0,0,0,0,0,0,0,0,0,0,0,0,0,0,0,0,0,0,0,0,0],"split_type":[0,0,0,0,0,0,0,0,0,0,0,0,0,0,0,0,0,0,0,0,0,0,0,0,0,0,0,0,0,0,0,0,0,0,0,0,0,0,0,0,0,0,0,0,0,0,0,0,0,0,0,0,0,0,0,0,0,0,0,0,0,0,0,0,0,0,0,0,0,0,0,0,0,0,0,0,0,0,0,0,0,0,0,0,0,0,0,0,0,0,0,0,0,0,0,0,0,0,0,0,0,0,0],"sum_hessian":[6.639E3,2.464E3,4.175E3,9.45E2,1.519E3,1.565E3,2.61E3,2.77E2,6.68E2,1.507E3,1.2E1,9.5E2,6.15E2,2.558E3,5.2E1,2.71E2,6E0,6.5E2,1.8E1,8.93E2,6.14E2,1.1E1,1E0,2.75E2,6.75E2,3.89E2,2.26E2,2.359E3,1.99E2,1.3E1,3.9E1,3.2E1,2.39E2,1E0,5E0,3.06E2,3.44E2,4E0,1.4E1,7.65E2,1.28E2,5.59E2,5.5E1,1E0,1E1,1.6E1,2.59E2,6.31E2,4.4E1,3.11E2,7.8E1,2.25E2,1E0,1.738E3,6.21E2,1.83E2,1.6E1,5E0,3.4E1,2.6E1,6E0,2.31E2,8E0,3E0,2E0,5E0,3.39E2,5E0,9E0,2.4E1,7.41E2,2E0,1.26E2,5.37E2,2.2E1,3E0,5.2E1,3E0,1.3E1,1.5E1,2.44E2,1.12E2,5.19E2,1.7E1,2.7E1,2.4E1,2.87E2,3E0,7.5E1,2.18E2,7E0,2E0,1.736E3,6.15E2,6E0,7E0,1.76E2,1.5E1,1E0,4E0,1E0,1.5E1,1.9E1],"tree_param":{"num_deleted":"0","num_feature":"4","num_nodes":"103","size_leaf_vector":"1"}},{"base_weights":[-4.3351477E-4,-3.9554197E-2,2.8958695E-2,-7.5348146E-2,-2.0569665E-2,3.228285E-2,-3.831761E-2,-9.503857E-2,-6.2380567E-2,-1.8860053E-2,-2.167443E-1,6.6900062E-3,4.2746868E-2,-7.530939E-2,3.4474835E-2,-1.2070772E-1,-8.874659E-2,-1.3746555E-1,-6.0608406E-2,-1.1401705E-2,-3.506429E-2,-1.6082114E-1,-7.970133E-2,7.182072E-3,-7.6423004E-2,4.0772375E-2,2.140068E-1,-6.808512E-2,-9.958581E-2,7.869274E-2,-3.6973305E-2,-1.2341008E-1,-1.56150265E-2,-8.702982E-2,-1.3274859E-1,-2.986004E-2,-2.0098649E-1,2.783476E-2,-6.1029218E-2,-1.815149E-2,3.4902487E-3,-3.5905585E-2,6.805905E-2,-7.6327E-3,-5.191089E-2,6.7161177E-3,7.432532E-2,4.1544892E-2,-1.8767802E-1,3.0379888E-1,-1.8082938E-1,-1.1357376E-1,-4.1097164E-2,4.1025143E-2,1.5688711E-1,-5.395622E-2,6.143032E-2,-5.485022E-3,-3.7845757E-2,-8.734096E-3,1.7073334E-3,-2.6607895E-2,-1.4588984E-2,-4.6385508E-2,-9.05391E-3,5.3224685E-3,-1.742887E-2,-2.206167E-2,-6.9363765E-2,-1.7894158E-2,-3.8317E-2,-1.1147131E-2,-4.774988E-3,-6.8416945E-3,2.393687E-3,-1.0077292E-2,-3.321611E-2,1.3607477E-4,6.269424E-3,1.1844239E-2,4.98418E-2,9.929605E-3,1.0226827E-1,4.9178142E-2,-8.476983E-2,-6.0110097E-3,-4.3530297E-2,-4.1494793E-3,-3.184611E-2,7.7228113E-3,3.673905E-2,-1.824047E-2,5.4661326E-2,-3.8941125E-3,-3.5675827E-2,3.0680431E-2,4.118508E-3],"categories":[],"categories_nodes":[],"categories_segments":[],"categories_sizes":[],"default_left":[0,0,0,0,0,0,0,0,0,0,0,0,0,0,0,0,0,0,0,0,0,0,0,0,0,0,0,0,0,0,0,0,0,0,0,0,0,0,0,0,0,0,0,0,0,0,0,0,0,0,0,0,0,0,0,0,0,0,0,0,0,0,0,0,0,0,0,0,0,0,0,0,0,0,0,0,0,0,0,0,0,0,0,0,0,0,0,0,0,0,0,0,0,0,0,0,0],"id":9,"left_children":[1,3,5,7,9,11,13,15,17,19,21,23,25,27,29,31,33,35,37,39,41,43,-1,45,-1,47,49,51,-1,53,55,57,59,61,63,65,67,-1,69,71,73,75,-1,-1,-1,77,-1,79,-1,81,83,85,87,89,91,93,95,-1,-1,-1,-1,-1,-1,-1,-1,-1,-1,-1,-1,-1,-1,-1,-1,-1,-1,-1,-1,-1,-1,-1,-1,-1,-1,-1,-1,-1,-1,-1,-1,-1,-1,-1,-1,-1,-1,-1,-1],"loss_changes":[7.636105E0,1.9344354E0,8.492682E-1,2.4608946E-1,6.207299E-1,9.6755767E-1,4.8459357E-1,5.2276134E-2,7.123995E-2,2.2294366E-1,1.0527968E-3,1.3690403E-1,8.5863256E-1,1.9803208E-1,1.9562608E-1,1.9088864E-2,1.2393713E-2,8.285618E-2,4.348755E-2,1.2741901E-1,1.3639402E-1,1.2134254E-2,0E0,1.15922816E-1,0E0,1.3319798E0,1.0830775E0,1.3896692E-1,0E0,1.0548864E-1,4.3422878E-2,1.8451214E-2,1.0284996E-3,1.5357256E-2,1.7765239E-2,9.095246E-3,1.3814777E-2,0E0,4.6302795E-2,3.644672E-2,4.6923656E-2,9.6890986E-2,0E0,0E0,0E0,9.306867E-2,0E0,6.4537907E-1,0E0,2.2971797E-1,2.5676662E-1,1.2389809E-1,1.3156694E-1,3.0451033E-2,7.7213764E-2,5.435674E-2,6.3881967E-3,0E0,0E0,0E0,0E0,0E0,0E0,0E0,0E0,0E0,0E0,0E0,0E0,0E0,0E0,0E0,0E0,0E0,0E0,0E0,0E0,0E0,0E0,0E0,0E0,0E0,0E0,0E0,0E0,0E0,0E0,0E0,0E0,0E0,0E0,0E0,0E0,0E0,0E0,0E0,0E0],"parents":[2147483647,0,0,1,1,2,2,3,3,4,4,5,5,6,6,7,7,8,8,9,9,10,10,11,11,12,12,13,13,14,14,15,15,16,16,17,17,18,18,19,19,20,20,21,21,23,23,25,25,26,26,27,27,29,29,30,30,31,31,32,32,33,33,34,34,35,35,36,36,38,38,39,39,40,40,41,41,45,45,47,47,49,49,50,50,51,51,52,52,53,53,54,54,55,55,56,56],"right_children":[2,4,6,8,10,12,14,16,18,20,22,24,26,28,30,32,34,36,38,40,42,44,-1,46,-1,48,50,52,-1,54,56,58,60,62,64,66,68,-1,70,72,74,76,-1,-1,-1,78,-1,80,-1,82,84,86,88,90,92,94,96,-1,-1,-1,-1,-1,-1,-1,-1,-1,-1,-1,-1,-1,-1,-1,-1,-1,-1,-1,-1,-1,-1,-1,-1,-1,-1,-1,-1,-1,-1,-1,-1,-1,-1,-1,-1,-1,-1,-1,-1],"split_conditions":[-3.8187167E-1,-9.7443926E-1,3.057812E0,-1.0880518E0,1.561761E0,1.6587156E-1,2.4963136E0,-1.4303411E0,-1.259704E0,3.6492017E-1,-6.202353E-1,2.3003545E0,3.8698428E0,6.5494566E0,2.2224717E0,-1.123695E0,7.534716E-1,-2.1018684E0,-5.918494E0,-1.2792847E-1,2.5162718E0,1.8609712E0,-7.970133E-2,2.4593916E0,-7.6423004E-2,3.716722E0,3.0131395E0,9.39153E-1,-9.958581E-2,3.4698176E0,4.750287E0,-9.808227E0,8.45707E-1,-3.4737594E-2,-1.1058733E0,-1.7295513E0,-4.217285E-1,2.783476E-2,1.0472716E0,6.570997E-2,-5.7066035E-1,-7.0711553E-1,6.805905E-2,-7.6327E-3,-5.191089E-2,1.149049E-1,7.432532E-2,3.2359092E0,-1.8767802E-1,9.1464835E-1,3.9846833E0,3.6562326E0,5.750704E0,6.7791376E0,2.332238E-1,2.185514E0,5.056529E0,-5.485022E-3,-3.7845757E-2,-8.734096E-3,1.7073334E-3,-2.6607895E-2,-1.4588984E-2,-4.6385508E-2,-9.05391E-3,5.3224685E-3,-1.742887E-2,-2.206167E-2,-6.9363765E-2,-1.7894158E-2,-3.8317E-2,-1.1147131E-2,-4.774988E-3,-6.8416945E-3,2.393687E-3,-1.0077292E-2,-3.321611E-2,1.3607477E-4,6.269424E-3,1.1844239E-2,4.98418E-2,9.929605E-3,1.0226827E-1,4.9178142E-2,-8.476983E-2,-6.0110097E-3,-4.3530297E-2,-4.1494793E-3,-3.184611E-2,7.7228113E-3,3.673905E-2,-1.824047E-2,5.4661326E-2,-3.8941125E-3,-3.5675827E-2,3.0680431E-2,4.118508E-3],"split_indices":[1,1,2,1,2,3,1,2,0,2,1,0,0,0,3,1,3,0,2,3,3,2,0,2,0,0,1,1,0,1,0,2,0,0,1,2,3,0,3,2,0,1,0,0,0,1,0,1,0,1,0,2,2,0,0,0,0,0,0,0,0,0,0,0,0,0,0,0,0,0,0,0,0,0,0,0,0,0,0,0,0,0,0,0,0,0,0,0,0,0,0,0,0,0,0,0,0],"split_type":[0,0,0,0,0,0,0,0,0,0,0,0,0,0,0,0,0,0,0,0,0,0,0,0,0,0,0,0,0,0,0,0,0,0,0,0,0,0,0,0,0,0,0,0,0,0,0,0,0,0,0,0,0,0,0,0,0,0,0,0,0,0,0,0,0,0,0,0,0,0,0,0,0,0,0,0,0,0,0,0,0,0,0,0,0,0,0,0,0,0,0,0,0,0,0,0,0],"sum_hessian":[6.639E3,2.848E3,3.791E3,9.86E2,1.862E3,3.613E3,1.78E2,3.89E2,5.97E2,1.847E3,1.5E1,1.049E3,2.564E3,1.18E2,6E1,7.3E1,3.16E2,1.2E1,5.85E2,1.266E3,5.81E2,9E0,6E0,1.048E3,1E0,2.536E3,2.8E1,1.16E2,2E0,3.7E1,2.3E1,7.1E1,2E0,3.07E2,9E0,5E0,7E0,1E0,5.84E2,8.71E2,3.95E2,5.8E2,1E0,1E0,8E0,1.047E3,1E0,2.534E3,2E0,2.3E1,5E0,4.2E1,7.4E1,2.6E1,1.1E1,2E1,3E0,2E0,6.9E1,1E0,1E0,2.93E2,1.4E1,7E0,2E0,2E0,3E0,2E0,5E0,5.74E2,1E1,9E1,7.81E2,5.7E1,3.38E2,5.64E2,1.6E1,7.27E2,3.2E2,2.494E3,4E1,3E0,2E1,1E0,4E0,1.1E1,3.1E1,5.3E1,2.1E1,2.3E1,3E0,1E0,1E1,1.3E1,7E0,1E0,2E0],"tree_param":{"num_deleted":"0","num_feature":"4","num_nodes":"97","size_leaf_vector":"1"}},{"base_weights":[-3.8897837E-4,-2.7647989E-2,2.0395398E-2,-5.080894E-2,-1.2493508E-2,2.5284037E-2,-1.9705422E-2,-6.1681997E-2,-3.7484195E-2,-1.0054391E-2,-9.8161295E-2,1.9802207E-2,7.390122E-2,-4.167529E-2,7.287306E-2,-6.048404E-2,-5.2497294E-2,3.0735167E-2,-3.8232375E-2,-1.1182221E-2,6.874873E-2,-5.4868124E-2,-1.6726834E-1,8.984548E-3,3.2066066E-2,4.8958603E-2,9.9750966E-2,-6.0253598E-2,1.17696464E-1,4.445413E-2,1.2595938E-1,-7.555095E-2,-5.239339E-2,-4.4006214E-2,-2.9182266E-2,-1.8148588E-2,-3.4910939E-3,-7.45037E-2,9.276116E-2,-1.439914E-1,-4.375647E-2,-2.5420304E-2,-1.8479703E-1,8.278599E-3,1.0206818E-1,-5.6925E-2,3.4896635E-2,3.408341E-2,9.5251866E-2,1.0556488E-1,-7.288099E-2,-5.5522405E-2,-3.941157E-1,2.0959501E-1,-5.394685E-2,5.3041585E-2,2.6984109E-2,1.3773695E-1,-1.4173508E-2,-3.1358127E-2,-2.1296287E-2,-1.591384E-2,3.169656E-3,-1.247664E-2,-3.901948E-2,-1.1067894E-2,-5.569767E-3,-5.5536246E-3,8.870709E-3,2.579226E-2,-1.2158733E-3,4.4715423E-3,-3.2782506E-2,1.8226508E-2,4.8795197E-2,1.225707E-2,-7.70532E-2,-1.4409169E-2,2.7887465E-3,-5.79574E-2,-1.135068E-2,8.8429655E-4,4.8377425E-3,-4.6801865E-3,4.88558E-2,-6.7195366E-3,-1.18977256E-1,1.0675699E-2,-3.8370933E-2,1.2755419E-2,-3.750577E-2,-2.4548812E-2,3.0470027E-2,2.844121E-2,4.137037E-2,2.9953362E-2,-5.526147E-2,-2.3171412E-2,5.4816116E-4,-3.83879E-2,-1.7888758E-1,-1.9827468E-2,8.1333846E-2,1.2830815E-2,-6.517401E-2,-7.7044494E-3,1.7831856E-2,4.8150066E-2,2.383067E-2,6.4838114E-3,-1.286189E-2],"categories":[],"categories_nodes":[],"categories_segments":[],"categories_sizes":[],"default_left":[0,0,0,0,0,0,0,0,0,0,0,0,0,0,0,0,0,0,0,0,0,0,0,0,0,0,0,0,0,0,0,0,0,0,0,0,0,0,0,0,0,0,0,0,0,0,0,0,0,0,0,0,0,0,0,0,0,0,0,0,0,0,0,0,0,0,0,0,0,0,0,0,0,0,0,0,0,0,0,0,0,0,0,0,0,0,0,0,0,0,0,0,0,0,0,0,0,0,0,0,0,0,0,0,0,0,0,0,0,0,0],"id":10,"left_children":[1,3,5,7,9,11,13,15,17,19,21,23,25,27,29,31,-1,-1,33,35,37,39,41,43,45,47,49,51,53,55,57,59,61,63,65,67,69,71,73,75,77,-1,79,81,83,85,87,89,91,93,95,97,99,101,103,-1,105,107,109,-1,-1,-1,-1,-1,-1,-1,-1,-1,-1,-1,-1,-1,-1,-1,-1,-1,-1,-1,-1,-1,-1,-1,-1,-1,-1,-1,-1,-1,-1,-1,-1,-1,-1,-1,-1,-1,-1,-1,-1,-1,-1,-1,-1,-1,-1,-1,-1,-1,-1,-1,-1],"loss_changes":[3.7625327E0,1.0077658E0,7.3917115E-1,1.6227245E-1,3.621747E-1,8.9374757E-1,8.3695114E-1,7.411718E-2,5.7626188E-2,1.5105896E-1,1.3443175E-1,4.0036392E-1,2.1433473E-1,9.900964E-1,1.1358446E-1,7.1498394E-2,0E0,0E0,2.5417507E-2,8.930677E-2,8.946718E-2,2.4398953E-2,1.0382175E-2,1.0468893E-1,3.5841846E-1,1.17262214E-1,1.743027E-1,4.4882846E-1,5.63389E-1,1.17774464E-1,4.6513677E-2,2.0876646E-2,1.7245173E-2,5.9082925E-2,1.5850738E-2,1.5724272E-2,4.0257357E-2,1.4064215E-2,3.709288E-2,7.307568E-2,7.022243E-3,0E0,9.961426E-3,6.6676155E-2,8.836985E-2,5.071264E-1,1.5845382E-1,1.8514019E-1,5.5277556E-2,4.294908E-2,1.3376272E-1,3.6752915E-1,1.389404E-1,4.0798974E-1,2.1461022E-1,0E0,8.3572134E-2,2.0428836E-2,4.0077353E-3,0E0,0E0,0E0,0E0,0E0,0E0,0E0,0E0,0E0,0E0,0E0,0E0,0E0,0E0,0E0,0E0,0E0,0E0,0E0,0E0,0E0,0E0,0E0,0E0,0E0,0E0,0E0,0E0,0E0,0E0,0E0,0E0,0E0,0E0,0E0,0E0,0E0,0E0,0E0,0E0,0E0,0E0,0E0,0E0,0E0,0E0,0E0,0E0,0E0,0E0,0E0,0E0],"parents":[2147483647,0,0,1,1,2,2,3,3,4,4,5,5,6,6,7,7,8,8,9,9,10,10,11,11,12,12,13,13,14,14,15,15,18,18,19,19,20,20,21,21,22,22,23,23,24,24,25,25,26,26,27,27,28,28,29,29,30,30,31,31,32,32,33,33,34,34,35,35,36,36,37,37,38,38,39,39,40,40,42,42,43,43,44,44,45,45,46,46,47,47,48,48,49,49,50,50,51,51,52,52,53,53,54,54,56,56,57,57,58,58],"right_children":[2,4,6,8,10,12,14,16,18,20,22,24,26,28,30,32,-1,-1,34,36,38,40,42,44,46,48,50,52,54,56,58,60,62,64,66,68,70,72,74,76,78,-1,80,82,84,86,88,90,92,94,96,98,100,102,104,-1,106,108,110,-1,-1,-1,-1,-1,-1,-1,-1,-1,-1,-1,-1,-1,-1,-1,-1,-1,-1,-1,-1,-1,-1,-1,-1,-1,-1,-1,-1,-1,-1,-1,-1,-1,-1,-1,-1,-1,-1,-1,-1,-1,-1,-1,-1,-1,-1,-1,-1,-1,-1,-1,-1],"split_conditions":[-3.7296087E-1,-9.209745E-1,6.641304E-1,-1.0635471E0,1.2625508E0,1.3468217E0,3.2359092E0,6.641304E-1,-4.4224434E0,1.0472716E0,-8.340943E-1,4.596716E-1,5.777456E-1,3.8698428E0,3.783923E0,-5.3271043E-1,-5.2497294E-2,3.0735167E-2,-4.558198E-1,-4.217285E-1,-2.982313E0,-1.1065831E0,-2.025308E0,1.5347506E0,-9.5346236E-1,1.9839432E0,3.0659585E0,3.755002E0,3.057812E0,1.561761E0,5.28621E0,-8.0034155E-1,1.6348717E0,1.2625508E0,-9.9448854E-1,8.074268E-1,-2.3350024E-1,-9.120637E-1,3.6492017E-1,-1.9104674E0,4.596716E-1,-2.5420304E-2,2.5162718E0,1.149049E-1,-2.3350024E-1,6.570997E-2,3.6492017E-1,6.570997E-2,-2.599511E0,2.0396357E0,1.9286717E0,1.7261516E0,9.547469E-1,9.1464835E-1,2.2224717E0,5.3041585E-2,1.611311E0,3.057812E0,5.3627706E0,-3.1358127E-2,-2.1296287E-2,-1.591384E-2,3.169656E-3,-1.247664E-2,-3.901948E-2,-1.1067894E-2,-5.569767E-3,-5.5536246E-3,8.870709E-3,2.579226E-2,-1.2158733E-3,4.4715423E-3,-3.2782506E-2,1.8226508E-2,4.8795197E-2,1.225707E-2,-7.70532E-2,-1.4409169E-2,2.7887465E-3,-5.79574E-2,-1.135068E-2,8.8429655E-4,4.8377425E-3,-4.6801865E-3,4.88558E-2,-6.7195366E-3,-1.18977256E-1,1.0675699E-2,-3.8370933E-2,1.2755419E-2,-3.750577E-2,-2.4548812E-2,3.0470027E-2,2.844121E-2,4.137037E-2,2.9953362E-2,-5.526147E-2,-2.3171412E-2,5.4816116E-4,-3.83879E-2,-1.7888758E-1,-1.9827468E-2,8.1333846E-2,1.2830815E-2,-6.517401E-2,-7.7044494E-3,1.7831856E-2,4.8150066E-2,2.383067E-2,6.4838114E-3,-1.286189E-2],"split_indices":[1,1,2,1,2,1,1,2,2,3,1,3,0,0,1,2,0,0,0,3,0,0,0,0,0,1,0,0,2,2,0,0,3,2,1,0,2,1,2,0,3,0,3,1,2,2,2,2,0,1,3,0,1,1,3,0,0,2,0,0,0,0,0,0,0,0,0,0,0,0,0,0,0,0,0,0,0,0,0,0,0,0,0,0,0,0,0,0,0,0,0,0,0,0,0,0,0,0,0,0,0,0,0,0,0,0,0,0,0,0,0],"split_type":[0,0,0,0,0,0,0,0,0,0,0,0,0,0,0,0,0,0,0,0,0,0,0,0,0,0,0,0,0,0,0,0,0,0,0,0,0,0,0,0,0,0,0,0,0,0,0,0,0,0,0,0,0,0,0,0,0,0,0,0,0,0,0,0,0,0,0,0,0,0,0,0,0,0,0,0,0,0,0,0,0,0,0,0,0,0,0,0,0,0,0,0,0,0,0,0,0,0,0,0,0,0,0,0,0,0,0,0,0,0,0],"sum_hessian":[6.639E3,2.872E3,3.767E3,1.135E3,1.737E3,3.358E3,4.09E2,6.23E2,5.12E2,1.69E3,4.7E1,3.019E3,3.39E2,3.31E2,7.8E1,6.18E2,5E0,2E0,5.1E2,1.667E3,2.3E1,3E1,1.7E1,1.605E3,1.414E3,1.74E2,1.65E2,2.97E2,3.4E1,5.2E1,2.6E1,2.13E2,4.05E2,3.09E2,2.01E2,8.74E2,7.93E2,3E0,2E1,2E0,2.8E1,4E0,1.3E1,1.594E3,1.1E1,4.3E1,1.371E3,1.33E2,4.1E1,1.6E2,5E0,2.94E2,3E0,2.2E1,1.2E1,5E0,4.7E1,2.4E1,2E0,2.6E1,1.87E2,4.01E2,4E0,3.02E2,7E0,1.15E2,8.6E1,8.68E2,6E0,4E0,7.89E2,1E0,2E0,1.5E1,5E0,1E0,1E0,2.6E1,2E0,1.2E1,1E0,9.5E2,6.44E2,4E0,7E0,4E1,3E0,1.366E3,5E0,1.27E2,6E0,1E0,4E1,1.23E2,3.7E1,2E0,3E0,2.13E2,8.1E1,2E0,1E0,4E0,1.8E1,8E0,4E0,1.8E1,2.9E1,1.6E1,8E0,1E0,1E0],"tree_param":{"num_deleted":"0","num_feature":"4","num_nodes":"111","size_leaf_vector":"1"}},{"base_weights":[-3.3849213E-4,-2.4278648E-2,1.1553426E-2,-4.2065334E-2,-1.5780056E-2,4.2662717E-2,8.255892E-3,-4.0576167E-2,-9.156173E-2,-1.3991791E-2,-5.4851606E-2,-3.618925E-2,4.5835875E-2,-4.285804E-2,1.001904E-2,-8.0478214E-2,-3.877506E-2,-5.58187E-2,-1.6565901E-1,5.8253445E-2,-1.479938E-2,-3.8099248E-2,-1.5485525E-1,3.4424517E-2,-5.2794628E-2,1.4430581E-1,4.4507023E-2,1.805637E-2,-6.805508E-2,-8.5675676E-4,1.7046914E-2,6.359339E-3,-8.486657E-2,-3.9687686E-2,-5.6569763E-3,1.9905409E-2,-6.899975E-2,-5.6504432E-2,-7.832033E-3,3.174674E-2,6.837809E-2,-2.3369066E-2,-1.0300277E-2,-1.08403616E-1,-2.7702585E-2,-1.6617209E-1,-9.648085E-3,-1.02334075E-1,9.536576E-3,7.407357E-2,-6.4021945E-3,3.587847E-2,5.9406944E-2,5.7058528E-2,-2.3798715E-2,-9.7921245E-2,3.549726E-2,-1.0979679E-5,-8.057056E-2,2.1024397E-2,-1.0505649E-2,-5.3840876E-4,-2.636305E-2,-1.3873255E-2,-1.0773282E-2,1.7605263E-3,-2.0724572E-2,3.4527184E-4,8.612162E-3,-2.4691967E-2,8.3754066E-4,2.23833E-2,-8.369909E-3,-7.5427364E-3,4.552841E-3,-5.9370217E-3,-2.3008862E-3,-9.978512E-3,-5.925168E-2,-1.3949991E-3,-9.379309E-3,-9.910727E-3,-5.414165E-2,-1.499113E-2,-4.658881E-2,1.2520266E-2,-1.7411271E-2,-1.5883489E-2,1.3002501E-2,-3.0479703E-2,1.1041536E-2,1.5595941E-2,2.0878095E-2,-2.2749212E-2,2.024836E-2,-1.5773049E-2,1.3580181E-3,-3.8541432E-2,-1.8062698E-2,-3.559952E-2,1.9825263E-2,-2.7514345E-3,1.1633727E-3,-4.467771E-2,1.7452683E-2,5.4234983E-3,2.4137385E-2,-7.66164E-3,2.237448E-2],"categories":[],"categories_nodes":[],"categories_segments":[],"categories_sizes":[],"default_left":[0,0,0,0,0,0,0,0,0,0,0,0,0,0,0,0,0,0,0,0,0,0,0,0,0,0,0,0,0,0,0,0,0,0,0,0,0,0,0,0,0,0,0,0,0,0,0,0,0,0,0,0,0,0,0,0,0,0,0,0,0,0,0,0,0,0,0,0,0,0,0,0,0,0,0,0,0,0,0,0,0,0,0,0,0,0,0,0,0,0,0,0,0,0,0,0,0,0,0,0,0,0,0,0,0,0,0,0,0],"id":11,"left_children":[1,3,5,7,9,11,13,15,17,19,21,23,25,27,29,31,33,35,37,39,41,43,45,-1,47,49,51,53,55,57,59,-1,61,63,65,67,69,-1,-1,71,-1,73,75,77,79,81,-1,83,85,-1,87,89,91,93,95,97,99,101,103,105,107,-1,-1,-1,-1,-1,-1,-1,-1,-1,-1,-1,-1,-1,-1,-1,-1,-1,-1,-1,-1,-1,-1,-1,-1,-1,-1,-1,-1,-1,-1,-1,-1,-1,-1,-1,-1,-1,-1,-1,-1,-1,-1,-1,-1,-1,-1,-1,-1],"loss_changes":[1.8906512E0,3.3249688E-1,4.548127E-1,4.8765063E-2,1.03548884E-1,1.07997894E-1,3.6208656E-1,4.668379E-2,4.372236E-2,8.423641E-2,1.0299443E-1,4.8666492E-2,4.7095895E-2,2.0690043E-1,2.965774E-1,1.47385E-2,1.9874752E-2,1.6345318E-2,1.4080733E-2,6.472382E-2,5.427733E-2,3.8659997E-2,7.1525276E-3,0E0,5.038157E-2,7.8898564E-2,4.9937308E-2,6.6655464E-2,2.972835E-1,1.0274736E-1,2.5852418E-1,0E0,6.8442076E-3,1.4360428E-2,1.4294353E-2,4.6218082E-4,1.2648892E-2,0E0,0E0,4.043213E-2,0E0,3.3602417E-2,2.3040138E-2,4.0297672E-2,4.0421374E-3,9.26885E-3,0E0,1.7199323E-2,1.9827979E-2,0E0,9.240373E-3,3.6734402E-2,7.493794E-3,3.4241624E-2,1.6541056E-2,7.75215E-2,1.11579694E-1,5.3792242E-2,1.6040803E-1,3.5924178E-1,3.8308525E-1,0E0,0E0,0E0,0E0,0E0,0E0,0E0,0E0,0E0,0E0,0E0,0E0,0E0,0E0,0E0,0E0,0E0,0E0,0E0,0E0,0E0,0E0,0E0,0E0,0E0,0E0,0E0,0E0,0E0,0E0,0E0,0E0,0E0,0E0,0E0,0E0,0E0,0E0,0E0,0E0,0E0,0E0,0E0,0E0,0E0,0E0,0E0,0E0],"parents":[2147483647,0,0,1,1,2,2,3,3,4,4,5,5,6,6,7,7,8,8,9,9,10,10,11,11,12,12,13,13,14,14,15,15,16,16,17,17,18,18,19,19,20,20,21,21,22,22,24,24,25,25,26,26,27,27,28,28,29,29,30,30,32,32,33,33,34,34,35,35,36,36,39,39,41,41,42,42,43,43,44,44,45,45,47,47,48,48,50,50,51,51,52,52,53,53,54,54,55,55,56,56,57,57,58,58,59,59,60,60],"right_children":[2,4,6,8,10,12,14,16,18,20,22,24,26,28,30,32,34,36,38,40,42,44,46,-1,48,50,52,54,56,58,60,-1,62,64,66,68,70,-1,-1,72,-1,74,76,78,80,82,-1,84,86,-1,88,90,92,94,96,98,100,102,104,106,108,-1,-1,-1,-1,-1,-1,-1,-1,-1,-1,-1,-1,-1,-1,-1,-1,-1,-1,-1,-1,-1,-1,-1,-1,-1,-1,-1,-1,-1,-1,-1,-1,-1,-1,-1,-1,-1,-1,-1,-1,-1,-1,-1,-1,-1,-1,-1,-1],"split_conditions":[-6.380569E-1,-1.0390425E0,-5.3271043E-1,1.3410717E0,1.2625508E0,-3.4416752E0,-8.76902E-1,-1.7295513E0,-1.0813687E0,-2.3350024E-1,7.534716E-1,-2.9944685E-1,-2.0287616E0,7.534716E-1,1.6587156E-1,-4.4369607E0,3.6492017E-1,-4.7216535E0,1.183832E-1,-5.3271043E-1,-9.053806E-1,-7.2378117E-1,2.5162718E0,3.4424517E-2,-8.319207E-1,-1.8785839E-1,4.62905E-1,-1.1831436E0,2.1710699E0,3.6492017E-1,1.2625508E0,6.359339E-3,-9.808227E0,-2.3350024E-1,6.641304E-1,-2.6441878E-1,-1.1058733E0,-5.6504432E-2,-7.832033E-3,-2.926392E0,6.837809E-2,1.949436E-1,-5.7066035E-1,-1.4128247E0,-3.7925938E-1,-2.7143514E0,-9.648085E-3,-4.3604E0,8.7677747E-1,7.407357E-2,6.1283746E0,-6.202353E-1,8.45707E-1,-5.868198E-1,-3.3063462E-1,1.561761E0,-2.9057524E0,-4.217285E-1,-9.846162E-3,2.0396357E0,3.8698428E0,-5.3840876E-4,-2.636305E-2,-1.3873255E-2,-1.0773282E-2,1.7605263E-3,-2.0724572E-2,3.4527184E-4,8.612162E-3,-2.4691967E-2,8.3754066E-4,2.23833E-2,-8.369909E-3,-7.5427364E-3,4.552841E-3,-5.9370217E-3,-2.3008862E-3,-9.978512E-3,-5.925168E-2,-1.3949991E-3,-9.379309E-3,-9.910727E-3,-5.414165E-2,-1.499113E-2,-4.658881E-2,1.2520266E-2,-1.7411271E-2,-1.5883489E-2,1.3002501E-2,-3.0479703E-2,1.1041536E-2,1.5595941E-2,2.0878095E-2,-2.2749212E-2,2.024836E-2,-1.5773049E-2,1.3580181E-3,-3.8541432E-2,-1.8062698E-2,-3.559952E-2,1.9825263E-2,-2.7514345E-3,1.1633727E-3,-4.467771E-2,1.7452683E-2,5.4234983E-3,2.4137385E-2,-7.66164E-3,2.237448E-2],"split_indices":[1,1,2,3,2,0,0,2,1,2,3,1,2,3,3,0,2,2,0,2,1,0,3,0,2,0,0,0,1,2,2,0,2,2,2,0,1,0,0,2,0,0,0,0,0,0,0,0,1,0,0,1,0,1,1,2,0,3,1,1,0,0,0,0,0,0,0,0,0,0,0,0,0,0,0,0,0,0,0,0,0,0,0,0,0,0,0,0,0,0,0,0,0,0,0,0,0,0,0,0,0,0,0,0,0,0,0,0,0],"split_type":[0,0,0,0,0,0,0,0,0,0,0,0,0,0,0,0,0,0,0,0,0,0,0,0,0,0,0,0,0,0,0,0,0,0,0,0,0,0,0,0,0,0,0,0,0,0,0,0,0,0,0,0,0,0,0,0,0,0,0,0,0,0,0,0,0,0,0,0,0,0,0,0,0,0,0,0,0,0,0,0,0,0,0,0,0,0,0,0,0,0,0,0,0,0,0,0,0,0,0,0,0,0,0,0,0,0,0,0,0],"sum_hessian":[6.639E3,2.203E3,4.436E3,7.11E2,1.492E3,4.24E2,4.012E3,6.92E2,1.9E1,1.428E3,6.4E1,1.6E1,4.08E2,1.33E2,3.879E3,2.8E1,6.64E2,1.4E1,5E0,1.5E1,1.413E3,5.6E1,8E0,1E0,1.5E1,4E0,4.04E2,3.9E1,9.4E1,1.523E3,2.356E3,1E0,2.7E1,6.46E2,1.8E1,2E0,1.2E1,4E0,1E0,1.4E1,1E0,4.85E2,9.28E2,6E0,5E1,7E0,1E0,8E0,7E0,2E0,2E0,2.58E2,1.46E2,2E1,1.9E1,7.3E1,2.1E1,1.508E3,1.5E1,2.059E3,2.97E2,1E0,2.6E1,2.32E2,4.14E2,1.6E1,2E0,1E0,1E0,1E1,2E0,8E0,6E0,4.64E2,2.1E1,2E2,7.28E2,4E0,2E0,7E0,4.3E1,1E0,6E0,5E0,3E0,5E0,2E0,1E0,1E0,1E0,2.57E2,8.8E1,5.8E1,1E0,1.9E1,9E0,1E1,3.9E1,3.4E1,3E0,1.8E1,4.49E2,1.059E3,1E1,5E0,1.963E3,9.6E1,2.53E2,4.4E1],"tree_param":{"num_deleted":"0","num_feature":"4","num_nodes":"109","size_leaf_vector":"1"}},{"base_weights":[-2.736267E-4,-1.3877636E-2,1.0099142E-2,-2.526428E-2,-6.427058E-3,1.4049284E-3,1.7882993E-2,-3.3361487E-2,-2.0449894E-2,-5.5525987E-3,-1.00193724E-1,4.6719373E-3,-3.846299E-2,1.8974567E-2,-7.223475E-2,-6.8037726E-2,-3.200486E-2,2.0111471E-2,-2.0789325E-2,-5.7944553E-3,1.3504335E-1,-6.2439114E-2,-1.398155E-1,3.6412762E-3,9.279168E-2,-6.5066986E-2,2.4118546E-2,1.05590755E-2,3.1910345E-2,-1.03846475E-1,3.9908167E-2,-3.6482015E-4,-7.842088E-2,-3.1157147E-2,-6.61248E-2,-1.9633673E-2,-6.431955E-2,-5.5696582E-3,-3.980151E-2,4.971739E-2,1.1052123E-2,-2.6994139E-2,-9.2485264E-2,-5.2918226E-2,-9.673811E-3,1.3800384E-1,3.225612E-3,1.0167723E-1,1.1509657E-2,-1.9113444E-1,-3.5140306E-2,2.0741232E-1,-1.3027344E-3,1.3383752E-2,-5.1623907E-2,3.9195508E-2,-3.5513874E-2,-3.487193E-2,-1.6243638E-1,5.9923045E-2,-9.024937E-3,2.9348733E-4,-4.576564E-4,-2.6534328E-2,-1.3406497E-2,1.0446537E-2,-9.472857E-3,-2.5792433E-2,6.700278E-4,-6.8928655E-3,-4.5356206E-3,-7.0003865E-5,-2.4783967E-2,-2.165599E-3,4.60073E-3,-1.547475E-2,-5.413011E-4,-8.424103E-3,-3.0469922E-2,-1.4646239E-2,5.9074566E-2,-1.5136913E-2,1.3110182E-3,3.5543203E-2,1.8225519E-2,-2.0271959E-3,7.2065415E-3,-1.3750978E-2,-8.3828926E-2,-3.7800077E-2,-7.3222895E-3,8.993593E-2,1.3770236E-2,-1.1817851E-2,2.4400316E-2,2.121531E-3,7.83177E-3,8.486278E-2,-1.9118795E-2,9.262788E-3,2.2509713E-2,-3.27679E-2,6.1732815E-3,1.6225375E-2,-1.9161489E-2,-8.983988E-3,-5.214902E-2,2.4460873E-2,-3.9794594E-3],"categories":[],"categories_nodes":[],"categories_segments":[],"categories_sizes":[],"default_left":[0,0,0,0,0,0,0,0,0,0,0,0,0,0,0,0,0,0,0,0,0,0,0,0,0,0,0,0,0,0,0,0,0,0,0,0,0,0,0,0,0,0,0,0,0,0,0,0,0,0,0,0,0,0,0,0,0,0,0,0,0,0,0,0,0,0,0,0,0,0,0,0,0,0,0,0,0,0,0,0,0,0,0,0,0,0,0,0,0,0,0,0,0,0,0,0,0,0,0,0,0,0,0,0,0,0,0,0,0],"id":12,"left_children":[1,3,5,7,9,11,13,15,17,19,21,23,25,27,29,31,33,-1,35,37,39,41,43,45,47,49,51,53,55,57,59,61,63,65,67,69,71,73,-1,-1,-1,75,77,-1,-1,79,81,83,85,87,89,91,93,95,97,99,101,103,105,107,-1,-1,-1,-1,-1,-1,-1,-1,-1,-1,-1,-1,-1,-1,-1,-1,-1,-1,-1,-1,-1,-1,-1,-1,-1,-1,-1,-1,-1,-1,-1,-1,-1,-1,-1,-1,-1,-1,-1,-1,-1,-1,-1,-1,-1,-1,-1,-1,-1],"loss_changes":[9.371188E-1,2.435745E-1,2.5497225E-1,4.3602586E-2,1.4195123E-1,2.3215286E-1,1.9693053E-1,1.7674536E-2,2.262646E-2,5.9371497E-2,1.5204519E-2,1.4924528E-1,2.263334E-1,2.1357483E-1,8.9225054E-2,1.0511257E-2,9.740651E-3,0E0,3.4605175E-2,4.834679E-2,2.933614E-3,8.15329E-3,2.185516E-2,9.0534E-2,1.2552187E-2,3.516976E-1,1.9131225E-1,2.1006194E-1,3.8157815E-1,7.111855E-2,1.0207876E-2,6.169256E-6,4.4444948E-4,1.2158781E-2,1.24042E-2,1.0156214E-2,2.108343E-2,5.937003E-2,0E0,0E0,0E0,3.623183E-3,7.233396E-5,0E0,0E0,6.4644024E-2,1.00054435E-1,4.4907182E-3,8.4800017E-4,2.1811604E-1,7.2987914E-2,6.0837E-2,1.1966728E-1,9.143993E-2,2.2858883E-1,2.0608771E-1,3.1648034E-1,2.9251589E-2,9.889841E-3,8.99069E-3,0E0,0E0,0E0,0E0,0E0,0E0,0E0,0E0,0E0,0E0,0E0,0E0,0E0,0E0,0E0,0E0,0E0,0E0,0E0,0E0,0E0,0E0,0E0,0E0,0E0,0E0,0E0,0E0,0E0,0E0,0E0,0E0,0E0,0E0,0E0,0E0,0E0,0E0,0E0,0E0,0E0,0E0,0E0,0E0,0E0,0E0,0E0,0E0,0E0],"parents":[2147483647,0,0,1,1,2,2,3,3,4,4,5,5,6,6,7,7,8,8,9,9,10,10,11,11,12,12,13,13,14,14,15,15,16,16,18,18,19,19,20,20,21,21,22,22,23,23,24,24,25,25,26,26,27,27,28,28,29,29,30,30,31,31,32,32,33,33,34,34,35,35,36,36,37,37,41,41,42,42,45,45,46,46,47,47,48,48,49,49,50,50,51,51,52,52,53,53,54,54,55,55,56,56,57,57,58,58,59,59],"right_children":[2,4,6,8,10,12,14,16,18,20,22,24,26,28,30,32,34,-1,36,38,40,42,44,46,48,50,52,54,56,58,60,62,64,66,68,70,72,74,-1,-1,-1,76,78,-1,-1,80,82,84,86,88,90,92,94,96,98,100,102,104,106,108,-1,-1,-1,-1,-1,-1,-1,-1,-1,-1,-1,-1,-1,-1,-1,-1,-1,-1,-1,-1,-1,-1,-1,-1,-1,-1,-1,-1,-1,-1,-1,-1,-1,-1,-1,-1,-1,-1,-1,-1,-1,-1,-1,-1,-1,-1,-1,-1,-1],"split_conditions":[-3.7296087E-1,-9.209745E-1,1.566634E-1,-1.079141E0,1.561761E0,3.6492017E-1,4.853073E0,-1.1504273E0,-4.4224434E0,2.5162718E0,-6.202353E-1,2.0396357E0,2.413889E0,9.547469E-1,2.1710699E0,-9.808227E0,2.2224717E0,2.0111471E-2,1.0472716E0,2.2224717E0,5.777456E-1,2.758602E0,-4.420195E-1,-1.7295513E0,2.4963136E0,1.2625508E0,2.4963136E0,6.641304E-1,2.5162718E0,1.4581902E0,3.3722E0,-2.6441878E-1,-6.85501E-1,-2.926392E0,-1.1058733E0,6.641304E-1,-1.7295513E0,4.596716E-1,-3.980151E-2,4.971739E-2,1.1052123E-2,-1.5659455E0,-2.7143514E0,-5.2918226E-2,-9.673811E-3,-7.805618E0,-2.025308E0,-3.02699E-1,-2.2549891E0,3.9113942E-1,-2.8291922E0,2.1601815E0,3.2359092E0,7.534716E-1,-3.4177312E-1,1.802712E0,2.8304684E0,5.4514937E0,1.6587156E-1,2.8100717E0,-9.024937E-3,2.9348733E-4,-4.576564E-4,-2.6534328E-2,-1.3406497E-2,1.0446537E-2,-9.472857E-3,-2.5792433E-2,6.700278E-4,-6.8928655E-3,-4.5356206E-3,-7.0003865E-5,-2.4783967E-2,-2.165599E-3,4.60073E-3,-1.547475E-2,-5.413011E-4,-8.424103E-3,-3.0469922E-2,-1.4646239E-2,5.9074566E-2,-1.5136913E-2,1.3110182E-3,3.5543203E-2,1.8225519E-2,-2.0271959E-3,7.2065415E-3,-1.3750978E-2,-8.3828926E-2,-3.7800077E-2,-7.3222895E-3,8.993593E-2,1.3770236E-2,-1.1817851E-2,2.4400316E-2,2.121531E-3,7.83177E-3,8.486278E-2,-1.9118795E-2,9.262788E-3,2.2509713E-2,-3.27679E-2,6.1732815E-3,1.6225375E-2,-1.9161489E-2,-8.983988E-3,-5.214902E-2,2.4460873E-2,-3.9794594E-3],"split_indices":[1,1,0,1,2,2,2,1,2,3,1,1,1,1,1,2,3,0,3,3,0,2,1,2,1,2,1,2,3,0,0,0,0,2,1,2,2,3,0,0,0,0,0,0,0,0,0,0,0,1,0,2,1,3,1,0,1,2,3,3,0,0,0,0,0,0,0,0,0,0,0,0,0,0,0,0,0,0,0,0,0,0,0,0,0,0,0,0,0,0,0,0,0,0,0,0,0,0,0,0,0,0,0,0,0,0,0,0,0],"split_type":[0,0,0,0,0,0,0,0,0,0,0,0,0,0,0,0,0,0,0,0,0,0,0,0,0,0,0,0,0,0,0,0,0,0,0,0,0,0,0,0,0,0,0,0,0,0,0,0,0,0,0,0,0,0,0,0,0,0,0,0,0,0,0,0,0,0,0,0,0,0,0,0,0,0,0,0,0,0,0,0,0,0,0,0,0,0,0,0,0,0,0,0,0,0,0,0,0,0,0,0,0,0,0,0,0,0,0,0,0],"sum_hessian":[6.639E3,2.872E3,3.767E3,1.135E3,1.737E3,1.78E3,1.987E3,4.21E2,7.14E2,1.722E3,1.5E1,1.646E3,1.34E2,1.964E3,2.3E1,1.4E1,4.07E2,2E0,7.12E2,1.72E3,2E0,9E0,6E0,1.628E3,1.8E1,9.4E1,4E1,1.191E3,7.73E2,1.8E1,5E0,2E0,1.2E1,3.99E2,8E0,6.95E2,1.7E1,1.718E3,2E0,1E0,1E0,5E0,4E0,4E0,2E0,4E0,1.624E3,1.6E1,2E0,1.7E1,7.7E1,4E0,3.6E1,1.14E3,5.1E1,6.98E2,7.5E1,9E0,9E0,4E0,1E0,1E0,1E0,8E0,4E0,2E0,3.97E2,6E0,2E0,3.97E2,2.98E2,4E0,1.3E1,1.593E3,1.25E2,2E0,3E0,1E0,3E0,1E0,3E0,3.3E1,1.591E3,1E1,6E0,1E0,1E0,7E0,1E1,7E0,7E1,2E0,2E0,2.5E1,1.1E1,7.63E2,3.77E2,1E0,5E1,5.68E2,1.3E2,3.2E1,4.3E1,2E0,7E0,1E0,8E0,3E0,1E0],"tree_param":{"num_deleted":"0","num_feature":"4","num_nodes":"109","size_leaf_vector":"1"}},{"base_weights":[-2.0405259E-4,-1.231769E-2,5.813225E-3,-2.0850394E-2,-8.24026E-3,2.5149954E-2,3.7639048E-3,-1.984652E-2,-5.4592125E-2,-6.995582E-3,-3.5477262E-2,-8.4305204E-2,2.6127847E-2,3.221297E-3,8.37496E-2,-2.9725656E-2,-1.7015921E-2,-2.6445985E-2,-1.0308553E-1,-7.597139E-3,5.4347306E-2,-2.4143228E-2,-1.0331755E-1,-3.2612467E-3,-3.154792E-2,5.1452372E-2,2.3118857E-2,5.7843965E-3,-2.0167032E-2,9.694162E-2,-1.6339928E-2,-2.6940312E-2,-9.347651E-2,-3.5726E-2,-1.5690736E-2,-3.428513E-2,1.1319441E-2,-4.2165954E-2,-3.984651E-2,2.5415733E-2,-7.853096E-3,1.1927857E-1,3.358555E-2,-7.5722866E-2,-1.6590273E-2,-4.640367E-2,-6.6545896E-2,5.570812E-3,7.499212E-2,4.7481316E-3,2.6423387E-2,3.8284475E-3,4.540154E-2,-2.7836509E-2,3.704882E-2,7.183461E-2,4.14529E-2,3.6072137E-3,-1.5214778E-2,-3.223461E-2,-7.698508E-3,6.439376E-3,-3.6227297E-2,-2.0888092E-3,-1.2086338E-2,7.754073E-3,-4.8217326E-3,5.8385307E-5,-1.9160103E-2,-1.3978851E-2,-2.9396296E-3,-3.6494008E-3,-1.3400376E-3,5.844622E-2,-4.7708633E-3,5.5008037E-3,1.3733725E-2,-3.7648703E-3,-4.6731222E-2,-1.306218E-3,-6.7740963E-3,4.663575E-3,-2.4845589E-2,2.1735277E-2,-1.2540705E-2,1.6190376E-2,4.9534407E-2,1.8906964E-2,-2.9758671E-3,6.1717243E-3,1.08157E-2,1.2537937E-3,-2.6582578E-2,6.193953E-3,1.9479975E-2,-6.529755E-3,-6.925447E-2,6.209823E-2,-9.357872E-4,2.4765218E-2,-1.707244E-3],"categories":[],"categories_nodes":[],"categories_segments":[],"categories_sizes":[],"default_left":[0,0,0,0,0,0,0,0,0,0,0,0,0,0,0,0,0,0,0,0,0,0,0,0,0,0,0,0,0,0,0,0,0,0,0,0,0,0,0,0,0,0,0,0,0,0,0,0,0,0,0,0,0,0,0,0,0,0,0,0,0,0,0,0,0,0,0,0,0,0,0,0,0,0,0,0,0,0,0,0,0,0,0,0,0,0,0,0,0,0,0,0,0,0,0,0,0,0,0,0,0],"id":13,"left_children":[1,3,5,7,9,11,13,15,17,19,21,23,25,27,29,31,33,35,37,39,41,43,45,-1,-1,47,49,51,53,55,57,59,61,63,65,67,-1,-1,69,-1,71,73,75,77,79,-1,81,83,85,87,89,91,93,95,97,99,-1,-1,-1,-1,-1,-1,-1,-1,-1,-1,-1,-1,-1,-1,-1,-1,-1,-1,-1,-1,-1,-1,-1,-1,-1,-1,-1,-1,-1,-1,-1,-1,-1,-1,-1,-1,-1,-1,-1,-1,-1,-1,-1,-1,-1],"loss_changes":[4.8406866E-1,7.650867E-2,1.75731E-1,2.3033738E-2,5.0366454E-2,4.7692746E-2,1.738979E-1,1.8873155E-2,2.4571855E-2,5.3144768E-2,4.7484346E-2,4.982585E-3,3.0967414E-2,2.3912382E-1,3.7234366E-2,2.464962E-2,1.2853146E-2,8.33698E-3,1.0985367E-2,3.412401E-2,1.4867183E-2,2.0949718E-2,6.704539E-3,0E0,0E0,4.7104E-2,2.2882327E-2,2.7832204E-1,1.739247E-1,1.49208605E-2,4.5099696E-3,1.2477741E-2,2.1406356E-2,4.3119155E-3,8.453973E-3,1.3272112E-2,0E0,0E0,3.5466347E-4,0E0,2.0575888E-2,3.3733908E-2,1.3919445E-3,3.3443358E-2,3.639753E-3,0E0,1.0638364E-2,5.372177E-2,4.603699E-2,5.1056042E-2,1.7343044E-2,1.1148551E-1,8.0372214E-2,4.238558E-1,3.2148558E-1,1.4592893E-2,0E0,0E0,0E0,0E0,0E0,0E0,0E0,0E0,0E0,0E0,0E0,0E0,0E0,0E0,0E0,0E0,0E0,0E0,0E0,0E0,0E0,0E0,0E0,0E0,0E0,0E0,0E0,0E0,0E0,0E0,0E0,0E0,0E0,0E0,0E0,0E0,0E0,0E0,0E0,0E0,0E0,0E0,0E0,0E0,0E0],"parents":[2147483647,0,0,1,1,2,2,3,3,4,4,5,5,6,6,7,7,8,8,9,9,10,10,11,11,12,12,13,13,14,14,15,15,16,16,17,17,18,18,19,19,20,20,21,21,22,22,25,25,26,26,27,27,28,28,29,29,30,30,31,31,32,32,33,33,34,34,35,35,38,38,40,40,41,41,42,42,43,43,44,44,46,46,47,47,48,48,49,49,50,50,51,51,52,52,53,53,54,54,55,55],"right_children":[2,4,6,8,10,12,14,16,18,20,22,24,26,28,30,32,34,36,38,40,42,44,46,-1,-1,48,50,52,54,56,58,60,62,64,66,68,-1,-1,70,-1,72,74,76,78,80,-1,82,84,86,88,90,92,94,96,98,100,-1,-1,-1,-1,-1,-1,-1,-1,-1,-1,-1,-1,-1,-1,-1,-1,-1,-1,-1,-1,-1,-1,-1,-1,-1,-1,-1,-1,-1,-1,-1,-1,-1,-1,-1,-1,-1,-1,-1,-1,-1,-1,-1,-1,-1],"split_conditions":[-6.380569E-1,-1.0390425E0,-5.3271043E-1,1.3410717E0,1.2625508E0,-6.0064487E0,3.783923E0,-8.319207E-1,-1.0880518E0,8.074268E-1,7.534716E-1,-2.0365585E-1,8.7677747E-1,6.641304E-1,3.4487605E0,-1.123695E0,-1.8907286E0,-1.1058733E0,1.9286717E0,-3.8240228E0,-2.3350024E-1,-7.2378117E-1,-9.365684E-1,-3.2612467E-3,-3.154792E-2,-2.4463902E0,-2.6441878E-1,1.6720655E0,3.8698428E0,1.8409922E0,5.3627706E0,-2.5612307E0,-4.4369607E0,-1.1103288E0,-1.123695E0,2.2224717E0,1.1319441E-2,-4.2165954E-2,-1.259704E0,2.5415733E-2,-7.1552855E-1,1.1902288E0,-8.4300506E-1,-1.4128247E0,-9.3434066E-1,-4.640367E-2,-9.120637E-1,-4.5135207E0,1.9286717E0,-8.319207E-1,1.2978123E0,2.5162718E0,5.011852E-1,3.3722E0,1.8609712E0,3.3570223E0,4.14529E-2,3.6072137E-3,-1.5214778E-2,-3.223461E-2,-7.698508E-3,6.439376E-3,-3.6227297E-2,-2.0888092E-3,-1.2086338E-2,7.754073E-3,-4.8217326E-3,5.8385307E-5,-1.9160103E-2,-1.3978851E-2,-2.9396296E-3,-3.6494008E-3,-1.3400376E-3,5.844622E-2,-4.7708633E-3,5.5008037E-3,1.3733725E-2,-3.7648703E-3,-4.6731222E-2,-1.306218E-3,-6.7740963E-3,4.663575E-3,-2.4845589E-2,2.1735277E-2,-1.2540705E-2,1.6190376E-2,4.9534407E-2,1.8906964E-2,-2.9758671E-3,6.1717243E-3,1.08157E-2,1.2537937E-3,-2.6582578E-2,6.193953E-3,1.9479975E-2,-6.529755E-3,-6.925447E-2,6.209823E-2,-9.357872E-4,2.4765218E-2,-1.707244E-3],"split_indices":[1,1,2,3,2,0,1,2,1,0,3,1,1,2,0,1,3,1,3,2,2,0,1,0,0,0,0,1,0,0,0,0,0,1,1,3,0,0,0,0,3,0,1,0,1,0,1,0,3,2,1,3,0,0,2,2,0,0,0,0,0,0,0,0,0,0,0,0,0,0,0,0,0,0,0,0,0,0,0,0,0,0,0,0,0,0,0,0,0,0,0,0,0,0,0,0,0,0,0,0,0],"split_type":[0,0,0,0,0,0,0,0,0,0,0,0,0,0,0,0,0,0,0,0,0,0,0,0,0,0,0,0,0,0,0,0,0,0,0,0,0,0,0,0,0,0,0,0,0,0,0,0,0,0,0,0,0,0,0,0,0,0,0,0,0,0,0,0,0,0,0,0,0,0,0,0,0,0,0,0,0,0,0,0,0,0,0,0,0,0,0,0,0,0,0,0,0,0,0,0,0,0,0,0,0],"sum_hessian":[6.639E3,2.203E3,4.436E3,7.11E2,1.492E3,4.24E2,4.012E3,6.92E2,1.9E1,1.428E3,6.4E1,3E0,4.21E2,3.986E3,2.6E1,1.52E2,5.4E2,1.3E1,6E0,1.415E3,1.3E1,5.6E1,8E0,1E0,2E0,4.3E1,3.78E2,3.593E3,3.93E2,2.3E1,3E0,1.47E2,5E0,3.4E1,5.06E2,1.2E1,1E0,3E0,3E0,3E0,1.412E3,2E0,1.1E1,6E0,5E1,2E0,6E0,1.5E1,2.8E1,5.8E1,3.2E2,3.425E3,1.68E2,3.47E2,4.6E1,1.6E1,7E0,2E0,1E0,1E0,1.46E2,1E0,4E0,5E0,2.9E1,4E0,5.02E2,6E0,6E0,2E0,1E0,6.2E2,7.92E2,1E0,1E0,6E0,5E0,4E0,2E0,1.7E1,3.3E1,1E0,5E0,6E0,9E0,2.4E1,4E0,1.1E1,4.7E1,2.01E2,1.19E2,3.413E3,1.2E1,7.5E1,9.3E1,3.38E2,9E0,8E0,3.8E1,1.4E1,2E0],"tree_param":{"num_deleted":"0","num_feature":"4","num_nodes":"101","size_leaf_vector":"1"}},{"base_weights":[-1.5307641E-4,-4.6371673E-3,9.509626E-3,-4.3064444E-3,-1.1937198E-1,-7.189617E-2,1.0128278E-2,-1.2711112E-2,-1.2096218E-3,-3.8893647E-2,-1.8279718E-1,-4.9613036E-2,-4.5575634E-2,1.3094253E-2,-7.7513205E-3,-1.8837582E-2,-1.0853722E-2,-1.6316493E-3,6.8232186E-2,-9.297007E-2,2.4906188E-2,-6.729449E-2,-2.867403E-2,-8.3488286E-2,-2.1516973E-2,1.1838356E-2,7.772024E-2,9.4108534E-4,-9.503217E-2,-4.1996155E-2,-1.7471105E-2,-1.134541E-2,1.6422672E-2,7.387685E-2,-1.8614307E-3,1.1495924E-1,-5.9957474E-2,-3.8066447E-2,-1.1810399E-2,-1.6123295E-3,1.1037362E-2,1.281273E-2,-1.1726958E-1,9.404844E-3,-1.4440619E-2,1.1174598E-2,7.545459E-2,1.166878E-1,-2.7470676E-2,-1.1437012E-2,3.484079E-2,-5.963755E-1,-7.5152754E-3,6.7099335E-4,-1.4691975E-2,1.1126823E-2,-5.468619E-3,-3.284631E-3,-1.14621045E-2,4.4461533E-2,-3.229648E-4,1.7245761E-3,4.2256616E-2,-2.0778761E-4,-3.314669E-3,6.2178727E-3,5.26435E-2,-6.7445624E-4,-5.227559E-2,-1.5944378E-2,-4.2690415E-2,-4.0725023E-3,8.774925E-3,3.6696144E-3,-3.1118507E-2,4.4565737E-2,6.363219E-4,6.719452E-2,2.567552E-2,1.5523656E-2,-1.6122876E-2,5.6804838E-3,-1.2784143E-2,2.853333E-2,4.453811E-3,-2.3187046E-1,-1.0019635E-2,3.7443444E-2,-1.467214E-2],"categories":[],"categories_nodes":[],"categories_segments":[],"categories_sizes":[],"default_left":[0,0,0,0,0,0,0,0,0,0,0,0,0,0,0,0,0,0,0,0,0,0,0,0,0,0,0,0,0,0,0,0,0,0,0,0,0,0,0,0,0,0,0,0,0,0,0,0,0,0,0,0,0,0,0,0,0,0,0,0,0,0,0,0,0,0,0,0,0,0,0,0,0,0,0,0,0,0,0,0,0,0,0,0,0,0,0,0,0],"id":14,"left_children":[1,3,5,7,9,11,13,15,17,19,21,23,-1,25,27,29,31,33,35,37,39,-1,-1,41,43,45,47,49,51,53,55,57,59,61,63,65,67,-1,-1,-1,-1,-1,69,71,-1,73,75,77,79,81,83,85,87,-1,-1,-1,-1,-1,-1,-1,-1,-1,-1,-1,-1,-1,-1,-1,-1,-1,-1,-1,-1,-1,-1,-1,-1,-1,-1,-1,-1,-1,-1,-1,-1,-1,-1,-1,-1],"loss_changes":[2.877449E-1,1.7160633E-1,1.0673994E-1,1.1773424E-1,5.9246927E-2,2.0993322E-2,1.1093511E-1,1.3655469E-2,9.702746E-2,2.6466E-2,3.9073825E-3,1.1528242E-2,0E0,1.4460617E-1,2.2617625E-1,8.190371E-3,1.2752891E-2,5.71858E-2,1.2669118E-1,2.2769868E-3,1.6372744E-3,0E0,0E0,3.058714E-2,7.860515E-3,7.347423E-2,1.4257264E-1,1.1453345E-1,1.1801704E0,4.7387816E-3,1.1754267E-2,9.3943775E-3,3.9363075E-2,4.482159E-2,3.5203427E-2,8.190644E-2,3.918337E-2,0E0,0E0,0E0,0E0,0E0,4.6238303E-4,2.6772302E-3,0E0,2.1305038E-1,9.617433E-2,6.425884E-2,2.3592822E-2,1.9018696E-1,8.6559534E-2,3.7170613E-1,1.3755818E-1,0E0,0E0,0E0,0E0,0E0,0E0,0E0,0E0,0E0,0E0,0E0,0E0,0E0,0E0,0E0,0E0,0E0,0E0,0E0,0E0,0E0,0E0,0E0,0E0,0E0,0E0,0E0,0E0,0E0,0E0,0E0,0E0,0E0,0E0,0E0,0E0],"parents":[2147483647,0,0,1,1,2,2,3,3,4,4,5,5,6,6,7,7,8,8,9,9,10,10,11,11,13,13,14,14,15,15,16,16,17,17,18,18,19,19,20,20,23,23,24,24,25,25,26,26,27,27,28,28,29,29,30,30,31,31,32,32,33,33,34,34,35,35,36,36,42,42,43,43,45,45,46,46,47,47,48,48,49,49,50,50,51,51,52,52],"right_children":[2,4,6,8,10,12,14,16,18,20,22,24,-1,26,28,30,32,34,36,38,40,-1,-1,42,44,46,48,50,52,54,56,58,60,62,64,66,68,-1,-1,-1,-1,-1,70,72,-1,74,76,78,80,82,84,86,88,-1,-1,-1,-1,-1,-1,-1,-1,-1,-1,-1,-1,-1,-1,-1,-1,-1,-1,-1,-1,-1,-1,-1,-1,-1,-1,-1,-1,-1,-1,-1,-1,-1,-1,-1,-1],"split_conditions":[3.220808E-1,3.6562326E0,-3.4416752E0,-9.0760833E-1,-6.472208E-1,-3.4799554E0,1.9286717E0,-2.3350024E-1,1.4964703E0,-3.2123137E-2,1.9286717E0,-4.5135207E0,-4.5575634E-2,3.33392E0,3.4487605E0,-1.1504273E0,5.011852E-1,-1.7295513E0,1.8609712E0,-5.333551E-1,-1.3362644E0,-6.729449E-2,-2.867403E-2,4.045056E-1,-5.3271043E-1,3.2359092E0,3.6562326E0,2.8304684E0,3.8698428E0,-9.808227E0,-4.4224434E0,1.0472716E0,5.3946537E-1,1.9286717E0,3.480644E-1,-4.0414864E-1,5.24793E0,-3.8066447E-2,-1.1810399E-2,-1.6123295E-3,1.1037362E-2,1.281273E-2,1.3410717E0,-8.319207E-1,-1.4440619E-2,2.8304684E0,2.4593916E0,3.716722E0,3.8698428E0,3.6492017E-1,1.561761E0,3.0131395E0,4.137804E0,6.7099335E-4,-1.4691975E-2,1.1126823E-2,-5.468619E-3,-3.284631E-3,-1.14621045E-2,4.4461533E-2,-3.229648E-4,1.7245761E-3,4.2256616E-2,-2.0778761E-4,-3.314669E-3,6.2178727E-3,5.26435E-2,-6.7445624E-4,-5.227559E-2,-1.5944378E-2,-4.2690415E-2,-4.0725023E-3,8.774925E-3,3.6696144E-3,-3.1118507E-2,4.4565737E-2,6.363219E-4,6.719452E-2,2.567552E-2,1.5523656E-2,-1.6122876E-2,5.6804838E-3,-1.2784143E-2,2.853333E-2,4.453811E-3,-2.3187046E-1,-1.0019635E-2,3.7443444E-2,-1.467214E-2],"split_indices":[1,2,0,1,0,0,3,2,0,1,3,0,0,0,0,1,0,2,2,1,0,0,0,1,2,1,2,1,0,2,2,3,0,3,0,1,0,0,0,0,0,0,3,2,0,1,2,0,0,2,2,1,0,0,0,0,0,0,0,0,0,0,0,0,0,0,0,0,0,0,0,0,0,0,0,0,0,0,0,0,0,0,0,0,0,0,0,0,0],"split_type":[0,0,0,0,0,0,0,0,0,0,0,0,0,0,0,0,0,0,0,0,0,0,0,0,0,0,0,0,0,0,0,0,0,0,0,0,0,0,0,0,0,0,0,0,0,0,0,0,0,0,0,0,0,0,0,0,0,0,0,0,0,0,0,0,0,0,0,0,0,0,0,0,0,0,0,0,0,0,0,0,0,0,0,0,0,0,0,0,0],"sum_hessian":[6.639E3,4.535E3,2.104E3,4.523E3,1.2E1,1.5E1,2.089E3,1.217E3,3.306E3,6E0,6E0,1.3E1,2E0,1.792E3,2.97E2,2.81E2,9.36E2,3.287E3,1.9E1,3E0,3E0,3E0,3E0,5E0,8E0,1.759E3,3.3E1,2.71E2,2.6E1,1.4E1,2.67E2,9.2E2,1.6E1,9E0,3.278E3,1.4E1,5E0,1E0,2E0,1E0,2E0,1E0,4E0,4E0,4E0,1.742E3,1.7E1,2.4E1,9E0,1.99E2,7.2E1,3E0,2.3E1,2E0,1.2E1,3E0,2.64E2,9.08E2,1.2E1,1E0,1.5E1,5E0,4E0,2.909E3,3.69E2,6E0,8E0,4E0,1E0,2E0,2E0,2E0,2E0,1.727E3,1.5E1,8E0,9E0,4E0,2E1,2E0,7E0,1.01E2,9.8E1,1.7E1,5.5E1,2E0,1E0,5E0,1.8E1],"tree_param":{"num_deleted":"0","num_feature":"4","num_nodes":"89","size_leaf_vector":"1"}},{"base_weights":[-1.4532005E-4,-6.1143087E-3,4.0812157E-3,-1.1013812E-2,-2.787519E-3,-1.7200556E-2,6.1452067E-3,-9.850227E-3,-3.0250553E-2,-3.9424496E-3,4.2379104E-2,-2.1437682E-2,6.556286E-2,6.2903E-3,-5.017751E-2,-1.1178522E-2,1.3859142E-3,-4.452783E-2,-2.2574428E-2,-2.9510087E-3,-2.2039514E-2,5.5192444E-2,-6.091542E-2,-7.6180007E-3,-4.138843E-2,9.635093E-2,-5.8586128E-2,5.7651573E-3,4.0113594E-2,-3.3320416E-2,-1.0586828E-2,1.0571678E-2,-1.3050532E-2,-1.8979156E-2,-5.8790155E-2,-3.1516317E-2,-3.7818113E-3,-4.710915E-3,4.0122396E-3,1.1461102E-3,-3.205308E-2,2.8158002E-2,4.7661226E-2,-6.918401E-3,-3.1849768E-2,-3.9771277E-2,-3.0872063E-3,-8.132944E-2,-3.7622955E-2,-3.8023833E-2,1.2191538E-1,-5.7251547E-3,-2.6563946E-2,7.7818385E-3,-1.1844902E-2,6.1231997E-2,-2.011459E-3,-2.51956E-2,-8.239818E-3,6.125406E-3,-3.3585485E-3,4.8831822E-3,-2.8036311E-3,-1.3061208E-2,-7.722918E-5,-7.864705E-3,5.836961E-3,-2.1706179E-2,-1.2380566E-2,4.9126092E-3,-1.0701103E-2,8.099771E-3,-3.1782663E-3,1.6193641E-2,-1.4849216E-3,1.83427E-3,-5.1452955E-3,2.6072808E-2,-1.7282382E-3,-1.0773666E-2,8.707014E-3,7.698044E-3,1.6452737E-2,-2.3057272E-3,-1.7553063E-2,8.90311E-4,-9.216904E-3,-1.704969E-2,-5.527595E-3,-3.0071001E-2,1.2960276E-2,4.749294E-2,1.1790373E-2,1.813552E-3,7.320166E-3,-7.1257614E-3,1.0539692E-2,2.0896059E-2,-1.6386809E-2,-1.9284377E-2,1.8137846E-2],"categories":[],"categories_nodes":[],"categories_segments":[],"categories_sizes":[],"default_left":[0,0,0,0,0,0,0,0,0,0,0,0,0,0,0,0,0,0,0,0,0,0,0,0,0,0,0,0,0,0,0,0,0,0,0,0,0,0,0,0,0,0,0,0,0,0,0,0,0,0,0,0,0,0,0,0,0,0,0,0,0,0,0,0,0,0,0,0,0,0,0,0,0,0,0,0,0,0,0,0,0,0,0,0,0,0,0,0,0,0,0,0,0,0,0,0,0,0,0,0,0],"id":15,"left_children":[1,3,5,7,9,11,13,15,17,19,21,23,25,27,-1,29,31,33,35,37,39,41,43,45,47,49,51,53,55,57,59,61,63,65,67,69,71,73,75,77,79,-1,81,-1,-1,83,85,-1,87,89,91,-1,-1,93,95,97,99,-1,-1,-1,-1,-1,-1,-1,-1,-1,-1,-1,-1,-1,-1,-1,-1,-1,-1,-1,-1,-1,-1,-1,-1,-1,-1,-1,-1,-1,-1,-1,-1,-1,-1,-1,-1,-1,-1,-1,-1,-1,-1,-1,-1],"loss_changes":[1.6753983E-1,4.4842146E-2,1.7088759E-1,2.4614975E-2,8.576873E-2,1.2203909E-1,9.0243235E-2,1.5701585E-2,5.8992393E-3,2.866038E-2,5.7627514E-2,9.011856E-2,7.062407E-2,6.269972E-2,0E0,1.1962414E-2,1.4990262E-2,6.536264E-3,7.1065966E-3,1.8633734E-2,1.930691E-2,6.3014254E-3,6.1162487E-3,2.8284803E-2,1.0570587E-1,5.2728727E-2,3.044201E-3,1.2403562E-1,4.816231E-2,4.811907E-3,1.7524399E-2,7.993208E-3,1.7149717E-2,3.0133352E-3,1.036264E-4,6.3534733E-3,3.4314322E-3,1.7269177E-2,1.3761745E-2,1.5901987E-2,1.4713049E-2,0E0,3.8065687E-3,0E0,0E0,1.3980262E-2,2.8872333E-2,0E0,4.7999814E-2,1.9489983E-2,2.9858544E-2,0E0,0E0,9.0245634E-2,2.0165458E-1,3.8928926E-2,7.779741E-2,0E0,0E0,0E0,0E0,0E0,0E0,0E0,0E0,0E0,0E0,0E0,0E0,0E0,0E0,0E0,0E0,0E0,0E0,0E0,0E0,0E0,0E0,0E0,0E0,0E0,0E0,0E0,0E0,0E0,0E0,0E0,0E0,0E0,0E0,0E0,0E0,0E0,0E0,0E0,0E0,0E0,0E0,0E0,0E0],"parents":[2147483647,0,0,1,1,2,2,3,3,4,4,5,5,6,6,7,7,8,8,9,9,10,10,11,11,12,12,13,13,15,15,16,16,17,17,18,18,19,19,20,20,21,21,22,22,23,23,24,24,25,25,26,26,27,27,28,28,29,29,30,30,31,31,32,32,33,33,34,34,35,35,36,36,37,37,38,38,39,39,40,40,42,42,45,45,46,46,48,48,49,49,50,50,53,53,54,54,55,55,56,56],"right_children":[2,4,6,8,10,12,14,16,18,20,22,24,26,28,-1,30,32,34,36,38,40,42,44,46,48,50,52,54,56,58,60,62,64,66,68,70,72,74,76,78,80,-1,82,-1,-1,84,86,-1,88,90,92,-1,-1,94,96,98,100,-1,-1,-1,-1,-1,-1,-1,-1,-1,-1,-1,-1,-1,-1,-1,-1,-1,-1,-1,-1,-1,-1,-1,-1,-1,-1,-1,-1,-1,-1,-1,-1,-1,-1,-1,-1,-1,-1,-1,-1,-1,-1,-1,-1],"split_conditions":[-1.2792847E-1,6.570997E-2,-5.7066035E-1,2.7150398E-1,-3.2172382E-1,2.413889E0,9.803273E0,3.4707792E-2,3.480644E-1,1.949436E-1,3.6492017E-1,6.570997E-2,2.5162718E0,3.4698176E0,-5.017751E-2,-1.7295513E0,2.8198224E-1,-9.449867E-2,3.064869E-1,-6.491954E-1,-8.4300506E-1,-8.76902E-1,3.3570223E0,-1.034587E0,-4.5135207E0,1.0472716E0,-2.2549891E0,6.641304E-1,3.3570223E0,-2.5612307E0,-1.1831436E0,8.0103E-2,3.3099157E-1,-1.591019E-1,5.6984767E-2,3.8634458E-1,3.3099157E-1,-1.0657748E0,-4.0414864E-1,2.332238E-1,1.1136683E0,2.8158002E-2,-2.9276377E-1,-6.918401E-3,-3.1849768E-2,-1.1058733E0,1.9286717E0,-8.132944E-2,-1.0300227E0,-1.4893851E0,1.9286717E0,-5.7251547E-3,-2.6563946E-2,1.3468217E0,3.9554427E0,4.7885675E0,2.6831565E0,-2.51956E-2,-8.239818E-3,6.125406E-3,-3.3585485E-3,4.8831822E-3,-2.8036311E-3,-1.3061208E-2,-7.722918E-5,-7.864705E-3,5.836961E-3,-2.1706179E-2,-1.2380566E-2,4.9126092E-3,-1.0701103E-2,8.099771E-3,-3.1782663E-3,1.6193641E-2,-1.4849216E-3,1.83427E-3,-5.1452955E-3,2.6072808E-2,-1.7282382E-3,-1.0773666E-2,8.707014E-3,7.698044E-3,1.6452737E-2,-2.3057272E-3,-1.7553063E-2,8.90311E-4,-9.216904E-3,-1.704969E-2,-5.527595E-3,-3.0071001E-2,1.2960276E-2,4.749294E-2,1.1790373E-2,1.813552E-3,7.320166E-3,-7.1257614E-3,1.0539692E-2,2.0896059E-2,-1.6386809E-2,-1.9284377E-2,1.8137846E-2],"split_indices":[3,2,0,0,1,1,0,1,0,0,2,2,3,1,0,2,1,1,1,1,1,0,2,1,0,3,0,2,2,0,0,0,1,1,1,0,1,1,1,0,0,0,1,0,0,1,3,0,0,0,3,0,0,1,2,0,0,0,0,0,0,0,0,0,0,0,0,0,0,0,0,0,0,0,0,0,0,0,0,0,0,0,0,0,0,0,0,0,0,0,0,0,0,0,0,0,0,0,0,0,0],"split_type":[0,0,0,0,0,0,0,0,0,0,0,0,0,0,0,0,0,0,0,0,0,0,0,0,0,0,0,0,0,0,0,0,0,0,0,0,0,0,0,0,0,0,0,0,0,0,0,0,0,0,0,0,0,0,0,0,0,0,0,0,0,0,0,0,0,0,0,0,0,0,0,0,0,0,0,0,0,0,0,0,0,0,0,0,0,0,0,0,0,0,0,0,0,0,0,0,0,0,0,0,0],"sum_hessian":[6.639E3,2.752E3,3.887E3,1.112E3,1.64E3,3.43E2,3.544E3,1.05E3,6.2E1,1.6E3,4E1,3.27E2,1.6E1,3.542E3,2E0,9.39E2,1.11E2,2E1,4.2E1,1.518E3,8.2E1,3.6E1,4E0,1.94E2,1.33E2,1.3E1,3E0,3.489E3,5.3E1,2.3E1,9.16E2,6.8E1,4.3E1,8E0,1.2E1,2.8E1,1.4E1,1.212E3,3.06E2,2.5E1,5.7E1,4E0,3.2E1,3E0,1E0,2.3E1,1.71E2,1E0,1.32E2,2E0,1.1E1,2E0,1E0,3.131E3,3.58E2,3.5E1,1.8E1,1E0,2.2E1,1.7E1,8.99E2,5.3E1,1.5E1,1.2E1,3.1E1,7E0,1E0,5E0,7E0,2E0,2.6E1,2E0,1.2E1,4E0,1.208E3,2.79E2,2.7E1,1E0,2.4E1,5.4E1,3E0,9E0,2.3E1,9E0,1.4E1,1.41E2,3E1,6.5E1,6.7E1,1E0,1E0,7E0,4E0,2.836E3,2.95E2,2.86E2,7.2E1,3.3E1,2E0,9E0,9E0],"tree_param":{"num_deleted":"0","num_feature":"4","num_nodes":"101","size_leaf_vector":"1"}},{"base_weights":[-1.300271E-4,-1.879479E-3,9.499797E-3,-1.3778467E-3,-1.720816E-2,1.0843523E-2,-5.8295857E-2,-4.3158345E-2,-1.1538371E-3,8.269936E-2,-2.1174118E-2,9.731047E-3,1.10182844E-1,5.5739176E-2,-2.0386524E-1,-1.1689546E-2,-1.24302745E-1,-5.252169E-3,1.2044102E-3,5.9359274E-3,1.12217546E-1,-4.388094E-2,-3.9874604E-3,1.3044963E-2,-1.2539919E-2,1.2671693E-1,-8.273703E-3,-1.634331E-2,8.15826E-2,-2.0760746E-1,-5.63422E-2,-2.9939301E-2,2.1111502E-3,-6.4503506E-2,-5.8231164E-2,2.0264346E-2,-5.61568E-3,8.61937E-2,9.810551E-4,-1.1323661E-3,3.8035335E-3,1.3357282E-2,4.2751495E-2,-6.350541E-2,5.390781E-3,2.9480647E-2,-2.5319735E-2,1.5161529E-2,-1.5246345E-1,-2.0219624E-2,3.184293E-2,-2.0664185E-3,4.2698182E-2,1.3275008E-2,-1.5779741E-2,3.8352136E-2,3.714693E-2,5.5830482E-2,-1.1756297E-1,4.170904E-3,-2.0803122E-2,-7.0472173E-3,-3.4790006E-2,-2.141626E-2,7.890853E-3,-1.540023E-3,-7.044584E-3,3.7245423E-2,-9.33165E-3,-1.578015E-2,3.790063E-4,-6.9002933E-3,-3.0497339E-2,1.0919917E-2,-1.9877072E-2,2.8478263E-2,1.13729344E-4,1.1350297E-2,-1.4020781E-2,4.622684E-4,9.2955455E-3,-1.7654354E-2,-1.6329293E-1,-9.201798E-3,2.0935344E-2,6.76539E-3,-7.916361E-4,-1.2826356E-2,2.6335888E-2,1.7181755E-3,-5.0407354E-2],"categories":[],"categories_nodes":[],"categories_segments":[],"categories_sizes":[],"default_left":[0,0,0,0,0,0,0,0,0,0,0,0,0,0,0,0,0,0,0,0,0,0,0,0,0,0,0,0,0,0,0,0,0,0,0,0,0,0,0,0,0,0,0,0,0,0,0,0,0,0,0,0,0,0,0,0,0,0,0,0,0,0,0,0,0,0,0,0,0,0,0,0,0,0,0,0,0,0,0,0,0,0,0,0,0,0,0,0,0,0,0],"id":16,"left_children":[1,3,5,7,9,11,13,15,17,19,21,23,25,27,29,31,33,35,37,39,41,43,45,47,49,51,-1,53,55,-1,57,-1,59,-1,61,63,65,67,69,-1,-1,-1,-1,71,73,75,77,79,81,83,-1,-1,-1,85,-1,-1,87,-1,89,-1,-1,-1,-1,-1,-1,-1,-1,-1,-1,-1,-1,-1,-1,-1,-1,-1,-1,-1,-1,-1,-1,-1,-1,-1,-1,-1,-1,-1,-1,-1,-1],"loss_changes":[1.1188136E-1,4.3190513E-2,9.364399E-2,5.0892513E-2,7.2279826E-2,1.09661415E-1,3.433635E-1,7.259895E-2,5.2341647E-2,1.5195306E-2,6.694879E-2,7.337726E-2,2.8550148E-2,2.368763E-2,6.091429E-1,2.6961662E-2,3.542588E-2,1.846081E-2,6.517829E-2,2.4427474E-4,3.9063394E-3,7.189526E-2,7.142757E-2,3.0497897E-1,1.19723305E-1,2.1836564E-2,0E0,4.9936E-3,1.3750605E-2,0E0,1.4061943E-1,0E0,1.7815812E-2,0E0,9.310402E-3,1.7374001E-2,1.6689986E-2,4.3933466E-2,5.194872E-2,0E0,0E0,0E0,0E0,7.9564855E-2,5.1289547E-2,7.424365E-2,8.427194E-2,1.8401295E-1,3.7148076E-1,1.1692002E-1,0E0,0E0,0E0,5.02371E-4,0E0,0E0,2.803021E-2,0E0,4.451222E-2,0E0,0E0,0E0,0E0,0E0,0E0,0E0,0E0,0E0,0E0,0E0,0E0,0E0,0E0,0E0,0E0,0E0,0E0,0E0,0E0,0E0,0E0,0E0,0E0,0E0,0E0,0E0,0E0,0E0,0E0,0E0,0E0],"parents":[2147483647,0,0,1,1,2,2,3,3,4,4,5,5,6,6,7,7,8,8,9,9,10,10,11,11,12,12,13,13,14,14,15,15,16,16,17,17,18,18,19,19,20,20,21,21,22,22,23,23,24,24,25,25,27,27,28,28,30,30,32,32,34,34,35,35,36,36,37,37,38,38,43,43,44,44,45,45,46,46,47,47,48,48,49,49,53,53,56,56,58,58],"right_children":[2,4,6,8,10,12,14,16,18,20,22,24,26,28,30,32,34,36,38,40,42,44,46,48,50,52,-1,54,56,-1,58,-1,60,-1,62,64,66,68,70,-1,-1,-1,-1,72,74,76,78,80,82,84,-1,-1,-1,86,-1,-1,88,-1,90,-1,-1,-1,-1,-1,-1,-1,-1,-1,-1,-1,-1,-1,-1,-1,-1,-1,-1,-1,-1,-1,-1,-1,-1,-1,-1,-1,-1,-1,-1,-1,-1],"split_conditions":[6.54306E-1,1.9286717E0,3.397672E0,-3.4416752E0,-1.7295513E0,3.1038718E0,2.1089535E0,-2.3350024E-1,-4.217285E-1,-1.0078547E0,1.507216E0,2.4593916E0,3.4487605E0,2.0396357E0,2.4151952E0,7.534716E-1,-4.5135207E0,-1.1448634E0,-2.5612307E0,-3.409792E-1,-2.5612307E0,-1.11297995E-1,-3.7925938E-1,2.8100717E0,2.8100717E0,7.308664E-1,-8.273703E-3,1.037108E0,1.2625508E0,-2.0760746E-1,2.6065962E0,-2.9939301E-2,-3.8244772E0,-6.4503506E-2,-3.4799554E0,-1.1504273E0,2.7150398E-1,2.4593916E0,-1.9870278E0,-1.1323661E-3,3.8035335E-3,1.3357282E-2,4.2751495E-2,-1.259704E0,1.2978123E0,2.2224717E0,3.6492017E-1,1.0472716E0,2.0706735E0,6.472896E0,3.184293E-2,-2.0664185E-3,4.2698182E-2,8.45707E-1,-1.5779741E-2,3.8352136E-2,3.783923E0,5.5830482E-2,-5.467213E-1,4.170904E-3,-2.0803122E-2,-7.0472173E-3,-3.4790006E-2,-2.141626E-2,7.890853E-3,-1.540023E-3,-7.044584E-3,3.7245423E-2,-9.33165E-3,-1.578015E-2,3.790063E-4,-6.9002933E-3,-3.0497339E-2,1.0919917E-2,-1.9877072E-2,2.8478263E-2,1.13729344E-4,1.1350297E-2,-1.4020781E-2,4.622684E-4,9.2955455E-3,-1.7654354E-2,-1.6329293E-1,-9.201798E-3,2.0935344E-2,6.76539E-3,-7.916361E-4,-1.2826356E-2,2.6335888E-2,1.7181755E-3,-5.0407354E-2],"split_indices":[0,3,3,0,2,3,0,2,3,1,1,2,0,1,0,3,0,0,0,0,0,0,0,3,3,0,0,0,2,0,0,0,0,0,0,1,0,2,0,0,0,0,0,0,1,3,2,3,0,0,0,0,0,0,0,0,1,0,1,0,0,0,0,0,0,0,0,0,0,0,0,0,0,0,0,0,0,0,0,0,0,0,0,0,0,0,0,0,0,0,0],"split_type":[0,0,0,0,0,0,0,0,0,0,0,0,0,0,0,0,0,0,0,0,0,0,0,0,0,0,0,0,0,0,0,0,0,0,0,0,0,0,0,0,0,0,0,0,0,0,0,0,0,0,0,0,0,0,0,0,0,0,0,0,0,0,0,0,0,0,0,0,0,0,0,0,0,0,0,0,0,0,0,0,0,0,0,0,0,0,0,0,0,0,0],"sum_hessian":[6.639E3,5.619E3,1.02E3,5.442E3,1.77E2,1.001E3,1.9E1,2.8E1,5.414E3,6E0,1.71E2,9.91E2,1E1,1.1E1,8E0,2.1E1,7E0,1.977E3,3.437E3,2E0,4E0,7.3E1,9.8E1,8.63E2,1.28E2,9E0,1E0,3E0,8E0,1E0,7E0,2E0,1.9E1,2E0,5E0,2.7E1,1.95E3,8E0,3.429E3,1E0,1E0,2E0,2E0,5.2E1,2.1E1,3.8E1,6E1,8.53E2,1E1,1.21E2,7E0,1E0,8E0,2E0,1E0,3E0,5E0,1E0,6E0,1.7E1,2E0,4E0,1E0,1E0,2.6E1,1.9E3,5E1,6E0,2E0,1.7E1,3.412E3,2.6E1,2.6E1,1.5E1,6E0,1.1E1,2.7E1,1.5E1,4.5E1,4.59E2,3.94E2,9E0,1E0,1.09E2,1.2E1,1E0,1E0,2E0,3E0,2E0,4E0],"tree_param":{"num_deleted":"0","num_feature":"4","num_nodes":"91","size_leaf_vector":"1"}},{"base_weights":[-1.4792157E-4,-9.5616136E-4,1.2103859E-2,-1.1083226E-3,5.1617954E-2,