{"learner":{"attributes":{"scikit_learn":"{\"_estimator_type\": \"regressor\"}"},"feature_names":["IREG_UBUS","IREG_IBUS","IREG_PWM","windspeed"],"feature_types":["float","float","float","float"],"gradient_booster":{"model":{"gbtree_model_param":{"num_parallel_tree":"1","num_trees":"100"},"iteration_indptr":[0,1,2,3,4,5,6,7,8,9,10,11,12,13,14,15,16,17,18,19,20,21,22,23,24,25,26,27,28,29,30,31,32,33,34,35,36,37,38,39,40,41,42,43,44,45,46,47,48,49,50,51,52,53,54,55,56,57,58,59,60,61,62,63,64,65,66,67,68,69,70,71,72,73,74,75,76,77,78,79,80,81,82,83,84,85,86,87,88,89,90,91,92,93,94,95,96,97,98,99,100],"tree_info":[0,0,0,0,0,0,0,0,0,0,0,0,0,0,0,0,0,0,0,0,0,0,0,0,0,0,0,0,0,0,0,0,0,0,0,0,0,0,0,0,0,0,0,0,0,0,0,0,0,0,0,0,0,0,0,0,0,0,0,0,0,0,0,0,0,0,0,0,0,0,0,0,0,0,0,0,0,0,0,0,0,0,0,0,0,0,0,0,0,0,0,0,0,0,0,0,0,0,0,0],"trees":[{"base_weights":[8.236097E-9,2.9056773E-1,-1.161744E0,-1.2579889E0,5.85603E-1,-1.50142E0,-5.390325E-1,-1.7090585E0,-7.802495E-1,9.86025E-1,3.3501694E-1,-1.1892148E0,-1.7804753E0,-9.954453E-2,-8.958294E-1,-1.9206247E0,-1.4781336E0,-1.007268E0,-4.407473E-1,8.0486137E-1,1.3515083E0,2.8085843E-1,1.0517795E0,-1.4680672E0,-9.3645674E-1,-1.9031159E0,-1.5634485E0,-4.1861778E-1,2.2144023E-1,-9.986963E-1,-3.0312708E-1,-6.1266977E-1,-1.8091701E0,-4.7799364E-1,-4.186307E-1,-1.1135365E0,-8.403231E-1,-2.623754E-1,-6.217572E-1,6.739578E-1,9.2941844E-1,1.232356E0,1.6316894E0,3.8577E-1,-6.0792685E-2,8.2831705E-1,1.4109268E0,-1.2322258E0,-1.5944995E0,-6.8614733E-1,-1.0768228E0,-5.958423E-1,-1.7881829E0,-1.4133923E0,-5.402239E-1,-1.6620928E-1,-6.0214365E-1,1.2479013E-1,8.2617617E-1,-1.0927777E0,-8.662031E-1,-4.418412E-1,1.1423908E-1,-7.760905E-2,-5.442828E-1,-7.583537E-2,-3.346493E-1,-2.4698365E-1,-3.3544204E-1,-5.2080926E-2,-1.0597742E-1,-1.8044922E-1,-2.663375E-1,1.752853E-1,2.1669035E-1,2.5987566E-1,3.0189583E-1,3.4736052E-1,4.0133908E-1,4.4965324E-1,5.2929384E-1,7.175289E-2,1.6627012E-1,-4.0992193E-2,1.976041E-1,3.3498654E-1,1.6544122E-1,2.8442872E-1,4.6087512E-1,-4.7737038E-1,-3.3713746E-1,-4.8272008E-1,-2.1507658E-1,-2.1882144E-1,-6.6296724E-3,-3.5018346E-1,-2.7950823E-1,-4.987715E-1,-5.817974E-1,-4.309089E-1,-2.8326306E-1,-8.556847E-2,4.6812408E-2,-2.1082468E-1,-4.2329483E-2,-7.8390434E-2,5.6277923E-2,1.4842497E-1,3.058923E-1,-3.052064E-1,-4.1634956E-1,-2.6956657E-1,-1.3443142E-1,-1.6791824E-1,-9.9528946E-2,5.5903975E-2,-4.6132267E-2],"categories":[],"categories_nodes":[],"categories_segments":[],"categories_sizes":[],"default_left":[0,0,0,0,0,0,0,0,0,0,0,0,0,0,0,0,0,0,0,0,0,0,0,0,0,0,0,0,0,0,0,0,0,0,0,0,0,0,0,0,0,0,0,0,0,0,0,0,0,0,0,0,0,0,0,0,0,0,0,0,0,0,0,0,0,0,0,0,0,0,0,0,0,0,0,0,0,0,0,0,0,0,0,0,0,0,0,0,0,0,0,0,0,0,0,0,0,0,0,0,0,0,0,0,0,0,0,0,0,0,0,0,0,0,0,0,0],"id":0,"left_children":[1,3,5,7,9,11,13,15,17,19,21,23,25,27,29,31,33,35,37,39,41,43,45,47,49,51,53,55,57,59,61,-1,63,-1,-1,65,67,69,71,73,75,77,79,81,83,85,87,89,91,93,95,-1,97,99,-1,101,103,105,107,109,111,113,115,-1,-1,-1,-1,-1,-1,-1,-1,-1,-1,-1,-1,-1,-1,-1,-1,-1,-1,-1,-1,-1,-1,-1,-1,-1,-1,-1,-1,-1,-1,-1,-1,-1,-1,-1,-1,-1,-1,-1,-1,-1,-1,-1,-1,-1,-1,-1,-1,-1,-1,-1,-1,-1,-1],"loss_changes":[4.653338E3,5.0387397E3,5.825635E2,3.7901294E2,9.2912085E2,1.5330884E2,1.5279852E2,4.147339E1,6.576196E1,2.3495874E2,2.2093292E2,5.818274E1,2.2043945E1,4.495163E1,3.249887E1,2.6756592E0,1.9485474E0,8.1831665E0,1.1008194E1,3.827722E1,3.738257E1,1.8999216E2,3.0933716E1,9.962402E0,1.4931335E1,2.135498E0,9.739563E0,1.0091087E1,1.2696966E1,4.7624817E0,4.7399373E0,0E0,1.5414429E0,0E0,0E0,2.4301147E-1,4.5425415E-2,1.3586178E0,3.8765717E-1,4.637085E0,5.0544434E0,4.985718E0,3.5044556E0,1.00008545E2,6.8084915E1,1.9258408E1,7.360016E0,3.8175354E0,2.131897E0,4.666054E0,2.640686E0,0E0,1.711853E0,9.716797E-1,0E0,3.6497767E0,5.791561E0,4.6560783E0,1.4191093E0,4.4630737E0,2.2350006E0,6.0588074E-1,4.3449646E-1,0E0,0E0,0E0,0E0,0E0,0E0,0E0,0E0,0E0,0E0,0E0,0E0,0E0,0E0,0E0,0E0,0E0,0E0,0E0,0E0,0E0,0E0,0E0,0E0,0E0,0E0,0E0,0E0,0E0,0E0,0E0,0E0,0E0,0E0,0E0,0E0,0E0,0E0,0E0,0E0,0E0,0E0,0E0,0E0,0E0,0E0,0E0,0E0,0E0,0E0,0E0,0E0,0E0,0E0],"parents":[2147483647,0,0,1,1,2,2,3,3,4,4,5,5,6,6,7,7,8,8,9,9,10,10,11,11,12,12,13,13,14,14,15,15,16,16,17,17,18,18,19,19,20,20,21,21,22,22,23,23,24,24,25,25,26,26,27,27,28,28,29,29,30,30,32,32,35,35,36,36,37,37,38,38,39,39,40,40,41,41,42,42,43,43,44,44,45,45,46,46,47,47,48,48,49,49,50,50,52,52,53,53,55,55,56,56,57,57,58,58,59,59,60,60,61,61,62,62],"right_children":[2,4,6,8,10,12,14,16,18,20,22,24,26,28,30,32,34,36,38,40,42,44,46,48,50,52,54,56,58,60,62,-1,64,-1,-1,66,68,70,72,74,76,78,80,82,84,86,88,90,92,94,96,-1,98,100,-1,102,104,106,108,110,112,114,116,-1,-1,-1,-1,-1,-1,-1,-1,-1,-1,-1,-1,-1,-1,-1,-1,-1,-1,-1,-1,-1,-1,-1,-1,-1,-1,-1,-1,-1,-1,-1,-1,-1,-1,-1,-1,-1,-1,-1,-1,-1,-1,-1,-1,-1,-1,-1,-1,-1,-1,-1,-1,-1,-1],"split_conditions":[9.9475914E-1,-1.068942E0,9.0198916E-1,-1.3362832E0,-4.604614E-1,1.904272E0,1.904272E0,-6.4236397E-1,-1.1997685E0,6.374919E-1,1.3371298E0,-8.205436E-2,1.5684637E-1,1.851904E0,2.156218E0,-1.1880716E0,-1.3618797E0,-1.276558E0,8.524629E-2,1.682226E-1,1.24612E0,-2.7855885E-1,2.508881E0,1.3585643E0,1.3585643E0,-1.5315577E-1,2.4499795E0,1.3585643E0,3.313749E0,1.5134612E0,3.000903E0,-6.1266977E-1,-1.3073183E0,-4.7799364E-1,-4.186307E-1,-8.2426655E-1,4.490514E-1,-9.665628E-2,4.490514E-1,-8.205436E-2,3.9290306E-1,9.4180596E-1,1.5561222E0,-4.517817E-1,1.3604177E0,2.6714885E-1,-9.129574E-1,-9.949965E-1,4.492108E0,3.3554204E0,4.7253665E-1,-5.958423E-1,2.2680771E0,4.028154E0,-5.402239E-1,7.1088195E-1,1.8243717E0,-1.098539E0,3.8996246E0,2.4499795E0,1.8243717E0,3.861141E-1,2.4499795E0,-7.760905E-2,-5.442828E-1,-7.583537E-2,-3.346493E-1,-2.4698365E-1,-3.3544204E-1,-5.2080926E-2,-1.0597742E-1,-1.8044922E-1,-2.663375E-1,1.752853E-1,2.1669035E-1,2.5987566E-1,3.0189583E-1,3.4736052E-1,4.0133908E-1,4.4965324E-1,5.2929384E-1,7.175289E-2,1.6627012E-1,-4.0992193E-2,1.976041E-1,3.3498654E-1,1.6544122E-1,2.8442872E-1,4.6087512E-1,-4.7737038E-1,-3.3713746E-1,-4.8272008E-1,-2.1507658E-1,-2.1882144E-1,-6.6296724E-3,-3.5018346E-1,-2.7950823E-1,-4.987715E-1,-5.817974E-1,-4.309089E-1,-2.8326306E-1,-8.556847E-2,4.6812408E-2,-2.1082468E-1,-4.2329483E-2,-7.8390434E-2,5.6277923E-2,1.4842497E-1,3.058923E-1,-3.052064E-1,-4.1634956E-1,-2.6956657E-1,-1.3443142E-1,-1.6791824E-1,-9.9528946E-2,5.5903975E-2,-4.6132267E-2],"split_indices":[2,1,1,1,2,2,2,2,1,1,1,1,1,1,1,2,1,1,2,1,1,2,1,2,2,1,2,2,1,1,1,0,0,0,0,2,2,2,2,1,1,1,1,1,0,2,0,1,0,0,1,0,2,0,0,0,0,0,1,2,0,0,2,0,0,0,0,0,0,0,0,0,0,0,0,0,0,0,0,0,0,0,0,0,0,0,0,0,0,0,0,0,0,0,0,0,0,0,0,0,0,0,0,0,0,0,0,0,0,0,0,0,0,0,0,0,0],"split_type":[0,0,0,0,0,0,0,0,0,0,0,0,0,0,0,0,0,0,0,0,0,0,0,0,0,0,0,0,0,0,0,0,0,0,0,0,0,0,0,0,0,0,0,0,0,0,0,0,0,0,0,0,0,0,0,0,0,0,0,0,0,0,0,0,0,0,0,0,0,0,0,0,0,0,0,0,0,0,0,0,0,0,0,0,0,0,0,0,0,0,0,0,0,0,0,0,0,0,0,0,0,0,0,0,0,0,0,0,0,0,0,0,0,0,0,0,0],"sum_hessian":[1.3783E4,1.1026E4,2.757E3,1.764E3,9.262E3,1.783E3,9.74E2,9.06E2,8.58E2,3.564E3,5.698E3,8.44E2,9.39E2,4.37E2,5.37E2,4.69E2,4.37E2,5.13E2,3.45E2,2.385E3,1.179E3,5.299E3,3.99E2,3.99E2,4.45E2,5.95E2,3.44E2,2.19E2,2.18E2,4.57E2,8E1,2.16E2,2.53E2,1.75E2,2.62E2,3.1E2,2.03E2,1.75E2,1.7E2,1.166E3,1.219E3,8.31E2,3.48E2,4.054E3,1.245E3,2.48E2,1.51E2,1.43E2,2.56E2,1.62E2,2.83E2,3.36E2,2.59E2,2.15E2,1.29E2,9.3E1,1.26E2,1.89E2,2.9E1,2.63E2,1.94E2,6E1,2E1,1E0,2.52E2,1E0,3.09E2,1.95E2,8E0,9E1,8.5E1,1.61E2,9E0,4.13E2,7.53E2,6.76E2,5.43E2,4.94E2,3.37E2,1.8E2,1.68E2,2.169E3,1.885E3,1.127E3,1.18E2,1.2E2,1.28E2,3.4E1,1.17E2,3E1,1.13E2,2.51E2,5E0,1.52E2,1E1,1.7E2,1.13E2,1.48E2,1.11E2,2.03E2,1.2E1,6.8E1,2.5E1,1.03E2,2.3E1,2.6E1,1.63E2,1.2E1,1.7E1,2.13E2,5E1,1.79E2,1.5E1,2.7E1,3.3E1,1.6E1,4E0],"tree_param":{"num_deleted":"0","num_feature":"4","num_nodes":"117","size_leaf_vector":"1"}},{"base_weights":[-4.3154E-4,2.0345116E-1,-8.155925E-1,-8.473595E-1,4.1785902E-1,-1.0951698E0,-4.3406603E-1,-1.1476521E0,-4.5075673E-1,2.2117287E-1,6.7973375E-1,-8.149724E-1,-1.2529439E0,-5.9400344E-1,2.042568E-2,-1.3092965E0,-9.4632536E-1,-6.4431894E-1,-2.9576555E-1,2.6693225E-1,-3.5079965E-1,7.481509E-1,2.2689256E-1,-1.0666398E0,-6.8437004E-1,-1.1239655E0,-1.3321676E0,-2.4365002E-1,-7.3149145E-1,1.7276515E-1,-2.713901E-1,-1.4048164E0,-3.5805336E-1,-3.088082E-1,-2.5925067E-1,-6.946141E-1,-5.4133296E-1,-1.7176595E-1,-4.5271572E-1,8.752969E-2,3.5234317E-1,-1.672357E-1,-6.113331E-1,6.284971E-1,9.6790606E-1,4.3492235E-2,7.560823E-1,-3.9098787E-1,-9.848321E-1,-7.223094E-1,-4.117962E-1,-4.0037057E-1,-1.007325E0,-4.2666376E-1,-1.2542526E0,-3.518829E-1,-2.8160768E-2,-6.79141E-1,-9.847E-1,6.419092E-2,4.671396E-1,-3.7856513E-1,2.2536306E-2,-6.5967694E-2,-4.2236403E-1,-2.0386206E-1,-2.761868E-1,-1.5626405E-1,-2.4087952E-1,-3.399539E-2,-7.63243E-2,-1.3086134E-1,-2.0812586E-1,1.6363006E-4,4.4190437E-2,8.6126514E-2,1.3071565E-1,-1.0162664E-1,-9.060155E-4,-1.2533958E-1,-2.0572832E-1,1.664888E-1,2.0892422E-1,1.6565636E-1,3.0056858E-1,-3.135009E-2,9.4565265E-2,1.6853738E-1,3.172369E-1,-2.359249E-1,-3.1165528E-1,-1.969877E-1,-2.6213592E-1,-1.4260106E-1,-7.082451E-2,-3.0950466E-1,-1.8798064E-1,-3.8808337E-1,-3.2184333E-1,-1.2049778E-1,-4.3813544E-3,-7.26996E-2,1.8920116E-2,-2.1475174E-1,-1.3599671E-1,-3.1972912E-1,-2.179821E-1,-5.282603E-3,7.378663E-2,2.170788E-1,7.605712E-2,-7.840579E-2,-1.4413588E-1,-2.9450438E-3,1.3926354E-1],"categories":[],"categories_nodes":[],"categories_segments":[],"categories_sizes":[],"default_left":[0,0,0,0,0,0,0,0,0,0,0,0,0,0,0,0,0,0,0,0,0,0,0,0,0,0,0,0,0,0,0,0,0,0,0,0,0,0,0,0,0,0,0,0,0,0,0,0,0,0,0,0,0,0,0,0,0,0,0,0,0,0,0,0,0,0,0,0,0,0,0,0,0,0,0,0,0,0,0,0,0,0,0,0,0,0,0,0,0,0,0,0,0,0,0,0,0,0,0,0,0,0,0,0,0,0,0,0,0,0,0,0,0,0,0],"id":1,"left_children":[1,3,5,7,9,11,13,15,17,19,21,23,25,27,29,31,33,35,37,39,41,43,45,47,49,51,53,55,57,59,61,63,-1,-1,-1,65,67,69,71,73,75,77,79,81,83,85,87,-1,89,91,93,-1,95,-1,97,99,101,103,105,107,109,111,113,-1,-1,-1,-1,-1,-1,-1,-1,-1,-1,-1,-1,-1,-1,-1,-1,-1,-1,-1,-1,-1,-1,-1,-1,-1,-1,-1,-1,-1,-1,-1,-1,-1,-1,-1,-1,-1,-1,-1,-1,-1,-1,-1,-1,-1,-1,-1,-1,-1,-1,-1,-1],"loss_changes":[2.2910283E3,2.48476E3,2.9370947E2,2.220747E2,4.7160352E2,6.931372E1,8.491429E1,3.3354614E1,2.401976E1,1.3703131E2,1.21527954E2,1.820221E1,8.884277E0,4.1440125E1,1.360568E1,4.8154297E0,2.364502E0,1.4783173E0,8.680031E0,7.420883E1,1.845369E1,8.910852E1,5.0143806E1,2.491684E0,3.6529388E0,8.309631E0,2.5942383E0,5.7042313E0,7.549713E0,6.394272E0,3.3161955E0,8.375244E-1,0E0,0E0,0E0,1.8182373E-1,2.3451996E-1,1.1933203E0,4.853897E-1,8.131474E0,1.773114E1,6.449043E0,2.018196E0,1.0660828E1,1.6416748E1,1.5515066E1,7.1936493E0,0E0,7.800293E-1,2.749405E0,4.348669E-1,0E0,1.7367859E0,0E0,1.0616455E0,2.7306557E0,1.6369681E0,3.9599304E0,1.4014969E0,2.2048335E0,2.7748404E0,7.940073E-1,4.1895488E-1,0E0,0E0,0E0,0E0,0E0,0E0,0E0,0E0,0E0,0E0,0E0,0E0,0E0,0E0,0E0,0E0,0E0,0E0,0E0,0E0,0E0,0E0,0E0,0E0,0E0,0E0,0E0,0E0,0E0,0E0,0E0,0E0,0E0,0E0,0E0,0E0,0E0,0E0,0E0,0E0,0E0,0E0,0E0,0E0,0E0,0E0,0E0,0E0,0E0,0E0,0E0,0E0],"parents":[2147483647,0,0,1,1,2,2,3,3,4,4,5,5,6,6,7,7,8,8,9,9,10,10,11,11,12,12,13,13,14,14,15,15,16,16,17,17,18,18,19,19,20,20,21,21,22,22,23,23,24,24,25,25,26,26,27,27,28,28,29,29,30,30,31,31,35,35,36,36,37,37,38,38,39,39,40,40,41,41,42,42,43,43,44,44,45,45,46,46,48,48,49,49,50,50,52,52,54,54,55,55,56,56,57,57,58,58,59,59,60,60,61,61,62,62],"right_children":[2,4,6,8,10,12,14,16,18,20,22,24,26,28,30,32,34,36,38,40,42,44,46,48,50,52,54,56,58,60,62,64,-1,-1,-1,66,68,70,72,74,76,78,80,82,84,86,88,-1,90,92,94,-1,96,-1,98,100,102,104,106,108,110,112,114,-1,-1,-1,-1,-1,-1,-1,-1,-1,-1,-1,-1,-1,-1,-1,-1,-1,-1,-1,-1,-1,-1,-1,-1,-1,-1,-1,-1,-1,-1,-1,-1,-1,-1,-1,-1,-1,-1,-1,-1,-1,-1,-1,-1,-1,-1,-1,-1,-1,-1,-1,-1],"split_conditions":[9.9475914E-1,-1.0490335E0,6.2327164E-1,-1.3078427E0,3.7396006E-2,1.7223693E0,1.9912628E0,-1.3761001E0,-1.1997685E0,-9.665628E-2,2.6714885E-1,-4.7737822E-1,2.0861745E0,1.7223693E0,1.904272E0,-1.4130728E0,-1.3419714E0,-1.2509615E0,8.524629E-2,-6.281132E-1,4.490514E-1,7.6831853E-1,1.9230055E0,-1.0973825E0,8.7326586E-1,-3.5223973E-1,-8.205436E-2,1.3684144E0,2.4499795E0,3.000903E0,2.7961307E0,-1.3073183E0,-3.5805336E-1,-3.088082E-1,-2.5925067E-1,2.6714885E-1,4.490514E-1,-9.665628E-2,4.490514E-1,-8.556377E-1,-2.555418E-1,-6.4517754E-1,6.3095397E-1,3.0758137E-1,-5.649918E-1,4.557072E-1,3.313749E0,-3.9098787E-1,1.1766617E0,1.5404668E0,3.2748976E-1,-4.0037057E-1,2.9378614E0,-4.2666376E-1,1.8243717E0,1.8243717E0,-3.0981705E-1,1.3604177E0,9.42859E-1,8.7326586E-1,1.5404668E0,2.2680771E0,2.9378614E0,-6.5967694E-2,-4.2236403E-1,-2.0386206E-1,-2.761868E-1,-1.5626405E-1,-2.4087952E-1,-3.399539E-2,-7.63243E-2,-1.3086134E-1,-2.0812586E-1,1.6363006E-4,4.4190437E-2,8.6126514E-2,1.3071565E-1,-1.0162664E-1,-9.060155E-4,-1.2533958E-1,-2.0572832E-1,1.664888E-1,2.0892422E-1,1.6565636E-1,3.0056858E-1,-3.135009E-2,9.4565265E-2,1.6853738E-1,3.172369E-1,-2.359249E-1,-3.1165528E-1,-1.969877E-1,-2.6213592E-1,-1.4260106E-1,-7.082451E-2,-3.0950466E-1,-1.8798064E-1,-3.8808337E-1,-3.2184333E-1,-1.2049778E-1,-4.3813544E-3,-7.26996E-2,1.8920116E-2,-2.1475174E-1,-1.3599671E-1,-3.1972912E-1,-2.179821E-1,-5.282603E-3,7.378663E-2,2.170788E-1,7.605712E-2,-7.840579E-2,-1.4413588E-1,-2.9450438E-3,1.3926354E-1],"split_indices":[2,1,1,1,1,2,1,1,1,2,2,1,2,2,2,1,1,1,2,1,2,1,1,1,0,1,1,1,2,1,1,0,0,0,0,2,2,2,2,1,1,1,2,1,0,0,1,0,2,2,1,0,0,0,0,0,0,0,0,0,2,2,0,0,0,0,0,0,0,0,0,0,0,0,0,0,0,0,0,0,0,0,0,0,0,0,0,0,0,0,0,0,0,0,0,0,0,0,0,0,0,0,0,0,0,0,0,0,0,0,0,0,0,0,0],"split_type":[0,0,0,0,0,0,0,0,0,0,0,0,0,0,0,0,0,0,0,0,0,0,0,0,0,0,0,0,0,0,0,0,0,0,0,0,0,0,0,0,0,0,0,0,0,0,0,0,0,0,0,0,0,0,0,0,0,0,0,0,0,0,0,0,0,0,0,0,0,0,0,0,0,0,0,0,0,0,0,0,0,0,0,0,0,0,0,0,0,0,0,0,0,0,0,0,0,0,0,0,0,0,0,0,0,0,0,0,0,0,0,0,0,0,0],"sum_hessian":[1.3783E4,1.1026E4,2.757E3,1.868E3,9.158E3,1.59E3,1.167E3,1.062E3,8.06E2,5.231E3,3.927E3,5.75E2,1.015E3,8.63E2,3.04E2,5.86E2,4.76E2,3.57E2,4.49E2,4.844E3,3.87E2,3.411E3,5.16E2,1.94E2,3.81E2,3.92E2,6.23E2,2.44E2,6.19E2,2E2,1.04E2,3.15E2,2.71E2,2.31E2,2.45E2,2.36E2,1.21E2,2.52E2,1.97E2,1.563E3,3.281E3,2.28E2,1.59E2,2.211E3,1.2E3,3.84E2,1.32E2,4.6E1,1.48E2,3.33E2,4.8E1,1.36E2,2.56E2,2.81E2,3.42E2,1.62E2,8.2E1,5.16E2,1.03E2,1.47E2,5.3E1,7.6E1,2.8E1,1E0,3.14E2,2.25E2,1.1E1,1.15E2,6E0,1.49E2,1.03E2,1.87E2,1E1,6.37E2,9.26E2,1.843E3,1.438E3,1.11E2,1.17E2,4.6E1,1.13E2,1.066E3,1.145E3,9.2E1,1.108E3,2.49E2,1.35E2,8.2E1,5E1,3.5E1,1.13E2,2.36E2,9.7E1,3.4E1,1.4E1,2.39E2,1.7E1,2.76E2,6.6E1,1.41E2,2.1E1,2.4E1,5.8E1,4.42E2,7.4E1,7.6E1,2.7E1,1.02E2,4.5E1,2.3E1,3E1,3.7E1,3.9E1,2.7E1,1E0],"tree_param":{"num_deleted":"0","num_feature":"4","num_nodes":"115","size_leaf_vector":"1"}},{"base_weights":[-7.34462E-4,1.3588932E-1,-6.047155E-1,-5.833877E-1,2.8624296E-1,-7.641282E-1,-2.7419993E-1,-8.0545026E-1,-3.1341937E-1,4.8723483E-1,1.6125219E-1,-6.181686E-1,-8.729672E-1,-3.7529302E-1,1.11305006E-1,-9.436354E-1,-6.906507E-1,-4.4340497E-1,-1.9831792E-1,3.8656464E-1,6.5390444E-1,1.9501342E-1,-1.4924179E-1,-8.0695134E-1,-5.096087E-1,-9.2613536E-1,-7.079009E-1,-1.3208652E-1,-4.4391188E-1,6.89323E-2,5.2277887E-1,-3.148756E-1,-9.0055525E-1,-2.2604583E-1,-6.1783624E-1,-4.277829E-1,-2.034412E-1,-1.1769401E-1,-3.3020413E-1,3.2290742E-1,4.3550852E-1,5.9039956E-1,8.73241E-1,1.630771E-1,5.90651E-1,-3.947023E-1,1.5308015E-1,-2.8811467E-1,-7.373693E-1,-4.178957E-1,-5.8529645E-1,-8.681067E-1,-3.0026466E-1,-5.897702E-1,-8.3007777E-1,-2.054565E-1,3.7154004E-2,-6.950658E-1,-4.1881394E-1,1.7527013E-1,-3.4318093E-2,2.1182952E-2,5.4821616E-1,-5.6072537E-2,-2.7062067E-1,-1.8005808E-1,-2.969716E-1,-1.4345637E-1,-1.0626057E-1,-2.4728876E-2,-5.3638645E-2,-9.1124386E-2,-1.921781E-1,9.45386E-2,2.1517287E-1,1.2946591E-1,2.9943874E-1,1.6738267E-1,2.0101407E-1,2.3917393E-1,2.9636994E-1,5.584252E-3,6.515961E-2,9.3612395E-2,2.0809421E-1,-1.6554062E-1,-9.323354E-2,2.3795104E-2,1.705011E-1,-1.8926962E-1,-2.49225E-1,-1.537236E-1,-9.093983E-2,-1.815157E-1,-8.193692E-2,-2.7961263E-1,-2.3374918E-1,-1.787112E-1,-4.378116E-2,-2.5962707E-1,-1.3460496E-1,-9.938864E-2,-4.938787E-2,-3.7213933E-2,3.1955443E-2,-7.277799E-2,-2.131408E-1,-1.3890457E-1,-9.083818E-2,4.4739883E-2,1.5811396E-1,-1.6606294E-2,8.895097E-2,1.7672856E-1,5.6500476E-2],"categories":[],"categories_nodes":[],"categories_segments":[],"categories_sizes":[],"default_left":[0,0,0,0,0,0,0,0,0,0,0,0,0,0,0,0,0,0,0,0,0,0,0,0,0,0,0,0,0,0,0,0,0,0,0,0,0,0,0,0,0,0,0,0,0,0,0,0,0,0,0,0,0,0,0,0,0,0,0,0,0,0,0,0,0,0,0,0,0,0,0,0,0,0,0,0,0,0,0,0,0,0,0,0,0,0,0,0,0,0,0,0,0,0,0,0,0,0,0,0,0,0,0,0,0,0,0,0,0,0,0,0,0,0,0],"id":2,"left_children":[1,3,5,7,9,11,13,15,17,19,21,23,25,27,29,31,33,35,37,39,41,43,45,47,49,51,53,55,57,59,61,-1,63,-1,65,67,-1,69,71,73,75,77,79,81,83,85,87,-1,89,91,93,95,-1,97,99,101,103,105,107,109,111,-1,113,-1,-1,-1,-1,-1,-1,-1,-1,-1,-1,-1,-1,-1,-1,-1,-1,-1,-1,-1,-1,-1,-1,-1,-1,-1,-1,-1,-1,-1,-1,-1,-1,-1,-1,-1,-1,-1,-1,-1,-1,-1,-1,-1,-1,-1,-1,-1,-1,-1,-1,-1,-1],"loss_changes":[1.1375128E3,1.2159434E3,1.3377692E2,1.1629004E2,2.335321E2,2.6704956E1,3.234946E1,1.6258911E1,1.3063248E1,5.956317E1,6.0147156E1,1.4672516E1,7.9451904E0,1.0905746E1,2.9802635E0,1.2502441E0,2.2156067E0,1.2207184E0,4.9374657E0,6.791626E0,1.8163086E1,6.526561E1,4.1839577E1,2.1423492E0,3.0179367E0,2.3321533E0,3.017624E0,1.8205407E0,2.936264E0,1.7407637E0,1.4532185E-1,0E0,2.083435E-1,0E0,1.2241745E0,1.2733688E0,0E0,6.144366E-1,1.2588959E0,2.7524643E0,2.3622131E0,2.3224487E0,1.8177032E0,3.7431244E1,1.0860123E1,3.9288597E0,7.704474E0,0E0,1.3450317E0,2.1876183E0,1.4073944E0,1.6792297E0,0E0,2.475357E-1,1.1889496E0,4.6954012E-1,5.16382E-1,1.4127731E-1,2.2598114E0,6.38567E-1,5.801102E-1,0E0,1.0972643E-1,0E0,0E0,0E0,0E0,0E0,0E0,0E0,0E0,0E0,0E0,0E0,0E0,0E0,0E0,0E0,0E0,0E0,0E0,0E0,0E0,0E0,0E0,0E0,0E0,0E0,0E0,0E0,0E0,0E0,0E0,0E0,0E0,0E0,0E0,0E0,0E0,0E0,0E0,0E0,0E0,0E0,0E0,0E0,0E0,0E0,0E0,0E0,0E0,0E0,0E0,0E0,0E0],"parents":[2147483647,0,0,1,1,2,2,3,3,4,4,5,5,6,6,7,7,8,8,9,9,10,10,11,11,12,12,13,13,14,14,15,15,16,16,17,17,18,18,19,19,20,20,21,21,22,22,23,23,24,24,25,25,26,26,27,27,28,28,29,29,30,30,32,32,34,34,35,35,37,37,38,38,39,39,40,40,41,41,42,42,43,43,44,44,45,45,46,46,48,48,49,49,50,50,51,51,53,53,54,54,55,55,56,56,57,57,58,58,59,59,60,60,62,62],"right_children":[2,4,6,8,10,12,14,16,18,20,22,24,26,28,30,32,34,36,38,40,42,44,46,48,50,52,54,56,58,60,62,-1,64,-1,66,68,-1,70,72,74,76,78,80,82,84,86,88,-1,90,92,94,96,-1,98,100,102,104,106,108,110,112,-1,114,-1,-1,-1,-1,-1,-1,-1,-1,-1,-1,-1,-1,-1,-1,-1,-1,-1,-1,-1,-1,-1,-1,-1,-1,-1,-1,-1,-1,-1,-1,-1,-1,-1,-1,-1,-1,-1,-1,-1,-1,-1,-1,-1,-1,-1,-1,-1,-1,-1,-1,-1,-1],"split_conditions":[1.1766617E0,-1.0348133E0,1.0100633E0,-1.3078427E0,-4.604614E-1,1.904272E0,2.3808985E0,-1.3817881E0,-1.1599518E0,5.635464E-1,6.3095397E-1,-2.7260613E-1,4.1849956E-1,1.7223693E0,3.8996246E0,-1.3699743E0,-1.3476595E0,4.490514E-1,8.524629E-2,1.0565336E-1,1.3086892E0,9.247416E-1,7.6831853E-1,-7.8169227E-1,1.5404668E0,2.2680771E0,2.2680771E0,1.1284406E0,-2.2120287E0,1.7223693E0,-1.2423541E-1,-3.148756E-1,-1.3073183E0,-2.2604583E-1,-9.665628E-2,-1.2509615E0,-2.034412E-1,-9.665628E-2,6.3095397E-1,5.021026E-1,1.8243717E0,1.0100633E0,1.7352977E0,-6.8499434E-1,-6.345849E-1,-2.1288095E-1,3.000903E0,-2.8811467E-1,1.5404668E0,3.2748976E-1,3.3554204E0,-9.0586536E-2,-3.0026466E-1,5.025655E0,4.028154E0,-1.8408655E0,1.5561222E0,7.413037E-3,1.7352977E0,2.3811166E0,2.9378614E0,2.1182952E-2,2.0563488E0,-5.6072537E-2,-2.7062067E-1,-1.8005808E-1,-2.969716E-1,-1.4345637E-1,-1.0626057E-1,-2.4728876E-2,-5.3638645E-2,-9.1124386E-2,-1.921781E-1,9.45386E-2,2.1517287E-1,1.2946591E-1,2.9943874E-1,1.6738267E-1,2.0101407E-1,2.3917393E-1,2.9636994E-1,5.584252E-3,6.515961E-2,9.3612395E-2,2.0809421E-1,-1.6554062E-1,-9.323354E-2,2.3795104E-2,1.705011E-1,-1.8926962E-1,-2.49225E-1,-1.537236E-1,-9.093983E-2,-1.815157E-1,-8.193692E-2,-2.7961263E-1,-2.3374918E-1,-1.787112E-1,-4.378116E-2,-2.5962707E-1,-1.3460496E-1,-9.938864E-2,-4.938787E-2,-3.7213933E-2,3.1955443E-2,-7.277799E-2,-2.131408E-1,-1.3890457E-1,-9.083818E-2,4.4739883E-2,1.5811396E-1,-1.6606294E-2,8.895097E-2,1.7672856E-1,5.6500476E-2],"split_indices":[2,1,1,1,2,2,1,1,1,1,2,1,1,2,1,2,1,2,2,1,1,1,1,1,2,2,2,0,0,2,0,0,0,0,2,1,0,2,2,0,0,1,1,1,0,1,1,0,2,1,0,1,0,0,0,0,1,3,1,0,0,0,0,0,0,0,0,0,0,0,0,0,0,0,0,0,0,0,0,0,0,0,0,0,0,0,0,0,0,0,0,0,0,0,0,0,0,0,0,0,0,0,0,0,0,0,0,0,0,0,0,0,0,0,0],"split_type":[0,0,0,0,0,0,0,0,0,0,0,0,0,0,0,0,0,0,0,0,0,0,0,0,0,0,0,0,0,0,0,0,0,0,0,0,0,0,0,0,0,0,0,0,0,0,0,0,0,0,0,0,0,0,0,0,0,0,0,0,0,0,0,0,0,0,0,0,0,0,0,0,0,0,0,0,0,0,0,0,0,0,0,0,0,0,0,0,0,0,0,0,0,0,0,0,0,0,0,0,0,0,0,0,0,0,0,0,0,0,0,0,0,0,0],"sum_hessian":[1.3783E4,1.1241E4,2.542E3,1.943E3,9.298E3,1.714E3,8.28E2,1.065E3,8.78E2,3.564E3,5.734E3,7.35E2,9.79E2,6.56E2,1.72E2,4.8E2,5.85E2,4.11E2,4.67E2,2.224E3,1.34E3,5.172E3,5.62E2,2.66E2,4.69E2,7.37E2,2.42E2,1.45E2,5.11E2,1.57E2,1.5E1,1.32E2,3.48E2,3.09E2,2.76E2,3.88E2,2.3E1,2.91E2,1.76E2,9.7E2,1.254E3,1.042E3,2.98E2,4.787E3,3.85E2,3.1E2,2.52E2,7.9E1,1.87E2,2.15E2,2.54E2,4.22E2,3.15E2,1.26E2,1.16E2,1.01E2,4.4E1,4.4E1,4.67E2,7.7E1,8E1,1E0,1.4E1,1E0,3.47E2,2.66E2,1E1,2.27E2,1.61E2,1.86E2,1.05E2,1.64E2,1.2E1,9.53E2,1.7E1,1.247E3,7E0,7.46E2,2.96E2,1.84E2,1.14E2,1.305E3,3.482E3,1.05E2,2.8E2,1.06E2,2.04E2,2.15E2,3.7E1,9.1E1,9.6E1,1.16E2,9.9E1,2.38E2,1.6E1,2.4E2,1.82E2,1.24E2,2E0,1.05E2,1.1E1,2.3E1,7.8E1,1.3E1,3.1E1,2E0,4.2E1,3.36E2,1.31E2,7.3E1,4E0,7.6E1,4E0,1.2E1,2E0],"tree_param":{"num_deleted":"0","num_feature":"4","num_nodes":"115","size_leaf_vector":"1"}},{"base_weights":[-7.3279004E-4,1.0523912E-1,-3.8529885E-1,-3.9539433E-1,2.18695E-1,-5.047256E-1,-1.4129955E-1,-5.500396E-1,-1.8391338E-1,1.0839719E-1,3.4322697E-1,-3.7071067E-1,-5.959001E-1,2.4536213E-2,-3.0185652E-1,-6.462528E-1,-4.494626E-1,-2.7876788E-1,-1.2954557E-1,1.24102935E-1,-2.6495922E-1,3.0019316E-1,4.8871246E-1,-5.0005716E-1,-2.860016E-1,-6.485006E-1,-4.8535353E-1,-8.159989E-2,1.7641689E-1,-3.353321E-1,-6.539295E-2,-6.913787E-1,-1.7165008E-1,-4.893233E-1,-3.9271098E-1,-3.0268103E-1,-2.2048734E-1,-8.377055E-2,-2.242789E-1,5.740246E-2,1.7376222E-1,-3.390268E-1,-1.6833867E-1,3.2651114E-1,-1.124396E-2,1.955441E-1,5.395817E-1,-6.250872E-1,-4.4368225E-1,-5.1699084E-1,-2.5581574E-1,-6.9966954E-1,-6.08739E-1,-6.766931E-1,-4.3249342E-1,-1.3333869E-1,6.2436238E-2,3.4240028E-1,6.19541E-2,-4.5625988E-1,-2.9655784E-1,-1.1128091E-1,1.389043E-1,-4.766166E-2,-2.0772585E-1,-1.4703579E-1,-3.4236476E-2,-1.1308442E-1,-1.9132413E-1,-1.2362293E-2,-9.11131E-2,-9.706855E-3,-7.134394E-2,-1.8499015E-2,-3.9030947E-2,-5.7102717E-2,-9.542639E-2,2.3950543E-3,2.6588935E-2,4.441481E-2,6.7370616E-2,-1.0855971E-1,-4.2051175E-3,-4.545305E-3,-7.219063E-2,8.6651154E-2,1.1569041E-1,-8.153972E-2,9.73085E-3,2.606495E-2,1.174708E-1,1.460519E-1,1.9731523E-1,-2.2318862E-1,-1.6981983E-1,-1.2534468E-1,-1.5697007E-1,-1.7407334E-1,-1.282684E-1,-8.259525E-2,6.484653E-5,-1.9592635E-1,-2.209878E-1,-1.7340656E-1,-2.1749726E-1,-1.5034978E-1,-2.1546884E-1,-1.06437795E-1,-1.4954512E-1,-1.6814673E-2,-6.6839844E-2,-2.4532393E-2,3.4620117E-2,4.6085704E-2,1.3341838E-1,3.6983006E-3,5.727301E-2,-1.2361777E-1,-1.7383547E-1,-1.0106525E-1,-6.484015E-2,-4.0622972E-2,6.363588E-2,-1.1076979E-2,6.0484827E-2],"categories":[],"categories_nodes":[],"categories_segments":[],"categories_sizes":[],"default_left":[0,0,0,0,0,0,0,0,0,0,0,0,0,0,0,0,0,0,0,0,0,0,0,0,0,0,0,0,0,0,0,0,0,0,0,0,0,0,0,0,0,0,0,0,0,0,0,0,0,0,0,0,0,0,0,0,0,0,0,0,0,0,0,0,0,0,0,0,0,0,0,0,0,0,0,0,0,0,0,0,0,0,0,0,0,0,0,0,0,0,0,0,0,0,0,0,0,0,0,0,0,0,0,0,0,0,0,0,0,0,0,0,0,0,0,0,0,0,0,0,0,0,0,0,0],"id":3,"left_children":[1,3,5,7,9,11,13,15,17,19,21,23,25,27,29,31,33,35,37,39,41,43,45,47,49,51,53,55,57,59,61,63,-1,65,67,69,71,73,75,77,79,81,83,85,87,89,91,93,95,97,99,101,103,105,107,109,111,113,115,117,119,121,123,-1,-1,-1,-1,-1,-1,-1,-1,-1,-1,-1,-1,-1,-1,-1,-1,-1,-1,-1,-1,-1,-1,-1,-1,-1,-1,-1,-1,-1,-1,-1,-1,-1,-1,-1,-1,-1,-1,-1,-1,-1,-1,-1,-1,-1,-1,-1,-1,-1,-1,-1,-1,-1,-1,-1,-1,-1,-1,-1,-1,-1,-1],"loss_changes":[5.617827E2,6.1392194E2,8.67077E1,6.520978E1,1.2098721E2,2.4204376E1,2.6100975E1,1.0866943E1,4.321581E0,2.7440472E1,2.5760437E1,8.753914E0,6.5932617E0,7.800367E0,3.9201164E0,1.566864E0,1.0904846E0,3.6112022E-1,2.3185425E0,1.4848984E1,1.2954988E0,2.6199371E1,1.3957687E1,1.9782028E0,3.3052406E0,1.20578E0,3.621544E0,2.132218E0,3.759572E0,1.9090424E0,6.0606885E-1,8.950806E-2,0E0,4.232025E-2,6.8273544E-1,4.534912E-2,2.9544067E-1,3.6584044E-1,4.965763E-1,2.9561052E0,3.3254623E0,7.8175163E-1,9.266517E-1,6.45282E0,2.8540857E0,2.9693193E0,4.6830597E0,2.5943375E-1,2.423172E-1,6.868744E-2,2.1870232E0,1.1109924E-1,1.2200012E0,2.3788834E-1,1.3921509E0,1.4395366E0,5.8992517E-1,1.4964027E0,7.592015E-1,3.275299E-1,1.0071754E0,4.3449622E-1,1.3976185E-1,0E0,0E0,0E0,0E0,0E0,0E0,0E0,0E0,0E0,0E0,0E0,0E0,0E0,0E0,0E0,0E0,0E0,0E0,0E0,0E0,0E0,0E0,0E0,0E0,0E0,0E0,0E0,0E0,0E0,0E0,0E0,0E0,0E0,0E0,0E0,0E0,0E0,0E0,0E0,0E0,0E0,0E0,0E0,0E0,0E0,0E0,0E0,0E0,0E0,0E0,0E0,0E0,0E0,0E0,0E0,0E0,0E0,0E0,0E0,0E0,0E0,0E0],"parents":[2147483647,0,0,1,1,2,2,3,3,4,4,5,5,6,6,7,7,8,8,9,9,10,10,11,11,12,12,13,13,14,14,15,15,16,16,17,17,18,18,19,19,20,20,21,21,22,22,23,23,24,24,25,25,26,26,27,27,28,28,29,29,30,30,31,31,33,33,34,34,35,35,36,36,37,37,38,38,39,39,40,40,41,41,42,42,43,43,44,44,45,45,46,46,47,47,48,48,49,49,50,50,51,51,52,52,53,53,54,54,55,55,56,56,57,57,58,58,59,59,60,60,61,61,62,62],"right_children":[2,4,6,8,10,12,14,16,18,20,22,24,26,28,30,32,34,36,38,40,42,44,46,48,50,52,54,56,58,60,62,64,-1,66,68,70,72,74,76,78,80,82,84,86,88,90,92,94,96,98,100,102,104,106,108,110,112,114,116,118,120,122,124,-1,-1,-1,-1,-1,-1,-1,-1,-1,-1,-1,-1,-1,-1,-1,-1,-1,-1,-1,-1,-1,-1,-1,-1,-1,-1,-1,-1,-1,-1,-1,-1,-1,-1,-1,-1,-1,-1,-1,-1,-1,-1,-1,-1,-1,-1,-1,-1,-1,-1,-1,-1,-1,-1,-1,-1,-1,-1,-1,-1,-1,-1],"split_conditions":[8.1285655E-1,-1.0120608E0,1.0100633E0,-1.2907784E0,-3.654946E-2,1.7223693E0,1.904272E0,-1.3761001E0,-1.1599518E0,8.524629E-2,1.0584123E0,-1.8728445E-1,2.8767297E-1,2.156218E0,2.2614481E0,-1.3988525E0,-4.604614E-1,-1.2338972E0,8.524629E-2,-5.371034E-1,-3.5223973E-1,8.524629E-2,-6.113872E-1,-8.4710556E-1,-5.881895E-1,-2.4700963E-1,-6.345849E-1,1.1284406E0,1.3585643E0,-5.649918E-1,3.313749E0,-1.3073183E0,-1.7165008E-1,4.9328953E-1,-9.665628E-2,-8.2426655E-1,-9.665628E-2,-9.665628E-2,-1.068942E0,-8.101328E-1,-2.0434879E-1,9.42859E-1,2.6714885E-1,4.440961E-1,-3.7941015E-1,2.3808985E0,1.7950228E0,-1.2338972E0,1.5404668E0,-1.8408655E0,2.3811166E0,2.0861745E0,2.4499795E0,2.0861745E0,2.0861745E0,1.3585643E0,1.2745606E0,4.093118E-1,9.892544E-1,2.6318822E0,1.6385998E0,2.9378614E0,1.9509189E0,-4.766166E-2,-2.0772585E-1,-1.4703579E-1,-3.4236476E-2,-1.1308442E-1,-1.9132413E-1,-1.2362293E-2,-9.11131E-2,-9.706855E-3,-7.134394E-2,-1.8499015E-2,-3.9030947E-2,-5.7102717E-2,-9.542639E-2,2.3950543E-3,2.6588935E-2,4.441481E-2,6.7370616E-2,-1.0855971E-1,-4.2051175E-3,-4.545305E-3,-7.219063E-2,8.6651154E-2,1.1569041E-1,-8.153972E-2,9.73085E-3,2.606495E-2,1.174708E-1,1.460519E-1,1.9731523E-1,-2.2318862E-1,-1.6981983E-1,-1.2534468E-1,-1.5697007E-1,-1.7407334E-1,-1.282684E-1,-8.259525E-2,6.484653E-5,-1.9592635E-1,-2.209878E-1,-1.7340656E-1,-2.1749726E-1,-1.5034978E-1,-2.1546884E-1,-1.06437795E-1,-1.4954512E-1,-1.6814673E-2,-6.6839844E-2,-2.4532393E-2,3.4620117E-2,4.6085704E-2,1.3341838E-1,3.6983006E-3,5.727301E-2,-1.2361777E-1,-1.7383547E-1,-1.0106525E-1,-6.484015E-2,-4.0622972E-2,6.363588E-2,-1.1076979E-2,6.0484827E-2],"split_indices":[2,1,1,1,1,2,2,1,1,2,1,1,1,1,1,1,2,1,2,1,1,2,0,1,0,1,0,0,2,0,1,0,0,3,2,2,2,2,1,1,1,0,2,1,0,1,1,1,2,0,0,2,2,2,2,2,1,0,0,2,1,0,3,0,0,0,0,0,0,0,0,0,0,0,0,0,0,0,0,0,0,0,0,0,0,0,0,0,0,0,0,0,0,0,0,0,0,0,0,0,0,0,0,0,0,0,0,0,0,0,0,0,0,0,0,0,0,0,0,0,0,0,0,0,0],"split_type":[0,0,0,0,0,0,0,0,0,0,0,0,0,0,0,0,0,0,0,0,0,0,0,0,0,0,0,0,0,0,0,0,0,0,0,0,0,0,0,0,0,0,0,0,0,0,0,0,0,0,0,0,0,0,0,0,0,0,0,0,0,0,0,0,0,0,0,0,0,0,0,0,0,0,0,0,0,0,0,0,0,0,0,0,0,0,0,0,0,0,0,0,0,0,0,0,0,0,0,0,0,0,0,0,0,0,0,0,0,0,0,0,0,0,0,0,0,0,0,0,0,0,0,0,0],"sum_hessian":[1.3783E4,1.0806E4,2.977E3,1.996E3,8.81E3,1.998E3,9.79E2,1.152E3,8.44E2,4.673E3,4.137E3,8.11E2,1.187E3,4.82E2,4.97E2,5.86E2,5.66E2,3.06E2,5.38E2,4.485E3,1.88E2,3.195E3,9.42E2,3.19E2,4.92E2,8.01E2,3.86E2,2.84E2,1.98E2,4.35E2,6.2E1,3.59E2,2.27E2,3.28E2,2.38E2,2.14E2,9.2E1,3.64E2,1.74E2,1.915E3,2.57E3,1.05E2,8.3E1,2.946E3,2.49E2,1.4E2,8.02E2,9.6E1,2.23E2,5.5E1,4.37E2,3.43E2,4.58E2,8.1E1,3.05E2,2.09E2,7.5E1,8E1,1.18E2,1.03E2,3.32E2,5.1E1,1.1E1,1E0,3.58E2,3.27E2,1E0,2.26E2,1.2E1,1E0,2.13E2,8E0,8.4E1,2.48E2,1.16E2,1.3E2,4.4E1,7.42E2,1.173E3,1.709E3,8.61E2,9.8E1,7E0,2.7E1,5.6E1,1.803E3,1.143E3,3.5E1,2.14E2,9.1E1,4.9E1,5.58E2,2.44E2,2.8E1,6.8E1,1.73E2,5E1,2.9E1,2.6E1,4.06E2,3.1E1,1.6E2,1.83E2,3.67E2,9.1E1,1.8E1,6.3E1,1.43E2,1.62E2,1.13E2,9.6E1,2E1,5.5E1,2.9E1,5.1E1,8.6E1,3.2E1,7.9E1,2.4E1,2.19E2,1.13E2,4.8E1,3E0,3E0,8E0],"tree_param":{"num_deleted":"0","num_feature":"4","num_nodes":"125","size_leaf_vector":"1"}},{"base_weights":[-7.634211E-4,6.6957064E-2,-3.0013934E-1,-2.72205E-1,1.445763E-1,-3.7152034E-1,-1.1278146E-1,-3.8667542E-1,-1.3017142E-1,8.752987E-2,2.5090814E-1,-4.2822888E-1,-2.917332E-1,-1.4609176E-2,-2.2691843E-1,-4.8278567E-1,-3.382449E-1,-1.936805E-1,-8.90521E-2,1.0841266E-1,-1.982039E-1,2.8601754E-1,4.4242408E-2,-3.2543105E-1,-4.5328176E-1,-2.2345015E-1,-4.0046012E-1,-7.4573375E-2,1.10800646E-1,-2.4629651E-1,-4.179104E-2,-5.398022E-1,-4.5869362E-1,-3.7429738E-1,-2.9161042E-1,-1.842613E-1,-9.618569E-2,-6.711551E-2,-2.55551E-1,5.7779245E-2,1.6143411E-1,-2.1304102E-1,9.880446E-2,2.5379243E-1,3.8833344E-1,-4.4652626E-2,2.0166191E-1,-3.418524E-1,-6.6422254E-2,-4.9551854E-1,-4.1193262E-1,-3.3265394E-1,-1.9447026E-1,-3.634227E-1,-5.455368E-1,-9.594213E-2,1.98148E-1,6.7109145E-2,2.5010726E-1,-2.3227398E-1,-4.1752872E-1,-7.824999E-2,2.329841E-1,-4.051241E-2,-1.6268988E-1,-1.37874E-1,-3.1974524E-2,-1.1700525E-1,-1.04596935E-1,-8.44682E-2,-1.4363304E-1,-6.2822185E-2,-4.3278903E-2,-1.2913241E-2,-3.0992348E-2,-6.2440556E-2,-1.0856651E-1,4.4362745E-3,2.2996236E-2,4.7752425E-2,1.6707212E-1,-9.431062E-2,-5.383807E-2,-1.0636747E-2,4.0375657E-2,-5.1118176E-2,7.727394E-2,1.303716E-1,7.794515E-2,-2.4184812E-2,6.1060283E-2,1.717E-2,9.876585E-2,-1.4640011E-1,-9.69022E-2,-3.66661E-2,-9.564298E-3,-1.6166326E-1,-1.4145571E-1,-1.1118854E-1,-1.4443919E-1,-1.3587451E-1,-9.109951E-2,-3.6908235E-2,-6.908133E-2,-1.2862313E-1,-8.2093544E-2,-1.7364767E-1,-8.999533E-2,-4.157016E-2,-1.1494558E-2,7.369398E-2,4.806772E-3,5.1235173E-2,4.2669564E-3,3.750276E-2,8.526869E-2,-7.28688E-2,-2.3079347E-2,-5.1529855E-2,-1.3030745E-1,-4.2894993E-2,-2.490003E-3,1.4378675E-2,8.360785E-2],"categories":[],"categories_nodes":[],"categories_segments":[],"categories_sizes":[],"default_left":[0,0,0,0,0,0,0,0,0,0,0,0,0,0,0,0,0,0,0,0,0,0,0,0,0,0,0,0,0,0,0,0,0,0,0,0,0,0,0,0,0,0,0,0,0,0,0,0,0,0,0,0,0,0,0,0,0,0,0,0,0,0,0,0,0,0,0,0,0,0,0,0,0,0,0,0,0,0,0,0,0,0,0,0,0,0,0,0,0,0,0,0,0,0,0,0,0,0,0,0,0,0,0,0,0,0,0,0,0,0,0,0,0,0,0,0,0,0,0,0,0,0,0,0,0],"id":4,"left_children":[1,3,5,7,9,11,13,15,17,19,21,23,25,27,29,31,33,35,37,39,41,43,45,47,49,51,53,55,57,59,61,63,65,67,69,71,-1,73,75,77,79,81,83,85,87,89,91,93,95,97,99,101,103,105,107,109,111,113,115,117,119,121,123,-1,-1,-1,-1,-1,-1,-1,-1,-1,-1,-1,-1,-1,-1,-1,-1,-1,-1,-1,-1,-1,-1,-1,-1,-1,-1,-1,-1,-1,-1,-1,-1,-1,-1,-1,-1,-1,-1,-1,-1,-1,-1,-1,-1,-1,-1,-1,-1,-1,-1,-1,-1,-1,-1,-1,-1,-1,-1,-1,-1,-1,-1],"loss_changes":[2.7947528E2,2.959906E2,3.3967667E1,3.399527E1,5.5474533E1,8.204895E0,7.8738604E0,5.2314606E0,2.4270697E0,3.556046E1,2.316272E1,2.6184387E0,5.6123047E0,2.8583803E0,1.1556168E0,2.826233E-1,1.1921692E0,3.7972832E-1,2.0647278E0,1.4893204E1,1.8101892E0,8.902634E0,6.5161276E0,8.8749504E-1,1.2995758E0,1.4353828E0,1.3868523E0,1.516734E0,7.318568E-1,6.0894394E-1,3.3880737E-1,3.6951065E-2,3.7784576E-2,3.8555145E-2,5.084915E-1,3.157835E-1,0E0,4.355085E-1,2.5745535E-1,2.3042297E0,2.3336945E0,1.2604141E0,1.0085134E-1,3.3838959E0,3.7615356E0,2.676251E0,3.0762148E0,3.9595985E-1,2.3086201E-2,1.8400574E-1,1.0880737E0,2.0411682E-1,9.359274E-1,1.2783947E0,3.004589E-1,5.81759E-1,1.6042751E-1,5.1845014E-1,8.8256955E-2,4.3342972E-1,1.2248516E-2,1.30128E-1,2.0477116E-2,0E0,0E0,0E0,0E0,0E0,0E0,0E0,0E0,0E0,0E0,0E0,0E0,0E0,0E0,0E0,0E0,0E0,0E0,0E0,0E0,0E0,0E0,0E0,0E0,0E0,0E0,0E0,0E0,0E0,0E0,0E0,0E0,0E0,0E0,0E0,0E0,0E0,0E0,0E0,0E0,0E0,0E0,0E0,0E0,0E0,0E0,0E0,0E0,0E0,0E0,0E0,0E0,0E0,0E0,0E0,0E0,0E0,0E0,0E0,0E0,0E0,0E0],"parents":[2147483647,0,0,1,1,2,2,3,3,4,4,5,5,6,6,7,7,8,8,9,9,10,10,11,11,12,12,13,13,14,14,15,15,16,16,17,17,18,18,19,19,20,20,21,21,22,22,23,23,24,24,25,25,26,26,27,27,28,28,29,29,30,30,31,31,32,32,33,33,34,34,35,35,37,37,38,38,39,39,40,40,41,41,42,42,43,43,44,44,45,45,46,46,47,47,48,48,49,49,50,50,51,51,52,52,53,53,54,54,55,55,56,56,57,57,58,58,59,59,60,60,61,61,62,62],"right_children":[2,4,6,8,10,12,14,16,18,20,22,24,26,28,30,32,34,36,38,40,42,44,46,48,50,52,54,56,58,60,62,64,66,68,70,72,-1,74,76,78,80,82,84,86,88,90,92,94,96,98,100,102,104,106,108,110,112,114,116,118,120,122,124,-1,-1,-1,-1,-1,-1,-1,-1,-1,-1,-1,-1,-1,-1,-1,-1,-1,-1,-1,-1,-1,-1,-1,-1,-1,-1,-1,-1,-1,-1,-1,-1,-1,-1,-1,-1,-1,-1,-1,-1,-1,-1,-1,-1,-1,-1,-1,-1,-1,-1,-1,-1,-1,-1,-1,-1,-1,-1,-1,-1,-1,-1],"split_conditions":[1.1766617E0,-9.949965E-1,1.2176794E0,-1.2907784E0,2.336359E-1,2.1088345E-1,2.0861745E0,-8.2426655E-1,-1.1400434E0,8.524629E-2,4.490514E-1,1.5404668E0,2.0861745E0,2.508881E0,1.8243717E0,-1.4329811E0,-1.3419714E0,4.490514E-1,2.6714885E-1,-3.5223973E-1,2.3811166E0,1.1835507E0,1.6385998E0,2.0563488E0,1.3093935E-1,-2.1702622E-1,2.8137848E0,2.9378614E0,3.313749E0,2.8137848E0,3.000903E0,-1.3073183E0,-1.474331E-1,-1.3618797E0,-9.665628E-2,-1.2338972E0,-9.618569E-2,-9.665628E-2,-1.0632539E0,-7.532517E-1,2.3811166E0,-3.0981705E-1,-5.200391E-1,-2.2120287E0,-9.665628E-2,2.0563488E0,4.557072E-1,-1.1087587E0,-6.537097E-1,-3.5621244E-1,2.2680771E0,-2.9543552E0,1.5404668E0,5.021026E-1,4.492108E0,3.861141E-1,1.7079808E0,1.5404668E0,2.2373016E-1,2.508881E0,4.9328953E-1,1.9230055E0,2.6594892E0,-4.051241E-2,-1.6268988E-1,-1.37874E-1,-3.1974524E-2,-1.1700525E-1,-1.04596935E-1,-8.44682E-2,-1.4363304E-1,-6.2822185E-2,-4.3278903E-2,-1.2913241E-2,-3.0992348E-2,-6.2440556E-2,-1.0856651E-1,4.4362745E-3,2.2996236E-2,4.7752425E-2,1.6707212E-1,-9.431062E-2,-5.383807E-2,-1.0636747E-2,4.0375657E-2,-5.1118176E-2,7.727394E-2,1.303716E-1,7.794515E-2,-2.4184812E-2,6.1060283E-2,1.717E-2,9.876585E-2,-1.4640011E-1,-9.69022E-2,-3.66661E-2,-9.564298E-3,-1.6166326E-1,-1.4145571E-1,-1.1118854E-1,-1.4443919E-1,-1.3587451E-1,-9.109951E-2,-3.6908235E-2,-6.908133E-2,-1.2862313E-1,-8.2093544E-2,-1.7364767E-1,-8.999533E-2,-4.157016E-2,-1.1494558E-2,7.369398E-2,4.806772E-3,5.1235173E-2,4.2669564E-3,3.750276E-2,8.526869E-2,-7.28688E-2,-2.3079347E-2,-5.1529855E-2,-1.3030745E-1,-4.2894993E-2,-2.490003E-3,1.4378675E-2,8.360785E-2],"split_indices":[2,1,1,1,1,1,2,2,1,2,2,2,2,1,0,1,1,2,2,1,0,1,1,0,0,0,2,0,1,2,1,0,0,1,2,1,0,2,1,1,0,0,1,0,2,0,0,1,1,0,2,0,2,0,0,0,3,2,0,1,3,1,0,0,0,0,0,0,0,0,0,0,0,0,0,0,0,0,0,0,0,0,0,0,0,0,0,0,0,0,0,0,0,0,0,0,0,0,0,0,0,0,0,0,0,0,0,0,0,0,0,0,0,0,0,0,0,0,0,0,0,0,0,0,0],"split_type":[0,0,0,0,0,0,0,0,0,0,0,0,0,0,0,0,0,0,0,0,0,0,0,0,0,0,0,0,0,0,0,0,0,0,0,0,0,0,0,0,0,0,0,0,0,0,0,0,0,0,0,0,0,0,0,0,0,0,0,0,0,0,0,0,0,0,0,0,0,0,0,0,0,0,0,0,0,0,0,0,0,0,0,0,0,0,0,0,0,0,0,0,0,0,0,0,0,0,0,0,0,0,0,0,0,0,0,0,0,0,0,0,0,0,0,0,0,0,0,0,0,0,0,0,0],"sum_hessian":[1.3783E4,1.1241E4,2.542E3,2.093E3,9.148E3,1.84E3,7.02E2,1.158E3,9.35E2,5.955E3,3.193E3,1.073E3,7.67E2,3.78E2,3.24E2,3.85E2,7.73E2,3.66E2,5.69E2,5.55E3,4.05E2,2.729E3,4.64E2,2.13E2,8.6E2,4.73E2,2.94E2,2.56E2,1.22E2,2.93E2,3.1E1,1.08E2,2.77E2,4.32E2,3.41E2,3.43E2,2.3E1,5.04E2,6.5E1,2.84E3,2.71E3,3.86E2,1.9E1,2.078E3,6.51E2,2.97E2,1.67E2,2E2,1.3E1,4.2E2,4.4E2,9.7E1,3.76E2,2.37E2,5.7E1,2.38E2,1.8E1,9.4E1,2.8E1,2.73E2,2E1,2.8E1,3E0,1E0,1.07E2,2.76E2,1E0,2.59E2,1.73E2,3.26E2,1.5E1,2.08E2,1.35E2,3.04E2,2E2,4.7E1,1.8E1,8.67E2,1.973E3,2.696E3,1.4E1,9.4E1,2.92E2,4E0,1.5E1,1.8E1,2.06E3,4.77E2,1.74E2,2.6E2,3.7E1,7.9E1,8.8E1,2E1,1.8E2,4E0,9E0,1.42E2,2.78E2,2.8E2,1.6E2,1.6E1,8.1E1,1.27E2,2.49E2,1.35E2,1.02E2,4.9E1,8E0,1.36E2,1.02E2,1.4E1,4E0,3.1E1,6.3E1,7E0,2.1E1,2.55E2,1.8E1,2E0,1.8E1,1.4E1,1.4E1,1E0,2E0],"tree_param":{"num_deleted":"0","num_feature":"4","num_nodes":"125","size_leaf_vector":"1"}},{"base_weights":[-7.089392E-4,5.176314E-2,-1.9112702E-1,-1.7751174E-1,1.1240883E-1,-2.7552074E-1,-9.7837105E-2,-2.7653432E-1,-8.591645E-2,5.1083423E-2,1.6581573E-1,-2.3755722E-1,-3.416055E-1,2.0320138E-2,-1.5183108E-1,-3.389164E-1,-2.4178965E-1,-1.447354E-1,-5.841433E-2,6.0403384E-2,-1.2352651E-1,2.80381E-1,1.4622407E-1,-3.3135703E-1,-2.0379788E-1,-3.5831642E-1,-2.607906E-1,-4.5785893E-2,1.1177009E-1,-1.9094718E-1,-5.4962154E-2,-3.762135E-1,-9.5415756E-2,-2.646988E-1,-2.0973583E-1,-1.6537163E-1,-1.2366094E-1,-4.77061E-2,-1.7533295E-1,5.919681E-2,4.6832824E-1,-1.4031868E-1,8.045232E-2,2.4810652E-1,3.7457487E-1,1.2614016E-1,2.4089284E-1,-2.805321E-1,-3.8565788E-1,-1.0248267E-1,-1.9214904E-1,-1.20164685E-1,-3.4071106E-1,-1.4580299E-1,-2.9282793E-1,-1.9669256E-1,-2.8102348E-2,8.7831825E-2,4.0130496E-1,-1.7271462E-1,-3.3645415E-1,-8.4585205E-2,8.029053E-2,-1.1349422E-1,-1.4840788E-2,-7.872408E-2,-1.1850987E-1,-6.140894E-2,-1.1678005E-1,-6.4842306E-2,-4.552381E-2,-6.3211615E-3,-3.8964726E-2,-9.153495E-3,-2.4143774E-2,-4.2475864E-2,-7.012081E-2,1.0941091E-2,2.2271449E-2,1.5721801E-1,7.193478E-2,-2.7541773E-2,-5.5315226E-2,3.7284445E-2,-3.9929505E-3,7.226299E-2,1.6408613E-1,1.04838304E-1,1.2805633E-1,4.3798238E-2,-3.0013912E-3,6.1335813E-2,1.04326025E-1,-9.214218E-2,-5.9663378E-2,-1.3761427E-1,-1.04794614E-1,-6.039337E-2,-1.5521756E-2,-9.484494E-2,-1.1825965E-1,2.7413983E-2,-4.8026502E-2,-7.925206E-2,-1.1620591E-1,-1.2704051E-2,-6.0300063E-2,-1.3026926E-2,3.0330932E-2,1.6936267E-2,8.741344E-2,5.9184518E-2,1.3170388E-1,-5.544947E-2,-7.2817516E-4,-1.0993052E-1,-5.7030857E-2,-3.465468E-2,2.8993038E-3,1.062481E-2,5.2872006E-2],"categories":[],"categories_nodes":[],"categories_segments":[],"categories_sizes":[],"default_left":[0,0,0,0,0,0,0,0,0,0,0,0,0,0,0,0,0,0,0,0,0,0,0,0,0,0,0,0,0,0,0,0,0,0,0,0,0,0,0,0,0,0,0,0,0,0,0,0,0,0,0,0,0,0,0,0,0,0,0,0,0,0,0,0,0,0,0,0,0,0,0,0,0,0,0,0,0,0,0,0,0,0,0,0,0,0,0,0,0,0,0,0,0,0,0,0,0,0,0,0,0,0,0,0,0,0,0,0,0,0,0,0,0,0,0,0,0,0,0,0,0],"id":5,"left_children":[1,3,5,7,9,11,13,15,17,19,21,23,25,27,29,31,33,35,37,39,41,43,45,47,49,51,53,55,57,59,61,63,-1,65,67,69,71,73,75,77,79,81,83,85,87,89,91,93,95,-1,97,-1,99,101,103,105,107,109,111,113,115,117,119,-1,-1,-1,-1,-1,-1,-1,-1,-1,-1,-1,-1,-1,-1,-1,-1,-1,-1,-1,-1,-1,-1,-1,-1,-1,-1,-1,-1,-1,-1,-1,-1,-1,-1,-1,-1,-1,-1,-1,-1,-1,-1,-1,-1,-1,-1,-1,-1,-1,-1,-1,-1,-1,-1,-1,-1,-1,-1],"loss_changes":[1.3773456E2,1.5028624E2,2.341909E1,2.0483513E1,2.7984665E1,3.840126E0,9.036851E0,2.2718964E0,1.893897E0,6.4843435E0,1.0212006E1,3.0864258E0,6.7362976E-1,2.6953177E0,3.6725445E0,1.8071365E-1,4.592476E-1,1.4220142E-1,9.969845E-1,1.8322678E0,7.0318866E-1,1.9317398E0,7.390457E0,6.1488914E-1,1.1142826E0,2.1149445E-1,3.293786E-1,6.856307E-1,1.2608426E0,1.7777405E0,1.1326451E0,7.25708E-2,0E0,1.6963959E-2,1.8902016E-1,9.586954E-2,1.17895365E-1,4.1285586E-1,9.89573E-2,1.2856779E0,1.4449358E-2,3.8282847E-1,6.7406416E-2,9.464092E-1,7.140732E-2,8.710571E0,2.5846214E0,2.4092007E-1,1.6899109E-1,0E0,8.64378E-1,0E0,3.1809998E-1,9.594655E-2,1.08938694E-1,9.439826E-3,4.65619E-1,1.0948526E0,2.1097183E-2,1.272646E0,2.6380825E-1,6.745219E-1,2.1334824E-1,0E0,0E0,0E0,0E0,0E0,0E0,0E0,0E0,0E0,0E0,0E0,0E0,0E0,0E0,0E0,0E0,0E0,0E0,0E0,0E0,0E0,0E0,0E0,0E0,0E0,0E0,0E0,0E0,0E0,0E0,0E0,0E0,0E0,0E0,0E0,0E0,0E0,0E0,0E0,0E0,0E0,0E0,0E0,0E0,0E0,0E0,0E0,0E0,0E0,0E0,0E0,0E0,0E0,0E0,0E0,0E0,0E0,0E0],"parents":[2147483647,0,0,1,1,2,2,3,3,4,4,5,5,6,6,7,7,8,8,9,9,10,10,11,11,12,12,13,13,14,14,15,15,16,16,17,17,18,18,19,19,20,20,21,21,22,22,23,23,24,24,25,25,26,26,27,27,28,28,29,29,30,30,31,31,33,33,34,34,35,35,36,36,37,37,38,38,39,39,40,40,41,41,42,42,43,43,44,44,45,45,46,46,47,47,48,48,50,50,52,52,53,53,54,54,55,55,56,56,57,57,58,58,59,59,60,60,61,61,62,62],"right_children":[2,4,6,8,10,12,14,16,18,20,22,24,26,28,30,32,34,36,38,40,42,44,46,48,50,52,54,56,58,60,62,64,-1,66,68,70,72,74,76,78,80,82,84,86,88,90,92,94,96,-1,98,-1,100,102,104,106,108,110,112,114,116,118,120,-1,-1,-1,-1,-1,-1,-1,-1,-1,-1,-1,-1,-1,-1,-1,-1,-1,-1,-1,-1,-1,-1,-1,-1,-1,-1,-1,-1,-1,-1,-1,-1,-1,-1,-1,-1,-1,-1,-1,-1,-1,-1,-1,-1,-1,-1,-1,-1,-1,-1,-1,-1,-1,-1,-1,-1,-1,-1],"split_conditions":[8.1285655E-1,-9.3811536E-1,4.8675692E-1,-1.3049986E0,-1.13338985E-1,2.0861745E0,1.5404668E0,-8.2426655E-1,-1.1599518E0,-9.665628E-2,-6.4236397E-1,-5.740761E-1,1.8243717E0,1.6385998E0,1.7352977E0,-1.3699743E0,-1.3476595E0,-1.2623378E0,2.6714885E-1,2.0563488E0,1.2212315E0,1.4793326E0,5.253003E-1,1.5404668E0,-6.809803E-1,-3.0389076E-1,2.2680771E0,-8.201665E-1,2.9378614E0,2.6318822E0,3.000903E0,-1.421605E0,-9.5415756E-2,-2.7855885E-1,8.524629E-2,-2.7855885E-1,-9.665628E-2,-9.665628E-2,-1.068942E0,-5.68388E-1,-2.7855885E-1,2.6714885E-1,-3.0389076E-1,9.42859E-1,1.9230055E0,-9.665628E-2,1.6619878E0,-3.1444587E-2,-8.6985797E-1,-1.0248267E-1,2.3811166E0,-1.20164685E-1,2.4499795E0,-1.4502164E0,2.8137848E0,-2.355252E-1,2.3811166E0,3.8996246E0,3.3554204E0,2.9378614E0,2.0563488E0,1.1284406E0,9.892544E-1,-1.1349422E-1,-1.4840788E-2,-7.872408E-2,-1.1850987E-1,-6.140894E-2,-1.1678005E-1,-6.4842306E-2,-4.552381E-2,-6.3211615E-3,-3.8964726E-2,-9.153495E-3,-2.4143774E-2,-4.2475864E-2,-7.012081E-2,1.0941091E-2,2.2271449E-2,1.5721801E-1,7.193478E-2,-2.7541773E-2,-5.5315226E-2,3.7284445E-2,-3.9929505E-3,7.226299E-2,1.6408613E-1,1.04838304E-1,1.2805633E-1,4.3798238E-2,-3.0013912E-3,6.1335813E-2,1.04326025E-1,-9.214218E-2,-5.9663378E-2,-1.3761427E-1,-1.04794614E-1,-6.039337E-2,-1.5521756E-2,-9.484494E-2,-1.1825965E-1,2.7413983E-2,-4.8026502E-2,-7.925206E-2,-1.1620591E-1,-1.2704051E-2,-6.0300063E-2,-1.3026926E-2,3.0330932E-2,1.6936267E-2,8.741344E-2,5.9184518E-2,1.3170388E-1,-5.544947E-2,-7.2817516E-4,-1.0993052E-1,-5.7030857E-2,-3.465468E-2,2.8993038E-3,1.062481E-2,5.2872006E-2],"split_indices":[2,1,1,1,1,2,2,2,1,2,2,1,0,1,1,2,1,1,2,0,0,1,0,2,0,1,2,0,0,2,1,1,0,2,2,2,2,2,1,1,2,2,1,0,1,2,0,0,1,0,0,0,2,3,2,3,0,1,0,0,0,0,0,0,0,0,0,0,0,0,0,0,0,0,0,0,0,0,0,0,0,0,0,0,0,0,0,0,0,0,0,0,0,0,0,0,0,0,0,0,0,0,0,0,0,0,0,0,0,0,0,0,0,0,0,0,0,0,0,0,0],"split_type":[0,0,0,0,0,0,0,0,0,0,0,0,0,0,0,0,0,0,0,0,0,0,0,0,0,0,0,0,0,0,0,0,0,0,0,0,0,0,0,0,0,0,0,0,0,0,0,0,0,0,0,0,0,0,0,0,0,0,0,0,0,0,0,0,0,0,0,0,0,0,0,0,0,0,0,0,0,0,0,0,0,0,0,0,0,0,0,0,0,0,0,0,0,0,0,0,0,0,0,0,0,0,0,0,0,0,0,0,0,0,0,0,0,0,0,0,0,0,0,0,0],"sum_hessian":[1.3783E4,1.0806E4,2.977E3,2.26E3,8.546E3,1.562E3,1.415E3,1.085E3,1.175E3,3.979E3,4.567E3,9.95E2,5.67E2,4.44E2,9.71E2,3.85E2,7E2,3.73E2,8.02E2,3.778E3,2.01E2,6.65E2,3.902E3,2.61E2,7.34E2,4.67E2,1E2,2.58E2,1.86E2,6.91E2,2.8E2,1.32E2,2.53E2,4.04E2,2.96E2,1.85E2,1.88E2,7.36E2,6.6E1,3.768E3,1E1,1.86E2,1.5E1,4.98E2,1.67E2,3.221E3,6.81E2,1.38E2,1.23E2,5.5E1,6.79E2,1.31E2,3.36E2,2.3E1,7.7E1,2.6E1,2.32E2,1.73E2,1.3E1,6.16E2,7.5E1,2.3E2,5E1,1.31E2,1E0,4E2,4E0,2.9E2,6E0,3.6E1,1.49E2,1.1E1,1.77E2,4.84E2,2.52E2,4.4E1,2.2E1,1.502E3,2.266E3,7E0,3E0,9E1,9.6E1,1E1,5E0,4.88E2,1E1,1.18E2,4.9E1,2.811E3,4.1E2,5.1E2,1.71E2,1.02E2,3.6E1,3.7E1,8.6E1,6.37E2,4.2E1,2.35E2,1.01E2,1E0,2.2E1,6.2E1,1.5E1,1E0,2.5E1,2.08E2,2.4E1,1.51E2,2.2E1,3E0,1E1,5.75E2,4.1E1,6.1E1,1.4E1,1.73E2,5.7E1,3.5E1,1.5E1],"tree_param":{"num_deleted":"0","num_feature":"4","num_nodes":"121","size_leaf_vector":"1"}},{"base_weights":[-5.75048E-4,3.304518E-2,-1.4920188E-1,-1.2577583E-1,7.37539E-2,-1.8342872E-1,-4.2063594E-2,-2.0470613E-1,-7.072917E-2,4.8907068E-2,1.4031555E-1,-1.5287413E-1,-2.2711664E-1,1.4785396E-2,-1.07057005E-1,-2.4739924E-1,-1.8456645E-1,-1.1547534E-1,-4.5432575E-2,6.2189173E-2,-8.9801975E-2,1.6711038E-1,6.0183793E-2,-1.8861698E-1,-9.90814E-2,-2.4663311E-1,-1.6821231E-1,-1.0725658E-2,9.8746724E-2,-1.4136638E-1,-5.714399E-2,-1.1707594E-1,-2.492174E-1,-1.81347E-1,-9.806539E-2,-3.372141E-1,-1.13408476E-1,-2.6269885E-2,-9.53058E-2,3.8937245E-2,9.508292E-2,-2.9859525E-1,-7.6415055E-2,1.564043E-1,3.2917273E-1,2.9839804E-2,3.190638E-1,-2.5131333E-1,-1.6796017E-1,-1.3262887E-1,-5.349923E-2,-2.3764613E-1,-3.0117926E-1,-8.8049196E-2,-1.9801177E-1,-7.1692295E-2,1.52195385E-2,3.7314955E-2,1.3508436E-1,-5.2789222E-2,-1.4775965E-1,-3.183858E-2,-1.3115542E-1,-3.8085654E-2,-1.01542175E-2,-8.987965E-2,-7.137548E-2,-5.977327E-2,-4.9764317E-2,-1.2817164E-1,-1.0071016E-2,-5.3571153E-2,-3.2707594E-2,-8.19415E-3,9.408627E-2,-2.1425694E-2,-5.4728158E-2,9.914745E-2,1.130004E-2,2.6199901E-2,5.2712508E-2,-1.092717E-1,-7.386997E-2,-4.1964357E-3,-3.037556E-2,-3.3015054E-2,4.8513018E-2,3.590299E-2,1.0593464E-1,-2.303854E-3,6.550362E-2,1.2334845E-1,5.5790454E-2,-5.7450354E-2,-8.626543E-2,-5.5073723E-2,-2.8483614E-2,-1.7996896E-2,-4.459244E-2,-2.0768706E-2,2.0142656E-2,-7.9073645E-2,-6.0822014E-2,-1.00166194E-1,-6.964347E-2,-9.203911E-2,-1.959675E-2,-8.03776E-2,-5.2506015E-2,1.6766555E-3,-2.873174E-2,1.5574747E-3,4.630279E-2,1.7691927E-2,-2.4831094E-2,5.207408E-2,2.5708206E-2,-2.3431424E-2,3.7649553E-2,-3.7213877E-2,-4.8775587E-2,-1.4766492E-2,3.3644415E-2,-3.0261373E-2,-6.487511E-2],"categories":[],"categories_nodes":[],"categories_segments":[],"categories_sizes":[],"default_left":[0,0,0,0,0,0,0,0,0,0,0,0,0,0,0,0,0,0,0,0,0,0,0,0,0,0,0,0,0,0,0,0,0,0,0,0,0,0,0,0,0,0,0,0,0,0,0,0,0,0,0,0,0,0,0,0,0,0,0,0,0,0,0,0,0,0,0,0,0,0,0,0,0,0,0,0,0,0,0,0,0,0,0,0,0,0,0,0,0,0,0,0,0,0,0,0,0,0,0,0,0,0,0,0,0,0,0,0,0,0,0,0,0,0,0,0,0,0,0,0,0,0,0,0,0],"id":6,"left_children":[1,3,5,7,9,11,13,15,17,19,21,23,25,27,29,31,33,35,37,39,41,43,45,47,49,51,53,55,57,59,61,63,65,67,-1,69,71,73,75,77,79,81,83,85,87,89,91,93,95,97,99,101,103,105,107,109,111,113,115,117,119,121,123,-1,-1,-1,-1,-1,-1,-1,-1,-1,-1,-1,-1,-1,-1,-1,-1,-1,-1,-1,-1,-1,-1,-1,-1,-1,-1,-1,-1,-1,-1,-1,-1,-1,-1,-1,-1,-1,-1,-1,-1,-1,-1,-1,-1,-1,-1,-1,-1,-1,-1,-1,-1,-1,-1,-1,-1,-1,-1,-1,-1,-1,-1],"loss_changes":[6.888176E1,7.2693306E1,9.317486E0,9.952606E0,1.4793407E1,2.5375671E0,2.2812805E0,7.642937E-1,1.5262489E0,1.20140085E1,5.211731E0,2.167429E0,8.6785126E-1,7.079E-1,4.851172E-1,4.1671753E-2,2.3579407E-1,1.8540955E-1,8.2513714E-1,4.5463486E0,1.5703888E0,3.1097832E0,4.7901607E0,8.410511E-1,6.902046E-1,2.1863174E-1,4.6032858E-1,4.0286613E-1,1.6684532E-1,8.847046E-2,2.1869808E-1,6.349087E-4,9.6084595E-2,1.4188576E-1,0E0,9.49994E-2,1.1905527E-1,2.3104358E-1,4.8642397E-1,1.2791476E0,1.5236378E0,2.7178288E-2,8.3119464E-1,2.4367027E0,5.1952267E-1,3.8774621E0,7.080364E-1,3.0690193E-1,5.710211E-1,2.9582596E-1,3.7469262E-1,4.1093063E-1,1.0312748E-1,2.583585E-1,1.8618536E-1,1.4196694E-1,2.4892525E-1,8.290589E-2,7.638878E-2,6.847684E-2,3.537941E-2,2.3078364E-1,5.5497408E-2,0E0,0E0,0E0,0E0,0E0,0E0,0E0,0E0,0E0,0E0,0E0,0E0,0E0,0E0,0E0,0E0,0E0,0E0,0E0,0E0,0E0,0E0,0E0,0E0,0E0,0E0,0E0,0E0,0E0,0E0,0E0,0E0,0E0,0E0,0E0,0E0,0E0,0E0,0E0,0E0,0E0,0E0,0E0,0E0,0E0,0E0,0E0,0E0,0E0,0E0,0E0,0E0,0E0,0E0,0E0,0E0,0E0,0E0,0E0,0E0,0E0,0E0],"parents":[2147483647,0,0,1,1,2,2,3,3,4,4,5,5,6,6,7,7,8,8,9,9,10,10,11,11,12,12,13,13,14,14,15,15,16,16,17,17,18,18,19,19,20,20,21,21,22,22,23,23,24,24,25,25,26,26,27,27,28,28,29,29,30,30,31,31,32,32,33,33,35,35,36,36,37,37,38,38,39,39,40,40,41,41,42,42,43,43,44,44,45,45,46,46,47,47,48,48,49,49,50,50,51,51,52,52,53,53,54,54,55,55,56,56,57,57,58,58,59,59,60,60,61,61,62,62],"right_children":[2,4,6,8,10,12,14,16,18,20,22,24,26,28,30,32,34,36,38,40,42,44,46,48,50,52,54,56,58,60,62,64,66,68,-1,70,72,74,76,78,80,82,84,86,88,90,92,94,96,98,100,102,104,106,108,110,112,114,116,118,120,122,124,-1,-1,-1,-1,-1,-1,-1,-1,-1,-1,-1,-1,-1,-1,-1,-1,-1,-1,-1,-1,-1,-1,-1,-1,-1,-1,-1,-1,-1,-1,-1,-1,-1,-1,-1,-1,-1,-1,-1,-1,-1,-1,-1,-1,-1,-1,-1,-1,-1,-1,-1,-1,-1,-1,-1,-1,-1,-1,-1,-1,-1,-1],"split_conditions":[1.1766617E0,-9.3811536E-1,1.3371298E0,-1.3249071E0,4.440961E-1,2.0861745E0,2.0861745E0,-1.0061691E0,-1.1997685E0,-9.665628E-2,8.524629E-2,3.0758137E-1,9.892544E-1,2.7961307E0,5.253003E-1,-1.7337793E0,-2.7855885E-1,-1.3073183E0,8.524629E-2,-1.702201E-1,-9.129574E-1,2.0794284E0,3.313749E0,-6.4517754E-1,3.861141E-1,2.6318822E0,2.2680771E0,-3.0981705E-1,1.7733476E-1,4.9328953E-1,2.4499795E0,-1.9382852E-1,-1.5518768E0,-1.3761001E0,-9.806539E-2,-1.2509615E0,-4.604614E-1,1.6619878E0,-1.0632539E0,-6.4236397E-1,4.325095E-1,-2.5599945E0,2.6714885E-1,-1.5392953E0,-2.9543552E0,2.3811166E0,6.3095397E-1,1.5404668E0,5.9489346E-1,1.3585643E0,3.3554204E0,4.5928176E-2,6.91529E-1,-5.968286E-1,-2.4700963E-1,1.3585643E0,3.7033858E0,2.9226718E0,1.7223693E0,2.7012557E-1,2.2680771E0,2.3811166E0,2.8137848E0,-3.8085654E-2,-1.01542175E-2,-8.987965E-2,-7.137548E-2,-5.977327E-2,-4.9764317E-2,-1.2817164E-1,-1.0071016E-2,-5.3571153E-2,-3.2707594E-2,-8.19415E-3,9.408627E-2,-2.1425694E-2,-5.4728158E-2,9.914745E-2,1.130004E-2,2.6199901E-2,5.2712508E-2,-1.092717E-1,-7.386997E-2,-4.1964357E-3,-3.037556E-2,-3.3015054E-2,4.8513018E-2,3.590299E-2,1.0593464E-1,-2.303854E-3,6.550362E-2,1.2334845E-1,5.5790454E-2,-5.7450354E-2,-8.626543E-2,-5.5073723E-2,-2.8483614E-2,-1.7996896E-2,-4.459244E-2,-2.0768706E-2,2.0142656E-2,-7.9073645E-2,-6.0822014E-2,-1.00166194E-1,-6.964347E-2,-9.203911E-2,-1.959675E-2,-8.03776E-2,-5.2506015E-2,1.6766555E-3,-2.873174E-2,1.5574747E-3,4.630279E-2,1.7691927E-2,-2.4831094E-2,5.207408E-2,2.5708206E-2,-2.3431424E-2,3.7649553E-2,-3.7213877E-2,-4.8775587E-2,-1.4766492E-2,3.3644415E-2,-3.0261373E-2,-6.487511E-2],"split_indices":[2,1,1,1,1,2,2,2,1,2,2,1,0,1,0,2,2,0,2,1,0,1,1,1,0,2,2,0,0,3,2,0,2,1,0,1,2,0,1,2,0,0,2,0,0,0,2,2,0,2,0,1,1,1,1,2,0,3,2,0,2,0,2,0,0,0,0,0,0,0,0,0,0,0,0,0,0,0,0,0,0,0,0,0,0,0,0,0,0,0,0,0,0,0,0,0,0,0,0,0,0,0,0,0,0,0,0,0,0,0,0,0,0,0,0,0,0,0,0,0,0,0,0,0,0],"split_type":[0,0,0,0,0,0,0,0,0,0,0,0,0,0,0,0,0,0,0,0,0,0,0,0,0,0,0,0,0,0,0,0,0,0,0,0,0,0,0,0,0,0,0,0,0,0,0,0,0,0,0,0,0,0,0,0,0,0,0,0,0,0,0,0,0,0,0,0,0,0,0,0,0,0,0,0,0,0,0,0,0,0,0,0,0,0,0,0,0,0,0,0,0,0,0,0,0,0,0,0,0,0,0,0,0,0,0,0,0,0,0,0,0,0,0,0,0,0,0,0,0,0,0,0,0],"sum_hessian":[1.3783E4,1.1241E4,2.542E3,2.293E3,8.948E3,1.926E3,6.16E2,9.41E2,1.352E3,6.517E3,2.431E3,1.136E3,7.9E2,3.29E2,2.87E2,2.98E2,6.43E2,4.87E2,8.65E2,5.948E3,5.69E2,1.821E3,6.1E2,6.81E2,4.55E2,5.91E2,1.99E2,2.53E2,7.6E1,1.69E2,1.18E2,5E0,2.93E2,6.31E2,1.2E1,3E0,4.84E2,6.26E2,2.39E2,3.486E3,2.462E3,3.3E1,5.36E2,1.71E3,1.11E2,5.47E2,6.3E1,1.66E2,5.15E2,2.61E2,1.94E2,5.12E2,7.9E1,5.5E1,1.44E2,7.5E1,1.78E2,2.9E1,4.7E1,1.2E1,1.57E2,8.9E1,2.9E1,4E0,1E0,4.9E1,2.44E2,2.87E2,3.44E2,2E0,1E0,2.8E1,4.56E2,6.25E2,1E0,1.89E2,5E1,1.4E1,3.472E3,2.248E3,2.14E2,1.2E1,2.1E1,1.53E2,3.83E2,3.3E1,1.677E3,1.2E1,9.9E1,4.57E2,9E1,3.6E1,2.7E1,6.5E1,1.01E2,4.23E2,9.2E1,4.8E1,2.13E2,1.72E2,2.2E1,2.9E2,2.22E2,5.1E1,2.8E1,4E0,5.1E1,3.3E1,1.11E2,1.8E1,5.7E1,1.67E2,1.1E1,2.5E1,4E0,2.5E1,2.2E1,1.1E1,1E0,6.4E1,9.3E1,8E1,9E0,2.3E1,6E0],"tree_param":{"num_deleted":"0","num_feature":"4","num_nodes":"125","size_leaf_vector":"1"}},{"base_weights":[-4.8681896E-4,2.180775E-2,-1.1245619E-1,-8.8633075E-2,4.9544785E-2,-1.4638598E-1,-5.601237E-2,-1.3522513E-1,-4.1190464E-2,2.5489021E-2,8.674815E-2,-1.6959605E-1,-1.2538281E-1,-7.058813E-2,2.649123E-2,-1.633878E-1,-1.158485E-1,-3.3710063E-2,-1.0196086E-1,3.868647E-2,-5.076359E-2,7.651207E-2,1.909694E-1,-1.3042729E-1,-1.8509047E-1,-1.1352153E-1,-1.8250506E-1,-8.157058E-2,2.5281083E-2,1.765378E-2,9.013724E-2,-1.8073949E-1,-1.4804131E-1,-1.10878795E-1,-2.5579733E-1,-2.7518284E-1,-3.201152E-2,-7.6459184E-2,-1.3010143E-1,1.1426477E-1,3.4346648E-2,-6.8689995E-2,1.49546E-1,9.411919E-2,-8.480317E-3,2.2583075E-1,1.1572319E-1,-2.233322E-1,-1.1608196E-1,-1.8059912E-1,-2.2899495E-1,-1.7944507E-1,-9.8364E-2,-1.963549E-1,-1.284537E-1,-6.2100686E-2,-1.22717924E-1,-1.5426215E-2,7.6020285E-2,2.6741354E-2,-1.0446568E-1,-1.288755E-2,-5.4546412E-2,-4.473609E-2,-2.2019267E-3,-3.7665073E-2,-2.4716899E-2,-9.5028326E-2,-5.2055147E-2,-4.2593606E-2,-1.018774E-1,-1.8433597E-2,-6.1978665E-3,-5.6848384E-2,-2.1048822E-2,-5.6220066E-2,-1.571165E-2,6.0719505E-2,2.9995138E-2,6.2995446E-3,1.4968007E-2,-5.6689385E-2,-1.6789887E-2,-2.32139E-2,5.5641994E-2,2.6605986E-2,9.447157E-2,-7.848442E-3,2.8354017E-2,6.047498E-2,9.112669E-2,2.6748035E-2,7.6874286E-2,-8.5109875E-2,-5.1493302E-2,-3.8341437E-2,-2.2738446E-2,-6.918723E-2,-5.27997E-2,-7.324894E-2,-3.6132194E-2,-4.273046E-2,-6.579018E-2,-3.2235943E-2,-6.2663523E-3,-6.648445E-2,-5.032205E-2,-2.316501E-2,-5.8381423E-2,-3.118989E-2,-1.3055506E-2,-5.1993072E-2,-2.965301E-2,-8.474472E-3,1.6365325E-2,3.4403577E-2,-8.468251E-3,-1.2013809E-2,1.3210649E-2,2.8134357E-2,-4.229076E-2],"categories":[],"categories_nodes":[],"categories_segments":[],"categories_sizes":[],"default_left":[0,0,0,0,0,0,0,0,0,0,0,0,0,0,0,0,0,0,0,0,0,0,0,0,0,0,0,0,0,0,0,0,0,0,0,0,0,0,0,0,0,0,0,0,0,0,0,0,0,0,0,0,0,0,0,0,0,0,0,0,0,0,0,0,0,0,0,0,0,0,0,0,0,0,0,0,0,0,0,0,0,0,0,0,0,0,0,0,0,0,0,0,0,0,0,0,0,0,0,0,0,0,0,0,0,0,0,0,0,0,0,0,0,0,0,0,0,0,0,0,0],"id":7,"left_children":[1,3,5,7,9,11,13,15,17,19,21,23,25,27,29,31,33,35,37,39,41,43,45,47,49,51,53,55,57,59,-1,61,63,65,67,69,71,73,75,77,79,81,83,85,87,89,91,93,95,97,99,101,103,105,107,109,111,113,115,117,119,-1,-1,-1,-1,-1,-1,-1,-1,-1,-1,-1,-1,-1,-1,-1,-1,-1,-1,-1,-1,-1,-1,-1,-1,-1,-1,-1,-1,-1,-1,-1,-1,-1,-1,-1,-1,-1,-1,-1,-1,-1,-1,-1,-1,-1,-1,-1,-1,-1,-1,-1,-1,-1,-1,-1,-1,-1,-1,-1,-1],"loss_changes":[3.4411575E1,3.5220104E1,4.3755283E0,5.0961456E0,8.221533E0,6.75354E-1,1.0372677E0,6.1626244E-1,5.1706505E-1,5.6193533E0,3.834465E0,3.8612175E-1,4.901495E-1,7.7276945E-1,3.0944702E-1,9.893131E-2,4.5362186E-1,4.0995562E-1,7.97565E-2,1.5570111E0,2.969117E0,4.9196987E0,8.1853104E-1,2.3396182E-1,5.368805E-2,6.088705E-1,7.05986E-2,5.1872444E-1,1.5814734E-1,1.437343E-1,0E0,2.453518E-2,3.777075E-2,2.7011776E-1,6.0407043E-2,1.1841595E-2,3.3787417E-1,3.5101593E-2,2.4850547E-1,3.044908E-1,9.33208E-1,1.1478906E0,5.6874406E-1,3.2381363E0,1.0313646E0,3.525648E-1,3.6536026E-1,2.931118E-2,7.107282E-2,6.11248E-2,3.810191E-2,1.3987064E-1,3.5830164E-1,3.5106897E-2,8.3265305E-2,3.4400213E-1,2.3652196E-1,4.0122747E-2,1.4025855E-1,1.3921207E-1,7.835061E-2,0E0,0E0,0E0,0E0,0E0,0E0,0E0,0E0,0E0,0E0,0E0,0E0,0E0,0E0,0E0,0E0,0E0,0E0,0E0,0E0,0E0,0E0,0E0,0E0,0E0,0E0,0E0,0E0,0E0,0E0,0E0,0E0,0E0,0E0,0E0,0E0,0E0,0E0,0E0,0E0,0E0,0E0,0E0,0E0,0E0,0E0,0E0,0E0,0E0,0E0,0E0,0E0,0E0,0E0,0E0,0E0,0E0,0E0,0E0,0E0],"parents":[2147483647,0,0,1,1,2,2,3,3,4,4,5,5,6,6,7,7,8,8,9,9,10,10,11,11,12,12,13,13,14,14,15,15,16,16,17,17,18,18,19,19,20,20,21,21,22,22,23,23,24,24,25,25,26,26,27,27,28,28,29,29,31,31,32,32,33,33,34,34,35,35,36,36,37,37,38,38,39,39,40,40,41,41,42,42,43,43,44,44,45,45,46,46,47,47,48,48,49,49,50,50,51,51,52,52,53,53,54,54,55,55,56,56,57,57,58,58,59,59,60,60],"right_children":[2,4,6,8,10,12,14,16,18,20,22,24,26,28,30,32,34,36,38,40,42,44,46,48,50,52,54,56,58,60,-1,62,64,66,68,70,72,74,76,78,80,82,84,86,88,90,92,94,96,98,100,102,104,106,108,110,112,114,116,118,120,-1,-1,-1,-1,-1,-1,-1,-1,-1,-1,-1,-1,-1,-1,-1,-1,-1,-1,-1,-1,-1,-1,-1,-1,-1,-1,-1,-1,-1,-1,-1,-1,-1,-1,-1,-1,-1,-1,-1,-1,-1,-1,-1,-1,-1,-1,-1,-1,-1,-1,-1,-1,-1,-1,-1,-1,-1,-1,-1,-1],"split_conditions":[1.3585643E0,-9.3811536E-1,8.1951153E-1,-1.2907784E0,3.8148526E-2,1.3093935E-1,2.508881E0,-6.4236397E-1,2.6714885E-1,-2.7855885E-1,1.6841047E0,1.7223693E0,2.4499795E0,2.0563488E0,4.028154E0,-1.1880716E0,8.524629E-2,-1.3073183E0,4.490514E-1,-6.4236397E-1,2.508881E0,8.524629E-2,6.3095397E-1,-9.267391E-1,2.6318822E0,-3.9490056E-1,3.7033858E0,2.2680771E0,3.7033858E0,2.4499795E0,9.013724E-2,-1.915682E0,-1.3761001E0,-4.604614E-1,-1.3362832E0,8.524629E-2,-1.1599518E0,-1.2623378E0,9.9475914E-1,-8.2426655E-1,-3.2664323E-1,-2.5599945E0,-3.4647048E0,2.0563488E0,2.9378614E0,2.7961307E0,2.6594892E0,-1.1997685E0,3.4171003E-1,-7.2481114E-1,6.91529E-1,7.3622775E-1,2.9378614E0,1.682226E-1,2.8137848E0,-2.8661934E-1,1.4053872E0,2.156218E0,2.4499795E0,-3.0981705E-1,-3.3301476E-1,-1.288755E-2,-5.4546412E-2,-4.473609E-2,-2.2019267E-3,-3.7665073E-2,-2.4716899E-2,-9.5028326E-2,-5.2055147E-2,-4.2593606E-2,-1.018774E-1,-1.8433597E-2,-6.1978665E-3,-5.6848384E-2,-2.1048822E-2,-5.6220066E-2,-1.571165E-2,6.0719505E-2,2.9995138E-2,6.2995446E-3,1.4968007E-2,-5.6689385E-2,-1.6789887E-2,-2.32139E-2,5.5641994E-2,2.6605986E-2,9.447157E-2,-7.848442E-3,2.8354017E-2,6.047498E-2,9.112669E-2,2.6748035E-2,7.6874286E-2,-8.5109875E-2,-5.1493302E-2,-3.8341437E-2,-2.2738446E-2,-6.918723E-2,-5.27997E-2,-7.324894E-2,-3.6132194E-2,-4.273046E-2,-6.579018E-2,-3.2235943E-2,-6.2663523E-3,-6.648445E-2,-5.032205E-2,-2.316501E-2,-5.8381423E-2,-3.118989E-2,-1.3055506E-2,-5.1993072E-2,-2.965301E-2,-8.474472E-3,1.6365325E-2,3.4403577E-2,-8.468251E-3,-1.2013809E-2,1.3210649E-2,2.8134357E-2,-4.229076E-2],"split_indices":[2,1,1,1,0,0,1,2,2,2,1,2,2,0,0,2,2,0,2,2,1,2,2,1,2,1,0,2,0,2,0,2,1,2,1,2,1,1,2,2,1,0,0,0,0,1,0,1,1,1,1,3,0,1,2,0,1,1,2,0,0,0,0,0,0,0,0,0,0,0,0,0,0,0,0,0,0,0,0,0,0,0,0,0,0,0,0,0,0,0,0,0,0,0,0,0,0,0,0,0,0,0,0,0,0,0,0,0,0,0,0,0,0,0,0,0,0,0,0,0,0],"split_type":[0,0,0,0,0,0,0,0,0,0,0,0,0,0,0,0,0,0,0,0,0,0,0,0,0,0,0,0,0,0,0,0,0,0,0,0,0,0,0,0,0,0,0,0,0,0,0,0,0,0,0,0,0,0,0,0,0,0,0,0,0,0,0,0,0,0,0,0,0,0,0,0,0,0,0,0,0,0,0,0,0,0,0,0,0,0,0,0,0,0,0,0,0,0,0,0,0,0,0,0,0,0,0,0,0,0,0,0,0,0,0,0,0,0,0,0,0,0,0,0,0],"sum_hessian":[1.3783E4,1.1495E4,2.288E3,2.307E3,9.188E3,1.428E3,8.6E2,1.163E3,1.144E3,5.581E3,3.607E3,6.75E2,7.53E2,7.31E2,1.29E2,4.71E2,6.92E2,1.02E3,1.24E2,4.758E3,8.23E2,3.286E3,3.21E2,1.94E2,4.81E2,6.26E2,1.27E2,6.56E2,7.5E1,1.26E2,3E0,2.16E2,2.55E2,6.7E2,2.2E1,6E0,1.014E3,6.7E1,5.7E1,2.57E2,4.501E3,7.56E2,6.7E1,2.722E3,5.64E2,2.18E2,1.03E2,2.4E1,1.7E2,4.41E2,4E1,1.15E2,5.11E2,9.9E1,2.8E1,4.47E2,2.09E2,4.2E1,3.3E1,1.18E2,8E0,2E0,2.14E2,2.53E2,2E0,4.4E2,2.3E2,1.1E1,1.1E1,3E0,3E0,2.81E2,7.33E2,2E0,6.5E1,3.2E1,2.5E1,3.4E1,2.23E2,2.423E3,2.078E3,7.1E1,6.85E2,9E0,5.8E1,2.658E3,6.4E1,4.82E2,8.2E1,1.69E2,4.9E1,8.8E1,1.5E1,9E0,1.5E1,1.3E2,4E1,3.3E1,4.08E2,3.4E1,6E0,6.2E1,5.3E1,4.57E2,5.4E1,4.9E1,5E1,1.7E1,1.1E1,1.36E2,3.11E2,6.5E1,1.44E2,3.6E1,6E0,2.4E1,9E0,2.4E1,9.4E1,1E0,7E0],"tree_param":{"num_deleted":"0","num_feature":"4","num_nodes":"121","size_leaf_vector":"1"}},{"base_weights":[-4.1072545E-4,1.9696496E-2,-6.356503E-2,-5.8423594E-2,4.236383E-2,-8.6734734E-2,-6.88089E-3,-9.068545E-2,-2.1051561E-2,2.8536735E-2,9.05058E-2,-1.3601083E-1,-7.619789E-2,-1.5097605E-2,1.6582651E-1,-1.0958965E-1,-7.068268E-2,1.1628971E-1,-2.2534726E-2,1.2029354E-2,4.1704334E-2,8.4955215E-2,2.4289982E-1,-1.8507253E-1,-1.2703389E-1,-4.7508232E-2,-1.0066583E-1,-2.204799E-2,1.3905707E-1,2.4955823E-1,1.1843311E-1,-1.3460997E-1,-1.02915294E-1,-8.324457E-2,-6.0639467E-2,-2.008721E-1,-2.1027716E-2,1.4990572E-2,-7.3249355E-2,-1.5694956E-1,4.300492E-2,7.822934E-2,2.0102035E-1,2.7193993E-1,1.5519175E-1,-9.3351886E-2,-1.9323273E-1,-1.3709179E-1,-9.028689E-2,-6.80583E-2,-1.5230468E-2,-1.21941835E-1,-7.7154934E-2,5.3165876E-4,-6.0767483E-2,1.0382798E-1,2.4886528E-1,2.9020584E-1,1.1022184E-1,1.3320471E-1,-5.8912873E-2,-4.0783983E-2,6.2736156E-3,-3.0536264E-2,-7.843652E-2,-2.4528446E-2,-7.255182E-2,-1.7717589E-2,-5.4311078E-2,-2.3009548E-2,-8.5461386E-2,-2.594074E-3,-1.0911059E-2,4.299636E-3,5.2448694E-2,-3.471592E-2,-4.8312964E-4,1.7437033E-2,-5.763501E-2,1.2467727E-2,5.650929E-2,2.6292864E-2,-1.970048E-3,8.8068455E-2,4.1873682E-2,5.8369216E-2,9.317674E-2,1.6467825E-2,7.481747E-2,-1.1325643E-2,-3.7684098E-2,-6.5003775E-2,-4.205852E-2,-4.692812E-2,-3.6880016E-2,-1.6662886E-2,-3.8467433E-2,-2.8098097E-2,-1.6500417E-2,-1.1697197E-2,-3.2323715E-4,-5.283926E-2,-3.44841E-2,-2.5448704E-2,2.0202536E-3,-3.5484605E-2,3.3429328E-3,-2.610186E-2,-1.0942513E-2,4.8362616E-2,1.6824843E-2,-4.628E-3,8.5149035E-2,1.8047191E-2,9.215849E-2,4.1498594E-2,-3.3080578E-4,3.3821758E-2,7.985132E-2,-2.893636E-2,2.4255663E-3],"categories":[],"categories_nodes":[],"categories_segments":[],"categories_sizes":[],"default_left":[0,0,0,0,0,0,0,0,0,0,0,0,0,0,0,0,0,0,0,0,0,0,0,0,0,0,0,0,0,0,0,0,0,0,0,0,0,0,0,0,0,0,0,0,0,0,0,0,0,0,0,0,0,0,0,0,0,0,0,0,0,0,0,0,0,0,0,0,0,0,0,0,0,0,0,0,0,0,0,0,0,0,0,0,0,0,0,0,0,0,0,0,0,0,0,0,0,0,0,0,0,0,0,0,0,0,0,0,0,0,0,0,0,0,0,0,0,0,0,0,0],"id":8,"left_children":[1,3,5,7,9,11,13,15,17,19,21,23,25,27,29,31,33,-1,35,37,39,41,43,45,47,49,51,53,55,57,59,61,63,65,67,69,71,73,75,77,79,81,83,85,87,89,91,93,95,97,99,101,103,105,107,109,111,113,115,117,119,-1,-1,-1,-1,-1,-1,-1,-1,-1,-1,-1,-1,-1,-1,-1,-1,-1,-1,-1,-1,-1,-1,-1,-1,-1,-1,-1,-1,-1,-1,-1,-1,-1,-1,-1,-1,-1,-1,-1,-1,-1,-1,-1,-1,-1,-1,-1,-1,-1,-1,-1,-1,-1,-1,-1,-1,-1,-1,-1,-1],"loss_changes":[1.750497E1,1.851769E1,4.37156E0,2.8338766E0,5.392622E0,1.2165413E0,1.3747612E0,4.694624E-1,6.700405E-1,1.3684483E0,1.5087099E0,1.5926504E-1,1.36337E0,9.930711E-1,1.4505064E-1,9.4192505E-2,7.26676E-2,0E0,2.8818285E-1,7.0716846E-1,9.118066E-1,1.347271E0,1.1826134E-1,2.8366089E-2,1.184597E-1,5.9527946E-1,5.163212E-1,7.7376354E-1,1.2889856E-1,5.2968323E-2,8.6438E-2,3.0489922E-2,6.546593E-2,4.3968797E-2,5.5162072E-2,7.202512E-2,2.0483392E-1,2.8197432E-1,2.858116E-1,1.8512696E-1,7.2375584E-1,1.3192549E0,4.9918127E-1,7.7133894E-2,1.5637684E-1,7.814042E-3,3.926134E-2,5.6326866E-2,9.7008884E-2,1.7837E-1,1.1799164E-1,1.882286E-1,3.2374477E-1,7.0735776E-1,2.0461965E-1,7.8627884E-2,8.7546825E-2,2.4511516E-2,1.5797418E-2,4.6186417E-2,8.325514E-3,0E0,0E0,0E0,0E0,0E0,0E0,0E0,0E0,0E0,0E0,0E0,0E0,0E0,0E0,0E0,0E0,0E0,0E0,0E0,0E0,0E0,0E0,0E0,0E0,0E0,0E0,0E0,0E0,0E0,0E0,0E0,0E0,0E0,0E0,0E0,0E0,0E0,0E0,0E0,0E0,0E0,0E0,0E0,0E0,0E0,0E0,0E0,0E0,0E0,0E0,0E0,0E0,0E0,0E0,0E0,0E0,0E0,0E0,0E0,0E0],"parents":[2147483647,0,0,1,1,2,2,3,3,4,4,5,5,6,6,7,7,8,8,9,9,10,10,11,11,12,12,13,13,14,14,15,15,16,16,18,18,19,19,20,20,21,21,22,22,23,23,24,24,25,25,26,26,27,27,28,28,29,29,30,30,31,31,32,32,33,33,34,34,35,35,36,36,37,37,38,38,39,39,40,40,41,41,42,42,43,43,44,44,45,45,46,46,47,47,48,48,49,49,50,50,51,51,52,52,53,53,54,54,55,55,56,56,57,57,58,58,59,59,60,60],"right_children":[2,4,6,8,10,12,14,16,18,20,22,24,26,28,30,32,34,-1,36,38,40,42,44,46,48,50,52,54,56,58,60,62,64,66,68,70,72,74,76,78,80,82,84,86,88,90,92,94,96,98,100,102,104,106,108,110,112,114,116,118,120,-1,-1,-1,-1,-1,-1,-1,-1,-1,-1,-1,-1,-1,-1,-1,-1,-1,-1,-1,-1,-1,-1,-1,-1,-1,-1,-1,-1,-1,-1,-1,-1,-1,-1,-1,-1,-1,-1,-1,-1,-1,-1,-1,-1,-1,-1,-1,-1,-1,-1,-1,-1,-1,-1,-1,-1,-1,-1,-1,-1],"split_conditions":[4.490514E-1,-9.153629E-1,1.1835507E0,-1.2623378E0,5.3226185E-1,-4.0260786E-1,3.8996246E0,-1.3590357E0,-1.0061691E0,-3.1242293E-1,2.7961307E0,-2.9543552E0,1.7223693E0,3.7033858E0,8.1285655E-1,-1.3699743E0,-4.604614E-1,1.1628971E-1,-9.129574E-1,-9.665628E-2,-1.098539E0,1.4996039E0,2.6714885E-1,-2.355252E-1,5.9483105E-1,2.8767297E-1,4.5928176E-2,2.0861745E0,2.2614481E0,2.9226718E0,2.0563488E0,-1.421605E0,-5.4642294E-2,-1.276558E0,2.6714885E-1,8.524629E-2,-9.665628E-2,8.036728E-1,7.413037E-3,-8.2426655E-1,2.6594892E0,-9.665628E-2,-9.665628E-2,3.000903E0,3.8996246E0,-4.160636E0,2.4499795E0,-8.201665E-1,1.2221042E0,9.9475914E-1,9.9475914E-1,-6.764622E-1,4.028154E0,-2.5599945E0,2.0053245E-1,9.9475914E-1,4.028154E0,-2.5599945E0,6.3095397E-1,3.16561E0,2.6594892E0,-4.0783983E-2,6.2736156E-3,-3.0536264E-2,-7.843652E-2,-2.4528446E-2,-7.255182E-2,-1.7717589E-2,-5.4311078E-2,-2.3009548E-2,-8.5461386E-2,-2.594074E-3,-1.0911059E-2,4.299636E-3,5.2448694E-2,-3.471592E-2,-4.8312964E-4,1.7437033E-2,-5.763501E-2,1.2467727E-2,5.650929E-2,2.6292864E-2,-1.970048E-3,8.8068455E-2,4.1873682E-2,5.8369216E-2,9.317674E-2,1.6467825E-2,7.481747E-2,-1.1325643E-2,-3.7684098E-2,-6.5003775E-2,-4.205852E-2,-4.692812E-2,-3.6880016E-2,-1.6662886E-2,-3.8467433E-2,-2.8098097E-2,-1.6500417E-2,-1.1697197E-2,-3.2323715E-4,-5.283926E-2,-3.44841E-2,-2.5448704E-2,2.0202536E-3,-3.5484605E-2,3.3429328E-3,-2.610186E-2,-1.0942513E-2,4.8362616E-2,1.6824843E-2,-4.628E-3,8.5149035E-2,1.8047191E-2,9.215849E-2,4.1498594E-2,-3.3080578E-4,3.3821758E-2,7.985132E-2,-2.893636E-2,2.4255663E-3],"split_indices":[2,1,1,1,1,0,1,1,2,1,1,0,2,0,2,2,2,0,0,2,0,0,2,3,1,1,1,2,1,3,0,1,0,1,2,2,2,0,3,2,0,2,2,1,1,0,2,0,3,2,2,1,0,0,0,2,0,0,2,3,0,0,0,0,0,0,0,0,0,0,0,0,0,0,0,0,0,0,0,0,0,0,0,0,0,0,0,0,0,0,0,0,0,0,0,0,0,0,0,0,0,0,0,0,0,0,0,0,0,0,0,0,0,0,0,0,0,0,0,0,0],"split_type":[0,0,0,0,0,0,0,0,0,0,0,0,0,0,0,0,0,0,0,0,0,0,0,0,0,0,0,0,0,0,0,0,0,0,0,0,0,0,0,0,0,0,0,0,0,0,0,0,0,0,0,0,0,0,0,0,0,0,0,0,0,0,0,0,0,0,0,0,0,0,0,0,0,0,0,0,0,0,0,0,0,0,0,0,0,0,0,0,0,0,0,0,0,0,0,0,0,0,0,0,0,0,0,0,0,0,0,0,0,0,0,0,0,0,0,0,0,0,0,0,0],"sum_hessian":[1.3783E4,1.0455E4,3.328E3,2.351E3,8.104E3,2.362E3,9.66E2,1.261E3,1.09E3,6.297E3,1.807E3,4.14E2,1.948E3,9.23E2,4.3E1,6.46E2,6.15E2,3E0,1.087E3,2.795E3,3.502E3,1.745E3,6.2E1,6.1E1,3.53E2,8.98E2,1.05E3,8.84E2,3.9E1,1.4E1,2.9E1,1.32E2,5.14E2,2.7E2,3.45E2,8E0,1.079E3,2.702E3,9.3E1,2.2E1,3.48E3,1.651E3,9.4E1,4.5E1,1.7E1,6E0,5.5E1,2.75E2,7.8E1,5.48E2,3.5E2,5.49E2,5.01E2,5.59E2,3.25E2,3.1E1,8E0,1E1,4E0,2.7E1,2E0,1.31E2,1E0,5.12E2,2E0,2.69E2,1E0,3.42E2,3E0,4E0,4E0,5.98E2,4.81E2,2.692E3,1E1,5.8E1,3.5E1,3E0,1.9E1,3.447E3,3.3E1,1.486E3,1.65E2,3.6E1,5.8E1,1.7E1,2.8E1,9E0,8E0,3E0,3E0,3.6E1,1.9E1,1.12E2,1.63E2,4.2E1,3.6E1,1.83E2,3.65E2,1.3E2,2.2E2,6E1,4.89E2,4.59E2,4.2E1,4.5E1,5.14E2,1.55E2,1.7E2,1.3E1,1.8E1,1E0,7E0,1E0,9E0,3E0,1E0,2.5E1,2E0,1E0,1E0],"tree_param":{"num_deleted":"0","num_feature":"4","num_nodes":"121","size_leaf_vector":"1"}},{"base_weights":[-2.8883046E-4,1.09651545E-2,-5.6809373E-2,-3.5902113E-2,2.7690712E-2,-6.903101E-2,-1.2261061E-2,-6.500784E-2,-1.4357621E-2,8.872099E-2,2.2370989E-2,-8.155186E-2,-4.831328E-2,4.099839E-3,-4.40334E-2,-8.7684415E-2,-5.80794E-2,-1.52753955E-2,2.5327224E-1,6.281263E-2,1.1725042E-1,1.9491129E-2,1.01648666E-1,-7.397645E-2,-1.0553784E-1,-3.9811913E-2,-1.1624679E-1,-8.782542E-3,3.7605602E-2,-4.8804168E-2,5.748246E-2,-1.1002319E-1,-8.231169E-2,-5.710504E-2,-8.5048854E-2,-4.217651E-3,-3.7155643E-2,1.1333841E-1,2.8182343E-3,1.3150959E-1,5.3512674E-2,1.1539341E-1,1.14377186E-1,-9.103863E-2,2.1660438E-2,2.1722244E-1,8.3739825E-2,-1.4036356E-1,-7.096433E-2,-1.385267E-1,-9.373493E-2,-6.831273E-2,-2.062318E-2,1.4438224E-2,-1.2140947E-1,-3.8541183E-2,-1.987889E-3,2.2566952E-2,8.665982E-2,-4.174505E-2,-1.1016834E-1,1.0766719E-1,5.8381795E-3,-7.3312167E-3,-3.542791E-2,1.873988E-3,-2.4810072E-2,-1.6522646E-2,-3.8123015E-2,-3.6284176E-3,3.6084743E-3,-6.778196E-3,-2.9622225E-2,-1.4453911E-2,1.5722116E-2,-2.0961598E-2,4.2997643E-2,5.9788544E-3,2.0669084E-2,3.0289238E-2,4.2862892E-2,-5.9679985E-2,-1.8705009E-2,7.7286786E-3,-4.453542E-3,4.7070965E-2,7.4542634E-2,1.8111985E-2,5.1117167E-2,-4.3419994E-2,-1.3215578E-2,-3.0045422E-2,-1.9770347E-2,-5.4899454E-3,-4.20144E-2,-2.5615865E-2,-3.7738994E-2,-2.4475174E-2,4.6996577E-3,-7.6072463E-3,7.7802064E-3,-2.9049622E-2,-5.0266102E-2,-1.2584467E-3,-2.3864124E-2,2.264203E-2,-3.3975733E-3,-2.3141762E-3,1.4283177E-2,1.1444267E-2,4.8217144E-2,-8.513166E-3,-1.9198313E-2,-1.4027632E-2,-3.6361344E-2,6.6165314E-3,3.865586E-2,6.834915E-3,-9.291194E-3],"categories":[],"categories_nodes":[],"categories_segments":[],"categories_sizes":[],"default_left":[0,0,0,0,0,0,0,0,0,0,0,0,0,0,0,0,0,0,0,0,0,0,0,0,0,0,0,0,0,0,0,0,0,0,0,0,0,0,0,0,0,0,0,0,0,0,0,0,0,0,0,0,0,0,0,0,0,0,0,0,0,0,0,0,0,0,0,0,0,0,0,0,0,0,0,0,0,0,0,0,0,0,0,0,0,0,0,0,0,0,0,0,0,0,0,0,0,0,0,0,0,0,0,0,0,0,0,0,0,0,0,0,0,0,0,0,0,0,0],"id":9,"left_children":[1,3,5,7,9,11,13,15,17,19,21,23,25,27,29,31,33,35,37,39,41,43,45,47,49,51,53,55,57,59,61,63,65,67,-1,69,71,-1,73,75,77,-1,79,81,83,85,87,89,91,93,95,97,99,-1,101,103,105,107,109,111,113,115,117,-1,-1,-1,-1,-1,-1,-1,-1,-1,-1,-1,-1,-1,-1,-1,-1,-1,-1,-1,-1,-1,-1,-1,-1,-1,-1,-1,-1,-1,-1,-1,-1,-1,-1,-1,-1,-1,-1,-1,-1,-1,-1,-1,-1,-1,-1,-1,-1,-1,-1,-1,-1,-1,-1,-1,-1],"loss_changes":[8.768369E0,9.012492E0,1.2454071E0,1.8953209E0,2.7488952E0,4.619484E-1,2.5697365E-1,1.969552E-1,4.3100893E-1,4.9451828E-1,1.7776833E0,1.953373E-1,3.8751328E-1,1.4147459E-1,8.416921E-2,2.6829958E-2,2.0081282E-1,4.1937795E-1,1.860582E-1,2.21681E-1,2.0339346E-1,1.8057854E0,5.468631E-1,1.606102E-1,9.0586185E-2,3.294623E-1,6.9489E-2,4.7844697E-2,6.5175876E-2,6.514248E-2,2.0105455E-2,3.510052E-2,8.946776E-3,1.3288212E-1,0E0,1.4769503E-1,5.196957E-1,0E0,1.0111738E-2,1.099534E-1,1.6240579E-1,0E0,1.07898235E-1,4.3642175E-1,1.1053092E0,2.8879046E-2,4.7159815E-1,8.775055E-3,1.14283085E-1,9.874344E-3,4.252565E-2,2.7209926E-1,8.066866E-2,0E0,6.656504E-2,6.1636053E-2,1.4117181E-1,5.4209635E-2,6.932202E-2,4.1608095E-2,5.529389E-3,4.4131316E-3,3.8242093E-3,0E0,0E0,0E0,0E0,0E0,0E0,0E0,0E0,0E0,0E0,0E0,0E0,0E0,0E0,0E0,0E0,0E0,0E0,0E0,0E0,0E0,0E0,0E0,0E0,0E0,0E0,0E0,0E0,0E0,0E0,0E0,0E0,0E0,0E0,0E0,0E0,0E0,0E0,0E0,0E0,0E0,0E0,0E0,0E0,0E0,0E0,0E0,0E0,0E0,0E0,0E0,0E0,0E0,0E0,0E0,0E0],"parents":[2147483647,0,0,1,1,2,2,3,3,4,4,5,5,6,6,7,7,8,8,9,9,10,10,11,11,12,12,13,13,14,14,15,15,16,16,17,17,18,18,19,19,20,20,21,21,22,22,23,23,24,24,25,25,26,26,27,27,28,28,29,29,30,30,31,31,32,32,33,33,35,35,36,36,38,38,39,39,40,40,42,42,43,43,44,44,45,45,46,46,47,47,48,48,49,49,50,50,51,51,52,52,54,54,55,55,56,56,57,57,58,58,59,59,60,60,61,61,62,62],"right_children":[2,4,6,8,10,12,14,16,18,20,22,24,26,28,30,32,34,36,38,40,42,44,46,48,50,52,54,56,58,60,62,64,66,68,-1,70,72,-1,74,76,78,-1,80,82,84,86,88,90,92,94,96,98,100,-1,102,104,106,108,110,112,114,116,118,-1,-1,-1,-1,-1,-1,-1,-1,-1,-1,-1,-1,-1,-1,-1,-1,-1,-1,-1,-1,-1,-1,-1,-1,-1,-1,-1,-1,-1,-1,-1,-1,-1,-1,-1,-1,-1,-1,-1,-1,-1,-1,-1,-1,-1,-1,-1,-1,-1,-1,-1,-1,-1,-1,-1,-1],"split_conditions":[1.3585643E0,-7.532517E-1,1.4395158E0,-1.2623378E0,-6.4236397E-1,3.861141E-1,2.2680771E0,-1.0061691E0,2.0563488E0,1.7733476E-1,2.156218E0,2.2680771E0,2.6318822E0,8.7326586E-1,3.3554204E0,-1.5518768E0,9.79166E-1,-9.665628E-2,-9.267391E-1,-8.2426655E-1,-1.0061691E0,-1.098539E0,-2.7855885E-1,-9.267391E-1,-1.446236E-1,8.858902E-2,-9.643399E-1,-1.098539E0,2.7961307E0,2.8137848E0,2.4499795E0,-1.7337793E0,-1.3073183E0,2.6714885E-1,-8.5048854E-2,-3.0981705E-1,-1.0348133E0,1.1333841E-1,3.7033858E0,-2.2120287E0,8.593283E-1,1.1539341E-1,1.5902508E0,-3.4647048E0,4.490514E-1,-4.604614E-1,3.8996246E0,-8.246884E-3,-7.505734E-1,-5.882964E-1,2.8137848E0,4.028154E0,4.028154E0,1.4438224E-2,2.9956872E0,1.9912628E0,1.2221042E0,1.7223693E0,1.4996039E0,2.6797338E0,1.5134612E0,3.7033858E0,2.156218E0,-7.3312167E-3,-3.542791E-2,1.873988E-3,-2.4810072E-2,-1.6522646E-2,-3.8123015E-2,-3.6284176E-3,3.6084743E-3,-6.778196E-3,-2.9622225E-2,-1.4453911E-2,1.5722116E-2,-2.0961598E-2,4.2997643E-2,5.9788544E-3,2.0669084E-2,3.0289238E-2,4.2862892E-2,-5.9679985E-2,-1.8705009E-2,7.7286786E-3,-4.453542E-3,4.7070965E-2,7.4542634E-2,1.8111985E-2,5.1117167E-2,-4.3419994E-2,-1.3215578E-2,-3.0045422E-2,-1.9770347E-2,-5.4899454E-3,-4.20144E-2,-2.5615865E-2,-3.7738994E-2,-2.4475174E-2,4.6996577E-3,-7.6072463E-3,7.7802064E-3,-2.9049622E-2,-5.0266102E-2,-1.2584467E-3,-2.3864124E-2,2.264203E-2,-3.3975733E-3,-2.3141762E-3,1.4283177E-2,1.1444267E-2,4.8217144E-2,-8.513166E-3,-1.9198313E-2,-1.4027632E-2,-3.6361344E-2,6.6165314E-3,3.865586E-2,6.834915E-3,-9.291194E-3],"split_indices":[2,1,1,1,2,0,2,2,0,0,1,2,2,0,0,2,3,2,1,2,2,0,2,1,1,1,3,0,1,2,2,2,0,2,0,0,1,0,0,0,1,0,1,0,2,2,1,0,0,1,2,0,0,0,2,1,3,2,0,3,1,0,1,0,0,0,0,0,0,0,0,0,0,0,0,0,0,0,0,0,0,0,0,0,0,0,0,0,0,0,0,0,0,0,0,0,0,0,0,0,0,0,0,0,0,0,0,0,0,0,0,0,0,0,0,0,0,0,0],"split_type":[0,0,0,0,0,0,0,0,0,0,0,0,0,0,0,0,0,0,0,0,0,0,0,0,0,0,0,0,0,0,0,0,0,0,0,0,0,0,0,0,0,0,0,0,0,0,0,0,0,0,0,0,0,0,0,0,0,0,0,0,0,0,0,0,0,0,0,0,0,0,0,0,0,0,0,0,0,0,0,0,0,0,0,0,0,0,0,0,0,0,0,0,0,0,0,0,0,0,0,0,0,0,0,0,0,0,0,0,0,0,0,0,0,0,0,0,0,0,0],"sum_hessian":[1.3783E4,1.1495E4,2.288E3,3.023E3,8.472E3,1.795E3,4.93E2,1.285E3,1.738E3,6.78E2,7.794E3,1.117E3,6.78E2,3.26E2,1.67E2,2.98E2,9.87E2,1.733E3,5E0,3.57E2,3.21E2,7.522E3,2.72E2,8.52E2,2.65E2,6.04E2,7.4E1,2.36E2,9E1,1.6E2,7E0,5.4E1,2.44E2,9.84E2,3E0,1.152E3,5.81E2,3E0,2E0,4.1E1,3.16E2,2E0,3.19E2,1.44E2,7.378E3,3.5E1,2.37E2,3.5E1,8.17E2,6.7E1,1.98E2,2.42E2,3.62E2,2E0,7.2E1,4.3E1,1.93E2,7E1,2E1,1.45E2,1.5E1,3E0,4E0,5E0,4.9E1,1E0,2.43E2,9.58E2,2.6E1,7.76E2,3.76E2,4.71E2,1.1E2,1E0,1E0,2E0,3.9E1,1E2,2.16E2,2.2E2,9.9E1,2.9E1,1.15E2,6.633E3,7.45E2,1.4E1,2.1E1,1.88E2,4.9E1,3.3E1,2E0,1.18E2,6.99E2,1E0,6.6E1,1.6E2,3.8E1,2.09E2,3.3E1,3.29E2,3.3E1,4.9E1,2.3E1,2.4E1,1.9E1,2E1,1.73E2,3.2E1,3.8E1,1.3E1,7E0,9.2E1,5.3E1,3E0,1.2E1,1E0,2E0,3E0,1E0],"tree_param":{"num_deleted":"0","num_feature":"4","num_nodes":"119","size_leaf_vector":"1"}},{"base_weights":[-2.0549067E-4,7.2698006E-3,-4.3193806E-2,-1.5708541E-2,2.4779137E-2,-5.15846E-2,-1.3979382E-2,-4.4650365E-2,-4.791278E-3,1.396856E-2,4.4085003E-2,-8.54105E-2,-4.7490045E-2,-1.7826825E-2,5.32175E-2,-5.6936685E-2,-3.5635807E-2,-1.028409E-4,-5.3649407E-2,-9.6625514E-2,1.5459763E-2,4.1398462E-2,1.4274468E-1,-1.4671871E-1,-7.5305775E-2,-5.6527413E-2,-2.7426781E-2,-2.0473152E-2,6.9244795E-2,2.2766402E-2,8.990377E-2,-7.779376E-2,-5.4677628E-2,-7.00263E-2,-3.4604914E-2,-8.026254E-4,2.1346802E-1,-1.4044774E-1,-4.6838738E-2,-1.1665757E-1,9.308987E-2,1.367901E-2,7.8312956E-2,5.3410582E-2,1.1306E-2,9.228054E-2,1.1999477E-1,-1.0149736E-1,-5.6047224E-2,-5.970562E-2,-1.0560597E-1,-1.0347075E-1,-5.3719755E-2,-1.750273E-2,-7.991597E-2,-1.6691793E-2,-7.29511E-2,7.94027E-2,-7.897515E-3,1.0532355E-2,2.9106459E-2,1.1604992E-1,-1.85026E-2,-5.4984037E-3,-2.5012134E-2,-1.612165E-2,-4.9619634E-2,-9.676853E-3,-3.1039538E-2,-4.1305088E-2,-9.344382E-5,8.25279E-2,2.5349827E-2,-2.6434664E-2,-5.2177545E-2,-1.5282665E-2,1.2276383E-2,-8.378634E-2,-2.8024258E-2,4.9965296E-2,-1.0766471E-2,5.6283623E-3,-4.789782E-3,1.961273E-2,5.875833E-2,1.4377388E-2,3.9616797E-2,1.7557333E-3,2.8952353E-2,2.5910605E-2,6.513172E-2,-1.8436754E-2,-3.56524E-2,-1.8842483E-2,3.711863E-2,-3.6678843E-2,-2.103804E-2,-1.808556E-2,-3.7016682E-2,-1.2580984E-2,-1.9394761E-2,-7.342136E-3,7.800232E-3,-1.6535789E-2,-3.5927884E-2,8.030205E-3,-6.261186E-3,-1.7081346E-2,-4.0567398E-2,2.7091118E-2,-6.076277E-3,-1.0343301E-2,9.59524E-3,3.7931483E-2,4.941474E-3,-1.3567529E-2,5.2413587E-3],"categories":[],"categories_nodes":[],"categories_segments":[],"categories_sizes":[],"default_left":[0,0,0,0,0,0,0,0,0,0,0,0,0,0,0,0,0,0,0,0,0,0,0,0,0,0,0,0,0,0,0,0,0,0,0,0,0,0,0,0,0,0,0,0,0,0,0,0,0,0,0,0,0,0,0,0,0,0,0,0,0,0,0,0,0,0,0,0,0,0,0,0,0,0,0,0,0,0,0,0,0,0,0,0,0,0,0,0,0,0,0,0,0,0,0,0,0,0,0,0,0,0,0,0,0,0,0,0,0,0,0,0,0,0,0,0,0],"id":10,"left_children":[1,3,5,7,9,11,13,15,17,19,21,23,25,27,29,31,33,35,37,39,41,43,45,47,49,51,53,55,57,59,61,63,65,-1,67,69,71,73,75,77,79,81,83,85,87,-1,89,91,-1,93,95,97,99,101,103,105,107,109,-1,111,-1,113,115,-1,-1,-1,-1,-1,-1,-1,-1,-1,-1,-1,-1,-1,-1,-1,-1,-1,-1,-1,-1,-1,-1,-1,-1,-1,-1,-1,-1,-1,-1,-1,-1,-1,-1,-1,-1,-1,-1,-1,-1,-1,-1,-1,-1,-1,-1,-1,-1,-1,-1,-1,-1,-1,-1],"loss_changes":[4.429805E0,4.7250156E0,4.9983907E-1,1.604575E0,1.3904204E0,2.1560812E-1,1.1909972E-1,1.5203238E-1,8.450272E-1,7.063542E-1,6.28098E-1,9.426665E-2,2.5537896E-1,1.0118957E-1,2.5881648E-2,2.340424E-2,1.5605831E-1,5.033815E-1,1.8436456E-1,2.2748178E-1,4.7103274E-1,8.4163094E-1,1.9936979E-1,2.2751063E-2,6.3652515E-2,1.2307906E-1,2.2884142E-1,8.232471E-2,1.4710546E-2,1.2604745E-2,3.332574E-2,1.6722023E-2,4.6514153E-2,0E0,1.2637383E-1,2.2564337E-1,6.417936E-2,2.496925E-2,1.1048108E-1,1.7047447E-1,6.282647E-2,6.184636E-1,1.6360152E-1,7.120266E-1,3.088941E-1,0E0,1.673801E-1,1.72472E-3,0E0,6.468457E-2,2.0383656E-2,3.901112E-2,1.16155624E-1,1.1375429E-1,6.2558234E-2,7.211232E-2,2.0222321E-2,1.48653835E-2,0E0,1.4620367E-2,0E0,7.227443E-3,3.6740648E-3,0E0,0E0,0E0,0E0,0E0,0E0,0E0,0E0,0E0,0E0,0E0,0E0,0E0,0E0,0E0,0E0,0E0,0E0,0E0,0E0,0E0,0E0,0E0,0E0,0E0,0E0,0E0,0E0,0E0,0E0,0E0,0E0,0E0,0E0,0E0,0E0,0E0,0E0,0E0,0E0,0E0,0E0,0E0,0E0,0E0,0E0,0E0,0E0,0E0,0E0,0E0,0E0,0E0,0E0],"parents":[2147483647,0,0,1,1,2,2,3,3,4,4,5,5,6,6,7,7,8,8,9,9,10,10,11,11,12,12,13,13,14,14,15,15,16,16,17,17,18,18,19,19,20,20,21,21,22,22,23,23,24,24,25,25,26,26,27,27,28,28,29,29,30,30,31,31,32,32,34,34,35,35,36,36,37,37,38,38,39,39,40,40,41,41,42,42,43,43,44,44,46,46,47,47,49,49,50,50,51,51,52,52,53,53,54,54,55,55,56,56,57,57,59,59,61,61,62,62],"right_children":[2,4,6,8,10,12,14,16,18,20,22,24,26,28,30,32,34,36,38,40,42,44,46,48,50,52,54,56,58,60,62,64,66,-1,68,70,72,74,76,78,80,82,84,86,88,-1,90,92,-1,94,96,98,100,102,104,106,108,110,-1,112,-1,114,116,-1,-1,-1,-1,-1,-1,-1,-1,-1,-1,-1,-1,-1,-1,-1,-1,-1,-1,-1,-1,-1,-1,-1,-1,-1,-1,-1,-1,-1,-1,-1,-1,-1,-1,-1,-1,-1,-1,-1,-1,-1,-1,-1,-1,-1,-1,-1,-1,-1,-1,-1,-1,-1,-1],"split_conditions":[1.5404668E0,-3.7499216E-1,1.4053872E0,-1.2338972E0,2.0053245E-1,-5.371034E-1,3.313749E0,-1.3761001E0,2.6714885E-1,-3.4647048E0,4.028154E0,-1.023437E0,5.7169574E-1,3.7033858E0,2.4367955E0,-1.5518768E0,-1.3073183E0,2.0563488E0,-6.809803E-1,3.000903E0,2.2614481E0,-9.665628E-2,-9.665628E-2,-1.010377E-1,4.9328953E-1,-2.9543552E0,2.6318822E0,2.6318822E0,2.8137848E0,2.4499795E0,3.16561E0,-1.7337793E0,-5.4642294E-2,-7.00263E-2,6.3095397E-1,-1.098539E0,-5.570118E-1,-9.949965E-1,1.6619878E0,3.0758137E-1,9.79166E-1,-9.665628E-2,3.8996246E0,1.0356498E0,3.8996246E0,9.228054E-2,1.7352977E0,-2.355252E-1,-5.6047224E-2,4.028154E0,1.6619878E0,3.5308626E-1,2.0861745E0,4.028154E0,1.4650425E0,7.3622775E-1,2.156218E0,1.7079808E0,-7.897515E-3,1.4950821E-2,2.9106459E-2,2.0563488E0,3.6291638E-1,-5.4984037E-3,-2.5012134E-2,-1.612165E-2,-4.9619634E-2,-9.676853E-3,-3.1039538E-2,-4.1305088E-2,-9.344382E-5,8.25279E-2,2.5349827E-2,-2.6434664E-2,-5.2177545E-2,-1.5282665E-2,1.2276383E-2,-8.378634E-2,-2.8024258E-2,4.9965296E-2,-1.0766471E-2,5.6283623E-3,-4.789782E-3,1.961273E-2,5.875833E-2,1.4377388E-2,3.9616797E-2,1.7557333E-3,2.8952353E-2,2.5910605E-2,6.513172E-2,-1.8436754E-2,-3.56524E-2,-1.8842483E-2,3.711863E-2,-3.6678843E-2,-2.103804E-2,-1.808556E-2,-3.7016682E-2,-1.2580984E-2,-1.9394761E-2,-7.342136E-3,7.800232E-3,-1.6535789E-2,-3.5927884E-2,8.030205E-3,-6.261186E-3,-1.7081346E-2,-4.0567398E-2,2.7091118E-2,-6.076277E-3,-1.0343301E-2,9.59524E-3,3.7931483E-2,4.941474E-3,-1.3567529E-2,5.2413587E-3],"split_indices":[2,1,1,1,0,1,1,1,2,0,0,1,0,0,3,2,0,0,0,1,1,2,2,0,3,0,2,2,2,2,3,2,0,0,2,0,1,1,0,1,3,2,1,0,1,0,1,3,0,0,0,1,2,0,3,3,1,3,0,0,0,0,0,0,0,0,0,0,0,0,0,0,0,0,0,0,0,0,0,0,0,0,0,0,0,0,0,0,0,0,0,0,0,0,0,0,0,0,0,0,0,0,0,0,0,0,0,0,0,0,0,0,0,0,0,0,0],"split_type":[0,0,0,0,0,0,0,0,0,0,0,0,0,0,0,0,0,0,0,0,0,0,0,0,0,0,0,0,0,0,0,0,0,0,0,0,0,0,0,0,0,0,0,0,0,0,0,0,0,0,0,0,0,0,0,0,0,0,0,0,0,0,0,0,0,0,0,0,0,0,0,0,0,0,0,0,0,0,0,0,0,0,0,0,0,0,0,0,0,0,0,0,0,0,0,0,0,0,0,0,0,0,0,0,0,0,0,0,0,0,0,0,0,0,0,0,0],"sum_hessian":[1.3783E4,1.1742E4,2.041E3,5.078E3,6.664E3,1.585E3,4.56E2,1.39E3,3.688E3,4.273E3,2.391E3,1.69E2,1.416E3,4.32E2,2.4E1,5.86E2,8.04E2,3.366E3,3.22E2,5.6E1,4.217E3,2.329E3,6.2E1,2.2E1,1.47E2,9.75E2,4.41E2,4.2E2,1.2E1,1.4E1,1E1,5.4E1,5.32E2,3E0,8.01E2,3.356E3,1E1,2.2E1,3E2,5.1E1,5E0,4.102E3,1.15E2,1.664E3,6.65E2,6E0,5.6E1,1.2E1,1E1,9.9E1,4.8E1,5.3E1,9.22E2,3.72E2,6.9E1,3.93E2,2.7E1,1.1E1,1E0,1.3E1,1E0,8E0,2E0,5E0,4.9E1,5.29E2,3E0,7.76E2,2.5E1,1.1E1,3.345E3,6E0,4E0,1E1,1.2E1,2.87E2,1.3E1,5E0,4.6E1,3E0,2E0,3.502E3,6E2,1.05E2,1E1,1.557E3,1.07E2,6.26E2,3.9E1,4.3E1,1.3E1,5E0,7E0,9.8E1,1E0,3.1E1,1.7E1,1.8E1,3.5E1,4.46E2,4.76E2,3.21E2,5.1E1,4.4E1,2.5E1,3.4E1,3.59E2,2.3E1,4E0,1E1,1E0,4E0,9E0,7E0,1E0,1E0,1E0],"tree_param":{"num_deleted":"0","num_feature":"4","num_nodes":"117","size_leaf_vector":"1"}},{"base_weights":[-1.5951655E-4,7.0723454E-3,-2.28739E-2,-6.331282E-3,2.5638303E-2,-3.867062E-2,-5.8818664E-3,-3.3506557E-2,9.981664E-6,2.24577E-2,8.488505E-2,-6.2898E-2,-3.3952545E-2,-4.2366687E-2,4.3864816E-4,-3.7697695E-2,-1.7305626E-2,1.8824102E-1,-4.49681E-4,1.0703364E-3,2.9738015E-2,7.47702E-2,2.1107289E-1,-4.7129642E-2,-8.8729754E-2,2.1683078E-2,-3.863986E-2,-7.146632E-2,-2.7915824E-2,2.1246554E-2,-1.3016991E-2,-3.382624E-2,-4.6182916E-2,-1.3131357E-2,-1.1116581E-1,1.754818E-2,2.7139392E-1,-7.009656E-3,6.75752E-3,-7.688964E-2,5.42197E-3,2.8331293E-2,1.4252962E-1,5.8511328E-2,1.3579816E-1,6.651625E-2,7.703108E-3,-2.71756E-2,-7.557471E-2,-1.3079798E-1,-7.173354E-2,-2.8415449E-2,4.4527486E-2,-4.8875082E-2,-3.7767205E-2,3.3299054E-3,-7.6634966E-2,-5.368101E-2,-1.4283741E-2,1.8372046E-2,1.20246276E-1,-1.7082864E-2,2.1118144E-2,-1.23111745E-2,-8.143928E-3,-1.4034719E-2,7.608855E-3,3.961768E-2,-4.497697E-3,-2.1508723E-2,-5.3809214E-2,-8.541156E-3,1.7315246E-2,4.1798025E-2,9.6830666E-2,-7.997506E-4,-5.1532513E-3,1.895022E-3,4.5866087E-2,-4.1345052E-2,-1.5371346E-2,8.4258154E-2,1.4600344E-3,1.6632516E-2,7.0290286E-3,-2.9996593E-2,4.5535967E-2,3.0937405E-2,3.1265116E-3,5.1349625E-2,1.962542E-2,-2.0691358E-2,1.2308145E-3,-1.8309332E-2,-4.106568E-2,-2.3803702E-2,-4.4995274E-2,-1.4169643E-2,-2.9497776E-2,-9.8227E-4,-2.8036555E-2,1.5503748E-2,-2.7815439E-3,-8.814231E-3,-1.4930612E-2,1.6500408E-2,-1.0876848E-2,-4.0811434E-2,-2.0169277E-2,-2.9602509E-2,-1.2056968E-2,2.7727953E-4,-1.3954834E-2,1.0523848E-2,1.4221465E-4,4.7222313E-2,1.1480853E-2,-1.1607892E-3,-8.0650225E-3,9.21179E-3,-2.3939036E-2],"categories":[],"categories_nodes":[],"categories_segments":[],"categories_sizes":[],"default_left":[0,0,0,0,0,0,0,0,0,0,0,0,0,0,0,0,0,0,0,0,0,0,0,0,0,0,0,0,0,0,0,0,0,0,0,0,0,0,0,0,0,0,0,0,0,0,0,0,0,0,0,0,0,0,0,0,0,0,0,0,0,0,0,0,0,0,0,0,0,0,0,0,0,0,0,0,0,0,0,0,0,0,0,0,0,0,0,0,0,0,0,0,0,0,0,0,0,0,0,0,0,0,0,0,0,0,0,0,0,0,0,0,0,0,0,0,0,0,0,0,0],"id":11,"left_children":[1,3,5,7,9,11,13,15,17,19,21,23,25,27,29,31,33,35,37,39,41,43,45,47,49,51,53,55,57,59,61,63,65,67,69,71,73,75,77,79,81,83,85,87,89,-1,-1,91,93,95,97,99,101,-1,103,105,107,109,111,113,115,117,119,-1,-1,-1,-1,-1,-1,-1,-1,-1,-1,-1,-1,-1,-1,-1,-1,-1,-1,-1,-1,-1,-1,-1,-1,-1,-1,-1,-1,-1,-1,-1,-1,-1,-1,-1,-1,-1,-1,-1,-1,-1,-1,-1,-1,-1,-1,-1,-1,-1,-1,-1,-1,-1,-1,-1,-1,-1,-1],"loss_changes":[2.2644222E0,2.60215E0,8.933376E-1,1.0465336E0,8.2421637E-1,1.9504333E-1,3.7013614E-1,7.736504E-2,4.262094E-1,6.4801955E-1,2.688489E-1,1.09869E-1,3.779279E-1,9.766695E-2,3.8357422E-1,2.8397202E-2,9.1788076E-2,1.6556078E-1,2.3237668E-1,3.5934684E-1,4.88621E-1,1.9844127E-1,2.5892198E-2,9.784275E-2,6.5692484E-2,1.3059053E-1,1.3851976E-1,3.0409575E-2,5.5430554E-2,1.5089247E-1,1.1583333E-1,2.9231966E-2,1.3324499E-2,6.385438E-2,1.4058247E-2,1.0885941E-2,9.309232E-3,1.1359671E-1,1.4988488E-1,8.046058E-2,1.5201223E-1,4.063568E-1,1.004861E-1,3.5506827E-1,9.583616E-2,0E0,0E0,1.37549E-1,5.584678E-2,1.6727537E-2,4.5525223E-2,5.8560412E-2,3.049004E-2,0E0,1.319995E-1,1.4266955E-2,3.1634033E-2,2.9420331E-2,5.200314E-2,1.5667501E-1,3.967169E-2,9.624407E-2,8.856255E-2,0E0,0E0,0E0,0E0,0E0,0E0,0E0,0E0,0E0,0E0,0E0,0E0,0E0,0E0,0E0,0E0,0E0,0E0,0E0,0E0,0E0,0E0,0E0,0E0,0E0,0E0,0E0,0E0,0E0,0E0,0E0,0E0,0E0,0E0,0E0,0E0,0E0,0E0,0E0,0E0,0E0,0E0,0E0,0E0,0E0,0E0,0E0,0E0,0E0,0E0,0E0,0E0,0E0,0E0,0E0,0E0,0E0,0E0],"parents":[2147483647,0,0,1,1,2,2,3,3,4,4,5,5,6,6,7,7,8,8,9,9,10,10,11,11,12,12,13,13,14,14,15,15,16,16,17,17,18,18,19,19,20,20,21,21,22,22,23,23,24,24,25,25,26,26,27,27,28,28,29,29,30,30,31,31,32,32,33,33,34,34,35,35,36,36,37,37,38,38,39,39,40,40,41,41,42,42,43,43,44,44,47,47,48,48,49,49,50,50,51,51,52,52,54,54,55,55,56,56,57,57,58,58,59,59,60,60,61,61,62,62],"right_children":[2,4,6,8,10,12,14,16,18,20,22,24,26,28,30,32,34,36,38,40,42,44,46,48,50,52,54,56,58,60,62,64,66,68,70,72,74,76,78,80,82,84,86,88,90,-1,-1,92,94,96,98,100,102,-1,104,106,108,110,112,114,116,118,120,-1,-1,-1,-1,-1,-1,-1,-1,-1,-1,-1,-1,-1,-1,-1,-1,-1,-1,-1,-1,-1,-1,-1,-1,-1,-1,-1,-1,-1,-1,-1,-1,-1,-1,-1,-1,-1,-1,-1,-1,-1,-1,-1,-1,-1,-1,-1,-1,-1,-1,-1,-1,-1,-1,-1,-1,-1,-1],"split_conditions":[4.490514E-1,-1.3040332E-1,4.7253665E-1,-1.2907784E0,1.9230055E0,9.9475914E-1,-1.098539E0,-4.604614E-1,-8.2426655E-1,-1.010377E-1,2.0563488E0,8.1285655E-1,1.1766617E0,-2.9543552E0,1.5404668E0,-4.7220096E-1,-9.665628E-2,-9.129574E-1,-2.355252E-1,-1.5392953E0,3.7033858E0,3.000903E0,3.000903E0,-2.8017292E-2,-4.6884605E-1,-6.082048E-1,-1.3078427E0,6.3095397E-1,1.1835507E0,4.492108E0,2.6397076E0,-8.2426655E-1,7.1088195E-1,-1.3761001E0,4.9328953E-1,-1.8408655E0,-2.1702622E-1,-2.7855885E-1,3.7033858E0,-3.4647048E0,-1.1880716E0,-6.4236397E-1,-1.0765087E-1,-2.7855885E-1,2.6714885E-1,6.651625E-2,7.703108E-3,-5.200391E-1,4.557072E-1,-1.068942E0,2.0331668E-2,4.9328953E-1,9.79166E-1,-4.8875082E-2,7.3622775E-1,7.3622775E-1,9.9475914E-1,1.1766617E0,1.9912628E0,5.253003E-1,1.2221042E0,1.4650425E0,3.16561E0,-1.23111745E-2,-8.143928E-3,-1.4034719E-2,7.608855E-3,3.961768E-2,-4.497697E-3,-2.1508723E-2,-5.3809214E-2,-8.541156E-3,1.7315246E-2,4.1798025E-2,9.6830666E-2,-7.997506E-4,-5.1532513E-3,1.895022E-3,4.5866087E-2,-4.1345052E-2,-1.5371346E-2,8.4258154E-2,1.4600344E-3,1.6632516E-2,7.0290286E-3,-2.9996593E-2,4.5535967E-2,3.0937405E-2,3.1265116E-3,5.1349625E-2,1.962542E-2,-2.0691358E-2,1.2308145E-3,-1.8309332E-2,-4.106568E-2,-2.3803702E-2,-4.4995274E-2,-1.4169643E-2,-2.9497776E-2,-9.8227E-4,-2.8036555E-2,1.5503748E-2,-2.7815439E-3,-8.814231E-3,-1.4930612E-2,1.6500408E-2,-1.0876848E-2,-4.0811434E-2,-2.0169277E-2,-2.9602509E-2,-1.2056968E-2,2.7727953E-4,-1.3954834E-2,1.0523848E-2,1.4221465E-4,4.7222313E-2,1.1480853E-2,-1.1607892E-3,-8.0650225E-3,9.21179E-3,-2.3939036E-2],"split_indices":[2,1,1,1,1,2,0,2,2,0,0,2,2,0,2,0,2,0,3,0,0,1,1,1,1,1,1,2,1,0,1,2,0,1,3,0,0,2,0,0,2,2,1,2,2,0,0,1,0,1,1,3,3,0,3,3,2,2,1,0,3,3,3,0,0,0,0,0,0,0,0,0,0,0,0,0,0,0,0,0,0,0,0,0,0,0,0,0,0,0,0,0,0,0,0,0,0,0,0,0,0,0,0,0,0,0,0,0,0,0,0,0,0,0,0,0,0,0,0,0,0],"split_type":[0,0,0,0,0,0,0,0,0,0,0,0,0,0,0,0,0,0,0,0,0,0,0,0,0,0,0,0,0,0,0,0,0,0,0,0,0,0,0,0,0,0,0,0,0,0,0,0,0,0,0,0,0,0,0,0,0,0,0,0,0,0,0,0,0,0,0,0,0,0,0,0,0,0,0,0,0,0,0,0,0,0,0,0,0,0,0,0,0,0,0,0,0,0,0,0,0,0,0,0,0,0,0,0,0,0,0,0,0,0,0,0,0,0,0,0,0,0,0,0,0],"sum_hessian":[1.3783E4,1.0455E4,3.328E3,6.072E3,4.383E3,1.724E3,1.604E3,1.148E3,4.924E3,4.161E3,2.22E2,2.79E2,1.445E3,2.36E2,1.368E3,9.11E2,2.37E2,1.1E1,4.913E3,1.057E3,3.104E3,2.07E2,1.5E1,1.75E2,1.04E2,1.12E2,1.333E3,7.7E1,1.59E2,5.37E2,8.31E2,6.29E2,2.82E2,2.28E2,9E0,4E0,7E0,2.572E3,2.341E3,5.5E1,1.002E3,3.067E3,3.7E1,1.65E2,4.2E1,1.4E1,1E0,1.04E2,7.1E1,2.8E1,7.6E1,3.5E1,7.7E1,8E0,1.325E3,5E0,7.2E1,5.4E1,1.05E2,5.23E2,1.4E1,7.43E2,8.8E1,3E2,3.29E2,2.8E2,2E0,2E0,2.26E2,7E0,2E0,2E0,2E0,3E0,4E0,1.803E3,7.69E2,2.335E3,6E0,1.5E1,4E1,1E0,1.001E3,4.68E2,2.599E3,1E0,3.6E1,8.5E1,8E1,2.7E1,1.5E1,4.4E1,6E1,5.9E1,1.2E1,9E0,1.9E1,4.1E1,3.5E1,2.6E1,9E0,6.8E1,9E0,7.82E2,5.43E2,2E0,3E0,8E0,6.4E1,1.1E1,4.3E1,7.2E1,3.3E1,2.7E2,2.53E2,9E0,5E0,3.17E2,4.26E2,8.1E1,7E0],"tree_param":{"num_deleted":"0","num_feature":"4","num_nodes":"121","size_leaf_vector":"1"}},{"base_weights":[-1.0991901E-4,6.2021287E-3,-1.3627285E-2,-1.5647734E-3,2.3051465E-2,-1.879047E-2,1.4653258E-2,-2.3077002E-2,3.397987E-3,2.0518987E-2,1.274944E-1,-4.4376712E-2,-1.6121233E-2,3.849364E-3,5.4340336E-2,-2.2250287E-2,-7.355385E-2,1.7229533E-1,3.0088427E-3,1.6639559E-2,5.699273E-2,1.0066023E-1,1.8954682E-1,-1.100263E-1,-3.89882E-2,-1.3016227E-2,-3.623675E-2,-3.705728E-3,7.870498E-2,9.484731E-2,2.5447797E-2,-2.4442941E-2,3.8292708E-3,-6.429353E-2,-4.4387523E-2,1.4038539E-2,2.4966891E-1,-1.5772973E-1,3.3169028E-3,9.353984E-3,3.316368E-2,-4.6925675E-3,7.621878E-2,-1.6363382E-3,1.0940114E-1,5.799042E-2,6.885988E-2,1.0208418E-2,-1.2047121E-1,-7.568678E-2,-3.401065E-2,-1.5392074E-2,2.9663837E-2,-6.29123E-2,-2.6755443E-2,4.6175625E-3,-2.4517234E-2,1.4743759E-1,3.403968E-2,4.7605317E-2,1.081904E-1,3.322853E-2,-3.7008636E-2,-1.002965E-2,-6.5931645E-3,-2.1781588E-2,1.8921037E-3,-3.5783912E-3,-1.9774925E-2,-6.8329214E-3,1.3852192E-2,1.9707162E-2,7.997015E-2,-2.793356E-2,-6.1117567E-2,9.6384354E-4,5.4853287E-2,3.385608E-3,-5.6514665E-3,-3.0677423E-2,1.0449504E-2,1.1027868E-2,-1.3092579E-2,2.393273E-2,-5.945296E-2,-1.4680064E-2,1.3861895E-2,5.2960705E-2,2.5945628E-2,-1.27036935E-2,2.5958031E-2,8.208347E-3,-3.6145584E-3,-4.4720303E-2,-2.1937136E-2,-2.9677363E-2,-2.8966558E-3,-1.390752E-2,-6.5051015E-3,-3.3565275E-2,-4.457873E-3,4.764715E-3,1.7403485E-2,-1.7365277E-2,-2.8730936E-2,-5.273068E-3,-2.2805074E-2,-1.3350644E-2,3.1283572E-3,-1.2977537E-2,-3.288678E-3,1.4685053E-2,5.3734567E-2,5.270623E-2,3.7765752E-3,2.2244727E-2,-2.498584E-2,2.7865348E-2,4.4534102E-2,6.3358145E-3,2.0724528E-2,-3.6627658E-2,-4.1967332E-3],"categories":[],"categories_nodes":[],"categories_segments":[],"categories_sizes":[],"default_left":[0,0,0,0,0,0,0,0,0,0,0,0,0,0,0,0,0,0,0,0,0,0,0,0,0,0,0,0,0,0,0,0,0,0,0,0,0,0,0,0,0,0,0,0,0,0,0,0,0,0,0,0,0,0,0,0,0,0,0,0,0,0,0,0,0,0,0,0,0,0,0,0,0,0,0,0,0,0,0,0,0,0,0,0,0,0,0,0,0,0,0,0,0,0,0,0,0,0,0,0,0,0,0,0,0,0,0,0,0,0,0,0,0,0,0,0,0,0,0,0,0,0,0],"id":12,"left_children":[1,3,5,7,9,11,13,15,17,19,21,23,25,27,29,31,33,35,37,39,41,43,45,47,49,51,53,55,57,59,61,63,65,-1,67,69,71,73,75,77,79,81,83,85,87,89,-1,91,93,95,97,99,101,103,105,107,109,111,113,115,117,119,121,-1,-1,-1,-1,-1,-1,-1,-1,-1,-1,-1,-1,-1,-1,-1,-1,-1,-1,-1,-1,-1,-1,-1,-1,-1,-1,-1,-1,-1,-1,-1,-1,-1,-1,-1,-1,-1,-1,-1,-1,-1,-1,-1,-1,-1,-1,-1,-1,-1,-1,-1,-1,-1,-1,-1,-1,-1,-1,-1,-1],"loss_changes":[1.1761665E0,1.2297945E0,6.4100105E-1,6.8686575E-1,7.816247E-1,2.5273013E-1,2.9050025E-1,4.8689723E-2,3.4309423E-1,4.0882766E-1,9.7478986E-2,1.19524E-1,2.0951492E-1,3.022906E-1,1.6728705E-1,6.8027556E-2,6.848968E-2,1.4343378E-1,2.5885406E-1,3.1498522E-1,3.3005577E-1,4.5781493E-2,9.1897845E-2,3.3881664E-2,5.6793302E-2,2.9593998E-1,1.118775E-1,8.429824E-2,1.4540944E-1,3.2670796E-2,4.302204E-2,2.355802E-2,1.8070731E-2,0E0,1.1093661E-2,6.966998E-3,7.360369E-3,1.0752082E-2,9.673564E-2,9.9256694E-2,1.8449426E-1,1.0977803E-1,2.2272599E-1,1.3575158E-2,5.7038724E-2,2.084338E-2,0E0,1.4749642E-3,2.1594852E-2,5.7352737E-2,4.283139E-2,1.4020312E-1,5.9242368E-2,1.37859285E-2,1.4922945E-1,9.978324E-2,3.4836903E-2,5.0509423E-2,9.198183E-2,5.829088E-2,1.4555216E-2,3.1970754E-2,1.787787E-2,0E0,0E0,0E0,0E0,0E0,0E0,0E0,0E0,0E0,0E0,0E0,0E0,0E0,0E0,0E0,0E0,0E0,0E0,0E0,0E0,0E0,0E0,0E0,0E0,0E0,0E0,0E0,0E0,0E0,0E0,0E0,0E0,0E0,0E0,0E0,0E0,0E0,0E0,0E0,0E0,0E0,0E0,0E0,0E0,0E0,0E0,0E0,0E0,0E0,0E0,0E0,0E0,0E0,0E0,0E0,0E0,0E0,0E0,0E0,0E0],"parents":[2147483647,0,0,1,1,2,2,3,3,4,4,5,5,6,6,7,7,8,8,9,9,10,10,11,11,12,12,13,13,14,14,15,15,16,16,17,17,18,18,19,19,20,20,21,21,22,22,23,23,24,24,25,25,26,26,27,27,28,28,29,29,30,30,31,31,32,32,34,34,35,35,36,36,37,37,38,38,39,39,40,40,41,41,42,42,43,43,44,44,45,45,47,47,48,48,49,49,50,50,51,51,52,52,53,53,54,54,55,55,56,56,57,57,58,58,59,59,60,60,61,61,62,62],"right_children":[2,4,6,8,10,12,14,16,18,20,22,24,26,28,30,32,34,36,38,40,42,44,46,48,50,52,54,56,58,60,62,64,66,-1,68,70,72,74,76,78,80,82,84,86,88,90,-1,92,94,96,98,100,102,104,106,108,110,112,114,116,118,120,122,-1,-1,-1,-1,-1,-1,-1,-1,-1,-1,-1,-1,-1,-1,-1,-1,-1,-1,-1,-1,-1,-1,-1,-1,-1,-1,-1,-1,-1,-1,-1,-1,-1,-1,-1,-1,-1,-1,-1,-1,-1,-1,-1,-1,-1,-1,-1,-1,-1,-1,-1,-1,-1,-1,-1,-1,-1,-1,-1,-1],"split_conditions":[-9.665628E-2,8.858902E-2,1.6841047E0,-1.2509615E0,1.2212315E0,-8.201665E-1,1.3604177E0,-1.276558E0,-8.2426655E-1,-4.604614E-1,2.9378614E0,-5.68388E-1,2.2680771E0,3.8996246E0,1.1766617E0,-2.7855885E-1,-2.7855885E-1,-9.129574E-1,-1.098539E0,8.593283E-1,-1.010377E-1,-7.214017E-1,2.9620513E-1,8.524629E-2,-4.160636E0,3.3554204E0,-1.9581662E-1,2.1938572E0,5.253003E-1,1.8243717E0,2.6797338E0,-1.4159168E0,-1.3476595E0,-6.429353E-2,-7.214017E-1,-1.8408655E0,-1.1599518E0,-4.604614E-1,4.028154E0,7.6831853E-1,-1.5392953E0,7.3622775E-1,2.4367955E0,-4.604614E-1,1.4996039E0,3.7033858E0,6.885988E-2,-1.5392953E0,-8.4710556E-1,2.4499795E0,6.91529E-1,-1.3362832E0,9.588703E-1,1.9509189E0,2.8137848E0,-2.9543552E0,1.904272E0,-4.4900328E-1,2.6714885E-1,3.313749E0,4.028154E0,2.6397076E0,1.3585643E0,-1.002965E-2,-6.5931645E-3,-2.1781588E-2,1.8921037E-3,-3.5783912E-3,-1.9774925E-2,-6.8329214E-3,1.3852192E-2,1.9707162E-2,7.997015E-2,-2.793356E-2,-6.1117567E-2,9.6384354E-4,5.4853287E-2,3.385608E-3,-5.6514665E-3,-3.0677423E-2,1.0449504E-2,1.1027868E-2,-1.3092579E-2,2.393273E-2,-5.945296E-2,-1.4680064E-2,1.3861895E-2,5.2960705E-2,2.5945628E-2,-1.27036935E-2,2.5958031E-2,8.208347E-3,-3.6145584E-3,-4.4720303E-2,-2.1937136E-2,-2.9677363E-2,-2.8966558E-3,-1.390752E-2,-6.5051015E-3,-3.3565275E-2,-4.457873E-3,4.764715E-3,1.7403485E-2,-1.7365277E-2,-2.8730936E-2,-5.273068E-3,-2.2805074E-2,-1.3350644E-2,3.1283572E-3,-1.2977537E-2,-3.288678E-3,1.4685053E-2,5.3734567E-2,5.270623E-2,3.7765752E-3,2.2244727E-2,-2.498584E-2,2.7865348E-2,4.4534102E-2,6.3358145E-3,2.0724528E-2,-3.6627658E-2,-4.1967332E-3],"split_indices":[2,1,1,1,0,0,0,1,2,2,0,1,2,1,2,2,2,0,0,1,0,3,1,2,0,0,1,3,0,0,3,1,1,0,3,0,1,2,0,1,0,3,3,2,0,0,0,0,1,2,1,1,1,3,2,0,2,0,2,1,0,1,2,0,0,0,0,0,0,0,0,0,0,0,0,0,0,0,0,0,0,0,0,0,0,0,0,0,0,0,0,0,0,0,0,0,0,0,0,0,0,0,0,0,0,0,0,0,0,0,0,0,0,0,0,0,0,0,0,0,0,0,0],"split_type":[0,0,0,0,0,0,0,0,0,0,0,0,0,0,0,0,0,0,0,0,0,0,0,0,0,0,0,0,0,0,0,0,0,0,0,0,0,0,0,0,0,0,0,0,0,0,0,0,0,0,0,0,0,0,0,0,0,0,0,0,0,0,0,0,0,0,0,0,0,0,0,0,0,0,0,0,0,0,0,0,0,0,0,0,0,0,0,0,0,0,0,0,0,0,0,0,0,0,0,0,0,0,0,0,0,0,0,0,0,0,0,0,0,0,0,0,0,0,0,0,0,0,0],"sum_hessian":[1.3783E4,9.396E3,4.387E3,6.432E3,2.964E3,3.71E3,6.77E2,1.205E3,5.227E3,2.895E3,6.9E1,3.49E2,3.361E3,5.33E2,1.44E2,1.187E3,1.8E1,1.1E1,5.216E3,2.618E3,2.77E2,5E1,1.9E1,2.5E1,3.24E2,2.913E3,4.48E2,4.85E2,4.8E1,5.9E1,8.5E1,1.095E3,9.2E1,2E0,1.6E1,4E0,7E0,9E0,5.207E3,1.818E3,8E2,6.6E1,2.11E2,4E0,4.6E1,5E0,1.4E1,2E0,2.3E1,3.7E1,2.87E2,2.76E3,1.53E2,1.16E2,3.32E2,3.47E2,1.38E2,1.8E1,3E1,1.4E1,4.5E1,7.6E1,9E0,2.33E2,8.62E2,2E0,9E1,7E0,9E0,2E0,2E0,1E0,6E0,5E0,4E0,5.205E3,2E0,1.702E3,1.16E2,9E0,7.91E2,3.2E1,3.4E1,2.09E2,2E0,2E0,2E0,1E1,3.6E1,1E0,4E0,1E0,1E0,1.3E1,1E1,2.7E1,1E1,1.42E2,1.45E2,1.4E1,2.746E3,1.04E2,4.9E1,1.03E2,1.3E1,2.81E2,5.1E1,3.6E1,3.11E2,5.7E1,8.1E1,5E0,1.3E1,3E0,2.7E1,1.2E1,2E0,3.5E1,1E1,5.8E1,1.8E1,1E0,8E0],"tree_param":{"num_deleted":"0","num_feature":"4","num_nodes":"123","size_leaf_vector":"1"}},{"base_weights":[-7.705115E-5,2.752895E-3,-1.6351283E-2,-8.423789E-3,8.275476E-3,-2.1212945E-2,-1.4341625E-3,-1.832095E-2,-5.235243E-3,4.612812E-3,1.8911831E-2,-3.0078432E-2,-1.4959173E-2,-6.465214E-2,1.7297242E-3,-1.7536677E-2,-6.0147494E-2,-6.916404E-2,-4.552181E-3,-4.711814E-2,5.6771357E-3,1.6196674E-2,5.3521447E-2,-7.312908E-2,-2.8343856E-2,-1.3378617E-2,-7.005962E-2,-4.0509373E-2,-1.0038904E-1,1.0512547E-2,-2.3029257E-2,-1.8491147E-2,2.5820287E-3,-7.1133636E-2,1.4832377E-2,1.1230022E-2,-7.8178756E-2,1.2027339E-1,-4.8947213E-3,-1.1131339E-1,-4.0143456E-2,5.918533E-3,-2.2564238E-1,2.2079134E-2,5.3458274E-3,-4.8167832E-2,5.760979E-2,-4.706708E-2,-2.9895239E-2,-2.6205204E-2,-6.092923E-2,-1.7828764E-2,-5.2459883E-3,-3.702449E-2,-1.1590986E-1,-6.2444128E-2,4.0905923E-2,-6.658709E-3,-3.2216627E-2,-2.9459106E-2,1.6858144E-2,-1.4418314E-2,-4.4156104E-2,-4.715565E-3,-7.374639E-3,3.335643E-2,-1.6283198E-3,-7.134915E-3,-2.2976663E-2,-9.340561E-3,1.6015131E-2,-5.466336E-3,1.4937517E-2,-1.7066155E-2,-3.177371E-2,4.3727785E-2,1.7504307E-2,-1.5856188E-3,1.9771054E-2,-5.220392E-2,1.2574295E-2,-9.37479E-3,-2.6799535E-2,5.6836274E-2,1.698228E-3,-1.0091415E-1,-2.5853464E-2,5.8962014E-3,2.67332E-2,5.4059797E-3,-5.2180635E-3,3.9239593E-2,1.3631608E-2,-2.4340556E-3,-2.5458472E-2,-3.6884078E-3,-9.412743E-3,-8.2243286E-4,-2.3065953E-2,-6.5241726E-3,-1.991233E-3,1.9171223E-2,-1.8363973E-3,-2.0790845E-2,8.496955E-3,4.4866744E-3,-3.963366E-2,-5.440471E-3,-2.403664E-2,3.463626E-4,2.4024012E-2,-1.6790334E-2,1.2243084E-2,3.2468565E-2,4.215445E-3,8.8085886E-4,-1.069619E-2,-2.4310013E-2,-4.18694E-3],"categories":[],"categories_nodes":[],"categories_segments":[],"categories_sizes":[],"default_left":[0,0,0,0,0,0,0,0,0,0,0,0,0,0,0,0,0,0,0,0,0,0,0,0,0,0,0,0,0,0,0,0,0,0,0,0,0,0,0,0,0,0,0,0,0,0,0,0,0,0,0,0,0,0,0,0,0,0,0,0,0,0,0,0,0,0,0,0,0,0,0,0,0,0,0,0,0,0,0,0,0,0,0,0,0,0,0,0,0,0,0,0,0,0,0,0,0,0,0,0,0,0,0,0,0,0,0,0,0,0,0,0,0,0,0,0,0,0,0],"id":13,"left_children":[1,3,5,7,9,11,13,15,17,19,21,23,25,27,29,31,33,35,37,39,41,43,45,47,49,51,53,55,57,59,61,63,65,67,69,71,73,75,77,79,81,83,85,87,89,-1,91,93,-1,95,97,99,101,103,105,107,109,-1,-1,111,113,115,117,-1,-1,-1,-1,-1,-1,-1,-1,-1,-1,-1,-1,-1,-1,-1,-1,-1,-1,-1,-1,-1,-1,-1,-1,-1,-1,-1,-1,-1,-1,-1,-1,-1,-1,-1,-1,-1,-1,-1,-1,-1,-1,-1,-1,-1,-1,-1,-1,-1,-1,-1,-1,-1,-1,-1,-1],"loss_changes":[6.348698E-1,7.248964E-1,1.4805949E-1,1.2247363E-1,3.061179E-1,8.493179E-2,1.0071913E-1,2.9977173E-2,1.2802345E-1,3.2224953E-1,1.882959E-1,4.542023E-2,7.7878565E-2,1.6640216E-2,1.0461988E-1,1.7906249E-2,1.5058652E-2,2.3344591E-2,1.24971166E-1,4.8364967E-2,3.213538E-1,1.191158E-1,1.3703427E-1,1.1898741E-2,4.1122586E-2,3.1791106E-2,3.3575214E-2,3.1127525E-2,2.5424063E-3,9.0540245E-2,2.2285528E-2,1.46099925E-2,3.8009573E-2,2.0531118E-3,6.978456E-3,5.450005E-3,1.0508701E-2,4.1211396E-3,8.061492E-2,1.1297426E-1,4.4457242E-2,2.6982784E-1,6.3675344E-2,1.9510907E-1,1.899498E-1,0E0,1.2233016E-1,1.992269E-2,0E0,4.1115433E-2,3.4144387E-2,2.480796E-2,1.9336933E-2,3.5711892E-2,2.3179054E-2,8.729868E-3,6.1364444E-3,0E0,0E0,9.35587E-2,7.720808E-2,3.3641316E-2,3.8961545E-2,0E0,0E0,0E0,0E0,0E0,0E0,0E0,0E0,0E0,0E0,0E0,0E0,0E0,0E0,0E0,0E0,0E0,0E0,0E0,0E0,0E0,0E0,0E0,0E0,0E0,0E0,0E0,0E0,0E0,0E0,0E0,0E0,0E0,0E0,0E0,0E0,0E0,0E0,0E0,0E0,0E0,0E0,0E0,0E0,0E0,0E0,0E0,0E0,0E0,0E0,0E0,0E0,0E0,0E0,0E0,0E0],"parents":[2147483647,0,0,1,1,2,2,3,3,4,4,5,5,6,6,7,7,8,8,9,9,10,10,11,11,12,12,13,13,14,14,15,15,16,16,17,17,18,18,19,19,20,20,21,21,22,22,23,23,24,24,25,25,26,26,27,27,28,28,29,29,30,30,31,31,32,32,33,33,34,34,35,35,36,36,37,37,38,38,39,39,40,40,41,41,42,42,43,43,44,44,46,46,47,47,49,49,50,50,51,51,52,52,53,53,54,54,55,55,56,56,59,59,60,60,61,61,62,62],"right_children":[2,4,6,8,10,12,14,16,18,20,22,24,26,28,30,32,34,36,38,40,42,44,46,48,50,52,54,56,58,60,62,64,66,68,70,72,74,76,78,80,82,84,86,88,90,-1,92,94,-1,96,98,100,102,104,106,108,110,-1,-1,112,114,116,118,-1,-1,-1,-1,-1,-1,-1,-1,-1,-1,-1,-1,-1,-1,-1,-1,-1,-1,-1,-1,-1,-1,-1,-1,-1,-1,-1,-1,-1,-1,-1,-1,-1,-1,-1,-1,-1,-1,-1,-1,-1,-1,-1,-1,-1,-1,-1,-1,-1,-1,-1,-1,-1,-1,-1,-1],"split_conditions":[1.5404668E0,-5.882964E-1,8.2687044E-1,-1.3249071E0,6.7446464E-1,1.3693798E-1,-6.8499434E-1,-2.7855885E-1,-8.201665E-1,-6.345849E-1,2.0563488E0,-9.551797E-1,2.9956872E0,2.0861745E0,2.4499795E0,-4.604614E-1,-1.3362832E0,-8.2426655E-1,-6.4236397E-1,-3.4647048E0,2.1938572E0,-9.665628E-2,-2.1790311E0,1.7223693E0,1.9509189E0,2.4692786E-1,2.2373016E-1,2.9378614E0,1.6619878E0,1.7223693E0,2.8137848E0,-4.7220096E-1,-1.3761001E0,-1.2072781E0,-6.345849E-1,-1.8408655E0,2.5035128E-1,-8.2426655E-1,1.6619878E0,1.3585643E0,1.2221042E0,-8.2426655E-1,4.490514E-1,2.508881E0,5.253003E-1,-4.8167832E-2,-9.665628E-2,7.413037E-3,-2.9895239E-2,1.904272E0,-7.505734E-1,1.5902508E0,1.4547016E-1,1.4650425E0,4.9328953E-1,2.5035128E-1,1.4650425E0,-6.658709E-3,-3.2216627E-2,2.6397076E0,-9.643399E-1,1.4650425E0,3.8152683E-1,-4.715565E-3,-7.374639E-3,3.335643E-2,-1.6283198E-3,-7.134915E-3,-2.2976663E-2,-9.340561E-3,1.6015131E-2,-5.466336E-3,1.4937517E-2,-1.7066155E-2,-3.177371E-2,4.3727785E-2,1.7504307E-2,-1.5856188E-3,1.9771054E-2,-5.220392E-2,1.2574295E-2,-9.37479E-3,-2.6799535E-2,5.6836274E-2,1.698228E-3,-1.0091415E-1,-2.5853464E-2,5.8962014E-3,2.67332E-2,5.4059797E-3,-5.2180635E-3,3.9239593E-2,1.3631608E-2,-2.4340556E-3,-2.5458472E-2,-3.6884078E-3,-9.412743E-3,-8.2243286E-4,-2.3065953E-2,-6.5241726E-3,-1.991233E-3,1.9171223E-2,-1.8363973E-3,-2.0790845E-2,8.496955E-3,4.4866744E-3,-3.963366E-2,-5.440471E-3,-2.403664E-2,3.463626E-4,2.4024012E-2,-1.6790334E-2,1.2243084E-2,3.2468565E-2,4.215445E-3,8.8085886E-4,-1.069619E-2,-2.4310013E-2,-4.18694E-3],"split_indices":[2,1,0,1,1,1,1,2,0,0,0,1,2,2,2,2,1,2,2,0,3,2,3,2,3,0,0,0,0,2,2,0,1,3,0,0,3,2,0,2,3,2,2,1,0,0,2,3,0,2,0,1,1,3,3,3,3,0,0,1,3,3,1,0,0,0,0,0,0,0,0,0,0,0,0,0,0,0,0,0,0,0,0,0,0,0,0,0,0,0,0,0,0,0,0,0,0,0,0,0,0,0,0,0,0,0,0,0,0,0,0,0,0,0,0,0,0,0,0],"split_type":[0,0,0,0,0,0,0,0,0,0,0,0,0,0,0,0,0,0,0,0,0,0,0,0,0,0,0,0,0,0,0,0,0,0,0,0,0,0,0,0,0,0,0,0,0,0,0,0,0,0,0,0,0,0,0,0,0,0,0,0,0,0,0,0,0,0,0,0,0,0,0,0,0,0,0,0,0,0,0,0,0,0,0,0,0,0,0,0,0,0,0,0,0,0,0,0,0,0,0,0,0,0,0,0,0,0,0,0,0,0,0,0,0,0,0,0,0,0,0],"sum_hessian":[1.3783E4,1.1742E4,2.041E3,3.883E3,7.859E3,1.539E3,5.02E2,9.45E2,2.938E3,5.847E3,2.012E3,6.35E2,9.04E2,2.3E1,4.79E2,9.29E2,1.6E1,3E1,2.908E3,1.17E2,5.73E3,1.867E3,1.45E2,2.3E1,6.12E2,8.8E2,2.4E1,1.5E1,8E0,3.54E2,1.25E2,8.87E2,4.2E1,1.4E1,2E0,3E0,2.7E1,7E0,2.901E3,1E1,1.07E2,5.725E3,5E0,1.21E3,6.57E2,2E0,1.43E2,1.3E1,1E1,5.76E2,3.6E1,5.68E2,3.12E2,1.5E1,9E0,1.2E1,3E0,1E0,7E0,4.8E1,3.06E2,9E1,3.5E1,6.12E2,2.75E2,2E0,4E1,2E0,1.2E1,1E0,1E0,2E0,1E0,1.7E1,1E1,4E0,3E0,2.886E3,1.5E1,7E0,3E0,9.2E1,1.5E1,7E0,5.718E3,2E0,3E0,1.169E3,4.1E1,4.22E2,2.35E2,1.9E1,1.24E2,7E0,6E0,1.57E2,4.19E2,8E0,2.8E1,4.2E2,1.48E2,3E0,3.09E2,1E1,5E0,1E0,8E0,4E0,8E0,2E0,1E0,3.5E1,1.3E1,8E0,2.98E2,5E1,4E1,1.5E1,2E1],"tree_param":{"num_deleted":"0","num_feature":"4","num_nodes":"119","size_leaf_vector":"1"}},{"base_weights":[-7.2356226E-5,-5.8798697E-3,4.6345307E-3,-3.2620032E-3,-2.0069072E-2,9.696194E-3,-4.4037313E-3,-4.04542E-3,3.942724E-2,-4.805351E-2,-1.5358002E-2,7.803074E-3,4.643283E-2,-6.4034653E-3,2.6177939E-2,-1.1071064E-2,-1.238282E-3,6.540062E-2,-4.3594968E-2,-1.0032289E-1,-3.72755E-2,1.15471E-2,-1.7988654E-2,6.9820015E-3,5.7718776E-2,4.1646138E-2,1.1054451E-1,-8.272088E-3,2.3339927E-2,1.5752824E-1,2.2013735E-2,-2.9761927E-2,-1.0346363E-2,-3.578222E-2,-5.2489573E-4,1.0209449E-2,1.0929832E-1,-8.233957E-2,3.934361E-2,-1.1491359E-2,-1.1136336E-1,-8.721911E-2,