{"learner":{"attributes":{"scikit_learn":"{\"_estimator_type\": \"regressor\"}"},"feature_names":["IREG_UBUS","IREG_IBUS","IREG_PWM","windspeed"],"feature_types":["float","float","float","float"],"gradient_booster":{"model":{"gbtree_model_param":{"num_parallel_tree":"1","num_trees":"100"},"iteration_indptr":[0,1,2,3,4,5,6,7,8,9,10,11,12,13,14,15,16,17,18,19,20,21,22,23,24,25,26,27,28,29,30,31,32,33,34,35,36,37,38,39,40,41,42,43,44,45,46,47,48,49,50,51,52,53,54,55,56,57,58,59,60,61,62,63,64,65,66,67,68,69,70,71,72,73,74,75,76,77,78,79,80,81,82,83,84,85,86,87,88,89,90,91,92,93,94,95,96,97,98,99,100],"tree_info":[0,0,0,0,0,0,0,0,0,0,0,0,0,0,0,0,0,0,0,0,0,0,0,0,0,0,0,0,0,0,0,0,0,0,0,0,0,0,0,0,0,0,0,0,0,0,0,0,0,0,0,0,0,0,0,0,0,0,0,0,0,0,0,0,0,0,0,0,0,0,0,0,0,0,0,0,0,0,0,0,0,0,0,0,0,0,0,0,0,0,0,0,0,0,0,0,0,0,0,0],"trees":[{"base_weights":[-1.3613095E-8,-2.004403E0,1.9573338E-1,-5.960114E-1,-2.1269143E0,7.258926E-1,-2.8636256E-2,-1.1428976E0,-7.532314E-2,-2.4168656E0,-1.6494961E0,5.1643723E-1,1.0286537E0,-2.0617561E-1,6.5980446E-1,1.7345625E-1,-1.2866021E0,2.1025898E-1,-3.5337293E-1,-7.8321624E-1,-2.15513E0,-5.2920663E-1,-1.3547093E0,1.4886357E-1,6.114416E-1,9.046155E-1,1.327419E0,-1.00821726E-1,-1.2838588E0,8.437006E-1,-3.5275015E-1,-1.5069201E0,-2.489183E-1,-7.5537026E-2,1.5334873E-1,-1.8889883E-1,-1.4501122E-1,3.7173158E-1,-6.620403E-1,-8.378674E-1,-1.441469E0,3.56646E-1,-2.8999102E-1,9.128434E-1,4.9933606E-1,4.752077E-1,9.5636934E-1,8.6507845E-1,1.4122876E0,-5.450718E-1,1.4028847E-1,-1.7797283E0,-8.730409E-1,9.3040985E-1,3.7740058E-1,-6.411449E-1,2.1725015E-1,-4.94176E-1,-2.3380716E-1,7.1924396E-2,-1.4751692E-1,-8.23604E-3,-2.7814634E-2,-6.0649175E-2,-4.2589766E-4,-2.2719589E-3,1.6955118E-1,5.825665E-2,-2.9734442E-1,-4.401004E-1,-7.451578E-2,-8.976437E-3,1.337568E-1,-1.5861948E-1,-1.2029099E-2,1.1374677E-1,3.0503172E-1,5.445438E-2,1.7512485E-1,1.8552655E-1,6.1150018E-2,2.5803968E-1,3.239851E-1,1.7773533E-1,3.4013188E-1,4.2642486E-1,4.0683825E-2,-1.0804396E-1,-3.337856E-1,4.6554925E-3,1.3630122E-1,-5.947231E-1,-4.5179054E-1,-1.355616E-1,-3.6837673E-1,1.8480232E-1,3.0759794E-1,-5.4767877E-2,2.0279148E-1,-2.089432E-1,-2.7325219E-2,-2.7150743E-2,1.3463356E-1],"categories":[],"categories_nodes":[],"categories_segments":[],"categories_sizes":[],"default_left":[0,0,0,0,0,0,0,0,0,0,0,0,0,0,0,0,0,0,0,0,0,0,0,0,0,0,0,0,0,0,0,0,0,0,0,0,0,0,0,0,0,0,0,0,0,0,0,0,0,0,0,0,0,0,0,0,0,0,0,0,0,0,0,0,0,0,0,0,0,0,0,0,0,0,0,0,0,0,0,0,0,0,0,0,0,0,0,0,0,0,0,0,0,0,0,0,0,0,0,0,0,0,0],"id":0,"left_children":[1,3,5,7,9,11,13,15,17,19,21,23,25,27,29,-1,31,33,35,-1,37,-1,39,41,43,45,47,49,51,53,55,57,59,61,-1,-1,63,65,-1,67,69,71,73,75,77,79,81,83,85,87,89,91,93,95,97,99,101,-1,-1,-1,-1,-1,-1,-1,-1,-1,-1,-1,-1,-1,-1,-1,-1,-1,-1,-1,-1,-1,-1,-1,-1,-1,-1,-1,-1,-1,-1,-1,-1,-1,-1,-1,-1,-1,-1,-1,-1,-1,-1,-1,-1,-1,-1],"loss_changes":[1.8521835E3,7.120056E1,5.116317E2,9.880416E0,4.9446655E1,8.057648E1,3.696232E2,4.948469E0,1.5830147E0,6.449463E0,2.640625E0,2.637918E1,1.8143616E1,2.7281616E2,1.157446E2,0E0,3.2828255E0,8.985815E-1,4.8437405E-1,0E0,1.47908325E1,0E0,8.5492706E-1,1.4419668E1,1.9885056E1,7.8126526E0,4.703247E0,2.3476152E2,4.204059E1,2.0875946E1,1.5920256E1,4.3518066E-2,5.9249157E-1,2.4106354E-3,0E0,0E0,5.7159513E-2,2.2439715E-1,0E0,1.6162176E0,7.931824E-1,3.70331E0,3.021451E0,8.599915E0,1.1725365E1,1.506259E0,3.007721E0,1.2328854E0,1.27565E0,8.051863E1,5.567331E1,2.3412476E0,1.7231491E1,1.2558533E1,1.4167184E1,1.8844795E0,2.3919802E0,0E0,0E0,0E0,0E0,0E0,0E0,0E0,0E0,0E0,0E0,0E0,0E0,0E0,0E0,0E0,0E0,0E0,0E0,0E0,0E0,0E0,0E0,0E0,0E0,0E0,0E0,0E0,0E0,0E0,0E0,0E0,0E0,0E0,0E0,0E0,0E0,0E0,0E0,0E0,0E0,0E0,0E0,0E0,0E0,0E0,0E0],"parents":[2147483647,0,0,1,1,2,2,3,3,4,4,5,5,6,6,7,7,8,8,9,9,10,10,11,11,12,12,13,13,14,14,16,16,17,17,18,18,20,20,22,22,23,23,24,24,25,25,26,26,27,27,28,28,29,29,30,30,31,31,32,32,33,33,36,36,37,37,39,39,40,40,41,41,42,42,43,43,44,44,45,45,46,46,47,47,48,48,49,49,50,50,51,51,52,52,53,53,54,54,55,55,56,56],"right_children":[2,4,6,8,10,12,14,16,18,20,22,24,26,28,30,-1,32,34,36,-1,38,-1,40,42,44,46,48,50,52,54,56,58,60,62,-1,-1,64,66,-1,68,70,72,74,76,78,80,82,84,86,88,90,92,94,96,98,100,102,-1,-1,-1,-1,-1,-1,-1,-1,-1,-1,-1,-1,-1,-1,-1,-1,-1,-1,-1,-1,-1,-1,-1,-1,-1,-1,-1,-1,-1,-1,-1,-1,-1,-1,-1,-1,-1,-1,-1,-1,-1,-1,-1,-1,-1,-1],"split_conditions":[-1.1247745E0,-1.8155252E0,-1.7124282E-1,-1.1989365E0,-1.1913302E0,2.063396E-1,1.2446085E0,-3.297038E0,-2.8020945E0,-3.3567107E-1,-1.1513968E0,-1.7592033E0,7.1786773E-1,1.4730395E0,2.1307523E0,1.7345625E-1,2.4852547E-1,-1.5740936E0,-1.1628063E0,-7.8321624E-1,-1.2616891E0,-5.2920663E-1,-5.000993E-1,-9.93384E-1,-8.2895577E-1,-9.333291E-1,-1.0472428E0,-6.227543E-1,5.086926E-1,1.801896E0,2.0641944E0,-3.2104298E-1,3.1972152E-1,-3.4598074E0,1.5334873E-1,-1.8889883E-1,6.534504E-1,-3.297038E0,-6.620403E-1,-2.4426856E0,1.5850391E0,-1.0829394E0,-6.398686E-1,-1.0829394E0,-2.3560771E-1,-5.000993E-1,4.1171148E-1,1.0335319E0,1.2595094E0,1.5761364E-1,2.0580783E-1,1.9493005E-1,2.1307523E0,1.5146346E0,1.8512162E0,2.3274503E0,2.294287E0,-4.94176E-1,-2.3380716E-1,7.1924396E-2,-1.4751692E-1,-8.23604E-3,-2.7814634E-2,-6.0649175E-2,-4.2589766E-4,-2.2719589E-3,1.6955118E-1,5.825665E-2,-2.9734442E-1,-4.401004E-1,-7.451578E-2,-8.976437E-3,1.337568E-1,-1.5861948E-1,-1.2029099E-2,1.1374677E-1,3.0503172E-1,5.445438E-2,1.7512485E-1,1.8552655E-1,6.1150018E-2,2.5803968E-1,3.239851E-1,1.7773533E-1,3.4013188E-1,4.2642486E-1,4.0683825E-2,-1.0804396E-1,-3.337856E-1,4.6554925E-3,1.3630122E-1,-5.947231E-1,-4.5179054E-1,-1.355616E-1,-3.6837673E-1,1.8480232E-1,3.0759794E-1,-5.4767877E-2,2.0279148E-1,-2.089432E-1,-2.7325219E-2,-2.7150743E-2,1.3463356E-1],"split_indices":[1,2,2,1,1,1,1,0,2,2,1,0,1,2,2,0,0,0,1,0,1,0,2,2,2,0,0,1,1,2,1,0,0,2,0,0,3,0,0,0,3,1,1,1,0,2,1,1,0,2,0,1,2,1,1,0,1,0,0,0,0,0,0,0,0,0,0,0,0,0,0,0,0,0,0,0,0,0,0,0,0,0,0,0,0,0,0,0,0,0,0,0,0,0,0,0,0,0,0,0,0,0,0],"split_type":[0,0,0,0,0,0,0,0,0,0,0,0,0,0,0,0,0,0,0,0,0,0,0,0,0,0,0,0,0,0,0,0,0,0,0,0,0,0,0,0,0,0,0,0,0,0,0,0,0,0,0,0,0,0,0,0,0,0,0,0,0,0,0,0,0,0,0,0,0,0,0,0,0,0,0,0,0,0,0,0,0,0,0,0,0,0,0,0,0,0,0,0,0,0,0,0,0,0,0,0,0,0,0],"sum_hessian":[4.719E3,4.19E2,4.3E3,3.4E1,3.85E2,1.278E3,3.022E3,1.6E1,1.8E1,2.37E2,1.48E2,7.57E2,5.21E2,2.403E3,6.19E2,1E0,1.5E1,9E0,9E0,1.31E2,1.06E2,1.03E2,4.5E1,1.56E2,6.01E2,3.71E2,1.5E2,2.19E3,2.13E2,5.24E2,9.5E1,1.2E1,3E0,5E0,4E0,3E0,6E0,2E0,1.04E2,8E0,3.7E1,1.06E2,5E1,1.61E2,4.4E2,4.1E1,3.3E2,2.5E1,1.25E2,7.7E2,1.42E3,9.5E1,1.18E2,4.41E2,8.3E1,6.3E1,3.2E1,9E0,3E0,1E0,2E0,2E0,3E0,4E0,2E0,1E0,1E0,1E0,7E0,3.6E1,1E0,2E1,8.6E1,2.5E1,2.5E1,2.7E1,1.34E2,9.3E1,3.47E2,2.6E1,1.5E1,1.9E2,1.4E2,1.4E1,1.1E1,1.24E2,1E0,5.82E2,1.88E2,1.017E3,4.03E2,5.1E1,4.4E1,5.5E1,6.3E1,1.04E2,3.37E2,2.9E1,5.4E1,5.7E1,6E0,1.4E1,1.8E1],"tree_param":{"num_deleted":"0","num_feature":"4","num_nodes":"103","size_leaf_vector":"1"}},{"base_weights":[-4.7609658E-4,-1.3736001E0,1.4136109E-1,-3.0617592E-1,-1.4790499E0,5.1373565E-1,-1.5800726E-2,-8.370941E-1,6.709549E-2,-1.741971E0,-1.2074623E0,3.5935506E-1,7.164792E-1,-1.398691E-1,4.626884E-1,1.4743781E-1,-9.5084494E-1,-1.15164086E-1,4.0390852E-1,-6.98924E-1,-1.7648965E0,-4.1094398E-1,-1.071547E0,3.014256E-1,7.0908797E-1,6.377842E-1,9.6460783E-1,9.475327E-2,-4.1254947E-1,5.918103E-1,-2.4826661E-1,-3.3325282E-1,-1.9314092E-1,1.21588364E-1,-3.3912054E-1,6.3870776E-1,-4.926748E-2,-3.8560948E-1,3.1597188E-1,-5.8033633E-1,-4.9552664E-1,-2.1517254E-1,-1.1061982E0,5.3252494E-1,2.3987523E-1,9.11831E-1,5.635791E-1,1.2861791E-1,6.6164804E-1,5.19651E-1,9.9340916E-1,-4.2990662E-2,2.9068485E-1,-3.0108088E-1,-9.7312E-1,3.577189E-1,7.235107E-1,-4.5944574E-1,1.5033787E-1,6.113574E-2,-1.1801352E-1,-1.7665312E-2,1.08570114E-1,-1.6961491E-1,-5.811153E-2,5.6732226E-2,2.0724191E-1,-2.0838324E-2,1.696997E-3,-1.9311651E-3,1.4411852E-1,-3.3323702E-1,-9.636482E-2,7.932193E-2,2.1068017E-1,-1.6605988E-2,9.925848E-2,-7.400497E-2,2.840883E-1,1.24552645E-1,3.2730296E-1,8.311955E-2,-2.5080787E-2,2.3455584E-1,1.7902884E-1,2.2512247E-1,9.406617E-2,2.9992995E-1,3.4581248E-2,-3.6680285E-2,1.2680518E-2,7.134152E-2,1.4796911E-1,-1.3907269E-1,9.7485475E-2,-3.9698777E-1,-1.9259757E-1,1.585096E-1,-1.5815826E-2,2.5144684E-1,1.5572888E-1,-1.9000784E-1,-8.4644906E-2,2.2837053E-1,1.3053126E-2],"categories":[],"categories_nodes":[],"categories_segments":[],"categories_sizes":[],"default_left":[0,0,0,0,0,0,0,0,0,0,0,0,0,0,0,0,0,0,0,0,0,0,0,0,0,0,0,0,0,0,0,0,0,0,0,0,0,0,0,0,0,0,0,0,0,0,0,0,0,0,0,0,0,0,0,0,0,0,0,0,0,0,0,0,0,0,0,0,0,0,0,0,0,0,0,0,0,0,0,0,0,0,0,0,0,0,0,0,0,0,0,0,0,0,0,0,0,0,0,0,0,0,0,0,0],"id":1,"left_children":[1,3,5,7,9,11,13,15,17,19,21,23,25,27,29,-1,31,33,35,37,39,-1,41,43,45,47,49,51,53,55,57,-1,59,61,63,65,67,-1,69,-1,-1,-1,71,73,75,77,79,81,83,85,87,89,91,93,95,97,99,101,103,-1,-1,-1,-1,-1,-1,-1,-1,-1,-1,-1,-1,-1,-1,-1,-1,-1,-1,-1,-1,-1,-1,-1,-1,-1,-1,-1,-1,-1,-1,-1,-1,-1,-1,-1,-1,-1,-1,-1,-1,-1,-1,-1,-1,-1,-1],"loss_changes":[9.194616E2,4.9298462E1,2.5042831E2,8.181405E0,2.660199E1,3.9493103E1,1.7875446E2,3.0364103E0,1.5812008E0,3.5967407E0,2.9674377E0,1.443412E1,1.0085297E1,1.5300787E2,5.7062836E1,0E0,1.7251463E0,9.4261104E-1,9.8911595E-1,3.9771976E0,5.839844E-1,0E0,6.0617065E-1,8.719753E0,2.495201E0,5.006027E0,1.149765E0,3.471956E1,6.881654E1,1.592691E1,8.150059E0,0E0,3.9808333E-1,4.1163817E-1,1.8660104E-1,9.904385E-3,4.8293807E-3,0E0,1.6212696E-1,0E0,0E0,0E0,1.0848999E-2,5.730751E0,1.3261168E1,1.9022408E0,4.3999443E0,6.532345E-1,2.6532288E0,2.4029088E-1,5.602417E-1,5.1150312E0,5.570011E0,9.4146355E1,2.036966E1,1.3405462E1,7.415695E0,1.7638531E0,2.185738E0,0E0,0E0,0E0,0E0,0E0,0E0,0E0,0E0,0E0,0E0,0E0,0E0,0E0,0E0,0E0,0E0,0E0,0E0,0E0,0E0,0E0,0E0,0E0,0E0,0E0,0E0,0E0,0E0,0E0,0E0,0E0,0E0,0E0,0E0,0E0,0E0,0E0,0E0,0E0,0E0,0E0,0E0,0E0,0E0,0E0,0E0],"parents":[2147483647,0,0,1,1,2,2,3,3,4,4,5,5,6,6,7,7,8,8,9,9,10,10,11,11,12,12,13,13,14,14,16,16,17,17,18,18,19,19,20,20,22,22,23,23,24,24,25,25,26,26,27,27,28,28,29,29,30,30,32,32,33,33,34,34,35,35,36,36,38,38,42,42,43,43,44,44,45,45,46,46,47,47,48,48,49,49,50,50,51,51,52,52,53,53,54,54,55,55,56,56,57,57,58,58],"right_children":[2,4,6,8,10,12,14,16,18,20,22,24,26,28,30,-1,32,34,36,38,40,-1,42,44,46,48,50,52,54,56,58,-1,60,62,64,66,68,-1,70,-1,-1,-1,72,74,76,78,80,82,84,86,88,90,92,94,96,98,100,102,104,-1,-1,-1,-1,-1,-1,-1,-1,-1,-1,-1,-1,-1,-1,-1,-1,-1,-1,-1,-1,-1,-1,-1,-1,-1,-1,-1,-1,-1,-1,-1,-1,-1,-1,-1,-1,-1,-1,-1,-1,-1,-1,-1,-1,-1,-1],"split_conditions":[-1.1133649E0,-1.4866687E0,-1.7124282E-1,-1.1989365E0,-1.2103461E0,1.835205E-1,1.2446085E0,-3.297038E0,-2.6408616E-1,-6.4854485E-1,-1.1742158E0,2.3428626E-1,7.692107E-1,-6.814595E-3,2.1307523E0,1.4743781E-1,2.4852547E-1,-2.8020945E0,-2.3088098E0,-8.2895577E-1,-6.6452754E-1,-4.1094398E-1,-5.000993E-1,-1.6510969E0,-6.6452754E-1,-1.8303994E0,-1.9158347E0,-3.508267E-1,1.6374677E0,3.9091757E-1,2.020458E0,-3.3325282E-1,3.1972152E-1,-1.1418887E0,-1.1704127E0,-3.4598074E0,4.336352E-1,-3.8560948E-1,-3.297038E0,-5.8033633E-1,-4.9552664E-1,-2.1517254E-1,1.017443E0,-2.2433364E0,-1.2750702E0,-1.1095617E0,7.0418024E-1,-5.000993E-1,-3.3567107E-1,-6.6452754E-1,1.2595094E0,-5.2767473E-1,-8.540239E-3,5.429213E-1,5.9616584E-1,1.3086113E0,1.4730395E0,3.9091757E-1,6.534504E-1,6.113574E-2,-1.1801352E-1,-1.7665312E-2,1.08570114E-1,-1.6961491E-1,-5.811153E-2,5.6732226E-2,2.0724191E-1,-2.0838324E-2,1.696997E-3,-1.9311651E-3,1.4411852E-1,-3.3323702E-1,-9.636482E-2,7.932193E-2,2.1068017E-1,-1.6605988E-2,9.925848E-2,-7.400497E-2,2.840883E-1,1.24552645E-1,3.2730296E-1,8.311955E-2,-2.5080787E-2,2.3455584E-1,1.7902884E-1,2.2512247E-1,9.406617E-2,2.9992995E-1,3.4581248E-2,-3.6680285E-2,1.2680518E-2,7.134152E-2,1.4796911E-1,-1.3907269E-1,9.7485475E-2,-3.9698777E-1,-1.9259757E-1,1.585096E-1,-1.5815826E-2,2.5144684E-1,1.5572888E-1,-1.9000784E-1,-8.4644906E-2,2.2837053E-1,1.3053126E-2],"split_indices":[1,2,2,1,1,1,1,0,0,0,1,0,1,2,2,0,0,2,2,2,2,0,2,2,2,0,0,1,2,0,1,0,0,1,1,2,0,0,0,0,0,0,0,0,0,1,0,2,2,2,0,1,1,1,1,2,2,0,3,0,0,0,0,0,0,0,0,0,0,0,0,0,0,0,0,0,0,0,0,0,0,0,0,0,0,0,0,0,0,0,0,0,0,0,0,0,0,0,0,0,0,0,0,0,0],"split_type":[0,0,0,0,0,0,0,0,0,0,0,0,0,0,0,0,0,0,0,0,0,0,0,0,0,0,0,0,0,0,0,0,0,0,0,0,0,0,0,0,0,0,0,0,0,0,0,0,0,0,0,0,0,0,0,0,0,0,0,0,0,0,0,0,0,0,0,0,0,0,0,0,0,0,0,0,0,0,0,0,0,0,0,0,0,0,0,0,0,0,0,0,0,0,0,0,0,0,0,0,0,0,0,0,0],"sum_hessian":[4.719E3,4.41E2,4.278E3,4E1,4.01E2,1.269E3,3.009E3,1.6E1,2.4E1,2.01E2,2E2,7.22E2,5.47E2,2.39E3,6.19E2,1E0,1.5E1,1.6E1,8E0,5E0,1.96E2,8.7E1,1.13E2,6.21E2,1.01E2,4.18E2,1.29E2,1.285E3,1.105E3,5.24E2,9.5E1,1.2E1,3E0,8E0,8E0,5E0,3E0,3E0,2E0,7.2E1,1.24E2,1.2E1,1.01E2,1.29E2,4.92E2,4E1,6.1E1,1.9E1,3.99E2,9E0,1.2E2,7.55E2,5.3E2,9.23E2,1.82E2,1.9E2,3.34E2,6.2E1,3.3E1,1E0,2E0,5E0,3E0,2E0,6E0,1E0,4E0,2E0,1E0,1E0,1E0,1E2,1E0,5.1E1,7.8E1,1.16E2,3.76E2,1E0,3.9E1,4.9E1,1.2E1,1.1E1,8E0,1.36E2,2.63E2,3E0,6E0,1.19E2,1E0,3.91E2,3.64E2,4.22E2,1.08E2,7.33E2,1.9E2,8.7E1,9.5E1,1.34E2,5.6E1,2.12E2,1.22E2,3E1,3.2E1,4E0,2.9E1],"tree_param":{"num_deleted":"0","num_feature":"4","num_nodes":"105","size_leaf_vector":"1"}},{"base_weights":[-3.902555E-4,-9.439783E-1,1.03935026E-1,-1.8779059E-1,-1.0376003E0,3.7018618E-1,-7.3409467E-3,-6.0024196E-1,6.7895013E-3,-1.191801E0,-8.145153E-1,2.8640807E-1,5.541512E-1,-7.7880606E-2,4.4594693E-1,1.2532215E-1,-6.899746E-1,1.8290545E-1,-2.6370758E-1,-4.0130267E-1,-1.0837239E0,-8.236348E-1,-2.2102815E-1,2.599753E-1,6.3583374E-1,3.5784128E-1,6.133575E-1,-2.818909E-3,-5.102599E-1,5.408357E-1,7.802756E-2,-9.0256727E-1,-2.87703E-1,-6.390121E-2,3.776722E-1,-1.2685455E-1,-3.6759716E-1,2.685761E-1,-3.313113E-1,-6.0734916E-1,-8.4356666E-1,-9.078124E-2,3.554971E-3,4.217439E-1,2.1363594E-1,2.551026E-1,6.658075E-1,4.3015704E-1,9.243875E-3,1.4600201E-1,6.967401E-1,-1.9126506E-1,1.680998E-1,-7.148939E-1,1.11088656E-1,4.1124836E-1,6.8582356E-1,-8.5574746E-2,4.6755198E-1,-2.8888115E-1,-5.388585E-2,-1.18374765E-1,-4.1008415E-3,6.881278E-3,-1.3984339E-1,1.5518925E-1,-1.9742696E-2,-6.724721E-2,-1.7118216E-2,-1.238557E-1,-7.621655E-3,-1.6414901E-3,1.22500725E-1,-1.8778366E-1,-4.3681625E-2,-2.3960769E-1,-3.1295127E-1,9.535913E-2,2.0893915E-1,-5.191549E-2,8.018587E-2,1.2831098E-1,-1.8019749E-2,1.6161977E-1,2.4575529E-1,9.883177E-2,2.1021926E-1,1.6302308E-2,-6.579696E-2,2.0987082E-1,2.9394062E-2,-3.823895E-2,-2.131675E-1,3.287843E-2,2.2849795E-1,-3.6950138E-1,-1.7478542E-1,8.166284E-2,-1.5443425E-1,2.1317764E-1,9.543842E-2,2.463724E-1,1.7178214E-1,-5.7969745E-2,3.2748844E-2,4.164268E-2,2.0323803E-1],"categories":[],"categories_nodes":[],"categories_segments":[],"categories_sizes":[],"default_left":[0,0,0,0,0,0,0,0,0,0,0,0,0,0,0,0,0,0,0,0,0,0,0,0,0,0,0,0,0,0,0,0,0,0,0,0,0,0,0,0,0,0,0,0,0,0,0,0,0,0,0,0,0,0,0,0,0,0,0,0,0,0,0,0,0,0,0,0,0,0,0,0,0,0,0,0,0,0,0,0,0,0,0,0,0,0,0,0,0,0,0,0,0,0,0,0,0,0,0,0,0,0,0,0,0,0,0],"id":2,"left_children":[1,3,5,7,9,11,13,15,17,19,21,23,25,27,29,-1,31,33,35,-1,37,39,41,43,45,47,49,51,53,55,57,59,61,63,65,67,69,71,-1,73,75,-1,-1,77,79,81,83,85,87,-1,89,91,93,95,97,99,101,103,105,-1,-1,-1,-1,-1,-1,-1,-1,-1,-1,-1,-1,-1,-1,-1,-1,-1,-1,-1,-1,-1,-1,-1,-1,-1,-1,-1,-1,-1,-1,-1,-1,-1,-1,-1,-1,-1,-1,-1,-1,-1,-1,-1,-1,-1,-1,-1,-1],"loss_changes":[4.6473532E2,3.3079132E1,1.2594861E2,4.2575808E0,1.3408417E1,1.9152832E1,9.592708E1,1.8411174E0,1.8108709E0,2.4129028E0,7.5969696E-1,7.8056183E0,4.32502E0,8.425207E1,1.4061996E1,0E0,1.1086483E0,1.1297374E0,1.6663277E-1,0E0,4.3730774E0,2.2483826E-1,7.957484E-2,5.936886E0,5.148659E-1,2.3404694E0,2.8193283E0,7.1310616E1,4.890464E1,5.7490997E0,5.393086E0,2.6348114E-1,1.9962627E-1,3.949259E-1,8.390181E-1,4.1538507E-2,1.1339879E-1,1.171367E-1,0E0,6.3420296E-2,5.462265E-1,0E0,0E0,4.8583736E0,1.3053932E1,3.5208002E-1,6.3064957E-1,1.8675251E0,1.8714954E-1,0E0,2.3299408E-1,3.4797306E1,4.023371E1,1.9037628E1,9.820826E0,4.5684357E0,1.8294754E0,1.278994E0,1.6311083E0,0E0,0E0,0E0,0E0,0E0,0E0,0E0,0E0,0E0,0E0,0E0,0E0,0E0,0E0,0E0,0E0,0E0,0E0,0E0,0E0,0E0,0E0,0E0,0E0,0E0,0E0,0E0,0E0,0E0,0E0,0E0,0E0,0E0,0E0,0E0,0E0,0E0,0E0,0E0,0E0,0E0,0E0,0E0,0E0,0E0,0E0,0E0,0E0],"parents":[2147483647,0,0,1,1,2,2,3,3,4,4,5,5,6,6,7,7,8,8,9,9,10,10,11,11,12,12,13,13,14,14,16,16,17,17,18,18,20,20,21,21,22,22,23,23,24,24,25,25,26,26,27,27,28,28,29,29,30,30,31,31,32,32,33,33,34,34,35,35,36,36,37,37,39,39,40,40,43,43,44,44,45,45,46,46,47,47,48,48,50,50,51,51,52,52,53,53,54,54,55,55,56,56,57,57,58,58],"right_children":[2,4,6,8,10,12,14,16,18,20,22,24,26,28,30,-1,32,34,36,-1,38,40,42,44,46,48,50,52,54,56,58,60,62,64,66,68,70,72,-1,74,76,-1,-1,78,80,82,84,86,88,-1,90,92,94,96,98,100,102,104,106,-1,-1,-1,-1,-1,-1,-1,-1,-1,-1,-1,-1,-1,-1,-1,-1,-1,-1,-1,-1,-1,-1,-1,-1,-1,-1,-1,-1,-1,-1,-1,-1,-1,-1,-1,-1,-1,-1,-1,-1,-1,-1,-1,-1,-1,-1,-1,-1],"split_conditions":[-1.1019553E0,-1.4866687E0,-1.7124282E-1,-1.1989365E0,-1.1894286E0,3.3184463E-1,1.6895809E0,-3.297038E0,-2.3088098E0,-5.000993E-1,1.0743997E0,4.4787443E-1,-4.491959E-1,1.144183E0,1.9663242E0,1.2532215E-1,-3.2104298E-1,-1.1418887E0,-1.9799534E0,-4.0130267E-1,-1.2616891E0,-5.000993E-1,-1.1247745E0,-1.3222405E0,-1.0601203E0,-3.3567107E-1,5.086926E-1,-4.7443014E-1,1.8717955E0,2.233436E0,1.6724466E0,-2.3088098E0,-1.2616891E0,-2.473238E0,-1.1095617E0,-2.4426856E0,-3.6376062E-1,-3.297038E0,-3.313113E-1,1.1192448E0,-2.7813834E-1,-9.078124E-2,3.554971E-3,-8.194154E-1,-5.6190336E-1,-1.4866687E0,7.326587E-1,1.0335319E0,-5.0615275E-1,1.4600201E-1,1.6724466E0,3.2204187E-1,1.0743997E0,1.4929186E-1,2.4596088E0,6.5089834E-1,1.3086113E0,2.233436E0,2.294287E0,-2.8888115E-1,-5.388585E-2,-1.18374765E-1,-4.1008415E-3,6.881278E-3,-1.3984339E-1,1.5518925E-1,-1.9742696E-2,-6.724721E-2,-1.7118216E-2,-1.238557E-1,-7.621655E-3,-1.6414901E-3,1.22500725E-1,-1.8778366E-1,-4.3681625E-2,-2.3960769E-1,-3.1295127E-1,9.535913E-2,2.0893915E-1,-5.191549E-2,8.018587E-2,1.2831098E-1,-1.8019749E-2,1.6161977E-1,2.4575529E-1,9.883177E-2,2.1021926E-1,1.6302308E-2,-6.579696E-2,2.0987082E-1,2.9394062E-2,-3.823895E-2,-2.131675E-1,3.287843E-2,2.2849795E-1,-3.6950138E-1,-1.7478542E-1,8.166284E-2,-1.5443425E-1,2.1317764E-1,9.543842E-2,2.463724E-1,1.7178214E-1,-5.7969745E-2,3.2748844E-2,4.164268E-2,2.0323803E-1],"split_indices":[1,2,2,1,1,1,1,0,2,2,0,0,0,2,2,0,0,1,2,0,1,2,1,2,1,2,1,1,0,1,0,2,1,2,1,0,0,0,0,3,3,0,0,0,1,2,0,1,0,0,0,2,0,1,2,2,2,1,1,0,0,0,0,0,0,0,0,0,0,0,0,0,0,0,0,0,0,0,0,0,0,0,0,0,0,0,0,0,0,0,0,0,0,0,0,0,0,0,0,0,0,0,0,0,0,0,0],"split_type":[0,0,0,0,0,0,0,0,0,0,0,0,0,0,0,0,0,0,0,0,0,0,0,0,0,0,0,0,0,0,0,0,0,0,0,0,0,0,0,0,0,0,0,0,0,0,0,0,0,0,0,0,0,0,0,0,0,0,0,0,0,0,0,0,0,0,0,0,0,0,0,0,0,0,0,0,0,0,0,0,0,0,0,0,0,0,0,0,0,0,0,0,0,0,0,0,0,0,0,0,0,0,0,0,0,0,0],"sum_hessian":[4.719E3,4.69E2,4.25E3,5.2E1,4.17E2,1.252E3,2.998E3,1.6E1,3.6E1,2.44E2,1.73E2,8.62E2,3.9E2,2.595E3,4.03E2,1E0,1.5E1,2.2E1,1.4E1,9.9E1,1.45E2,1.7E2,3E0,8.03E2,5.9E1,9.2E1,2.98E2,2.212E3,3.83E2,3.2E2,8.3E1,9E0,6E0,1E1,1.2E1,7E0,7E0,2E0,1.43E2,1.7E1,1.53E2,2E0,1E0,1.77E2,6.26E2,5E0,5.4E1,7.6E1,1.6E1,1.21E2,1.77E2,1.052E3,1.16E3,2.88E2,9.5E1,1.71E2,1.49E2,5.9E1,2.4E1,8E0,1E0,4E0,2E0,9E0,1E0,9E0,3E0,2E0,5E0,6E0,1E0,1E0,1E0,1.6E1,1E0,1.29E2,2.4E1,1.3E2,4.7E1,7.6E1,5.5E2,3E0,2E0,3.2E1,2.2E1,5.7E1,1.9E1,1.4E1,2E0,1.76E2,1E0,9.38E2,1.14E2,1.057E3,1.03E2,5.7E1,2.31E2,7.6E1,1.9E1,3.9E1,1.32E2,6.5E1,8.4E1,3.8E1,2.1E1,1E1,1.4E1],"tree_param":{"num_deleted":"0","num_feature":"4","num_nodes":"107","size_leaf_vector":"1"}},{"base_weights":[-3.159501E-4,-6.5144014E-1,7.5607546E-2,-1.4949283E-1,-7.286744E-1,-3.4214348E-2,2.125238E-1,-4.472373E-1,-3.931496E-2,-8.6616206E-1,-6.02563E-1,5.1763315E-2,-3.8044512E-1,2.5224447E-1,-1.739291E-1,1.0652382E-1,-5.1531947E-1,1.4857377E-1,-2.3314665E-1,-3.4930897E-1,-8.77507E-1,-6.683981E-1,-5.3775007E-1,-2.510964E-2,2.1043293E-1,-6.2474823E-1,-8.107856E-2,4.098835E-2,3.285268E-1,-5.067061E-1,1.1499694E-2,-6.5711004E-1,-2.1888863E-1,3.9701667E-2,1.3152364E-1,-2.9886934E-1,2.4786808E-2,-2.0855422E-1,2.2828966E-1,-3.017172E-1,-2.477491E-1,-2.808666E-1,-1.9389221E-1,-5.0521123E-1,-2.1469292E-1,2.792308E-1,-6.1619073E-2,1.7089045E-1,4.3581566E-1,-4.4485435E-1,-8.649266E-1,-1.5545636E-1,5.6496066E-1,7.489947E-2,-8.351328E-1,3.88921E-1,2.1900302E-1,-3.8416004E-1,-7.031271E-1,1.6184339E-1,-2.2262381E-1,-3.9841697E-2,-2.0887797E-1,2.4394361E-2,-8.474247E-2,-4.1996572E-2,5.1348265E-2,-1.3854781E-2,-1.0222335E-1,-9.365127E-3,4.5720946E-2,-1.3952667E-3,1.0412562E-1,-6.036609E-2,-1.546076E-1,1.9486062E-2,1.0256251E-1,-5.6738004E-2,-1.6662128E-3,1.4755844E-1,4.5120783E-2,8.428267E-2,1.5698026E-1,-2.0820539E-1,-1.1815921E-1,-3.5069633E-1,-2.266783E-1,1.996776E-2,-1.0074515E-1,1.801208E-1,-2.689828E-2,1.3540922E-1,1.2019028E-2,-2.6217034E-1,-3.2225862E-2,8.954722E-2,1.6970761E-1,-3.4583837E-3,1.1618186E-1,-1.5483381E-1,-4.3718114E-2,-2.2683929E-1,-7.8697816E-2,1.9154867E-2,1.4657459E-1,-9.3327664E-2,-7.484278E-3],"categories":[],"categories_nodes":[],"categories_segments":[],"categories_sizes":[],"default_left":[0,0,0,0,0,0,0,0,0,0,0,0,0,0,0,0,0,0,0,0,0,0,0,0,0,0,0,0,0,0,0,0,0,0,0,0,0,0,0,0,0,0,0,0,0,0,0,0,0,0,0,0,0,0,0,0,0,0,0,0,0,0,0,0,0,0,0,0,0,0,0,0,0,0,0,0,0,0,0,0,0,0,0,0,0,0,0,0,0,0,0,0,0,0,0,0,0,0,0,0,0,0,0,0,0,0,0],"id":3,"left_children":[1,3,5,7,9,11,13,15,17,19,21,23,25,27,29,-1,31,33,35,37,39,41,43,45,47,49,51,53,55,57,59,61,63,65,-1,67,69,-1,71,-1,-1,-1,-1,73,-1,75,77,79,81,83,85,87,89,91,93,95,97,99,101,103,105,-1,-1,-1,-1,-1,-1,-1,-1,-1,-1,-1,-1,-1,-1,-1,-1,-1,-1,-1,-1,-1,-1,-1,-1,-1,-1,-1,-1,-1,-1,-1,-1,-1,-1,-1,-1,-1,-1,-1,-1,-1,-1,-1,-1,-1,-1],"loss_changes":[2.3338542E2,1.9003479E1,6.3581184E1,2.1803422E0,6.881714E0,6.988545E1,2.8932892E1,1.1662009E0,1.855579E0,8.7794495E-1,6.049042E-1,2.29486E1,3.4103935E1,2.7495026E1,1.0866159E1,0E0,5.706949E-1,8.0303234E-1,4.3121004E-1,1.357353E0,4.747162E-1,3.3885956E-2,3.272705E-1,1.4106332E1,5.397608E0,1.0719337E1,1.02265835E1,1.3551004E1,8.209534E0,1.246336E0,4.0487156E0,1.3332367E-1,1.5659091E-1,4.9639925E-1,0E0,1.9588947E-1,4.7639657E-2,0E0,8.463128E-2,0E0,0E0,0E0,0E0,2.1711159E-1,0E0,1.8033533E0,8.098446E0,3.3718472E0,1.0854931E0,1.6196842E0,2.7402802E0,7.630503E0,5.6425714E-1,5.7260838E0,3.8573456E-1,1.27314E1,1.7383015E1,1.2147245E0,3.3902264E-1,2.21009E0,7.792032E-1,0E0,0E0,0E0,0E0,0E0,0E0,0E0,0E0,0E0,0E0,0E0,0E0,0E0,0E0,0E0,0E0,0E0,0E0,0E0,0E0,0E0,0E0,0E0,0E0,0E0,0E0,0E0,0E0,0E0,0E0,0E0,0E0,0E0,0E0,0E0,0E0,0E0,0E0,0E0,0E0,0E0,0E0,0E0,0E0,0E0,0E0],"parents":[2147483647,0,0,1,1,2,2,3,3,4,4,5,5,6,6,7,7,8,8,9,9,10,10,11,11,12,12,13,13,14,14,16,16,17,17,18,18,19,19,20,20,21,21,22,22,23,23,24,24,25,25,26,26,27,27,28,28,29,29,30,30,31,31,32,32,33,33,35,35,36,36,38,38,43,43,45,45,46,46,47,47,48,48,49,49,50,50,51,51,52,52,53,53,54,54,55,55,56,56,57,57,58,58,59,59,60,60],"right_children":[2,4,6,8,10,12,14,16,18,20,22,24,26,28,30,-1,32,34,36,38,40,42,44,46,48,50,52,54,56,58,60,62,64,66,-1,68,70,-1,72,-1,-1,-1,-1,74,-1,76,78,80,82,84,86,88,90,92,94,96,98,100,102,104,106,-1,-1,-1,-1,-1,-1,-1,-1,-1,-1,-1,-1,-1,-1,-1,-1,-1,-1,-1,-1,-1,-1,-1,-1,-1,-1,-1,-1,-1,-1,-1,-1,-1,-1,-1,-1,-1,-1,-1,-1,-1,-1,-1,-1,-1,-1],"split_conditions":[-1.0905458E0,-1.3222405E0,6.341572E-2,-1.1989365E0,-1.2103461E0,1.5761364E-1,1.9663242E0,-3.297038E0,-2.3088098E0,-6.4854485E-1,-1.1704127E0,-2.9187736E-1,6.817375E-1,-1.4735642E-1,1.0905796E0,1.0652382E-1,-3.2104298E-1,-2.6408616E-1,-3.6376062E-1,-8.2895577E-1,-8.2895577E-1,-1.2750702E0,-1.1095617E0,-1.3222405E0,7.692107E-1,6.5089834E-1,2.509167E0,9.797548E-1,6.5089834E-1,2.624037E0,2.4596088E0,-2.374213E0,-2.3560771E-1,-1.1418887E0,1.3152364E-1,-2.1443815E0,2.3986464E0,-2.0855422E-1,-3.297038E0,-3.017172E-1,-2.477491E-1,-2.808666E-1,-1.9389221E-1,-2.4426856E0,-2.1469292E-1,-2.54236E0,-7.6157045E-1,-1.1578122E0,-9.333291E-1,-7.055017E-1,-2.7286145E-1,9.797548E-1,4.917651E-2,-6.6452754E-1,2.3986464E0,4.554481E-1,1.159835E0,7.882266E-1,2.3274503E0,2.7403874E0,1.8131844E0,-3.9841697E-2,-2.0887797E-1,2.4394361E-2,-8.474247E-2,-4.1996572E-2,5.1348265E-2,-1.3854781E-2,-1.0222335E-1,-9.365127E-3,4.5720946E-2,-1.3952667E-3,1.0412562E-1,-6.036609E-2,-1.546076E-1,1.9486062E-2,1.0256251E-1,-5.6738004E-2,-1.6662128E-3,1.4755844E-1,4.5120783E-2,8.428267E-2,1.5698026E-1,-2.0820539E-1,-1.1815921E-1,-3.5069633E-1,-2.266783E-1,1.996776E-2,-1.0074515E-1,1.801208E-1,-2.689828E-2,1.3540922E-1,1.2019028E-2,-2.6217034E-1,-3.2225862E-2,8.954722E-2,1.6970761E-1,-3.4583837E-3,1.1618186E-1,-1.5483381E-1,-4.3718114E-2,-2.2683929E-1,-7.8697816E-2,1.9154867E-2,1.4657459E-1,-9.3327664E-2,-7.484278E-3],"split_indices":[1,2,0,1,1,2,2,0,2,0,1,1,1,1,1,0,0,0,0,2,2,0,1,2,1,2,1,2,2,2,2,3,0,1,0,2,0,0,0,0,0,0,0,0,0,0,1,2,0,0,1,2,0,2,0,1,0,1,0,0,1,0,0,0,0,0,0,0,0,0,0,0,0,0,0,0,0,0,0,0,0,0,0,0,0,0,0,0,0,0,0,0,0,0,0,0,0,0,0,0,0,0,0,0,0,0,0],"split_type":[0,0,0,0,0,0,0,0,0,0,0,0,0,0,0,0,0,0,0,0,0,0,0,0,0,0,0,0,0,0,0,0,0,0,0,0,0,0,0,0,0,0,0,0,0,0,0,0,0,0,0,0,0,0,0,0,0,0,0,0,0,0,0,0,0,0,0,0,0,0,0,0,0,0,0,0,0,0,0,0,0,0,0,0,0,0,0,0,0,0,0,0,0,0,0,0,0,0,0,0,0,0,0,0,0,0,0],"sum_hessian":[4.719E3,4.92E2,4.227E3,6.6E1,4.26E2,2.346E3,1.881E3,1.7E1,4.9E1,2.01E2,2.25E2,1.88E3,4.66E2,1.706E3,1.75E2,1E0,1.6E1,2.5E1,2.4E1,5E0,1.96E2,1.07E2,1.18E2,1.267E3,6.13E2,2.56E2,2.1E2,4.53E2,1.253E3,6.2E1,1.13E2,1E1,6E0,1.9E1,6E0,1.9E1,5E0,3E0,2E0,5.1E1,1.45E2,5E0,1.02E2,1.03E2,1.5E1,1.35E2,1.132E3,5.23E2,9E1,1.48E2,1.08E2,1.89E2,2.1E1,4.37E2,1.6E1,8.06E2,4.47E2,4E1,2.2E1,6.9E1,4.4E1,1E0,9E0,1E0,5E0,8E0,1.1E1,3E0,1.6E1,4E0,1E0,1E0,1E0,4E0,9.9E1,3.1E1,1.04E2,3.45E2,7.87E2,3E1,4.93E2,3.4E1,5.6E1,2.3E1,1.25E2,2.6E1,8.2E1,8.5E1,1.04E2,2E1,1E0,3.6E1,4.01E2,1.5E1,1E0,5.35E2,2.71E2,1.89E2,2.58E2,2.5E1,1.5E1,1.9E1,3E0,5.4E1,1.5E1,3E1,1.4E1],"tree_param":{"num_deleted":"0","num_feature":"4","num_nodes":"107","size_leaf_vector":"1"}},{"base_weights":[-6.9764093E-4,-4.484884E-1,5.4251406E-2,-9.5029674E-2,-5.121685E-1,-3.4942962E-2,1.3887411E-1,-3.031695E-1,-2.0596908E-2,-6.307125E-1,-4.3722752E-1,3.0451393E-2,-2.782078E-1,1.5457818E-1,-2.9336852E-1,2.1216276E-1,-3.6858147E-1,1.4629138E-1,-1.5252005E-1,-6.423498E-1,-2.7295423E-1,-5.0022334E-1,-3.9175364E-1,1.7184949E-1,-2.0840034E-2,-4.0342253E-1,5.6633048E-2,1.4239216E-2,2.0718431E-1,-5.0406325E-1,-1.5996194E-1,9.0545245E-2,4.9280026E-3,-4.6499667E-1,-5.6195436E-3,-1.2090025E-1,1.9801602E-1,-2.0663732E-1,4.9190752E-2,-2.1580519E-1,-1.8003297E-1,-1.495691E-1,1.9404621E-1,-4.8363578E-1,-2.2555043E-1,-3.9762145E-1,-6.057058E-2,5.51101E-2,2.6403853E-1,-1.7797685E-1,1.4931362E-2,-2.562225E-1,-5.5275446E-1,-3.607706E-2,3.328756E-1,4.46964E-2,-4.1253608E-1,2.3072201E-1,4.9967086E-3,-4.9343597E-2,-5.3691995E-1,-4.075953E-2,-2.511653E-1,-3.425055E-2,-1.629569E-1,6.5291874E-2,-3.4753267E-2,1.0229314E-3,-4.5849063E-2,4.2460114E-2,1.2927708E-1,-2.0068247E-2,-7.301355E-2,-1.077327E-2,3.223018E-2,-1.1859768E-3,8.850677E-2,-3.4397185E-2,-1.4581737E-1,-1.11715935E-1,-1.537157E-1,-4.1703474E-2,2.6212865E-2,9.869915E-2,5.2528307E-3,1.0394277E-1,5.6010775E-2,-1.9757254E-1,-4.630686E-2,-1.1903775E-1,6.8150186E-3,-9.421971E-2,1.27449585E-2,-2.1518578E-1,-1.252397E-1,1.731608E-2,-5.1598623E-2,1.2205977E-1,2.3563214E-2,1.0379464E-1,6.834887E-3,-1.4138342E-1,1.2896396E-1,5.7405654E-2,1.0056797E-1,-8.8623606E-2,3.3563852E-2,-1.7213303E-1,-8.020988E-2,1.9237854E-2,-5.9815872E-2,-3.5546936E-2,-1.0482193E-1],"categories":[],"categories_nodes":[],"categories_segments":[],"categories_sizes":[],"default_left":[0,0,0,0,0,0,0,0,0,0,0,0,0,0,0,0,0,0,0,0,0,0,0,0,0,0,0,0,0,0,0,0,0,0,0,0,0,0,0,0,0,0,0,0,0,0,0,0,0,0,0,0,0,0,0,0,0,0,0,0,0,0,0,0,0,0,0,0,0,0,0,0,0,0,0,0,0,0,0,0,0,0,0,0,0,0,0,0,0,0,0,0,0,0,0,0,0,0,0,0,0,0,0,0,0,0,0,0,0,0,0,0,0],"id":4,"left_children":[1,3,5,7,9,11,13,15,17,19,21,23,25,27,29,31,33,35,37,39,41,43,45,47,49,51,53,55,57,59,61,-1,-1,63,65,67,69,71,73,-1,-1,-1,75,77,-1,79,81,83,85,87,89,91,93,95,97,99,101,103,105,-1,107,109,111,-1,-1,-1,-1,-1,-1,-1,-1,-1,-1,-1,-1,-1,-1,-1,-1,-1,-1,-1,-1,-1,-1,-1,-1,-1,-1,-1,-1,-1,-1,-1,-1,-1,-1,-1,-1,-1,-1,-1,-1,-1,-1,-1,-1,-1,-1,-1,-1,-1,-1],"loss_changes":[1.16163124E2,1.1565605E1,3.1743643E1,1.2331495E0,3.6064682E0,3.258836E1,1.4693779E1,7.860861E-1,1.3432981E0,5.1994324E-1,5.803604E-1,1.1716385E1,1.8219166E1,1.5375191E1,2.0555816E0,4.7688127E-2,6.622927E-1,3.9709073E-1,3.8130993E-1,9.195709E-2,8.3426225E-1,9.548187E-2,2.9073334E-1,4.6131496E0,6.669167E0,6.8045807E0,3.0596557E0,7.414514E0,7.2087784E0,2.3525953E-1,5.116024E-1,0E0,0E0,3.4946942E-1,1.4825562E-1,2.0367183E-2,2.4157852E-1,1.2234628E-1,4.351077E-2,0E0,0E0,0E0,6.114611E-2,3.9003372E-2,0E0,2.696705E-1,5.8566686E-2,1.9612217E0,1.4654007E0,2.3957953E0,3.1086557E0,2.7951145E0,3.1730003E0,1.1573175E0,5.325854E-1,3.5044918E0,2.0830302E0,5.5189896E0,5.1383057E0,0E0,1.0489845E-1,3.788147E-1,3.1052196E-1,0E0,0E0,0E0,0E0,0E0,0E0,0E0,0E0,0E0,0E0,0E0,0E0,0E0,0E0,0E0,0E0,0E0,0E0,0E0,0E0,0E0,0E0,0E0,0E0,0E0,0E0,0E0,0E0,0E0,0E0,0E0,0E0,0E0,0E0,0E0,0E0,0E0,0E0,0E0,0E0,0E0,0E0,0E0,0E0,0E0,0E0,0E0,0E0,0E0,0E0],"parents":[2147483647,0,0,1,1,2,2,3,3,4,4,5,5,6,6,7,7,8,8,9,9,10,10,11,11,12,12,13,13,14,14,15,15,16,16,17,17,18,18,19,19,20,20,21,21,22,22,23,23,24,24,25,25,26,26,27,27,28,28,29,29,30,30,33,33,34,34,35,35,36,36,37,37,38,38,42,42,43,43,45,45,46,46,47,47,48,48,49,49,50,50,51,51,52,52,53,53,54,54,55,55,56,56,57,57,58,58,60,60,61,61,62,62],"right_children":[2,4,6,8,10,12,14,16,18,20,22,24,26,28,30,32,34,36,38,40,42,44,46,48,50,52,54,56,58,60,62,-1,-1,64,66,68,70,72,74,-1,-1,-1,76,78,-1,80,82,84,86,88,90,92,94,96,98,100,102,104,106,-1,108,110,112,-1,-1,-1,-1,-1,-1,-1,-1,-1,-1,-1,-1,-1,-1,-1,-1,-1,-1,-1,-1,-1,-1,-1,-1,-1,-1,-1,-1,-1,-1,-1,-1,-1,-1,-1,-1,-1,-1,-1,-1,-1,-1,-1,-1,-1,-1,-1,-1,-1,-1],"split_conditions":[-1.0829394E0,-1.3222405E0,6.4588743E-3,-1.1837238E0,-1.2122476E0,1.5761364E-1,2.4596088E0,-2.2433364E0,-2.3088098E0,-2.7813834E-1,-1.1837238E0,-3.3567107E-1,1.2921484E0,-2.1010894E-1,1.0696621E0,-3.297038E0,2.4852547E-1,-2.670513E0,-3.6376062E-1,-8.2895577E-1,-5.000993E-1,-2.7813834E-1,1.0743997E0,-1.3889838E0,-8.091103E-1,6.5089834E-1,2.233436E0,4.864701E-1,1.801896E0,-2.7813834E-1,1.1192448E0,9.0545245E-2,4.9280026E-3,-9.768299E-1,3.1972152E-1,-1.1513968E0,-1.7865087E-1,-2.1443815E0,6.4588743E-3,-2.1580519E-1,-1.8003297E-1,-1.495691E-1,-3.297038E0,-5.000993E-1,-2.2555043E-1,4.2055324E-1,-1.1247745E0,-2.1443815E0,-6.6452754E-1,-4.776743E-1,-1.8303994E0,6.6462314E-1,2.97616E-1,1.4730395E0,1.4730395E0,-6.6452754E-1,2.5267992E0,8.038547E-1,9.5176345E-1,-4.9343597E-2,2.1423407E0,2.9528935E0,2.7884653E0,-3.425055E-2,-1.629569E-1,6.5291874E-2,-3.4753267E-2,1.0229314E-3,-4.5849063E-2,4.2460114E-2,1.2927708E-1,-2.0068247E-2,-7.301355E-2,-1.077327E-2,3.223018E-2,-1.1859768E-3,8.850677E-2,-3.4397185E-2,-1.4581737E-1,-1.11715935E-1,-1.537157E-1,-4.1703474E-2,2.6212865E-2,9.869915E-2,5.2528307E-3,1.0394277E-1,5.6010775E-2,-1.9757254E-1,-4.630686E-2,-1.1903775E-1,6.8150186E-3,-9.421971E-2,1.27449585E-2,-2.1518578E-1,-1.252397E-1,1.731608E-2,-5.1598623E-2,1.2205977E-1,2.3563214E-2,1.0379464E-1,6.834887E-3,-1.4138342E-1,1.2896396E-1,5.7405654E-2,1.0056797E-1,-8.8623606E-2,3.3563852E-2,-1.7213303E-1,-8.020988E-2,1.9237854E-2,-5.9815872E-2,-3.5546936E-2,-1.0482193E-1],"split_indices":[1,2,0,1,1,2,2,0,2,3,1,2,1,1,1,0,0,0,0,2,2,3,0,0,1,2,1,2,2,3,3,0,0,3,0,1,0,2,0,0,0,0,0,2,0,3,1,2,2,0,0,1,1,2,2,2,0,0,1,0,0,2,2,0,0,0,0,0,0,0,0,0,0,0,0,0,0,0,0,0,0,0,0,0,0,0,0,0,0,0,0,0,0,0,0,0,0,0,0,0,0,0,0,0,0,0,0,0,0,0,0,0,0],"split_type":[0,0,0,0,0,0,0,0,0,0,0,0,0,0,0,0,0,0,0,0,0,0,0,0,0,0,0,0,0,0,0,0,0,0,0,0,0,0,0,0,0,0,0,0,0,0,0,0,0,0,0,0,0,0,0,0,0,0,0,0,0,0,0,0,0,0,0,0,0,0,0,0,0,0,0,0,0,0,0,0,0,0,0,0,0,0,0,0,0,0,0,0,0,0,0,0,0,0,0,0,0,0,0,0,0,0,0,0,0,0,0,0,0],"sum_hessian":[4.719E3,5.15E2,4.204E3,7.9E1,4.36E2,2.047E3,2.157E3,2E1,5.9E1,1.66E2,2.7E2,1.614E3,4.33E2,2.082E3,7.5E1,2E0,1.8E1,2.6E1,3.3E1,1.6E2,6E0,1.09E2,1.61E2,4.29E2,1.185E3,3.15E2,1.18E2,5.68E2,1.514E3,2.8E1,4.7E1,1E0,1E0,1.4E1,4E0,4E0,2.2E1,2.6E1,7E0,5.1E1,1.09E2,4E0,2E0,1.05E2,4E0,1.58E2,3E0,1.9E2,2.39E2,2.19E2,9.66E2,1.6E2,1.55E2,8.9E1,2.9E1,5.31E2,3.7E1,1.356E3,1.58E2,3E0,2.5E1,2.1E1,2.6E1,3E0,1.1E1,1E0,3E0,1E0,3E0,1.9E1,3E0,6E0,2E1,3E0,4E0,1E0,1E0,1E0,1.04E2,1.33E2,2.5E1,2E0,1E0,2.2E1,1.68E2,1.14E2,1.25E2,9E0,2.1E2,1.7E1,9.49E2,1.34E2,2.6E1,6.8E1,8.7E1,5.3E1,3.6E1,2.2E1,7E0,3.5E1,4.96E2,3.5E1,2E0,9.87E2,3.69E2,4.1E1,1.17E2,2.1E1,4E0,1.3E1,8E0,1.2E1,1.4E1],"tree_param":{"num_deleted":"0","num_feature":"4","num_nodes":"113","size_leaf_vector":"1"}},{"base_weights":[-8.792281E-4,-2.5442037E-1,4.738715E-2,4.066263E-2,-3.2224998E-1,1.4696518E-1,7.5110896E-3,-6.436856E-2,1.6607448E-1,-4.0905043E-1,-2.5016126E-1,6.574188E-2,2.00109E-1,-1.6769037E-2,2.6871797E-1,-3.0736014E-1,-2.4114506E-2,2.527488E-1,-5.707111E-2,-4.57936E-1,-3.6138955E-1,-2.3604807E-1,-4.249737E-1,2.2956853E-1,1.9478874E-2,2.6246098E-1,1.563534E-1,3.267973E-2,-1.5509968E-1,2.0008773E-1,4.150851E-1,7.696346E-2,-3.8940513E-1,-6.402693E-2,1.8852505E-1,-6.882854E-2,2.792773E-1,-1.6723618E-1,1.1935709E-1,-3.7825394E-2,-4.6203995E-1,1.6493928E-1,-3.699042E-1,-1.0131111E-1,-2.4935597E-1,-2.2936973E-1,-6.014635E-1,8.4487975E-2,3.5907426E-1,-2.232041E-3,4.7554758E-1,1.1434948E-1,3.101277E-1,-4.1360114E-2,1.683659E-1,1.0370717E-2,4.0139958E-1,-2.9177627E-1,4.3857753E-2,1.3131489E-1,3.483337E-1,3.554211E-1,5.5442315E-1,-2.6544183E-2,-1.5171982E-1,1.5628323E-2,-4.0931113E-2,1.0594538E-2,9.3094245E-2,2.965459E-2,9.840123E-2,5.590612E-3,-6.9223896E-2,-1.6434306E-1,-1.3035159E-1,-1.0080802E-3,7.523076E-2,-1.0811239E-1,-1.8328932E-1,-9.751527E-2,-1.5528465E-3,-8.3923176E-2,-6.1496433E-2,-9.7664714E-2,2.052629E-2,-2.0007011E-1,1.7751245E-2,5.008669E-2,-1.1794353E-2,2.0117685E-2,1.20902605E-1,-3.5903025E-2,1.5653526E-2,1.5458249E-1,-1.805444E-2,2.2393588E-2,1.2381789E-1,1.7295456E-1,8.518431E-2,-4.9806792E-2,9.404269E-3,4.6733752E-2,8.4455505E-2,-8.362073E-3,2.9264659E-2,7.802702E-2,1.4685725E-1,-1.2615415E-1,-5.106954E-2,-7.772917E-3,9.1334045E-2,9.312318E-2,-4.876432E-4,-1.0231737E-1,1.1481916E-1,8.0840066E-2,1.332705E-1,5.3075004E-2,1.7545478E-1],"categories":[],"categories_nodes":[],"categories_segments":[],"categories_sizes":[],"default_left":[0,0,0,0,0,0,0,0,0,0,0,0,0,0,0,0,0,0,0,0,0,0,0,0,0,0,0,0,0,0,0,0,0,0,0,0,0,0,0,0,0,0,0,0,0,0,0,0,0,0,0,0,0,0,0,0,0,0,0,0,0,0,0,0,0,0,0,0,0,0,0,0,0,0,0,0,0,0,0,0,0,0,0,0,0,0,0,0,0,0,0,0,0,0,0,0,0,0,0,0,0,0,0,0,0,0,0,0,0,0,0,0,0,0,0,0,0,0,0],"id":5,"left_children":[1,3,5,7,9,11,13,15,17,19,21,23,25,27,29,31,33,35,37,39,41,43,45,47,49,51,53,55,57,59,61,-1,63,65,67,-1,69,71,-1,-1,73,75,77,79,81,83,85,87,89,91,93,95,97,99,101,103,105,107,109,111,113,115,117,-1,-1,-1,-1,-1,-1,-1,-1,-1,-1,-1,-1,-1,-1,-1,-1,-1,-1,-1,-1,-1,-1,-1,-1,-1,-1,-1,-1,-1,-1,-1,-1,-1,-1,-1,-1,-1,-1,-1,-1,-1,-1,-1,-1,-1,-1,-1,-1,-1,-1,-1,-1,-1,-1,-1,-1],"loss_changes":[5.7773113E1,1.5124699E1,1.5747007E1,1.8811362E0,3.7396812E0,4.881773E0,1.7971777E1,7.555372E-1,1.2715888E0,4.7989655E-1,7.3358727E-1,3.4061291E0,1.8278179E0,1.7741913E1,2.337843E0,6.0882115E-1,5.8918405E-1,6.65272E-1,1.0187626E0,1.2287712E-1,7.108307E-1,5.395527E-1,6.9057274E-1,1.8297505E0,3.486449E0,1.9483929E0,9.6885014E-1,1.5715294E1,1.8585493E1,1.646678E0,4.3476963E-1,0E0,3.0531073E-1,4.9479246E-1,1.942935E-1,0E0,3.6320424E-1,1.9317567E-1,0E0,0E0,7.13501E-2,4.417806E-2,1.0832596E-1,6.435939E-1,3.282547E-1,3.9461142E-1,5.5821896E-1,4.9662936E-1,6.4011E-1,2.1597486E0,3.715396E-1,7.984685E-1,1.3147945E0,2.2273852E-1,5.001974E-1,6.0140405E0,1.2300396E0,6.265587E0,5.0802865E0,2.738545E0,1.3636026E0,3.0779266E-1,1.3773775E-1,0E0,0E0,0E0,0E0,0E0,0E0,0E0,0E0,0E0,0E0,0E0,0E0,0E0,0E0,0E0,0E0,0E0,0E0,0E0,0E0,0E0,0E0,0E0,0E0,0E0,0E0,0E0,0E0,0E0,0E0,0E0,0E0,0E0,0E0,0E0,0E0,0E0,0E0,0E0,0E0,0E0,0E0,0E0,0E0,0E0,0E0,0E0,0E0,0E0,0E0,0E0,0E0,0E0,0E0,0E0,0E0],"parents":[2147483647,0,0,1,1,2,2,3,3,4,4,5,5,6,6,7,7,8,8,9,9,10,10,11,11,12,12,13,13,14,14,15,15,16,16,17,17,18,18,19,19,20,20,21,21,22,22,23,23,24,24,25,25,26,26,27,27,28,28,29,29,30,30,32,32,33,33,34,34,36,36,37,37,40,40,41,41,42,42,43,43,44,44,45,45,46,46,47,47,48,48,49,49,50,50,51,51,52,52,53,53,54,54,55,55,56,56,57,57,58,58,59,59,60,60,61,61,62,62],"right_children":[2,4,6,8,10,12,14,16,18,20,22,24,26,28,30,32,34,36,38,40,42,44,46,48,50,52,54,56,58,60,62,-1,64,66,68,-1,70,72,-1,-1,74,76,78,80,82,84,86,88,90,92,94,96,98,100,102,104,106,108,110,112,114,116,118,-1,-1,-1,-1,-1,-1,-1,-1,-1,-1,-1,-1,-1,-1,-1,-1,-1,-1,-1,-1,-1,-1,-1,-1,-1,-1,-1,-1,-1,-1,-1,-1,-1,-1,-1,-1,-1,-1,-1,-1,-1,-1,-1,-1,-1,-1,-1,-1,-1,-1,-1,-1,-1,-1,-1,-1],"split_conditions":[-9.574344E-1,-1.4866687E0,-1.7124282E-1,-1.0829394E0,-1.1837238E0,5.0409097E-2,2.0641944E0,-1.2616891E0,-1.9799534E0,-3.3567107E-1,8.863476E-1,-1.1578122E0,-3.3567107E-1,6.5089834E-1,2.686015E0,-3.297038E0,6.4588743E-3,-3.297038E0,3.0548233E-1,-1.5740936E0,-1.2616891E0,-5.000993E-1,-1.1133649E0,-1.8303994E0,7.0418024E-1,-9.333291E-1,-3.6376062E-1,6.3298416E-1,1.017443E0,1.6724466E0,3.0054822E0,7.696346E-2,-9.768299E-1,-2.473238E0,-1.1418887E0,-6.882854E-2,-1.0772346E0,1.8765603E-1,1.1935709E-1,-3.7825394E-2,-9.93384E-1,-3.297038E0,-2.7813834E-1,-2.7813834E-1,-1.0449076E0,1.8179364E0,-1.0068758E0,-1.6510969E0,1.8765603E-1,-3.6376062E-1,1.352142E0,1.1761513E0,-8.2895577E-1,4.307274E-1,6.4180404E-1,-2.8046784E-1,9.320076E-1,8.8710934E-1,2.7403874E0,1.3086113E0,4.864701E-1,8.038547E-1,-2.9256457E-1,-2.6544183E-2,-1.5171982E-1,1.5628323E-2,-4.0931113E-2,1.0594538E-2,9.3094245E-2,2.965459E-2,9.840123E-2,5.590612E-3,-6.9223896E-2,-1.6434306E-1,-1.3035159E-1,-1.0080802E-3,7.523076E-2,-1.0811239E-1,-1.8328932E-1,-9.751527E-2,-1.5528465E-3,-8.3923176E-2,-6.1496433E-2,-9.7664714E-2,2.052629E-2,-2.0007011E-1,1.7751245E-2,5.008669E-2,-1.1794353E-2,2.0117685E-2,1.20902605E-1,-3.5903025E-2,1.5653526E-2,1.5458249E-1,-1.805444E-2,2.2393588E-2,1.2381789E-1,1.7295456E-1,8.518431E-2,-4.9806792E-2,9.404269E-3,4.6733752E-2,8.4455505E-2,-8.362073E-3,2.9264659E-2,7.802702E-2,1.4685725E-1,-1.2615415E-1,-5.106954E-2,-7.772917E-3,9.1334045E-2,9.312318E-2,-4.876432E-4,-1.0231737E-1,1.1481916E-1,8.0840066E-2,1.332705E-1,5.3075004E-2,1.7545478E-1],"split_indices":[1,2,2,1,1,1,1,1,2,2,3,2,2,2,1,0,0,0,0,0,1,2,1,0,0,0,0,0,0,0,1,0,3,2,1,0,1,3,0,0,2,0,3,3,1,3,1,2,3,0,3,1,2,1,1,1,0,1,0,2,2,0,0,0,0,0,0,0,0,0,0,0,0,0,0,0,0,0,0,0,0,0,0,0,0,0,0,0,0,0,0,0,0,0,0,0,0,0,0,0,0,0,0,0,0,0,0,0,0,0,0,0,0,0,0,0,0,0,0],"split_type":[0,0,0,0,0,0,0,0,0,0,0,0,0,0,0,0,0,0,0,0,0,0,0,0,0,0,0,0,0,0,0,0,0,0,0,0,0,0,0,0,0,0,0,0,0,0,0,0,0,0,0,0,0,0,0,0,0,0,0,0,0,0,0,0,0,0,0,0,0,0,0,0,0,0,0,0,0,0,0,0,0,0,0,0,0,0,0,0,0,0,0,0,0,0,0,0,0,0,0,0,0,0,0,0,0,0,0,0,0,0,0,0,0,0,0,0,0,0,0],"sum_hessian":[4.719E3,7.54E2,3.965E3,1.41E2,6.13E2,1.133E3,2.832E3,7.7E1,6.4E1,2.76E2,3.37E2,4.49E2,6.84E2,2.592E3,2.4E2,1E1,6.7E1,4.6E1,1.8E1,1.32E2,1.44E2,3.14E2,2.3E1,9.8E1,3.51E2,2.8E2,4.04E2,1.91E3,6.82E2,1.65E2,7.5E1,1E0,9E0,5.7E1,1E1,2E0,4.4E1,1.5E1,3E0,2E0,1.3E2,2E0,1.42E2,2.9E1,2.85E2,1.2E1,1.1E1,4.7E1,5.1E1,3.36E2,1.5E1,6.9E1,2.11E2,2.3E1,3.81E2,1.802E3,1.08E2,4.04E2,2.78E2,1.14E2,5.1E1,5.5E1,2E1,3E0,6E0,2.2E1,3.5E1,5E0,5E0,1E1,3.4E1,4E0,1.1E1,2.7E1,1.03E2,1E0,1E0,1.39E2,3E0,8E0,2.1E1,1.66E2,1.19E2,9E0,3E0,1E1,1E0,2.8E1,1.9E1,7E0,4.4E1,1.06E2,2.3E2,1.4E1,1E0,6.2E1,7E0,1.7E1,1.94E2,8E0,1.5E1,3.45E2,3.6E1,1.253E3,5.49E2,4.3E1,6.5E1,1.95E2,2.09E2,2.2E2,5.8E1,4.8E1,6.6E1,2E0,4.9E1,3E1,2.5E1,2E0,1.8E1],"tree_param":{"num_deleted":"0","num_feature":"4","num_nodes":"119","size_leaf_vector":"1"}},{"base_weights":[-5.033791E-4,-1.7165266E-1,3.605846E-2,3.329188E-2,-2.179503E-1,4.8795853E-2,-1.4570323E-1,-1.3517571E-2,1.7653961E-1,-2.7620733E-1,-1.5853138E-1,-3.2121248E-3,1.1587114E-1,-2.503986E-1,2.7412971E-2,-2.1692419E-1,2.0853024E-2,-7.5976425E-3,2.518399E-1,-3.215031E-1,-2.3980694E-1,-1.5153813E-1,-1.7819224E-1,1.46944495E-2,-2.8616837E-1,1.670533E-1,5.0035603E-2,-3.1791574E-1,-1.1694957E-1,-1.9750733E-2,2.220719E-1,-3.4118343E-2,-3.7562734E-1,8.132904E-2,-1.2498451E-1,4.1195903E-2,-5.031307E-2,3.679258E-1,9.8522335E-2,-5.016778E-2,-3.2485345E-1,-4.1937697E-1,-2.2874439E-1,-3.4571525E-2,-1.6643731E-1,2.2155109E-1,8.501889E-3,-4.4567937E-1,-1.8026577E-1,1.3648306E-1,2.9440594E-1,-3.2688547E-2,1.7015898E-1,-3.5864475E-1,-2.3666605E-1,-2.8681451E-2,-2.8268486E-1,4.386268E-2,-1.14553645E-1,4.1951028E-1,1.21593185E-1,6.541894E-2,-2.7869675E-2,-1.3080221E-1,1.6111923E-2,5.2595332E-2,1.0940293E-2,-5.8639735E-2,1.0657374E-2,-4.439915E-2,3.8081969E-3,1.8916754E-2,1.1555947E-1,3.9677426E-2,-4.594599E-2,-8.5686817E-4,-2.1718634E-2,-1.16800934E-1,-9.2130095E-2,-2.3671854E-2,-1.3453192E-1,1.5708536E-2,-6.916999E-2,-3.270363E-2,4.9447123E-2,-4.6351064E-2,-9.968624E-2,1.3466562E-2,9.331695E-2,-5.2226245E-2,4.9599363E-3,-2.0877646E-1,-1.13469884E-1,-7.228171E-2,-4.102174E-4,3.702262E-2,1.3018522E-1,3.7255876E-2,9.972787E-2,-2.8157866E-2,3.916289E-2,4.330183E-2,1.2624508E-1,-1.16005175E-1,-4.7204792E-2,-2.226283E-2,-8.128679E-2,1.3434082E-1,-1.6306827E-2,-4.9104776E-2,-1.0153881E-1,-1.11467065E-2,2.3494802E-2,-2.879093E-2,-7.8662366E-2,3.672631E-2,1.3633318E-1,2.3317821E-2,1.0377987E-1],"categories":[],"categories_nodes":[],"categories_segments":[],"categories_sizes":[],"default_left":[0,0,0,0,0,0,0,0,0,0,0,0,0,0,0,0,0,0,0,0,0,0,0,0,0,0,0,0,0,0,0,0,0,0,0,0,0,0,0,0,0,0,0,0,0,0,0,0,0,0,0,0,0,0,0,0,0,0,0,0,0,0,0,0,0,0,0,0,0,0,0,0,0,0,0,0,0,0,0,0,0,0,0,0,0,0,0,0,0,0,0,0,0,0,0,0,0,0,0,0,0,0,0,0,0,0,0,0,0,0,0,0,0,0,0,0,0,0,0],"id":6,"left_children":[1,3,5,7,9,11,13,15,17,19,21,23,25,27,29,31,33,35,37,39,41,43,-1,45,47,49,51,53,55,57,59,61,63,65,67,-1,69,71,73,75,77,79,81,83,85,87,89,91,93,95,97,99,101,103,105,107,109,111,113,115,117,-1,-1,-1,-1,-1,-1,-1,-1,-1,-1,-1,-1,-1,-1,-1,-1,-1,-1,-1,-1,-1,-1,-1,-1,-1,-1,-1,-1,-1,-1,-1,-1,-1,-1,-1,-1,-1,-1,-1,-1,-1,-1,-1,-1,-1,-1,-1,-1,-1,-1,-1,-1,-1,-1,-1,-1,-1,-1],"loss_changes":[2.9541742E1,7.8921547E0,9.013123E0,1.03501E0,2.3031578E0,1.2684377E1,4.6286044E0,8.224946E-1,5.2880573E-1,4.8513794E-1,9.392538E-1,1.0386032E1,5.342573E0,1.3954248E0,8.949272E-1,4.8038596E-1,9.0095186E-1,8.1191435E-2,4.442973E-1,1.1915302E-1,2.874651E-1,5.7631063E-1,0E0,2.4678307E0,1.9805603E0,3.4364471E0,6.921786E0,2.6258945E-1,7.96495E-1,4.8145288E-1,3.2591903E-1,1.5366817E-1,2.5672495E-1,2.9719216E-1,3.4633034E-1,0E0,6.342654E-2,5.4698467E-2,1.306318E-1,2.948098E-3,4.87175E-2,6.356537E-2,1.0632515E-1,5.9684855E-1,5.345087E-1,8.715234E-1,2.7494779E0,5.469208E-1,8.137467E-1,2.7544413E0,1.071867E0,4.1360717E0,1.7772732E0,3.2295704E-1,1.9157624E-1,4.7698244E-1,7.0715666E-2,1.3689476E-1,6.264356E-2,6.6370964E-3,1.108879E-1,0E0,0E0,0E0,0E0,0E0,0E0,0E0,0E0,0E0,0E0,0E0,0E0,0E0,0E0,0E0,0E0,0E0,0E0,0E0,0E0,0E0,0E0,0E0,0E0,0E0,0E0,0E0,0E0,0E0,0E0,0E0,0E0,0E0,0E0,0E0,0E0,0E0,0E0,0E0,0E0,0E0,0E0,0E0,0E0,0E0,0E0,0E0,0E0,0E0,0E0,0E0,0E0,0E0,0E0,0E0,0E0,0E0,0E0],"parents":[2147483647,0,0,1,1,2,2,3,3,4,4,5,5,6,6,7,7,8,8,9,9,10,10,11,11,12,12,13,13,14,14,15,15,16,16,17,17,18,18,19,19,20,20,21,21,23,23,24,24,25,25,26,26,27,27,28,28,29,29,30,30,31,31,32,32,33,33,34,34,36,36,37,37,38,38,39,39,40,40,41,41,42,42,43,43,44,44,45,45,46,46,47,47,48,48,49,49,50,50,51,51,52,52,53,53,54,54,55,55,56,56,57,57,58,58,59,59,60,60],"right_children":[2,4,6,8,10,12,14,16,18,20,22,24,26,28,30,32,34,36,38,40,42,44,-1,46,48,50,52,54,56,58,60,62,64,66,68,-1,70,72,74,76,78,80,82,84,86,88,90,92,94,96,98,100,102,104,106,108,110,112,114,116,118,-1,-1,-1,-1,-1,-1,-1,-1,-1,-1,-1,-1,-1,-1,-1,-1,-1,-1,-1,-1,-1,-1,-1,-1,-1,-1,-1,-1,-1,-1,-1,-1,-1,-1,-1,-1,-1,-1,-1,-1,-1,-1,-1,-1,-1,-1,-1,-1,-1,-1,-1,-1,-1,-1,-1,-1,-1,-1],"split_conditions":[-9.2130417E-1,-1.4866687E0,1.9663242E0,-2.6408616E-1,-1.1513968E0,4.090114E-2,1.5469617E0,-1.1628063E0,-1.1380856E0,-1.2217556E0,8.153266E-1,1.5761364E-1,3.2204187E-1,1.017443E0,2.509167E0,-1.0187644E0,-1.9799534E0,-4.524115E-2,-2.1443815E0,-2.812905E0,-5.631096E-1,-5.000993E-1,-1.7819224E-1,-1.4866687E0,-3.2104298E-1,8.8710934E-1,1.7504319E0,2.7700388E-1,2.7884653E0,1.8179364E0,6.534504E-1,-3.297038E0,-2.3088098E0,-2.6376662E0,-1.0449076E0,4.1195903E-2,-1.2616891E0,-2.071293E-1,6.534504E-1,-3.297038E0,-9.93384E-1,-1.1989365E0,-6.6452754E-1,-1.0068758E0,4.2055324E-1,-2.2433364E0,-1.2181133E0,-2.129423E0,6.045058E-1,8.4657234E-1,-9.333291E-1,1.8717955E0,2.897019E0,1.2921484E0,6.534504E-1,-1.4426243E0,8.863476E-1,2.1307523E0,1.9857093E0,2.6264737E0,2.7658818E0,6.541894E-2,-2.7869675E-2,-1.3080221E-1,1.6111923E-2,5.2595332E-2,1.0940293E-2,-5.8639735E-2,1.0657374E-2,-4.439915E-2,3.8081969E-3,1.8916754E-2,1.1555947E-1,3.9677426E-2,-4.594599E-2,-8.5686817E-4,-2.1718634E-2,-1.16800934E-1,-9.2130095E-2,-2.3671854E-2,-1.3453192E-1,1.5708536E-2,-6.916999E-2,-3.270363E-2,4.9447123E-2,-4.6351064E-2,-9.968624E-2,1.3466562E-2,9.331695E-2,-5.2226245E-2,4.9599363E-3,-2.0877646E-1,-1.13469884E-1,-7.228171E-2,-4.102174E-4,3.702262E-2,1.3018522E-1,3.7255876E-2,9.972787E-2,-2.8157866E-2,3.916289E-2,4.330183E-2,1.2624508E-1,-1.16005175E-1,-4.7204792E-2,-2.226283E-2,-8.128679E-2,1.3434082E-1,-1.6306827E-2,-4.9104776E-2,-1.0153881E-1,-1.11467065E-2,2.3494802E-2,-2.879093E-2,-7.8662366E-2,3.672631E-2,1.3633318E-1,2.3317821E-2,1.0377987E-1],"split_indices":[1,2,2,0,1,1,1,1,1,1,2,2,2,0,1,0,2,3,2,0,0,2,0,2,0,1,1,0,2,3,3,0,2,2,1,0,1,0,3,0,2,1,2,1,3,0,0,0,0,0,0,0,0,1,3,3,3,2,0,0,1,0,0,0,0,0,0,0,0,0,0,0,0,0,0,0,0,0,0,0,0,0,0,0,0,0,0,0,0,0,0,0,0,0,0,0,0,0,0,0,0,0,0,0,0,0,0,0,0,0,0,0,0,0,0,0,0,0,0],"split_type":[0,0,0,0,0,0,0,0,0,0,0,0,0,0,0,0,0,0,0,0,0,0,0,0,0,0,0,0,0,0,0,0,0,0,0,0,0,0,0,0,0,0,0,0,0,0,0,0,0,0,0,0,0,0,0,0,0,0,0,0,0,0,0,0,0,0,0,0,0,0,0,0,0,0,0,0,0,0,0,0,0,0,0,0,0,0,0,0,0,0,0,0,0,0,0,0,0,0,0,0,0,0,0,0,0,0,0,0,0,0,0,0,0,0,0,0,0,0,0],"sum_hessian":[4.719E3,8.3E2,3.889E3,1.53E2,6.77E2,3.635E3,2.54E2,1.16E2,3.7E1,3.4E2,3.37E2,2.048E3,1.587E3,1.58E2,9.6E1,1.6E1,1E2,1.1E1,2.6E1,1.48E2,1.92E2,3.33E2,4E0,1.927E3,1.21E2,8.92E2,6.95E2,1.04E2,5.4E1,7.8E1,1.8E1,8E0,8E0,7.1E1,2.9E1,2E0,9E0,1.4E1,1.2E1,2E0,1.46E2,9E0,1.83E2,3.8E1,2.95E2,5.5E1,1.872E3,4.7E1,7.4E1,7.21E2,1.71E2,4.12E2,2.83E2,6.7E1,3.7E1,3.6E1,1.8E1,4.7E1,3.1E1,5E0,1.3E1,1E0,7E0,7E0,1E0,2.2E1,4.9E1,2E1,9E0,3E0,6E0,1E0,1.3E1,1.1E1,1E0,1E0,1E0,2.7E1,1.19E2,1E0,8E0,1E0,1.82E2,2.8E1,1E1,2.77E2,1.8E1,1.9E1,3.6E1,7.8E1,1.794E3,8E0,3.9E1,5.5E1,1.9E1,6.92E2,2.9E1,3.2E1,1.39E2,3E2,1.12E2,2.58E2,2.5E1,5.8E1,9E0,7E0,3E1,1E0,3.5E1,7E0,1.1E1,1.4E1,3.3E1,2.9E1,2E0,1E0,4E0,1.2E1,1E0],"tree_param":{"num_deleted":"0","num_feature":"4","num_nodes":"119","size_leaf_vector":"1"}},{"base_weights":[-4.8550245E-4,-9.8057985E-2,3.4806214E-2,-1.8859433E-1,-6.0674004E-2,5.3191524E-2,-5.972009E-2,-2.2031271E-1,-1.6232623E-1,1.3877504E-1,-7.815525E-2,3.2872327E-2,1.5518303E-1,-1.308256E-1,9.30935E-2,-2.2726908E-1,4.496264E-2,3.1994626E-2,-1.6837633E-1,4.9655434E-2,2.3691885E-1,-6.488461E-2,-2.4777436E-1,1.6052343E-1,2.3042765E-2,1.4090669E-1,2.657268E-1,-1.5360853E-1,1.0204346E-1,2.4684582E-2,2.441296E-1,-2.306568E-1,2.5778035E-2,1.2195056E-1,-4.7012825E-2,-1.379046E-2,2.929147E-2,-1.5991458E-1,-2.7649233E-1,-1.998183E-1,9.2219755E-2,-5.725089E-2,2.696172E-1,-6.9239825E-2,1.7213164E-1,-1.8033506E-1,-4.1774654E-1,-3.5361253E-2,2.296654E-1,-2.0761912E-1,3.398016E-2,1.73892E-1,4.823769E-2,3.0176854E-1,-1.9377384E-2,-2.800387E-1,-1.3320768E-1,1.5446427E-1,-5.312037E-2,-9.192326E-3,2.404433E-1,2.7007785E-1,-7.4557975E-2,-8.2714885E-2,-6.4491615E-2,5.3337686E-2,-4.173757E-2,5.5606093E-2,-7.2833797E-4,-2.754593E-3,-1.840118E-2,6.025005E-3,-8.183925E-3,-5.1738575E-2,-3.1952288E-2,-1.05877705E-2,-1.035969E-1,-7.5414136E-2,8.6988695E-3,3.7854455E-2,-1.0178601E-2,4.5589518E-2,9.720242E-2,-1.8366573E-2,-4.491057E-2,-8.934762E-3,1.338943E-1,-6.1434392E-2,3.4596786E-2,-1.3841906E-1,-2.2438861E-2,-1.6492134E-2,7.9222865E-2,3.8835637E-2,8.313045E-2,-1.1915671E-1,-1.5297127E-2,2.0626641E-3,2.2642503E-2,3.9602995E-2,6.3282594E-2,-5.531565E-2,4.005374E-2,3.593752E-2,1.0395143E-1,-2.339605E-1,7.120475E-2,-1.3527152E-1,-4.874663E-2,-3.1113114E-2,-6.97782E-2,8.070735E-2,2.2194225E-2,1.2603182E-2,-2.4884354E-2,1.8166644E-2,8.734059E-2,5.565268E-2,9.7773425E-2,3.6567986E-2,-4.6243235E-2],"categories":[],"categories_nodes":[],"categories_segments":[],"categories_sizes":[],"default_left":[0,0,0,0,0,0,0,0,0,0,0,0,0,0,0,0,0,0,0,0,0,0,0,0,0,0,0,0,0,0,0,0,0,0,0,0,0,0,0,0,0,0,0,0,0,0,0,0,0,0,0,0,0,0,0,0,0,0,0,0,0,0,0,0,0,0,0,0,0,0,0,0,0,0,0,0,0,0,0,0,0,0,0,0,0,0,0,0,0,0,0,0,0,0,0,0,0,0,0,0,0,0,0,0,0,0,0,0,0,0,0,0,0,0,0,0,0,0,0,0,0],"id":7,"left_children":[1,3,5,7,9,11,13,15,17,19,21,23,25,27,29,31,33,35,37,39,41,43,45,47,49,51,53,55,57,59,61,63,65,67,69,71,-1,73,75,77,79,-1,81,83,85,87,89,91,93,95,97,99,101,103,105,107,109,111,-1,113,115,117,119,-1,-1,-1,-1,-1,-1,-1,-1,-1,-1,-1,-1,-1,-1,-1,-1,-1,-1,-1,-1,-1,-1,-1,-1,-1,-1,-1,-1,-1,-1,-1,-1,-1,-1,-1,-1,-1,-1,-1,-1,-1,-1,-1,-1,-1,-1,-1,-1,-1,-1,-1,-1,-1,-1,-1,-1,-1,-1],"loss_changes":[1.6256735E1,4.2328577E0,6.02846E0,2.6918125E-1,3.1104488E0,6.011034E0,6.1514063E0,3.1101084E-1,2.4522209E-1,6.1798644E-1,1.8252034E0,3.035316E0,7.2323036E-1,2.0635738E0,1.8537728E0,1.422491E-1,4.1138243E-2,2.2384964E-2,1.3692474E-1,4.3255568E-1,5.2700675E-1,7.964325E-1,6.009712E-1,2.3512077E0,5.683447E0,1.3029432E0,5.6073236E-1,8.706045E-1,5.3944427E-1,9.15865E-1,4.8322177E-1,5.1688194E-2,9.9938326E-2,2.410791E-2,1.0625194E-3,2.8325368E-3,0E0,1.06273174E-1,2.0363802E-1,7.8078106E-2,1.4994478E-1,0E0,1.5553641E-1,4.7275352E-1,7.883514E-1,3.4163547E-1,2.0500779E-1,2.8466257E-1,5.726056E-1,3.00834E0,2.4164655E0,4.6249866E-1,2.2860231E0,3.4925747E-1,1.5517685E0,8.9082885E-1,8.700242E-1,2.5670367E-1,0E0,4.1512308E-1,1.3739109E-1,1.8507314E-1,9.696312E-2,0E0,0E0,0E0,0E0,0E0,0E0,0E0,0E0,0E0,0E0,0E0,0E0,0E0,0E0,0E0,0E0,0E0,0E0,0E0,0E0,0E0,0E0,0E0,0E0,0E0,0E0,0E0,0E0,0E0,0E0,0E0,0E0,0E0,0E0,0E0,0E0,0E0,0E0,0E0,0E0,0E0,0E0,0E0,0E0,0E0,0E0,0E0,0E0,0E0,0E0,0E0,0E0,0E0,0E0,0E0,0E0,0E0,0E0],"parents":[2147483647,0,0,1,1,2,2,3,3,4,4,5,5,6,6,7,7,8,8,9,9,10,10,11,11,12,12,13,13,14,14,15,15,16,16,17,17,18,18,19,19,20,20,21,21,22,22,23,23,24,24,25,25,26,26,27,27,28,28,29,29,30,30,31,31,32,32,33,33,34,34,35,35,37,37,38,38,39,39,40,40,42,42,43,43,44,44,45,45,46,46,47,47,48,48,49,49,50,50,51,51,52,52,53,53,54,54,55,55,56,56,57,57,59,59,60,60,61,61,62,62],"right_children":[2,4,6,8,10,12,14,16,18,20,22,24,26,28,30,32,34,36,38,40,42,44,46,48,50,52,54,56,58,60,62,64,66,68,70,72,-1,74,76,78,80,-1,82,84,86,88,90,92,94,96,98,100,102,104,106,108,110,112,-1,114,116,118,120,-1,-1,-1,-1,-1,-1,-1,-1,-1,-1,-1,-1,-1,-1,-1,-1,-1,-1,-1,-1,-1,-1,-1,-1,-1,-1,-1,-1,-1,-1,-1,-1,-1,-1,-1,-1,-1,-1,-1,-1,-1,-1,-1,-1,-1,-1,-1,-1,-1,-1,-1,-1,-1,-1,-1,-1,-1,-1],"split_conditions":[-7.045227E-1,-1.1513968E0,1.3086113E0,-1.2217556E0,-2.1443815E0,4.336352E-1,1.9367878E0,2.2837307E0,-2.8020945E0,-1.0772346E0,4.864701E-1,-6.6452754E-1,2.3986464E0,2.7403874E0,1.8717955E0,2.4852547E-1,-3.297038E0,-1.5740936E0,1.8765603E-1,-2.4426856E0,-3.297038E0,8.038547E-1,-2.7813834E-1,-2.2433364E0,-1.1469172E0,8.153266E-1,1.9691149E0,1.4730395E0,2.4596088E0,2.8704693E0,1.5850391E0,-9.93384E-1,3.1972152E-1,-8.063798E0,2.0698085E-2,-1.1913302E0,2.929147E-2,-6.814595E-3,-1.1989365E0,4.2055324E-1,-2.3088098E0,-5.725089E-2,-1.0601203E0,6.534504E-1,-1.0601203E0,8.8929E-1,1.352142E0,6.4180404E-1,-3.1659806E-1,4.4213694E-1,-2.9457746E-2,4.554481E-1,1.0335319E0,-4.524115E-2,2.0641944E0,7.3688364E-1,2.624037E0,1.2446085E0,-5.312037E-2,1.8179364E0,-2.6408616E-1,2.3703508E0,2.020458E0,-8.2714885E-2,-6.4491615E-2,5.3337686E-2,-4.173757E-2,5.5606093E-2,-7.2833797E-4,-2.754593E-3,-1.840118E-2,6.025005E-3,-8.183925E-3,-5.1738575E-2,-3.1952288E-2,-1.05877705E-2,-1.035969E-1,-7.5414136E-2,8.6988695E-3,3.7854455E-2,-1.0178601E-2,4.5589518E-2,9.720242E-2,-1.8366573E-2,-4.491057E-2,-8.934762E-3,1.338943E-1,-6.1434392E-2,3.4596786E-2,-1.3841906E-1,-2.2438861E-2,-1.6492134E-2,7.9222865E-2,3.8835637E-2,8.313045E-2,-1.1915671E-1,-1.5297127E-2,2.0626641E-3,2.2642503E-2,3.9602995E-2,6.3282594E-2,-5.531565E-2,4.005374E-2,3.593752E-2,1.0395143E-1,-2.339605E-1,7.120475E-2,-1.3527152E-1,-4.874663E-2,-3.1113114E-2,-6.97782E-2,8.070735E-2,2.2194225E-2,1.2603182E-2,-2.4884354E-2,1.8166644E-2,8.734059E-2,5.565268E-2,9.7773425E-2,3.6567986E-2,-4.6243235E-2],"split_indices":[1,1,2,1,2,0,1,3,2,1,2,2,0,0,0,0,0,0,3,0,0,0,3,0,0,2,1,2,2,1,3,2,0,2,0,1,0,2,1,3,2,0,1,3,1,0,3,1,1,1,1,1,1,3,1,1,2,1,0,3,0,1,1,0,0,0,0,0,0,0,0,0,0,0,0,0,0,0,0,0,0,0,0,0,0,0,0,0,0,0,0,0,0,0,0,0,0,0,0,0,0,0,0,0,0,0,0,0,0,0,0,0,0,0,0,0,0,0,0,0,0],"split_type":[0,0,0,0,0,0,0,0,0,0,0,0,0,0,0,0,0,0,0,0,0,0,0,0,0,0,0,0,0,0,0,0,0,0,0,0,0,0,0,0,0,0,0,0,0,0,0,0,0,0,0,0,0,0,0,0,0,0,0,0,0,0,0,0,0,0,0,0,0,0,0,0,0,0,0,0,0,0,0,0,0,0,0,0,0,0,0,0,0,0,0,0,0,0,0,0,0,0,0,0,0,0,0,0,0,0,0,0,0,0,0,0,0,0,0,0,0,0,0,0,0],"sum_hessian":[4.719E3,1.253E3,3.466E3,3.65E2,8.88E2,2.902E3,5.64E2,1.62E2,2.03E2,7.1E1,8.17E2,2.421E3,4.81E2,3.85E2,1.79E2,1.58E2,4E0,6E0,1.97E2,3.8E1,3.3E1,7.59E2,5.8E1,1.72E2,2.249E3,4.28E2,5.3E1,3.51E2,3.4E1,1.24E2,5.5E1,1.56E2,2E0,2E0,2E0,4E0,2E0,1.85E2,1.2E1,5E0,3.3E1,2E0,3.1E1,7.46E2,1.3E1,4.3E1,1.5E1,4.5E1,1.27E2,1.01E2,2.148E3,3.15E2,1.13E2,4.7E1,6E0,4.7E1,3.04E2,2.9E1,5E0,1.08E2,1.6E1,5.1E1,4E0,3.6E1,1.2E2,1E0,1E0,1E0,1E0,1E0,1E0,1E0,3E0,1.48E2,3.7E1,3E0,9E0,4E0,1E0,2.6E1,7E0,1.1E1,2E1,6.8E2,6.6E1,8E0,5E0,4E1,3E0,1.3E1,2E0,4.3E1,2E0,4.2E1,8.5E1,4.5E1,5.6E1,1.3E3,8.48E2,1.5E2,1.65E2,3E1,8.3E1,1E1,3.7E1,1E0,5E0,1.8E1,2.9E1,2.36E2,6.8E1,1.1E1,1.8E1,6.4E1,4.4E1,4E0,1.2E1,2.2E1,2.9E1,1E0,3E0],"tree_param":{"num_deleted":"0","num_feature":"4","num_nodes":"121","size_leaf_vector":"1"}},{"base_weights":[-3.844706E-4,-5.1459543E-2,3.444206E-2,-1.3276096E-1,-3.2216307E-2,6.1473086E-2,-1.4237344E-2,-1.4834471E-1,-1.0298036E-1,-2.1785146E-2,-2.2348619E-1,5.2414786E-2,2.170392E-1,-1.4248882E-1,2.6512126E-2,1.0365798E-1,-1.5091956E-1,2.6272317E-2,-1.0949897E-1,5.3082116E-2,-3.3209387E-2,-1.2297444E-1,-4.2751157E-1,4.5395583E-2,2.2093065E-1,2.2735263E-1,-5.663241E-2,-3.244689E-1,-1.14214644E-1,-1.7358582E-4,1.8302178E-1,4.7265183E-2,-6.1908725E-4,-1.5497558E-1,-9.318681E-2,-1.0085107E-2,2.3433175E-2,-9.603084E-2,-2.5208578E-1,9.644148E-3,1.4394191E-1,-2.7511997E-2,-1.9593889E-1,-1.4571005E-1,9.590385E-2,-4.41165E-1,-1.292646E-2,1.4303368E-1,3.710538E-2,1.9127017E-1,3.941193E-1,3.1831175E-2,2.5458118E-1,-4.8726898E-1,-2.4989936E-1,-6.536772E-2,-2.3894964E-1,-5.9517108E-2,6.0829144E-2,2.4361387E-1,1.09588176E-1,-9.659901E-2,-4.5349535E-2,-3.9887507E-2,8.743941E-2,5.1212534E-3,-6.342542E-3,-7.718502E-2,-2.7698094E-2,-8.730805E-2,-1.9264305E-2,-7.637499E-3,2.2324763E-2,2.0481184E-2,6.4534515E-2,-8.999943E-3,8.399878E-2,8.119939E-2,-6.4047866E-2,-3.441159E-2,-9.992072E-2,-1.3669738E-1,-1.4000166E-2,2.2621738E-2,1.0063052E-1,-3.565242E-2,1.3630738E-2,6.2199112E-2,-5.489504E-2,3.246006E-2,1.2490025E-1,6.060216E-2,-2.9933918E-2,4.581193E-2,8.981183E-2,-1.6155203E-1,-6.158736E-2,2.6045842E-2,-8.0494225E-2,-3.531416E-2,6.720356E-3,-1.0220996E-1,-4.7833137E-2,-1.5060663E-2,-6.561115E-2,3.5274915E-2,5.4495E-3,7.832222E-2,-1.9881965E-4,7.4958615E-2,4.2326464E-3],"categories":[],"categories_nodes":[],"categories_segments":[],"categories_sizes":[],"default_left":[0,0,0,0,0,0,0,0,0,0,0,0,0,0,0,0,0,0,0,0,0,0,0,0,0,0,0,0,0,0,0,0,0,0,0,0,0,0,0,0,0,0,0,0,0,0,0,0,0,0,0,0,0,0,0,0,0,0,0,0,0,0,0,0,0,0,0,0,0,0,0,0,0,0,0,0,0,0,0,0,0,0,0,0,0,0,0,0,0,0,0,0,0,0,0,0,0,0,0,0,0,0,0,0,0,0,0,0,0,0,0],"id":8,"left_children":[1,3,5,7,9,11,13,15,17,19,21,23,25,27,29,31,33,35,37,39,41,43,45,47,49,51,-1,53,55,57,59,-1,-1,61,63,65,-1,67,69,71,73,75,77,79,-1,81,-1,83,85,87,89,91,93,95,97,99,101,103,105,107,109,-1,-1,-1,-1,-1,-1,-1,-1,-1,-1,-1,-1,-1,-1,-1,-1,-1,-1,-1,-1,-1,-1,-1,-1,-1,-1,-1,-1,-1,-1,-1,-1,-1,-1,-1,-1,-1,-1,-1,-1,-1,-1,-1,-1,-1,-1,-1,-1,-1,-1],"loss_changes":[8.397554E0,2.99018E0,3.6944785E0,1.5458202E-1,3.0856452E0,2.5321655E0,5.245636E0,1.7007494E-1,1.1156547E-1,1.2590561E0,1.5879824E0,2.0090904E0,4.572668E-1,1.2081127E0,3.182579E0,1.7417967E-2,4.0821552E-2,1.3980695E-2,2.1199846E-1,7.682309E-1,1.1776313E0,6.0010093E-1,1.1745691E-1,1.3221738E0,2.7392316E-1,5.0830126E-1,0E0,2.6670957E-1,1.2699866E0,2.3639367E0,4.6719718E-1,0E0,0E0,9.070301E-2,3.1411996E-1,1.8621846E-3,0E0,4.433298E-2,5.4471016E-2,3.042897E-1,3.2461703E-1,9.52436E-1,4.099877E-1,2.6967323E-1,0E0,1.216712E-1,0E0,1.6402037E0,1.9709387E0,3.9857292E-1,1.2117505E-2,3.1131744E-1,3.421502E-1,1.9480228E-2,1.7210877E-1,7.055745E-1,4.2297196E-1,4.7983003E-1,7.7754104E-1,2.5607944E-1,6.9292414E-1,0E0,0E0,0E0,0E0,0E0,0E0,0E0,0E0,0E0,0E0,0E0,0E0,0E0,0E0,0E0,0E0,0E0,0E0,0E0,0E0,0E0,0E0,0E0,0E0,0E0,0E0,0E0,0E0,0E0,0E0,0E0,0E0,0E0,0E0,0E0,0E0,0E0,0E0,0E0,0E0,0E0,0E0,0E0,0E0,0E0,0E0,0E0,0E0,0E0,0E0],"parents":[2147483647,0,0,1,1,2,2,3,3,4,4,5,5,6,6,7,7,8,8,9,9,10,10,11,11,12,12,13,13,14,14,15,15,16,16,17,17,18,18,19,19,20,20,21,21,22,22,23,23,24,24,25,25,27,27,28,28,29,29,30,30,33,33,34,34,35,35,37,37,38,38,39,39,40,40,41,41,42,42,43,43,45,45,47,47,48,48,49,49,50,50,51,51,52,52,53,53,54,54,55,55,56,56,57,57,58,58,59,59,60,60],"right_children":[2,4,6,8,10,12,14,16,18,20,22,24,26,28,30,32,34,36,38,40,42,44,46,48,50,52,-1,54,56,58,60,-1,-1,62,64,66,-1,68,70,72,74,76,78,80,-1,82,-1,84,86,88,90,92,94,96,98,100,102,104,106,108,110,-1,-1,-1,-1,-1,-1,-1,-1,-1,-1,-1,-1,-1,-1,-1,-1,-1,-1,-1,-1,-1,-1,-1,-1,-1,-1,-1,-1,-1,-1,-1,-1,-1,-1,-1,-1,-1,-1,-1,-1,-1,-1,-1,-1,-1,-1,-1,-1,-1,-1],"split_conditions":[-4.2308718E-1,-1.1513968E0,3.2204187E-1,-1.1989365E0,4.864701E-1,1.1761513E0,7.692107E-1,-3.297038E0,-2.8020945E0,-1.1578122E0,1.8765603E-1,7.326587E-1,2.516628E0,-1.1469172E0,2.509167E0,-8.063798E0,-4.524115E-2,-1.5740936E0,1.8765603E-1,-7.6245856E-1,6.534504E-1,1.4873369E0,1.8179364E0,-6.6452754E-1,1.7721211E0,-1.332027E0,-5.663241E-2,-2.0155091E0,1.1192448E0,9.320076E-1,1.8179364E0,4.7265183E-2,-6.1908725E-4,-5.3463113E-1,-5.000993E-1,-1.1913302E0,2.3433175E-2,-3.012254E0,1.352142E0,-9.4222164E-1,-1.0449076E0,7.0418024E-1,-3.297038E0,1.144183E0,9.590385E-2,2.3986464E0,-1.292646E-2,-4.3495667E-1,-8.4789383E-1,1.6724466E0,-8.2895577E-1,-5.000993E-1,-1.7124282E-1,1.4730395E0,-1.7592033E0,6.3298416E-1,1.4730395E0,2.9528935E0,1.3086113E0,3.4096303E0,1.3086113E0,-9.659901E-2,-4.5349535E-2,-3.9887507E-2,8.743941E-2,5.1212534E-3,-6.342542E-3,-7.718502E-2,-2.7698094E-2,-8.730805E-2,-1.9264305E-2,-7.637499E-3,2.2324763E-2,2.0481184E-2,6.4534515E-2,-8.999943E-3,8.399878E-2,8.119939E-2,-6.4047866E-2,-3.441159E-2,-9.992072E-2,-1.3669738E-1,-1.4000166E-2,2.2621738E-2,1.0063052E-1,-3.565242E-2,1.3630738E-2,6.2199112E-2,-5.489504E-2,3.246006E-2,1.2490025E-1,6.060216E-2,-2.9933918E-2,4.581193E-2,8.981183E-2,-1.6155203E-1,-6.158736E-2,2.6045842E-2,-8.0494225E-2,-3.531416E-2,6.720356E-3,-1.0220996E-1,-4.7833137E-2,-1.5060663E-2,-6.561115E-2,3.5274915E-2,5.4495E-3,7.832222E-2,-1.9881965E-4,7.4958615E-2,4.2326464E-3],"split_indices":[1,1,2,1,2,1,1,0,2,2,3,0,3,0,1,2,3,0,3,0,3,0,3,2,0,0,0,0,3,0,3,0,0,0,2,1,0,0,3,1,1,0,0,2,0,0,0,0,0,0,2,2,2,2,0,0,2,2,2,0,2,0,0,0,0,0,0,0,0,0,0,0,0,0,0,0,0,0,0,0,0,0,0,0,0,0,0,0,0,0,0,0,0,0,0,0,0,0,0,0,0,0,0,0,0,0,0,0,0,0,0],"split_type":[0,0,0,0,0,0,0,0,0,0,0,0,0,0,0,0,0,0,0,0,0,0,0,0,0,0,0,0,0,0,0,0,0,0,0,0,0,0,0,0,0,0,0,0,0,0,0,0,0,0,0,0,0,0,0,0,0,0,0,0,0,0,0,0,0,0,0,0,0,0,0,0,0,0,0,0,0,0,0,0,0,0,0,0,0,0,0,0,0,0,0,0,0,0,0,0,0,0,0,0,0,0,0,0,0,0,0,0,0,0,0],"sum_hessian":[4.719E3,1.913E3,2.806E3,3.65E2,1.548E3,1.804E3,1.002E3,2.37E2,1.28E2,1.469E3,7.9E1,1.706E3,9.8E1,2.41E2,7.61E2,2E0,2.35E2,6E0,1.22E2,1.94E2,1.275E3,5.4E1,2.5E1,1.639E3,6.7E1,9.6E1,2E0,3.1E1,2.1E2,6.51E2,1.1E2,1E0,1E0,2.18E2,1.7E1,4E0,2E0,1.13E2,9E0,1.32E2,6.2E1,1.233E3,4.2E1,5.2E1,2E0,2.4E1,1E0,1.27E2,1.512E3,5.9E1,8E0,1.2E1,8.4E1,8E0,2.3E1,1.52E2,5.8E1,3.3E2,3.21E2,5.9E1,5.1E1,3E0,2.15E2,1.6E1,1E0,1E0,3E0,1E0,1.12E2,7E0,2E0,8.6E1,4.6E1,3.1E1,3.1E1,1.224E3,9E0,1E0,4.1E1,4.6E1,6E0,2.3E1,1E0,9.5E1,3.2E1,7.6E1,1.436E3,5.7E1,2E0,1E0,7E0,5E0,7E0,2.7E1,5.7E1,6E0,2E0,1E0,2.2E1,9.5E1,5.7E1,2.4E1,3.4E1,3.13E2,1.7E1,1.37E2,1.84E2,5.5E1,4E0,2E1,3.1E1],"tree_param":{"num_deleted":"0","num_feature":"4","num_nodes":"111","size_leaf_vector":"1"}},{"base_weights":[-3.13726E-4,-4.5309935E-2,2.078447E-2,3.2543335E-2,-5.711092E-2,-1.2873012E-2,3.630336E-2,6.349769E-3,1.5096562E-1,-7.64937E-2,5.0721834E-3,-9.190519E-3,-4.2347264E-1,1.3006267E-1,2.7782915E-2,-2.8977452E-2,4.6641268E-2,-4.990937E-2,1.9583078E-1,-6.656111E-2,-1.8377744E-1,2.066484E-2,-1.5381993E-1,8.8517085E-2,-1.3959579E-2,-1.4017515E-1,-1.098749E-2,2.0706658E-1,9.7075954E-2,2.1145849E-2,1.20940275E-1,3.1933382E-2,-8.2791865E-2,1.03157796E-1,-2.7869562E-2,1.14669785E-1,9.372845E-2,-9.59262E-2,-4.4367906E-2,-2.3855613E-1,-1.2599877E-1,-1.9002311E-3,8.0573425E-2,-2.2633423E-1,-6.6078303E-4,1.21789835E-1,-3.1447362E-2,-6.454536E-2,2.8749753E-3,2.2908334E-1,-1.2541392E-1,7.071222E-2,1.19358204E-1,4.18953E-2,-3.18422E-2,9.848905E-2,2.601543E-1,-1.8193595E-2,2.5683636E-2,-1.5944764E-2,-6.619686E-2,-3.1802855E-2,4.3678533E-2,-3.4094173E-2,7.225214E-3,-2.4374272E-3,4.946016E-2,-4.321555E-2,-2.5007823E-2,-4.7011334E-2,-9.961828E-3,-3.3286266E-2,-8.248933E-2,2.727141E-2,-4.9088757E-2,9.4149355E-3,-1.4844319E-2,3.991958E-2,7.4009E-3,-4.617049E-2,-7.950643E-2,7.2259586E-3,-1.9930005E-2,1.5235546E-2,5.5915356E-2,3.3454206E-2,-5.075025E-2,-3.9587393E-2,-1.6174497E-2,-5.2681577E-4,1.1098513E-1,7.382257E-2,7.062879E-3,-3.8620236E-4,-4.99081E-2,3.0264199E-2,1.9312402E-2,3.0833324E-2,4.81879E-2,9.037261E-3,3.3158045E-2,-2.5481263E-2,6.056172E-3,4.045989E-2,6.6829314E-3,1.67593E-2,8.066557E-2],"categories":[],"categories_nodes":[],"categories_segments":[],"categories_sizes":[],"default_left":[0,0,0,0,0,0,0,0,0,0,0,0,0,0,0,0,0,0,0,0,0,0,0,0,0,0,0,0,0,0,0,0,0,0,0,0,0,0,0,0,0,0,0,0,0,0,0,0,0,0,0,0,0,0,0,0,0,0,0,0,0,0,0,0,0,0,0,0,0,0,0,0,0,0,0,0,0,0,0,0,0,0,0,0,0,0,0,0,0,0,0,0,0,0,0,0,0,0,0,0,0,0,0,0,0,0,0],"id":9,"left_children":[1,3,5,7,9,11,13,15,17,19,21,23,25,27,29,31,33,-1,35,37,39,41,43,45,47,-1,-1,49,51,53,55,57,59,61,63,-1,65,67,69,71,73,75,77,79,81,83,85,87,89,91,93,95,97,99,101,103,105,-1,-1,-1,-1,-1,-1,-1,-1,-1,-1,-1,-1,-1,-1,-1,-1,-1,-1,-1,-1,-1,-1,-1,-1,-1,-1,-1,-1,-1,-1,-1,-1,-1,-1,-1,-1,-1,-1,-1,-1,-1,-1,-1,-1,-1,-1,-1,-1,-1,-1],"loss_changes":[4.481821E0,1.3864083E0,1.6792253E0,6.163199E-1,1.5781016E0,1.5308185E0,1.7539029E0,2.3478697E-1,5.4511386E-1,1.0512428E0,7.761743E-1,4.704709E-1,1.3530517E-1,4.4473815E-1,1.245155E0,2.9109737E-1,3.271292E-1,0E0,5.7319975E-1,5.9205437E-1,2.3580551E-1,3.8542798E-1,3.108247E-1,1.9143274E-1,8.1856275E-1,0E0,0E0,4.2401838E-1,6.792748E-2,2.0738406E0,3.931979E-1,2.1391127E-1,1.8034554E-1,4.060004E-1,1.5425673E-1,0E0,1.607451E-1,2.2567272E-1,6.505753E-1,1.6461372E-1,3.658479E-1,3.3095193E-1,2.2560763E-1,1.2454867E-2,1.787709E-2,1.6023582E-1,2.354398E-1,1.6487473E-1,1.2280037E0,1.7232513E-1,2.0115994E-2,5.359888E-3,3.070414E-2,1.091332E0,1.4686134E0,3.2136714E-1,1.708436E-2,0E0,0E0,0E0,0E0,0E0,0E0,0E0,0E0,0E0,0E0,0E0,0E0,0E0,0E0,0E0,0E0,0E0,0E0,0E0,0E0,0E0,0E0,0E0,0E0,0E0,0E0,0E0,0E0,0E0,0E0,0E0,0E0,0E0,0E0,0E0,0E0,0E0,0E0,0E0,0E0,0E0,0E0,0E0,0E0,0E0,0E0,0E0,0E0,0E0,0E0],"parents":[2147483647,0,0,1,1,2,2,3,3,4,4,5,5,6,6,7,7,8,8,9,9,10,10,11,11,12,12,13,13,14,14,15,15,16,16,18,18,19,19,20,20,21,21,22,22,23,23,24,24,27,27,28,28,29,29,30,30,31,31,32,32,33,33,34,34,36,36,37,37,38,38,39,39,40,40,41,41,42,42,43,43,44,44,45,45,46,46,47,47,48,48,49,49,50,50,51,51,52,52,53,53,54,54,55,55,56,56],"right_children":[2,4,6,8,10,12,14,16,18,20,22,24,26,28,30,32,34,-1,36,38,40,42,44,46,48,-1,-1,50,52,54,56,58,60,62,64,-1,66,68,70,72,74,76,78,80,82,84,86,88,90,92,94,96,98,100,102,104,106,-1,-1,-1,-1,-1,-1,-1,-1,-1,-1,-1,-1,-1,-1,-1,-1,-1,-1,-1,-1,-1,-1,-1,-1,-1,-1,-1,-1,-1,-1,-1,-1,-1,-1,-1,-1,-1,-1,-1,-1,-1,-1,-1,-1,-1,-1,-1,-1,-1,-1],"split_conditions":[-2.071293E-1,-1.3222405E0,-4.0787446E-1,-5.752145E-1,4.307274E-1,1.144183E0,-3.3567107E-1,-1.0449076E0,-3.297038E0,4.864701E-1,2.2951806E0,-9.93384E-1,1.5850391E0,-5.000993E-1,2.3703508E0,-2.473238E0,-1.8155252E0,-4.990937E-2,-1.6510969E0,-9.9166304E-1,-2.3482963E-1,1.4423741E0,1.5469617E0,6.534504E-1,-8.623548E-1,-1.4017515E-1,-1.098749E-2,1.0696621E0,1.9156863E-1,8.153266E-1,3.0054822E0,-1.1418887E0,8.863476E-1,-3.012254E0,-1.8303994E0,1.14669785E-1,-1.8303994E0,-6.6452754E-1,-2.129423E0,-2.7813834E-1,-1.283405E-1,1.5761364E-1,6.5089834E-1,2.624037E0,2.2837307E0,-1.0772346E0,7.765493E-2,-3.3567107E-1,7.0418024E-1,9.320076E-1,-1.7865087E-1,1.378823E-1,9.2894435E-1,5.657404E-1,1.2025527E0,1.8179364E0,-9.321561E-2,-1.8193595E-2,2.5683636E-2,-1.5944764E-2,-6.619686E-2,-3.1802855E-2,4.3678533E-2,-3.4094173E-2,7.225214E-3,-2.4374272E-3,4.946016E-2,-4.321555E-2,-2.5007823E-2,-4.7011334E-2,-9.961828E-3,-3.3286266E-2,-8.248933E-2,2.727141E-2,-4.9088757E-2,9.4149355E-3,-1.4844319E-2,3.991958E-2,7.4009E-3,-4.617049E-2,-7.950643E-2,7.2259586E-3,-1.9930005E-2,1.5235546E-2,5.5915356E-2,3.3454206E-2,-5.075025E-2,-3.9587393E-2,-1.6174497E-2,-5.2681577E-4,1.1098513E-1,7.382257E-2,7.062879E-3,-3.8620236E-4,-4.99081E-2,3.0264199E-2,1.9312402E-2,3.0833324E-2,4.81879E-2,9.037261E-3,3.3158045E-2,-2.5481263E-2,6.056172E-3,4.045989E-2,6.6829314E-3,1.67593E-2,8.066557E-2],"split_indices":[0,2,1,1,1,2,2,1,0,2,2,2,3,2,1,2,2,0,2,1,1,1,1,3,1,0,0,1,0,2,1,1,3,0,0,0,0,2,0,3,1,2,2,2,3,1,0,2,0,0,0,1,1,1,0,3,0,0,0,0,0,0,0,0,0,0,0,0,0,0,0,0,0,0,0,0,0,0,0,0,0,0,0,0,0,0,0,0,0,0,0,0,0,0,0,0,0,0,0,0,0,0,0,0,0,0,0],"split_type":[0,0,0,0,0,0,0,0,0,0,0,0,0,0,0,0,0,0,0,0,0,0,0,0,0,0,0,0,0,0,0,0,0,0,0,0,0,0,0,0,0,0,0,0,0,0,0,0,0,0,0,0,0,0,0,0,0,0,0,0,0,0,0,0,0,0,0,0,0,0,0,0,0,0,0,0,0,0,0,0,0,0,0,0,0,0,0,0,0,0,0,0,0,0,0,0,0,0,0,0,0,0,0,0,0,0,0],"sum_hessian":[4.719E3,1.506E3,3.213E3,1.98E2,1.308E3,1.014E3,2.199E3,1.63E2,3.5E1,9.97E2,3.11E2,1.006E3,8E0,1.82E2,2.017E3,8.7E1,7.6E1,4E0,3.1E1,9.14E2,8.3E1,2.84E2,2.7E1,4.6E1,9.6E2,7E0,1E0,5.3E1,1.29E2,1.884E3,1.33E2,4.1E1,4.6E1,4.3E1,3.3E1,1E1,2.1E1,3.92E2,5.22E2,4.1E1,4.2E1,2.07E2,7.7E1,1.8E1,9E0,3.6E1,1E1,2.39E2,7.21E2,5E1,3E0,6.1E1,6.8E1,1.354E3,5.3E2,1.16E2,1.7E1,1.5E1,2.6E1,3.9E1,7E0,7E0,3.6E1,1.2E1,2.1E1,9E0,1.2E1,7.9E1,3.13E2,4.6E1,4.76E2,1E1,3.1E1,6E0,3.6E1,1.22E2,8.5E1,3.9E1,3.8E1,8E0,1E1,7E0,2E0,1.8E1,1.8E1,5E0,5E0,3.1E1,2.08E2,7.13E2,8E0,4.6E1,4E0,1E0,2E0,8E0,5.3E1,5.1E1,1.7E1,1.157E3,1.97E2,2.62E2,2.68E2,7.8E1,3.8E1,1E0,1.6E1],"tree_param":{"num_deleted":"0","num_feature":"4","num_nodes":"107","size_leaf_vector":"1"}},{"base_weights":[-2.3088671E-4,-3.698236E-2,1.3062041E-2,3.82915E-2,-4.52025E-2,1.6468398E-2,-8.7271154E-2,-1.1649363E-3,8.9460306E-2,-6.934734E-2,-2.561386E-2,-3.9668687E-2,2.2036245E-2,-1.7649755E-1,-3.2771073E-2,-1.0300698E-2,1.2148725E-1,-7.818201E-2,1.1609176E-1,-6.383126E-2,-1.648424E-1,1.2052156E-1,-2.6940405E-2,2.310084E-2,-1.292373E-1,7.454527E-2,1.6474973E-2,-9.0712756E-2,-2.0677835E-1,-1.9074757E-2,-1.3995728E-1,-4.158981E-2,2.9675534E-2,7.329417E-2,2.9702118E-2,7.3973835E-2,-1.412296E-1,1.2938268E-1,-7.429368E-2,-6.2338352E-2,-2.2590339E-1,-1.0978591E-1,-8.45635E-2,-1.0032379E-1,-1.8096708E-2,-6.868722E-2,4.832519E-2,-2.854653E-1,-7.906983E-2,8.49426E-2,-1.5733605E-2,1.0945728E-2,8.3590016E-2,-1.330539E-1,3.6438466E-3,-2.3769306E-1,-1.1808814E-1,-7.432122E-2,2.0400572E-3,-1.8351151E-1,2.4738355E-2,-8.97428E-2,-7.963196E-3,5.269919E-2,-4.242272E-3,1.3244405E-2,-2.0453364E-3,-3.8575085E-3,3.7145734E-2,-1.5202495E-2,-6.446777E-2,2.7373968E-2,8.973706E-2,-1.9373395E-2,2.917868E-2,1.1847176E-2,-9.825948E-2,-5.6132045E-2,-2.1461548E-2,9.750265E-4,-1.0316548E-1,-6.305735E-3,4.333363E-2,-5.1846642E-2,-1.0376343E-3,3.8451444E-2,6.526683E-3,-2.5024593E-2,-1.0654393E-1,-4.257364E-2,-1.3169961E-2,5.9699275E-2,2.2097522E-2,-7.570367E-2,5.5890055E-3,4.9940716E-3,-2.0710727E-2,3.2757204E-2,1.2688925E-2,8.1510545E-4,-5.1670123E-2,2.6904631E-2,-2.5082707E-2,-6.070823E-3,-7.4125364E-2,-3.811978E-3,-4.843093E-2,-3.7094712E-2,-1.1805967E-2,7.401104E-3,-2.2896828E-2,7.936818E-3,-6.687464E-2],"categories":[],"categories_nodes":[],"categories_segments":[],"categories_sizes":[],"default_left":[0,0,0,0,0,0,0,0,0,0,0,0,0,0,0,0,0,0,0,0,0,0,0,0,0,0,0,0,0,0,0,0,0,0,0,0,0,0,0,0,0,0,0,0,0,0,0,0,0,0,0,0,0,0,0,0,0,0,0,0,0,0,0,0,0,0,0,0,0,0,0,0,0,0,0,0,0,0,0,0,0,0,0,0,0,0,0,0,0,0,0,0,0,0,0,0,0,0,0,0,0,0,0,0,0,0,0,0,0,0,0,0,0],"id":10,"left_children":[1,3,5,7,9,11,13,15,17,19,21,23,25,27,29,31,33,35,37,39,41,-1,43,45,47,49,51,53,55,57,59,61,63,-1,65,67,69,71,-1,73,75,77,-1,79,81,83,85,87,89,91,93,95,97,99,101,103,105,107,109,111,-1,-1,-1,-1,-1,-1,-1,-1,-1,-1,-1,-1,-1,-1,-1,-1,-1,-1,-1,-1,-1,-1,-1,-1,-1,-1,-1,-1,-1,-1,-1,-1,-1,-1,-1,-1,-1,-1,-1,-1,-1,-1,-1,-1,-1,-1,-1,-1,-1,-1,-1,-1,-1],"loss_changes":[2.306367E0,7.7765787E-1,1.1863563E0,2.504526E-1,5.331471E-1,1.0492094E0,5.4858035E-1,8.08084E-2,2.5016245E-1,2.5601697E-1,3.6570382E-1,1.7065059E0,8.9000785E-1,9.294081E-2,1.03030406E-1,8.503919E-2,4.9111664E-2,8.719177E-2,2.5925833E-1,1.0205817E-1,1.4303058E-1,0E0,4.037973E-1,4.1775703E-1,9.571235E-1,2.7542484E-1,1.0236797E0,5.2421995E-2,5.692804E-2,7.5975336E-2,9.26307E-2,1.3931318E-1,1.9438487E-1,0E0,2.411243E-3,1.4576636E-2,2.9133447E-2,2.7047586E-1,0E0,1.7678297E-1,1.2082046E-1,4.576114E-2,0E0,1.691298E0,2.6856923E-1,2.6431197E-1,2.9634055E-1,3.927474E-1,2.0594555E-1,3.2254112E-1,2.5675738E-1,1.1648321E0,2.1738195E-1,4.834327E-2,4.503366E-2,3.992927E-2,4.3629795E-2,2.6182115E-2,8.7004825E-2,6.3812315E-2,0E0,0E0,0E0,0E0,0E0,0E0,0E0,0E0,0E0,0E0,0E0,0E0,0E0,0E0,0E0,0E0,0E0,0E0,0E0,0E0,0E0,0E0,0E0,0E0,0E0,0E0,0E0,0E0,0E0,0E0,0E0,0E0,0E0,0E0,0E0,0E0,0E0,0E0,0E0,0E0,0E0,0E0,0E0,0E0,0E0,0E0,0E0,0E0,0E0,0E0,0E0,0E0,0E0],"parents":[2147483647,0,0,1,1,2,2,3,3,4,4,5,5,6,6,7,7,8,8,9,9,10,10,11,11,12,12,13,13,14,14,15,15,16,16,17,17,18,18,19,19,20,20,22,22,23,23,24,24,25,25,26,26,27,27,28,28,29,29,30,30,31,31,32,32,34,34,35,35,36,36,37,37,39,39,40,40,41,41,43,43,44,44,45,45,46,46,47,47,48,48,49,49,50,50,51,51,52,52,53,53,54,54,55,55,56,56,57,57,58,58,59,59],"right_children":[2,4,6,8,10,12,14,16,18,20,22,24,26,28,30,32,34,36,38,40,42,-1,44,46,48,50,52,54,56,58,60,62,64,-1,66,68,70,72,-1,74,76,78,-1,80,82,84,86,88,90,92,94,96,98,100,102,104,106,108,110,112,-1,-1,-1,-1,-1,-1,-1,-1,-1,-1,-1,-1,-1,-1,-1,-1,-1,-1,-1,-1,-1,-1,-1,-1,-1,-1,-1,-1,-1,-1,-1,-1,-1,-1,-1,-1,-1,-1,-1,-1,-1,-1,-1,-1,-1,-1,-1,-1,-1,-1,-1,-1,-1],"split_conditions":[-7.045227E-1,-1.9799534E0,2.4596088E0,-1.0772346E0,-1.0449076E0,-8.4789383E-1,1.0335319E0,7.753763E-1,-3.012254E0,-1.0677267E0,-3.297038E0,-1.7124282E-1,-3.3567107E-1,2.624037E0,3.28175E0,4.2055324E-1,9.320076E-1,-2.6376662E0,-7.786848E-1,8.153266E-1,1.8765603E-1,1.2052156E-1,-5.0615275E-1,-2.54236E0,-1.8303994E0,1.352142E0,2.117439E0,7.882266E-1,8.8710934E-1,1.265526E0,3.4461782E0,-8.063798E0,-3.4598074E0,7.329417E-2,2.3986464E0,-2.8020945E0,6.534504E-1,-9.308121E-1,-7.429368E-2,1.0743997E0,-3.297038E0,-3.6376062E-1,-8.45635E-2,-5.000993E-1,7.326587E-1,6.534504E-1,-1.1578122E0,1.8765603E-1,2.063396E-1,-9.93384E-1,-4.2879197E-1,1.352142E0,1.6374677E0,-2.7832535E-1,8.6619186E-1,-1.209727E0,8.863476E-1,3.6243916E-1,2.2837307E0,-3.495214E-1,2.4738355E-2,-8.97428E-2,-7.963196E-3,5.269919E-2,-4.242272E-3,1.3244405E-2,-2.0453364E-3,-3.8575085E-3,3.7145734E-2,-1.5202495E-2,-6.446777E-2,2.7373968E-2,8.973706E-2,-1.9373395E-2,2.917868E-2,1.1847176E-2,-9.825948E-2,-5.6132045E-2,-2.1461548E-2,9.750265E-4,-1.0316548E-1,-6.305735E-3,4.333363E-2,-5.1846642E-2,-1.0376343E-3,3.8451444E-2,6.526683E-3,-2.5024593E-2,-1.0654393E-1,-4.257364E-2,-1.3169961E-2,5.9699275E-2,2.2097522E-2,-7.570367E-2,5.5890055E-3,4.9940716E-3,-2.0710727E-2,3.2757204E-2,1.2688925E-2,8.1510545E-4,-5.1670123E-2,2.6904631E-2,-2.5082707E-2,-6.070823E-3,-7.4125364E-2,-3.811978E-3,-4.843093E-2,-3.7094712E-2,-1.1805967E-2,7.401104E-3,-2.2896828E-2,7.936818E-3,-6.687464E-2],"split_indices":[1,2,2,1,1,0,1,0,0,1,0,2,2,2,2,3,0,2,1,2,3,0,0,0,0,3,1,1,1,1,2,2,2,0,0,2,3,1,0,0,0,0,0,2,0,3,2,3,1,2,1,3,2,0,1,3,3,0,3,0,0,0,0,0,0,0,0,0,0,0,0,0,0,0,0,0,0,0,0,0,0,0,0,0,0,0,0,0,0,0,0,0,0,0,0,0,0,0,0,0,0,0,0,0,0,0,0,0,0,0,0,0,0],"split_type":[0,0,0,0,0,0,0,0,0,0,0,0,0,0,0,0,0,0,0,0,0,0,0,0,0,0,0,0,0,0,0,0,0,0,0,0,0,0,0,0,0,0,0,0,0,0,0,0,0,0,0,0,0,0,0,0,0,0,0,0,0,0,0,0,0,0,0,0,0,0,0,0,0,0,0,0,0,0,0,0,0,0,0,0,0,0,0,0,0,0,0,0,0,0,0,0,0,0,0,0,0,0,0,0,0,0,0,0,0,0,0,0,0],"sum_hessian":[4.719E3,1.253E3,3.466E3,1.23E2,1.13E3,3.353E3,1.13E2,7E1,5.3E1,5.05E2,6.25E2,3.02E2,3.051E3,4.2E1,7.1E1,6.6E1,4E0,7E0,4.6E1,4.79E2,2.6E1,1E0,6.24E2,1.78E2,1.24E2,2.91E2,2.76E3,1.2E1,3E1,6.4E1,7E0,3.7E1,2.9E1,1E0,3E0,2E0,5E0,4.5E1,1E0,4.76E2,3E0,1.9E1,7E0,6.6E1,5.58E2,3.8E1,1.4E2,2.9E1,9.5E1,2.61E2,3E1,2.551E3,2.09E2,8E0,4E0,2.1E1,9E0,1.7E1,4.7E1,6E0,1E0,1E0,3.6E1,6E0,2.3E1,2E0,1E0,1E0,1E0,3E0,2E0,3.8E1,7E0,4.7E2,6E0,1E0,2E0,5E0,1.4E1,4.7E1,1.9E1,5.49E2,9E0,1.4E1,2.4E1,3.4E1,1.06E2,8E0,2.1E1,3.3E1,6.2E1,2.2E1,2.39E2,3E0,2.7E1,2.382E3,1.69E2,1.28E2,8.1E1,2E0,6E0,2E0,2E0,1E0,2E1,3E0,6E0,6E0,1.1E1,3.7E1,1E1,1E0,5E0],"tree_param":{"num_deleted":"0","num_feature":"4","num_nodes":"113","size_leaf_vector":"1"}},{"base_weights":[-2.8568506E-4,-1.3386187E-2,2.2199403E-2,-8.932856E-3,-9.9859945E-2,4.0076993E-2,-1.9409295E-2,-3.0168874E-2,3.611512E-3,-4.7847923E-2,-1.639388E-1,-4.8543434E-3,4.887364E-2,-3.1897414E-2,9.431767E-2,1.8324867E-2,-3.9580826E-2,1.955046E-3,1.7576899E-1,-5.5167012E-2,4.898311E-2,-2.501849E-1,-4.1035566E-2,5.6821287E-2,-3.8501386E-2,3.0870147E-2,6.824987E-2,-5.039898E-2,2.597613E-2,1.1698035E-1,-9.892636E-2,3.2318893E-3,1.7608257E-1,-3.4382205E-2,-1.6455361E-1,-2.2819411E-2,1.1251167E-2,3.8534287E-2,2.9347378E-1,-3.8480543E-2,-1.3820645E-1,-1.9950221E-1,-3.7214625E-1,1.0913994E-2,-2.3333628E-1,1.5220456E-2,1.07046664E-1,-5.3272918E-2,9.854034E-2,1.3067538E-1,2.6487105E-2,1.8185525E-1,3.746435E-2,-2.8199635E-2,-9.9543475E-2,1.0306469E-1,-2.4441227E-3,5.1849768E-2,1.354411E-1,-3.242881E-2,-7.961713E-3,-1.2742396E-2,5.1201656E-3,7.275078E-2,1.0810638E-2,-3.5878554E-2,-9.431325E-3,-6.668152E-2,2.9421574E-2,-4.970682E-3,-2.1055017E-2,2.3552105E-2,2.230501E-3,3.2985236E-2,7.2669506E-4,1.150094E-1,2.5580712E-2,-2.1746306E-2,1.4028292E-2,-8.179345E-2,1.9223725E-2,-7.34678E-2,-3.4437414E-2,-1.3943297E-1,-3.2499284E-4,1.1197032E-2,-5.327704E-2,-8.259484E-2,-3.5155716E-3,1.4891201E-2,-5.642442E-2,3.684126E-2,-2.5863243E-2,-3.4648616E-2,-9.5101455E-3,8.74743E-2,-1.7567309E-2,5.4486927E-2,-1.0636702E-2,1.4580595E-2,4.9370397E-3,2.0294191E-2,6.950244E-2,-3.488359E-2,1.30688865E-2,-1.3793714E-2,4.7699222E-3,-8.219163E-2,-1.9524982E-2,4.0758643E-2,-1.6870506E-2,-8.504687E-3,2.8666308E-2,4.211054E-2,2.024113E-3,4.890639E-2,1.7381614E-2],"categories":[],"categories_nodes":[],"categories_segments":[],"categories_sizes":[],"default_left":[0,0,0,0,0,0,0,0,0,0,0,0,0,0,0,0,0,0,0,0,0,0,0,0,0,0,0,0,0,0,0,0,0,0,0,0,0,0,0,0,0,0,0,0,0,0,0,0,0,0,0,0,0,0,0,0,0,0,0,0,0,0,0,0,0,0,0,0,0,0,0,0,0,0,0,0,0,0,0,0,0,0,0,0,0,0,0,0,0,0,0,0,0,0,0,0,0,0,0,0,0,0,0,0,0,0,0,0,0,0,0,0,0,0,0,0,0],"id":11,"left_children":[1,3,5,7,9,11,13,15,17,19,21,23,25,27,29,31,33,35,37,39,-1,41,43,45,47,49,51,53,55,57,59,61,63,65,67,69,71,73,75,77,79,81,83,85,87,89,91,93,95,97,99,101,103,105,107,109,111,113,115,-1,-1,-1,-1,-1,-1,-1,-1,-1,-1,-1,-1,-1,-1,-1,-1,-1,-1,-1,-1,-1,-1,-1,-1,-1,-1,-1,-1,-1,-1,-1,-1,-1,-1,-1,-1,-1,-1,-1,-1,-1,-1,-1,-1,-1,-1,-1,-1,-1,-1,-1,-1,-1,-1,-1,-1,-1,-1],"loss_changes":[1.3906484E0,1.1478503E0,1.2936122E0,7.5613064E-1,4.78755E-1,4.8085523E-1,7.457919E-1,4.8179287E-1,5.086902E-1,1.3571733E-1,6.787286E-1,4.172282E-1,3.5266304E-1,5.067037E-1,2.3930278E-1,4.0896863E-1,5.68015E-1,4.076687E-1,2.632953E-1,1.0553254E-1,0E0,1.6064668E-1,2.8226486E-1,1.4671932E-1,2.6841068E-1,2.2795016E-1,1.7034159E0,3.8776225E-1,2.5220272E-1,4.9488246E-2,1.1138394E-3,1.0063861E-1,1.307903E-1,2.0925939E-1,5.523373E-1,1.4182794E-1,3.297369E-1,2.294458E-2,1.357522E-1,2.0050937E-1,3.7100503E-1,8.339512E-2,3.4321332E-1,1.2112894E-1,5.2594543E-2,2.8921646E-1,1.08035356E-1,1.5472898E-1,4.113163E-1,1.9264749E-1,1.1188421E-1,5.760658E-1,3.6698574E-1,1.9517815E-1,6.493728E-1,1.6960356E-1,2.1849276E-1,4.6962135E-2,6.7505956E-2,0E0,0E0,0E0,0E0,0E0,0E0,0E0,0E0,0E0,0E0,0E0,0E0,0E0,0E0,0E0,0E0,0E0,0E0,0E0,0E0,0E0,0E0,0E0,0E0,0E0,0E0,0E0,0E0,0E0,0E0,0E0,0E0,0E0,0E0,0E0,0E0,0E0,0E0,0E0,0E0,0E0,0E0,0E0,0E0,0E0,0E0,0E0,0E0,0E0,0E0,0E0,0E0,0E0,0E0,0E0,0E0,0E0,0E0],"parents":[2147483647,0,0,1,1,2,2,3,3,4,4,5,5,6,6,7,7,8,8,9,9,10,10,11,11,12,12,13,13,14,14,15,15,16,16,17,17,18,18,19,19,21,21,22,22,23,23,24,24,25,25,26,26,27,27,28,28,29,29,30,30,31,31,32,32,33,33,34,34,35,35,36,36,37,37,38,38,39,39,40,40,41,41,42,42,43,43,44,44,45,45,46,46,47,47,48,48,49,49,50,50,51,51,52,52,53,53,54,54,55,55,56,56,57,57,58,58],"right_children":[2,4,6,8,10,12,14,16,18,20,22,24,26,28,30,32,34,36,38,40,-1,42,44,46,48,50,52,54,56,58,60,62,64,66,68,70,72,74,76,78,80,82,84,86,88,90,92,94,96,98,100,102,104,106,108,110,112,114,116,-1,-1,-1,-1,-1,-1,-1,-1,-1,-1,-1,-1,-1,-1,-1,-1,-1,-1,-1,-1,-1,-1,-1,-1,-1,-1,-1,-1,-1,-1,-1,-1,-1,-1,-1,-1,-1,-1,-1,-1,-1,-1,-1,-1,-1,-1,-1,-1,-1,-1,-1,-1,-1,-1,-1,-1,-1,-1],"split_conditions":[9.9850476E-2,4.864701E-1,1.3086113E0,-2.071293E-1,4.2055324E-1,-5.631096E-1,2.897019E0,-1.4866687E0,1.159835E0,2.5267992E0,1.4730395E0,-5.000993E-1,-1.7124282E-1,2.159274E0,2.4596088E0,-5.219699E-1,1.1192448E0,-5.1103556E-1,-1.0677267E0,-2.1010894E-1,4.898311E-2,7.765493E-2,8.038547E-1,6.4180404E-1,1.9691149E0,-6.6452754E-1,1.5761364E-1,1.352142E0,1.1192448E0,1.8765603E-1,1.6363364E0,-2.54236E0,-1.6510969E0,-2.54236E0,1.5850391E0,2.0580783E-1,-6.6452754E-1,1.2595094E0,-1.283405E-1,-7.330466E-1,-1.8048197E-2,-4.776743E-1,9.7472525E-1,2.2951806E0,1.9663242E0,1.352142E0,-6.4854485E-1,-1.4744191E0,4.864701E-1,5.657404E-1,-3.3567107E-1,2.728953E-1,2.5768256E-1,1.4176534E0,1.6374677E0,2.1307523E0,2.8704693E0,1.4730395E0,1.1192448E0,-3.242881E-2,-7.961713E-3,-1.2742396E-2,5.1201656E-3,7.275078E-2,1.0810638E-2,-3.5878554E-2,-9.431325E-3,-6.668152E-2,2.9421574E-2,-4.970682E-3,-2.1055017E-2,2.3552105E-2,2.230501E-3,3.2985236E-2,7.2669506E-4,1.150094E-1,2.5580712E-2,-2.1746306E-2,1.4028292E-2,-8.179345E-2,1.9223725E-2,-7.34678E-2,-3.4437414E-2,-1.3943297E-1,-3.2499284E-4,1.1197032E-2,-5.327704E-2,-8.259484E-2,-3.5155716E-3,1.4891201E-2,-5.642442E-2,3.684126E-2,-2.5863243E-2,-3.4648616E-2,-9.5101455E-3,8.74743E-2,-1.7567309E-2,5.4486927E-2,-1.0636702E-2,1.4580595E-2,4.9370397E-3,2.0294191E-2,6.950244E-2,-3.488359E-2,1.30688865E-2,-1.3793714E-2,4.7699222E-3,-8.219163E-2,-1.9524982E-2,4.0758643E-2,-1.6870506E-2,-8.504687E-3,2.8666308E-2,4.211054E-2,2.024113E-3,4.890639E-2,1.7381614E-2],"split_indices":[1,2,2,0,3,0,0,2,0,0,2,2,2,1,2,1,3,3,1,1,0,0,0,1,1,2,2,3,3,3,1,0,2,0,3,0,2,0,1,1,1,0,0,2,2,3,0,0,2,1,2,1,1,1,2,2,1,2,3,0,0,0,0,0,0,0,0,0,0,0,0,0,0,0,0,0,0,0,0,0,0,0,0,0,0,0,0,0,0,0,0,0,0,0,0,0,0,0,0,0,0,0,0,0,0,0,0,0,0,0,0,0,0,0,0,0,0],"split_type":[0,0,0,0,0,0,0,0,0,0,0,0,0,0,0,0,0,0,0,0,0,0,0,0,0,0,0,0,0,0,0,0,0,0,0,0,0,0,0,0,0,0,0,0,0,0,0,0,0,0,0,0,0,0,0,0,0,0,0,0,0,0,0,0,0,0,0,0,0,0,0,0,0,0,0,0,0,0,0,0,0,0,0,0,0,0,0,0,0,0,0,0,0,0,0,0,0,0,0,0,0,0,0,0,0,0,0,0,0,0,0,0,0,0,0,0,0],"sum_hessian":[4.719E3,2.982E3,1.737E3,2.837E3,1.45E2,1.215E3,5.22E2,1.053E3,1.784E3,8.1E1,6.4E1,1.99E2,1.016E3,4.71E2,5.1E1,1.71E2,8.82E2,1.768E3,1.6E1,7.9E1,2E0,3.7E1,2.7E1,7E1,1.29E2,5.28E2,4.88E2,3.57E2,1.14E2,4.6E1,5E0,1.57E2,1.4E1,8.48E2,3.4E1,4.82E2,1.286E3,8E0,8E0,6.7E1,1.2E1,2.8E1,9E0,2.2E1,5E0,3.9E1,3.1E1,1.17E2,1.2E1,2.1E1,5.07E2,1.03E2,3.85E2,2.47E2,1.1E2,3E1,8.4E1,1.1E1,3.5E1,4E0,1E0,3.6E1,1.21E2,9E0,5E0,2.7E1,8.21E2,2.8E1,6E0,4.27E2,5.5E1,6.8E1,1.218E3,2E0,6E0,5E0,3E0,4.8E1,1.9E1,7E0,5E0,1.7E1,1.1E1,7E0,2E0,2E1,2E0,4E0,1E0,3.4E1,5E0,2.9E1,2E0,2.9E1,8.8E1,5E0,7E0,1.6E1,5E0,1.57E2,3.5E2,3.2E1,7.1E1,1.4E1,3.71E2,1.76E2,7.1E1,1.7E1,9.3E1,2.5E1,5E0,6.7E1,1.7E1,3E0,8E0,2.5E1,1E1],"tree_param":{"num_deleted":"0","num_feature":"4","num_nodes":"117","size_leaf_vector":"1"}},{"base_weights":[-2.2113437E-4,-3.3198886E-2,4.498012E-3,2.177686E-2,-4.003387E-2,4.1031692E-2,8.278742E-4,-4.6131607E-2,6.430963E-2,-3.0064683E-2,-8.220196E-2,-2.2801312E-2,5.2238703E-2,-1.4555544E-1,3.6893378E-3,8.543469E-2,-6.700698E-2,2.4471197E-1,4.362755E-2,1.3648297E-1,-3.397715E-2,-2.399318E-1,-6.958163E-2,1.3610363E-1,-8.279364E-2,6.1780993E-2,-2.045207E-2,-3.4930247E-1,-1.1823957E-1,1.8666678E-3,7.17732E-2,1.1601408E-2,4.604018E-2,3.5207048E-2,-9.7355716E-2,8.712116E-2,1.6145451E-2,6.309049E-2,-1.3758007E-1,3.4351274E-2,3.6333984E-1,-4.9132194E-2,-1.6890073E-2,-1.41425375E-2,-7.926195E-2,-7.449061E-2,1.0415417E-1,4.055119E-2,1.23786956E-1,-8.911177E-2,-2.3646468E-2,1.6125873E-1,5.641395E-2,2.0844685E-1,-8.844001E-2,-1.7267442E-1,-5.338378E-2,1.7806353E-2,-1.4042206E-1,8.506783E-3,-1.8762372E-2,8.048562E-2,-1.4873385E-1,9.4867945E-3,-4.266161E-3,2.961299E-2,-6.366571E-3,-5.9754156E-2,-8.953481E-3,1.2872932E-2,6.262908E-2,-1.1523817E-2,-6.5262325E-2,-1.9831248E-2,2.3656135E-2,1.5308923E-1,1.0413708E-2,2.3526462E-2,-1.5020534E-2,-3.591353E-2,-3.235221E-3,-1.9300833E-2,-6.279472E-2,4.125996E-2,5.60942E-3,-2.4316099E-2,2.5541404E-2,8.160861E-2,-1.2254885E-2,3.3704042E-2,6.2325053E-2,-3.276036E-4,2.0452674E-2,6.771659E-2,1.0536898E-2,-4.1288592E-2,7.110034E-3,4.998087E-2,-2.0929204E-2,-6.5813035E-2,-2.8184595E-2,1.652371E-3,4.859344E-2,-1.0687862E-2,1.3142163E-2,2.7392725E-2,-2.7501825E-2,-6.580507E-2,-1.5623498E-2],"categories":[],"categories_nodes":[],"categories_segments":[],"categories_sizes":[],"default_left":[0,0,0,0,0,0,0,0,0,0,0,0,0,0,0,0,0,0,0,0,0,0,0,0,0,0,0,0,0,0,0,0,0,0,0,0,0,0,0,0,0,0,0,0,0,0,0,0,0,0,0,0,0,0,0,0,0,0,0,0,0,0,0,0,0,0,0,0,0,0,0,0,0,0,0,0,0,0,0,0,0,0,0,0,0,0,0,0,0,0,0,0,0,0,0,0,0,0,0,0,0,0,0,0,0,0,0,0,0],"id":12,"left_children":[1,3,5,7,9,11,13,15,17,19,21,23,25,27,29,31,33,35,37,39,41,43,45,47,49,51,53,55,57,59,61,63,-1,65,67,-1,-1,69,71,73,75,77,79,-1,-1,81,83,85,-1,-1,87,89,91,93,95,-1,-1,97,99,101,103,105,107,-1,-1,-1,-1,-1,-1,-1,-1,-1,-1,-1,-1,-1,-1,-1,-1,-1,-1,-1,-1,-1,-1,-1,-1,-1,-1,-1,-1,-1,-1,-1,-1,-1,-1,-1,-1,-1,-1,-1,-1,-1,-1,-1,-1,-1,-1],"loss_changes":[7.34708E-1,2.2294492E-1,5.5373144E-1,1.9359683E-1,2.1864927E-1,2.7088827E-1,1.572977E0,7.7133596E-2,1.4229871E-1,2.8287584E-1,1.8236542E-1,5.5465394E-1,2.2392076E-1,3.5941672E-1,4.5690575E-1,1.8311836E-2,7.477513E-2,1.9260198E-2,1.4269966E-1,2.1921164E-1,1.074135E-1,2.0304292E-2,8.792782E-2,4.060215E-1,5.2520084E-1,1.4253092E-1,6.0980487E-1,2.0777261E-1,1.9865978E-1,4.9164104E-1,1.9640136E-1,2.0006532E-3,0E0,2.359523E-2,1.1779234E-1,0E0,0E0,9.393458E-2,2.3361742E-2,4.097671E-2,1.2716922E-1,3.0318797E-2,1.2301929E-1,0E0,0E0,1.12488925E-1,5.985718E-3,7.7386394E-2,0E0,0E0,1.8405473E-1,8.495748E-3,1.8336904E-1,1.9019663E-2,1.6874239E-1,0E0,0E0,1.4192455E-1,1.8487036E-1,1.2486655E0,9.23773E-1,1.8166202E-1,1.5878461E-2,0E0,0E0,0E0,0E0,0E0,0E0,0E0,0E0,0E0,0E0,0E0,0E0,0E0,0E0,0E0,0E0,0E0,0E0,0E0,0E0,0E0,0E0,0E0,0E0,0E0,0E0,0E0,0E0,0E0,0E0,0E0,0E0,0E0,0E0,0E0,0E0,0E0,0E0,0E0,0E0,0E0,0E0,0E0,0E0,0E0,0E0],"parents":[2147483647,0,0,1,1,2,2,3,3,4,4,5,5,6,6,7,7,8,8,9,9,10,10,11,11,12,12,13,13,14,14,15,15,16,16,17,17,18,18,19,19,20,20,21,21,22,22,23,23,24,24,25,25,26,26,27,27,28,28,29,29,30,30,31,31,33,33,34,34,37,37,38,38,39,39,40,40,41,41,42,42,45,45,46,46,47,47,50,50,51,51,52,52,53,53,54,54,57,57,58,58,59,59,60,60,61,61,62,62],"right_children":[2,4,6,8,10,12,14,16,18,20,22,24,26,28,30,32,34,36,38,40,42,44,46,48,50,52,54,56,58,60,62,64,-1,66,68,-1,-1,70,72,74,76,78,80,-1,-1,82,84,86,-1,-1,88,90,92,94,96,-1,-1,98,100,102,104,106,108,-1,-1,-1,-1,-1,-1,-1,-1,-1,-1,-1,-1,-1,-1,-1,-1,-1,-1,-1,-1,-1,-1,-1,-1,-1,-1,-1,-1,-1,-1,-1,-1,-1,-1,-1,-1,-1,-1,-1,-1,-1,-1,-1,-1,-1,-1],"split_conditions":[-1.0449076E0,-2.3088098E0,-5.000993E-1,-1.1418887E0,-1.1095617E0,-2.54236E0,-1.4744191E0,-9.768299E-1,-3.130951E0,-2.4426856E0,-1.1019553E0,-9.098946E-1,1.352142E0,-7.6157045E-1,2.7403874E0,-4.491959E-1,-1.8303994E0,-1.7592033E0,8.863476E-1,-2.54236E0,-1.1989365E0,-1.8155252E0,1.5727721E0,-1.6510969E0,-6.398686E-1,-2.1443815E0,-1.4744191E0,-2.129423E0,-4.524115E-2,4.864701E-1,1.5850391E0,-1.0187644E0,4.604018E-2,-1.1913302E0,-1.2616891E0,8.712116E-2,1.6145451E-2,2.7700388E-1,-1.6452897E0,-3.012254E0,-1.1418887E0,-2.1443815E0,-1.7592033E0,-1.41425375E-2,-7.926195E-2,3.9091757E-1,2.3986464E0,-3.297038E0,1.23786956E-1,-8.911177E-2,-5.86624E-1,-9.574344E-1,-9.0228826E-1,-1.5740936E0,9.2894435E-1,-1.7267442E-1,-5.338378E-2,1.5761364E-1,-8.540239E-3,9.320076E-1,2.117439E0,2.4596088E0,2.897019E0,9.4867945E-3,-4.266161E-3,2.961299E-2,-6.366571E-3,-5.9754156E-2,-8.953481E-3,1.2872932E-2,6.262908E-2,-1.1523817E-2,-6.5262325E-2,-1.9831248E-2,2.3656135E-2,1.5308923E-1,1.0413708E-2,2.3526462E-2,-1.5020534E-2,-3.591353E-2,-3.235221E-3,-1.9300833E-2,-6.279472E-2,4.125996E-2,5.60942E-3,-2.4316099E-2,2.5541404E-2,8.160861E-2,-1.2254885E-2,3.3704042E-2,6.2325053E-2,-3.276036E-4,2.0452674E-2,6.771659E-2,1.0536898E-2,-4.1288592E-2,7.110034E-3,4.998087E-2,-2.0929204E-2,-6.5813035E-2,-2.8184595E-2,1.652371E-3,4.859344E-2,-1.0687862E-2,1.3142163E-2,2.7392725E-2,-2.7501825E-2,-6.580507E-2,-1.5623498E-2],"split_indices":[1,2,2,1,1,0,0,3,2,0,1,1,3,1,0,0,0,0,3,0,1,2,0,2,1,2,0,0,3,2,3,0,0,1,1,0,0,0,0,0,1,2,0,0,0,0,0,0,0,0,1,1,1,0,1,0,0,2,1,0,1,2,0,0,0,0,0,0,0,0,0,0,0,0,0,0,0,0,0,0,0,0,0,0,0,0,0,0,0,0,0,0,0,0,0,0,0,0,0,0,0,0,0,0,0,0,0,0,0],"split_type":[0,0,0,0,0,0,0,0,0,0,0,0,0,0,0,0,0,0,0,0,0,0,0,0,0,0,0,0,0,0,0,0,0,0,0,0,0,0,0,0,0,0,0,0,0,0,0,0,0,0,0,0,0,0,0,0,0,0,0,0,0,0,0,0,0,0,0,0,0,0,0,0,0,0,0,0,0,0,0,0,0,0,0,0,0,0,0,0,0,0,0,0,0,0,0,0,0,0,0,0,0,0,0,0,0,0,0,0,0],"sum_hessian":[4.719E3,5.9E2,4.129E3,6.5E1,5.25E2,3.76E2,3.753E3,2.5E1,4E1,4.26E2,9.9E1,5.6E1,3.2E2,7.1E1,3.682E3,3E0,2.2E1,3E0,3.7E1,9E0,4.17E2,6E0,9.3E1,1.5E1,4.1E1,2.83E2,3.7E1,7E0,6.4E1,3.587E3,9.5E1,2E0,1E0,5E0,1.7E1,2E0,1E0,3.4E1,3E0,7E0,2E0,2.2E2,1.97E2,1E0,5E0,9.1E1,2E0,1.2E1,3E0,8E0,3.3E1,1.3E1,2.7E2,8E0,2.9E1,2E0,5E0,9E0,5.5E1,2.714E3,8.73E2,9.2E1,3E0,1E0,1E0,2E0,3E0,6E0,1.1E1,3.1E1,3E0,2E0,1E0,2E0,5E0,1E0,1E0,1E0,2.19E2,1E1,1.87E2,8.6E1,5E0,1E0,1E0,3E0,9E0,1E0,3.2E1,8E0,5E0,4.6E1,2.24E2,7E0,1E0,2E1,9E0,3E0,6E0,1.9E1,3.6E1,2.663E3,5.1E1,6.88E2,1.85E2,8.7E1,5E0,1E0,2E0],"tree_param":{"num_deleted":"0","num_feature":"4","num_nodes":"109","size_leaf_vector":"1"}},{"base_weights":[-1.4175994E-4,-8.641703E-3,1.4447119E-2,-6.2685777E-3,-7.175713E-2,2.5697678E-2,-1.1738595E-2,-2.2282312E-2,1.5551335E-3,1.9071823E-4,-1.1754502E-1,-1.8170604E-3,3.3036835E-2,5.474287E-3,-4.4292625E-2,-1.7381375E-1,-2.1452589E-2,3.9174734E-3,-5.0491106E-2,5.882992E-2,-3.6737323E-2,-2.1988486E-3,-1.4313678E-1,-4.7136992E-2,2.1653358E-2,3.0506073E-2,1.1618557E-1,-1.4115728E-2,4.654635E-2,-9.141579E-2,-2.1893946E-2,-8.286631E-2,-7.915665E-2,-1.8791893E-2,-5.6401923E-2,2.8256231E-3,1.372988E-1,4.8774285E-3,-1.1151843E-1,-4.691921E-2,1.20776646E-1,-1.0020568E-1,5.0948605E-2,1.2085212E-1,-7.031618E-2,-1.701088E-1,-7.4490546E-3,-1.6034521E-1,-3.056741E-2,1.3917893E-1,6.8202056E-3,3.217699E-2,-2.3301321E-1,1.368164E-1,-4.180348E-2,-9.2873625E-2,-1.1150998E-3,-3.5934635E-2,7.7538505E-2,-6.891568E-2,-1.8128759E-1,-7.4094094E-2,8.7782135E-3,-3.0998478E-2,-1.0997011E-2,-8.443624E-3,-1.7120874E-3,2.666808E-2,-2.0162879E-2,-5.185294E-2,1.0199186E-3,5.7995627E-3,5.3531524E-2,1.1011144E-2,-3.305559E-2,-6.521344E-2,-1.1792244E-2,2.5686568E-2,-7.56544E-2,4.713923E-2,-3.6414694E-2,-4.897645E-2,-5.0249062E-3,3.2742947E-2,2.4625317E-3,-2.9474117E-2,8.990017E-2,-1.0817717E-2,-3.8043223E-2,-9.659679E-2,-4.29222E-2,-1.8313034E-2,7.2721383E-3,-1.3389273E-2,-7.4800596E-2,-6.068907E-3,-2.4209967E-2,1.18039455E-2,6.2462218E-2,-1.0803248E-2,1.6473116E-2,8.139548E-3,2.4190512E-2,-3.4275766E-2,-9.4106905E-2,2.2066105E-2,4.4686317E-2,2.5408424E-2,-3.366034E-2,-1.0182433E-1,-1.707172E-2,3.8781005E-3,-1.9750144E-2,-3.050639E-3,-6.2193554E-2,3.179132E-2,-1.0587919E-3,-3.6771066E-2,-3.0462153E-3,-9.224823E-2,-2.8657014E-2,-4.4274483E-2,1.4525639E-2,5.9100334E-3,-6.027971E-2],"categories":[],"categories_nodes":[],"categories_segments":[],"categories_sizes":[],"default_left":[0,0,0,0,0,0,0,0,0,0,0,0,0,0,0,0,0,0,0,0,0,0,0,0,0,0,0,0,0,0,0,0,0,0,0,0,0,0,0,0,0,0,0,0,0,0,0,0,0,0,0,0,0,0,0,0,0,0,0,0,0,0,0,0,0,0,0,0,0,0,0,0,0,0,0,0,0,0,0,0,0,0,0,0,0,0,0,0,0,0,0,0,0,0,0,0,0,0,0,0,0,0,0,0,0,0,0,0,0,0,0,0,0,0,0,0,0,0,0,0,0,0,0,0,0],"id":13,"left_children":[1,3,5,7,9,11,13,15,17,19,21,23,25,27,29,31,33,35,37,39,41,43,45,47,49,51,53,55,57,59,61,-1,63,65,67,69,71,73,75,77,79,81,83,85,87,89,91,93,95,97,99,101,103,105,107,109,111,113,115,117,119,121,123,-1,-1,-1,-1,-1,-1,-1,-1,-1,-1,-1,-1,-1,-1,-1,-1,-1,-1,-1,-1,-1,-1,-1,-1,-1,-1,-1,-1,-1,-1,-1,-1,-1,-1,-1,-1,-1,-1,-1,-1,-1,-1,-1,-1,-1,-1,-1,-1,-1,-1,-1,-1,-1,-1,-1,-1,-1,-1,-1,-1,-1,-1],"loss_changes":[5.8542675E-1,4.463464E-1,5.123233E-1,3.6035958E-1,3.5581112E-1,2.4561292E-1,2.9330486E-1,1.1495945E-1,2.378619E-1,9.5274776E-2,1.9451141E-1,2.7438587E-1,1.9846821E-1,2.7663565E-1,1.8904346E-1,2.6603132E-2,8.635032E-2,2.6903206E-1,2.843794E-1,1.17030546E-1,1.5536796E-1,1.17462605E-1,1.9636047E-1,1.6017021E-1,2.9540747E-1,4.1831475E-1,9.698385E-2,2.3846562E-1,2.865315E-1,1.0478976E-1,1.9918573E-1,0E0,3.2149442E-4,1.0693079E-1,1.096147E-1,1.8575257E-1,6.934714E-2,1.688356E-1,2.9722464E-1,2.120319E-1,1.1591117E-1,8.14548E-2,2.8951036E-2,2.2533268E-1,1.2845397E-2,1.3870442E-1,1.8463522E-2,1.02143675E-1,3.8791396E-2,1.2274206E-1,3.150597E-1,2.2468853E-1,2.1647304E-2,8.240908E-3,4.512356E-2,2.7331463E-1,1.8351716E-1,1.3477789E-1,1.8707612E-1,1.5009113E-1,8.969119E-2,4.2129138E-1,1.849029E-1,0E0,0E0,0E0,0E0,0E0,0E0,0E0,0E0,0E0,0E0,0E0,0E0,0E0,0E0,0E0,0E0,0E0,0E0,0E0,0E0,0E0,0E0,0E0,0E0,0E0,0E0,0E0,0E0,0E0,0E0,0E0,0E0,0E0,0E0,0E0,0E0,0E0,0E0,0E0,0E0,0E0,0E0,0E0,0E0,0E0,0E0,0E0,0E0,0E0,0E0,0E0,0E0,0E0,0E0,0E0,0E0,0E0,0E0,0E0,0E0,0E0,0E0],"parents":[2147483647,0,0,1,1,2,2,3,3,4,4,5,5,6,6,7,7,8,8,9,9,10,10,11,11,12,12,13,13,14,14,15,15,16,16,17,17,18,18,19,19,20,20,21,21,22,22,23,23,24,24,25,25,26,26,27,27,28,28,29,29,30,30,32,32,33,33,34,34,35,35,36,36,37,37,38,38,39,39,40,40,41,41,42,42,43,43,44,44,45,45,46,46,47,47,48,48,49,49,50,50,51,51,52,52,53,53,54,54,55,55,56,56,57,57,58,58,59,59,60,60,61,61,62,62],"right_children":[2,4,6,8,10,12,14,16,18,20,22,24,26,28,30,32,34,36,38,40,42,44,46,48,50,52,54,56,58,60,62,-1,64,66,68,70,72,74,76,78,80,82,84,86,88,90,92,94,96,98,100,102,104,106,108,110,112,114,116,118,120,122,124,-1,-1,-1,-1,-1,-1,-1,-1,-1,-1,-1,-1,-1,-1,-1,-1,-1,-1,-1,-1,-1,-1,-1,-1,-1,-1,-1,-1,-1,-1,-1,-1,-1,-1,-1,-1,-1,-1,-1,-1,-1,-1,-1,-1,-1,-1,-1,-1,-1,-1,-1,-1,-1,-1,-1,-1,-1,-1,-1,-1,-1,-1],"split_conditions":[9.9850476E-2,1.1192448E0,1.3086113E0,-5.1103556E-1,-6.6452754E-1,-3.6376062E-1,1.352142E0,-2.54236E0,4.864701E-1,-1.7592033E0,-1.1133649E0,6.534504E-1,2.686015E0,1.7865621E0,1.5469617E0,-1.1019553E0,2.0580783E-1,1.159835E0,4.2055324E-1,-2.670513E0,-7.6245856E-1,-1.2181133E0,1.6374677E0,-2.0155091E0,-8.2895577E-1,2.516628E0,1.5727721E0,1.4730395E0,1.2595094E0,1.4766027E0,1.801896E0,-8.286631E-2,-3.297038E0,-8.927803E-1,-1.1095617E0,-4.1175203E0,-8.2895577E-1,-1.283405E-1,1.144183E0,-3.012254E0,-6.939117E-2,-7.2734183E-1,-3.625876E-2,1.352142E0,1.8179364E0,-1.4744191E0,-4.5161107E-1,-2.670513E0,6.5089834E-1,-2.3714895E0,9.7458255E-1,1.9857093E0,3.4937296E-2,4.2055324E-1,1.8179364E0,3.6797488E-1,2.7884653E0,1.159835E0,1.9663242E0,1.0031065E0,1.5850391E0,2.7658818E0,2.5267992E0,-3.0998478E-2,-1.0997011E-2,-8.443624E-3,-1.7120874E-3,2.666808E-2,-2.0162879E-2,-5.185294E-2,1.0199186E-3,5.7995627E-3,5.3531524E-2,1.1011144E-2,-3.305559E-2,-6.521344E-2,-1.1792244E-2,2.5686568E-2,-7.56544E-2,4.713923E-2,-3.6414694E-2,-4.897645E-2,-5.0249062E-3,3.2742947E-2,2.4625317E-3,-2.9474117E-2,8.990017E-2,-1.0817717E-2,-3.8043223E-2,-9.659679E-2,-4.29222E-2,-1.8313034E-2,7.2721383E-3,-1.3389273E-2,-7.4800596E-2,-6.068907E-3,-2.4209967E-2,1.18039455E-2,6.2462218E-2,-1.0803248E-2,1.6473116E-2,8.139548E-3,2.4190512E-2,-3.4275766E-2,-9.4106905E-2,2.2066105E-2,4.4686317E-2,2.5408424E-2,-3.366034E-2,-1.0182433E-1,-1.707172E-2,3.8781005E-3,-1.9750144E-2,-3.050639E-3,-6.2193554E-2,3.179132E-2,-1.0587919E-3,-3.6771066E-2,-3.0462153E-3,-9.224823E-2,-2.8657014E-2,-4.4274483E-2,1.4525639E-2,5.9100334E-3,-6.027971E-2],"split_indices":[1,3,2,3,2,0,3,0,2,0,1,3,1,1,1,1,0,0,3,0,0,0,2,0,2,3,0,2,0,1,2,0,0,1,1,2,2,1,2,0,1,1,0,3,3,0,1,0,2,0,1,0,0,3,3,1,2,0,2,1,3,1,0,0,0,0,0,0,0,0,0,0,0,0,0,0,0,0,0,0,0,0,0,0,0,0,0,0,0,0,0,0,0,0,0,0,0,0,0,0,0,0,0,0,0,0,0,0,0,0,0,0,0,0,0,0,0,0,0,0,0,0,0,0,0],"split_type":[0,0,0,0,0,0,0,0,0,0,0,0,0,0,0,0,0,0,0,0,0,0,0,0,0,0,0,0,0,0,0,0,0,0,0,0,0,0,0,0,0,0,0,0,0,0,0,0,0,0,0,0,0,0,0,0,0,0,0,0,0,0,0,0,0,0,0,0,0,0,0,0,0,0,0,0,0,0,0,0,0,0,0,0,0,0,0,0,0,0,0,0,0,0,0,0,0,0,0,0,0,0,0,0,0,0,0,0,0,0,0,0,0,0,0,0,0,0,0,0,0,0,0,0,0],"sum_hessian":[4.719E3,2.982E3,1.737E3,2.875E3,1.07E2,1.215E3,5.22E2,9.43E2,1.932E3,4.2E1,6.5E1,2.56E2,9.59E2,3.42E2,1.8E2,4E0,9.39E2,1.849E3,8.3E1,1.6E1,2.6E1,1.2E1,5.3E1,8.7E1,1.69E2,9.32E2,2.7E1,2.32E2,1.1E2,5.7E1,1.23E2,1E0,3E0,8.74E2,6.5E1,1.835E3,1.4E1,4.4E1,3.9E1,6E0,1E1,1.5E1,1.1E1,4E0,8E0,4.4E1,9E0,1E1,7.7E1,1.8E1,1.51E2,9.27E2,5E0,2.4E1,3E0,3.2E1,2E2,3E1,8E1,4.7E1,1E1,4.5E1,7.8E1,1E0,2E0,5.09E2,3.65E2,4E0,6.1E1,5E0,1.83E3,4E0,1E1,3.5E1,9E0,1.5E1,2.4E1,4E0,2E0,9E0,1E0,8E0,7E0,4E0,7E0,2E0,2E0,6E0,2E0,5E0,3.9E1,3E0,6E0,5E0,5E0,6.5E1,1.2E1,8E0,1E1,8E1,7.1E1,8.41E2,8.6E1,3E0,2E0,5E0,1.9E1,1E0,2E0,3E0,2.9E1,1.65E2,3.5E1,2.7E1,3E0,5.9E1,2.1E1,2.4E1,2.3E1,3E0,7E0,2.8E1,1.7E1,7.5E1,3E0],"tree_param":{"num_deleted":"0","num_feature":"4","num_nodes":"125","size_leaf_vector":"1"}},{"base_weights":[-2.9124654E-4,-1.0010135E-2,6.662526E-3,-8.831713E-3,-1.3048862E-1,1.4042294E-2,-7.740302E-3,-9.619023E-3,1.0078522E-1,-1.7428726E-2,-2.3049966E-1,9.372772E-3,5.6534752E-2,-4.3437384E-2,3.1391734E-3,-8.559855E-3,-8.426752E-2,4.2149324E-2,7.105129E-2,1.8369067E-2,-4.4355433E-2,-8.007156E-2,-1.69755E-2,6.383033E-3,1.10633634E-1,6.627582E-2,-2.9765785E-1,3.0737624E-3,-8.589557E-2,-7.971941E-3,3.1064969E-2,2.6152316E-2,-1.0308872E-2,4.065157E-2,-1.601406E-1,6.37576E-2,-1.1017585E-2,-7.798648E-3,3.595908E-2,-1.8833632E-2,-5.0058365E-3,2.359641E-1,5.6575215E-3,2.2767964E-1,4.865333E-2,8.361192E-2,3.2333182E-3,-2.0989521E-1,-2.2246987E-2,-1.5890114E-1,1.2761518E-2,-1.9325402E-1,-5.812231E-2,-4.275543E-3,-1.2252407E-1,5.5575214E-2,-8.42055E-3,-1.0807816E-2,1.5357803E-2,-6.5054223E-3,-1.6527371E-3,8.394419E-2,-1.3075818E-2,-5.761152E-2,1.5818585E-2,3.1741172E-2,7.53014E-3,1.6331634E-2,-2.9219985E-3,5.552566E-3,-7.805193E-3,1.04642436E-1,3.6165327E-2,-1.9553833E-2,2.3852312E-3,7.2421536E-2,3.2696666E-3,-9.22099E-3,3.3632603E-2,1.811542E-2,5.1811505E-2,2.0930365E-2,-2.6092267E-2,1.1603648E-2,-1.6634561E-2,-6.361303E-2,-1.052332E-2,1.0773541E-2,-2.281132E-2,-7.922161E-2,-2.2435019E-2,1.4064189E-3,-3.1958442E-2,-2.4379245E-3,2.7970396E-2,-1.2460197E-1,-6.90059E-3,4.381983E-2,1.1442492E-2,-2.5318244E-2,1.1199605E-2],"categories":[],"categories_nodes":[],"categories_segments":[],"categories_sizes":[],"default_left":[0,0,0,0,0,0,0,0,0,0,0,0,0,0,0,0,0,0,0,0,0,0,0,0,0,0,0,0,0,0,0,0,0,0,0,0,0,0,0,0,0,0,0,0,0,0,0,0,0,0,0,0,0,0,0,0,0,0,0,0,0,0,0,0,0,0,0,0,0,0,0,0,0,0,0,0,0,0,0,0,0,0,0,0,0,0,0,0,0,0,0,0,0,0,0,0,0,0,0,0,0],"id":14,"left_children":[1,3,5,7,9,11,13,15,17,19,21,23,25,27,29,31,33,35,-1,37,39,-1,-1,41,43,45,47,49,51,53,55,57,59,61,63,65,-1,-1,67,-1,69,71,73,75,77,79,81,-1,83,85,87,89,91,93,95,97,99,-1,-1,-1,-1,-1,-1,-1,-1,-1,-1,-1,-1,-1,-1,-1,-1,-1,-1,-1,-1,-1,-1,-1,-1,-1,-1,-1,-1,-1,-1,-1,-1,-1,-1,-1,-1,-1,-1,-1,-1,-1,-1,-1,-1],"loss_changes":[3.1905818E-1,2.7839535E-1,2.9261744E-1,1.6934547E-1,2.1082023E-1,3.6059353E-1,3.624814E-1,1.5250714E-1,1.0170321E-1,1.0453936E-2,4.8211694E-2,4.9609596E-1,6.407662E-1,4.3076587E-1,2.2241294E-1,1.1635128E-1,2.624159E-1,2.1089306E-2,0E0,4.8366403E-3,4.035444E-3,0E0,0E0,2.6433402E-1,3.2988638E-1,1.920821E-1,5.3800076E-1,1.66791E-1,3.2868075E-1,2.1669585E-1,1.9789913E-1,1.4508538E-1,9.9309474E-2,2.338072E-1,1.2555695E-1,1.1972778E-2,0E0,0E0,3.908252E-3,0E0,1.9637586E-3,2.3069143E-2,2.589711E-1,4.497564E-2,1.646528E-1,2.7514595E-1,2.401428E-1,0E0,1.0236008E-2,3.2043546E-2,2.0830342E-1,1.7321849E-1,2.8021514E-1,1.8775627E-1,4.5671272E-1,1.9320384E-1,2.7775353E-1,0E0,0E0,0E0,0E0,0E0,0E0,0E0,0E0,0E0,0E0,0E0,0E0,0E0,0E0,0E0,0E0,0E0,0E0,0E0,0E0,0E0,0E0,0E0,0E0,0E0,0E0,0E0,0E0,0E0,0E0,0E0,0E0,0E0,0E0,0E0,0E0,0E0,0E0,0E0,0E0,0E0,0E0,0E0,0E0],"parents":[2147483647,0,0,1,1,2,2,3,3,4,4,5,5,6,6,7,7,8,8,9,9,10,10,11,11,12,12,13,13,14,14,15,15,16,16,17,17,19,19,20,20,23,23,24,24,25,25,26,26,27,27,28,28,29,29,30,30,31,31,32,32,33,33,34,34,35,35,38,38,40,40,41,41,42,42,43,43,44,44,45,45,46,46,48,48,49,49,50,50,51,51,52,52,53,53,54,54,55,55,56,56],"right_children":[2,4,6,8,10,12,14,16,18,20,22,24,26,28,30,32,34,36,-1,38,40,-1,-1,42,44,46,48,50,52,54,56,58,60,62,64,66,-1,-1,68,-1,70,72,74,76,78,80,82,-1,84,86,88,90,92,94,96,98,100,-1,-1,-1,-1,-1,-1,-1,-1,-1,-1,-1,-1,-1,-1,-1,-1,-1,-1,-1,-1,-1,-1,-1,-1,-1,-1,-1,-1,-1,-1,-1,-1,-1,-1,-1,-1,-1,-1,-1,-1,-1,-1,-1,-1],"split_conditions":[-4.0216967E-1,1.144183E0,4.864701E-1,1.159835E0,-5.0615275E-1,9.7458255E-1,7.692107E-1,1.352142E0,-8.927803E-1,1.801896E0,1.6374677E0,8.8929E-1,2.0426662E0,9.189414E-2,1.8717955E0,-2.1443815E0,-1.1133649E0,-1.0772346E0,7.105129E-2,1.3086113E0,-1.6452897E0,-8.007156E-2,-1.69755E-2,-1.6510969E0,4.2055324E-1,5.7602733E-1,2.3274503E0,-2.0155091E0,4.051568E-1,1.7721211E0,8.863476E-1,-1.1247745E0,-2.7832535E-1,-1.2181133E0,3.2204187E-1,1.8765603E-1,-1.1017585E-2,-7.798648E-3,-2.129423E0,-1.8833632E-2,-1.4744191E0,-2.812905E0,-2.129423E0,2.6264737E0,-1.7124282E-1,2.4852547E-1,1.4423741E0,-2.0989521E-1,3.0109324E0,1.4730395E0,2.2951806E0,1.4730395E0,4.2055324E-1,3.0054822E0,9.797548E-1,9.797548E-1,1.6895809E0,-1.0807816E-2,1.5357803E-2,-6.5054223E-3,-1.6527371E-3,8.394419E-2,-1.3075818E-2,-5.761152E-2,1.5818585E-2,3.1741172E-2,7.53014E-3,1.6331634E-2,-2.9219985E-3,5.552566E-3,-7.805193E-3,1.04642436E-1,3.6165327E-2,-1.9553833E-2,2.3852312E-3,7.2421536E-2,3.2696666E-3,-9.22099E-3,3.3632603E-2,1.811542E-2,5.1811505E-2,2.0930365E-2,-2.6092267E-2,1.1603648E-2,-1.6634561E-2,-6.361303E-2,-1.052332E-2,1.0773541E-2,-2.281132E-2,-7.922161E-2,-2.2435019E-2,1.4064189E-3,-3.1958442E-2,-2.4379245E-3,2.7970396E-2,-1.2460197E-1,-6.90059E-3,4.381983E-2,1.1442492E-2,-2.5318244E-2,1.1199605E-2],"split_indices":[1,2,2,0,0,1,1,3,1,2,2,0,0,0,0,2,1,1,0,2,0,0,0,2,3,0,0,0,0,0,3,1,0,0,2,3,0,0,0,0,0,0,0,0,2,0,1,0,0,2,2,2,3,1,2,2,1,0,0,0,0,0,0,0,0,0,0,0,0,0,0,0,0,0,0,0,0,0,0,0,0,0,0,0,0,0,0,0,0,0,0,0,0,0,0,0,0,0,0,0,0],"split_type":[0,0,0,0,0,0,0,0,0,0,0,0,0,0,0,0,0,0,0,0,0,0,0,0,0,0,0,0,0,0,0,0,0,0,0,0,0,0,0,0,0,0,0,0,0,0,0,0,0,0,0,0,0,0,0,0,0,0,0,0,0,0,0,0,0,0,0,0,0,0,0,0,0,0,0,0,0,0,0,0,0,0,0,0,0,0,0,0,0,0,0,0,0,0,0,0,0,0,0,0,0],"sum_hessian":[4.719E3,1.968E3,2.751E3,1.95E3,1.8E1,1.819E3,9.32E2,1.937E3,1.3E1,9E0,9E0,1.64E3,1.79E2,2.17E2,7.15E2,1.911E3,2.6E1,1E1,3E0,4E0,5E0,7E0,2E0,1.594E3,4.6E1,1.75E2,4E0,1.04E2,1.13E2,5.12E2,2.03E2,9.1E1,1.82E3,1E1,1.6E1,8E0,2E0,1E0,3E0,3E0,2E0,4E0,1.59E3,1.5E1,3.1E1,1.37E2,3.8E1,1E0,3E0,5E0,9.9E1,2.2E1,9.1E1,4.97E2,1.5E1,1.25E2,7.8E1,2.6E1,6.5E1,5.39E2,1.281E3,2E0,8E0,1.4E1,2E0,3E0,5E0,2E0,1E0,1E0,1E0,1E0,3E0,4.9E1,1.541E3,1.4E1,1E0,1.4E1,1.7E1,1.1E2,2.7E1,2.2E1,1.6E1,1E0,2E0,3E0,2E0,7.9E1,2E1,1.3E1,9E0,4E1,5.1E1,4.79E2,1.8E1,3E0,1.2E1,1.9E1,1.06E2,2.9E1,4.9E1],"tree_param":{"num_deleted":"0","num_feature":"4","num_nodes":"101","size_leaf_vector":"1"}},{"base_weights":[-2.456929E-4,-6.361733E-3,5.852341E-3,-4.925055E-3,-5.1244587E-2,7.41391E-2,4.4652275E-3,-6.141645E-3,3.544119E-2,1.7033093E-2,-7.914583E-2,9.342308E-2,-1.0653094E-1,-1.886805E-2,7.8770835E-3,-3.837577E-3,-4.085851E-2,5.410664E-3,9.662132E-2,9.048052E-2,-4.0775165E-2,-3.8258901E-3,-1.2610123E-1,1.0970716E-2,1.3284938E-1,-2.9473456E-3,-3.847543E-2,6.70199E-2,-2.7386963E-2,2.2620257E-2,3.5723564E-3,-8.033701E-3,1.5038498E-2,-3.4320414E-2,-9.708983E-2,5.7783414E-2,-1.3198042E-1,2.0939185E-1,-5.9642497E-2,2.7444351E-2,1.2793057E-1,-9.4666496E-2,6.438426E-2,7.92287E-2,-2.8028658E-2,-2.0221455E-1,-3.7349477E-2,7.645702E-2,-1.8823089E-1,6.1120704E-2,6.492877E-2,1.8459687E-2,1.6208926E-1,-9.354283E-2,-1.0798007E-2,2.6425494E-2,-6.649128E-2,7.5086094E-2,2.12766E-3,-1.9567676E-3,-1.5475003E-2,3.2692138E-2,2.8505358E-3,8.203745E-3,-1.2318092E-2,9.213644E-3,7.5941965E-2,-5.596737E-2,1.1237499E-2,2.323641E-3,7.360522E-2,-2.4503917E-2,2.0803876E-2,-4.023641E-3,1.7745817E-2,4.224034E-2,9.536666E-3,-4.326467E-2,1.5751041E-2,2.995366E-2,2.2384704E-3,-1.2643568E-2,8.470866E-2,8.042234E-3,-3.3058677E-2,-3.1803254E-2,-1.08275875E-1,8.04938E-3,-2.7074728E-2,5.2931547E-2,-1.5879253E-2,-1.1609052E-2,-6.755299E-2,-8.307963E-2,2.9867178E-2,1.803635E-2,-2.4548115E-2,5.785809E-2,-1.2611858E-2,-4.093925E-2,-1.0261544E-2,4.660782E-3,-1.1404646E-2,-4.3940726E-3,1.0770156E-2,-2.3943312E-2,9.3453275E-3,2.672208E-2,-2.5546515E-2,1.2040636E-4,1.7806608E-2],"categories":[],"categories_nodes":[],"categories_segments":[],"categories_sizes":[],"default_left":[0,0,0,0,0,0,0,0,0,0,0,0,0,0,0,0,0,0,0,0,0,0,0,0,0,0,0,0,0,0,0,0,0,0,0,0,0,0,0,0,0,0,0,0,0,0,0,0,0,0,0,0,0,0,0,0,0,0,0,0,0,0,0,0,0,0,0,0,0,0,0,0,0,0,0,0,0,0,0,0,0,0,0,0,0,0,0,0,0,0,0,0,0,0,0,0,0,0,0,0,0,0,0,0,0,0,0,0,0,0,0],"id":15,"left_children":[1,3,5,7,9,11,13,15,17,19,